6 64 4 

-0.04909999674589019 -0.05309442514799702 -0.24807166324829638 0.6723873136885081 -0.4633287457345647 2.1422442102860306 0.27402431857348386 -0.849487929015141 1.1364102277892671 0.35989493623101626 0.9394727505799303 1.146349127665503 1.1521013410473613 -0.5950011700352577 -0.23005614646359113 -0.5864366517765718 0.61447751094083 1.0916465217228772 -0.3146282965868381 0.8667259069873183 1.4801864395090305 -0.9879957777602869 0.005577407525948314 0.8796457519577682 0.6194267178419269 0.46636410176798143 -0.050773426182827 -0.19317968153913417 0.255677988640667 0.19323364423502984 -0.7103838723313597 -0.5204269229211415 -0.39998464689527896 0.5594197804567294 1.430265843398428 0.49427763132979985 1.4451315194429557 -0.058500528790088734 0.0951027868037831 -0.937003558115405 -0.49496956600824277 0.0456601084049494 0.7428437926814154 0.618408506172028 -0.19420206385044195 0.38356493835592304 -2.0805841858046756 -0.04439007277694348 -0.8122209961359936 1.7174687109814477 0.5130727836154866 0.37231191525833585 -1.17360726743307 0.2207610923373558 1.0742590240321077 -1.164279884186263 -0.46596766179601473 -0.10373128444576739 1.4365732088480048 0.501622572055417 0.7214603364678914 -0.03950177140551245 -1.3062716612571625 0.1849514247035092 
-1.6017949273642493 -0.1543994219226701 0.5711846940383921 2.742125889779164 0.22214714817865588 0.7530342908444851 -0.5797192823890004 -0.4253817232492625 -0.8601356644012123 2.124927067002608 0.36922803025031253 0.4329119602311167 -0.6306336171035314 -0.444934724141689 -0.28820407172931883 -0.32850581976829857 0.14085556899711357 0.08540927902541394 -0.3341824584266161 1.8775832512758484 0.3665546120511267 0.5560268189750305 -0.0020448328131020084 -5.614308286636248 -2.2089490557718476 -1.2600076779919942 -0.713202247372077 -0.6964669295958233 -0.589518129957954 1.1149858988919656 -0.10543952995319322 -0.07229080229853846 1.1617771815371074 1.762404305703259 -1.048744898406374 -0.7638559880279013 -0.4613001214375505 -0.7973785469409578 -0.5358531934944634 0.31384293392554424 0.4911434206539536 0.6464763743054607 0.2686715883685705 -1.0376350233798068 -0.32744226705779383 4.903623056235022 1.2284817824253924 -0.2155457138611683 2.0312373070261436 -0.012487511364348319 -1.2227582557918413 0.1062546209749418 0.4469766946177277 -0.016290801540890635 -1.424141781743054 0.3038944325205919 -0.027593266807470263 -2.3595767398539222 -0.768149368474228 0.12852843851451948 0.3542006211482231 0.839612381710866 -0.3254341546684748 0.485810091813996 
0.8677402133223808 -0.1615960469692536 0.4572505182855284 -0.16022817834736722 1.8913277929121755 0.7653630611884485 -0.1379062514199058 0.005654941873644064 0.057149446132331194 -0.9592046111727949 0.8415175785845657 -3.0317600784616365 -2.056344416206397 -0.9964165111503234 -0.05533136685979915 -0.002101753068255418 0.08835207747107911 1.010390415513596 -0.10793150407472966 -0.10416655088783487 -3.4587082852854762 -1.1584690123033596 0.8062008579075283 0.848391301411908 -2.9669925006267803 1.119340181260349 0.7721694198077744 1.3278870152059936 0.09363620054887463 0.5822453948837868 -1.6104111003099624 0.9808374505394579 -4.347629972541572 -0.10738283313836529 0.04704481849829446 0.19929368310565354 -0.2935766066614364 0.020155644563650103 -0.11364829708544817 -1.5085499084505947 -0.015802904326965947 -1.1784625673858764 0.17091625004953043 0.7086054141198839 0.38011336681455093 -1.0685292423215083 1.2298925571003343 -0.6015381966860669 -0.5327743279151577 -1.5189715115023277 0.47577424475070434 0.604283908038139 0.7251796097450947 -0.6821667560793369 -1.3273967697614366 -1.679265700720136 -2.385312770566172 0.11122569610567877 0.4652414595234346 -0.6094421281108995 0.28540209148141 -2.222243056573873 1.2311965235740077 -0.5889377213866708 
0.2956017478397398 -0.07611568458182552 0.8188217469161752 -0.9210668583899283 -1.0613491108624409 -0.34150382439659116 1.4000328999962668 -0.11917595797834468 1.1980059325511374 -0.5768990435187119 0.3625634289748814 0.950270479577194 -0.2285874394742505 -1.259657832882997 -0.5150640558182762 0.9612964190982257 -0.01909522781710646 -0.05454623613349046 0.14796461174545616 -0.4021328031894333 2.470688826031541 0.22984364888383518 1.1571562254011158 0.5933659143860355 0.8490291084395463 0.46856478623984377 0.6787354090044215 1.2188717424174398 -1.6006831746291121 0.3739614805513275 -3.4303772350878146 -0.6729857200138253 0.7379209153548163 -0.3604229828860003 0.44219509347730634 -1.129205957627762 0.06452174774090155 -1.0166479348929236 -0.3742100188025829 0.4057665639262443 -0.3995571687705022 -0.5024187680751926 0.16038327196663485 4.145636361189178 1.1644603115287206 0.6968033710080914 -0.029314858176503526 0.5417635353483776 0.9671639367352364 0.8022168017288831 -1.050576587681331 1.5489551807585722 -0.023081712303500354 -0.0304216842318694 -1.2293966462346986 2.6234987005478523 -2.7276424009932594 0.48059369274524605 -1.088478041195936 0.7253688689396217 -0.0815328769624025 0.4742834579338209 0.44379904734231257 0.3045549521625765 
-0.7824968360178446 -1.1290186193165856 -2.2141182830606376 -0.3265952315644032 0.561683759556942 -0.02010970539102276 -1.1672543510498063 -0.2988815655213377 0.1616128566885505 1.3541127261549213 -0.06871388005944892 -0.3333294460631053 7.711881796397322 1.513019146161211 5.75961657780292 0.4955509482088216 -0.004332765417273775 -0.6725096132756699 -1.8692423853184361 0.6741875008414222 -1.70949593675795 1.6906255318218804 -0.06434353726770149 0.23369326106471966 0.27508135242731274 1.5453951711221203 0.2114644510502981 -1.5121806839910967 -12.615853701920075 -0.5368488622322538 -2.1231810861414466 0.9385597801422577 -1.157947214619175 0.35782461566364093 -2.5601769668933145 -0.054548788156749295 0.18761056158838701 0.11147319505062064 1.344322805615772 0.08964357276995553 -1.057469670089486 -1.3287415558797206 -2.5143748238682675 -2.4552952858020958 -1.674809167992414 0.059198806345688165 -0.6339374438045557 -0.2116467896049117 -1.356664313728893 0.057166952302818846 0.537837845169625 0.5471123003529311 -0.19809539121624326 -2.0417966639921743 0.3287798765269904 0.9147819610614201 -0.09708272080094359 -0.4691204297771348 0.04763998279498806 -0.05358158389580139 0.20037068916961365 -0.5285983211005268 0.1285499995808601 -0.4720336390189281 
0.1387490523777624 2.062997804256714 -0.6281540599205099 0.5442582293824003 0.028986222048026585 -0.5558874630930379 2.4228235599508983 0.9005143838933263 0.5163498198403305 -1.0304905358825935 -0.9972113487437604 1.821878848798965 -0.2197924459369364 -1.5642046387191915 0.36613884073994296 -0.7735540249155737 -0.48026913136632843 2.2187875957350607 -0.8029019583647959 1.6058809532472813 0.9245071096043735 -0.10196800825481214 -0.2660636061608182 -0.3665993572422158 -0.4875204017882286 0.2710875012261014 -1.4598546496236238 -0.14696655203166206 1.2649048129669598 -0.8755944530396547 -1.2701592289622807 1.3163849047240306 -1.861398603452513 -0.4019897712353294 0.4286485500668753 -0.43038145391491683 0.0642835129148181 0.675066415180116 -0.4891223683830823 -1.423241434161626 -0.9088082977330689 -1.3383111422575815 -0.1449770339780805 -0.024928681514784418 0.6836792689359138 0.7770031886856641 1.022039750875122 0.10272714045148244 0.44092492393570304 -1.0482262137999314 -1.1781303698185839 -0.12130304802524522 0.4999832138209749 -0.6895833948829494 0.8836920456387298 0.7107904864505736 -0.5157868585573993 -1.0505079366902634 -0.6882170251226121 -1.9993117878801743 -0.4760516314034435 -5.174341084793946 -0.8841098888461799 -0.1104536593041872 

0.7449852661362725 0.26946233597164776 0.061899560472183125 1.5042055002117378 0.223557011086404 -9.504886383387566 0.9189888485598382 0.342569901656764 1.0114512224302423 1.0036582893606796 0.7720570880499618 0.8450584188186919 1.2897772087465302 0.3964732517573876 -0.7099951475184216 -1.2211932877459475 -0.7767540315780762 0.012971505765602628 2.2729507966923284 0.6063048389433492 0.2745512380278846 0.04460455268267947 -0.02459588949928764 1.7578814670514864 0.504233696614971 -0.615918357806287 0.41991547355057063 2.1896488046567226 2.67882327956872 0.0827060711719833 0.29202921713686175 -0.22036185321475865 -0.5379353380150688 1.2842050321833607 -0.4314778053435107 -0.10436341951850486 0.12202177594970044 -1.6194122392284294 -0.40429370139213994 -0.31847884103609725 -0.2811881067021357 -0.5276932049258759 -0.663185417138723 2.2502399166776854 0.8511773178426872 -0.019927958164229827 -0.5988939199374548 -0.06817420062649959 0.34373592915219614 -2.0785965525698358 0.05426040335842525 -0.3251381660422451 -0.442521077174051 -0.542205665277869 0.3029368869611308 0.04796187707798308 -0.5656402896911789 0.22795708629686742 0.8693547450650162 -0.37689367948611385 -0.2877399433639933 0.25651845626855735 -0.7188635621559477 1.2971609409275864 
0.8510979784402456 0.5887939144776145 0.22590176162832296 -0.4471396726453046 2.0128502533804014 1.4599045039015748 -0.37729800108862965 -0.11949490887006473 0.781339369790248 -0.7832294477164419 0.43261504810403867 -1.2760059780505824 0.37264084604751757 0.7662090644668975 1.9772116971001965 -0.58539597356602 10.067526415016474 -0.9296192882712795 0.5312108589094849 0.8751603352686121 -0.3062670753154679 -0.9591018530669432 -0.3113771451113878 -0.4819497039983445 0.3130756221557809 -1.3341903178320347 0.24826901077569374 2.043456212445102 -0.37127465045816754 -0.45397764840121624 -0.06042974342022805 0.2667017430193753 0.7858943613674534 0.06815611595738352 0.28863180600648436 -0.5839699043150857 -2.525207750646547 -1.243589406173689 1.588768553603307 -1.1770509386063646 1.2674152534509315 0.06808632228800827 -0.2573827313490105 0.5210427104894793 -0.11330558100673217 -0.5341091034781186 0.1356794519402084 0.025330829079755087 -1.8171170186372434 0.48129456946149785 -0.879214043364121 1.608004217184992 -1.77883506319899 0.05367060085473883 1.7116795615926395 1.7443771699424044 -0.37171837280598674 -1.2160309774367306 0.08833704718319547 -0.3018752119555893 -0.4064507602570607 -0.1832628551425121 -1.0212281322628494 0.8534498492726518 
0.1325530895387458 -0.49663127355819936 -0.6555159714143577 -0.8708307297308676 -0.37348692630026953 0.49557666300622666 -1.5647706169931201 1.0203276700676414 0.2750934944489075 0.17879271386529322 -0.12454925398382695 0.5187332444552207 -0.2475089021342485 0.31735621417043774 1.0397989930676828 -0.5746052998395496 0.6831130219900691 0.1966683229210351 -0.14943457439082566 0.2394495256470461 0.03561610583696847 -0.15533446637694373 -1.2012568304980429 0.9156953621130011 0.3255731106501895 0.24625677484622166 0.624215059630069 0.2051847173875004 0.8911510623939064 -0.08456825831268475 0.6483757697584668 -1.0751442056362281 0.672661204538632 -0.42310267254225004 3.1395003998022397 -0.4337787013572544 -0.5716547261860659 -1.7556171486860488 0.4911951483990896 -0.20011355291391175 0.22439770526759123 -0.699822343049745 1.1021843937568438 -0.8297599372677446 -0.354441770500541 0.31222133998299373 -0.6559759912441735 1.5953116615973209 1.297907360846118 1.901089348232498 -2.905920953433058 -0.7543004709990107 0.14604140267012056 0.5509045446497757 -0.6688641609658644 -0.1034660592273362 -1.868826776040031 0.8400197305639099 0.35345033877331467 -0.014277024965199461 0.42571149222089316 -1.0506799728585225 0.11943814355309029 -0.97520655727183 
2.8848250992262763 1.703661096584629 0.17430454855389332 1.570700164344285 -0.28579950695596 2.107379016346309 0.37920623445923984 0.24601729900581643 1.6079294379709708 0.47578855238722745 2.3649726639605637 0.22233753160565511 2.584795036925374 0.05917459139104512 3.0572293449991306 -0.40952957679196184 -0.4139945825259345 0.08450711788330863 1.3506170893539367 -1.0009385627639447 -0.36671759962664435 -0.3011864688292234 0.03710199411854967 1.072919996813474 2.7213592472046395 -1.0114042267950265 -0.1402787546355086 -0.18146671568047076 -0.4839611623874506 -0.32915401324693666 -0.5084892972354278 0.34095297848889133 -0.6193596453334244 -0.8682676396508856 0.3662838955984592 0.44568584901213804 -1.878653411100852 -0.18608369193983174 -0.4145899941921087 -0.4109606381888744 -0.3503182442041434 -0.1259285047681173 -0.15318710494350501 -2.215228321204851 -0.43130157380829803 0.2469334409348231 0.755266141519659 1.6887095962954992 -1.3247836910887751 0.15493085612463503 0.05797484024624474 -0.819611768974904 -0.4785122358292964 -0.33844168843740546 1.054074010777611 -0.3344178560745775 0.15917397693498772 -0.1183954835876562 1.807573011152368 1.5095751361731649 0.9345326096429113 -4.551436863453226 0.42265414667710516 -3.3508102825444026 
-0.2006843957378832 0.7851338979807195 0.6326026743824998 0.6211136074141563 -0.9028163254752778 1.8869702540633955 0.1747236528787212 -0.15337771866649216 0.27455643425768844 -0.7764522772190594 2.3539053913815184 -0.573140000835479 -0.361925854448195 2.046080007066552 1.235420873120969 -0.22060118244605695 -0.17016725481637424 -1.8508093233513683 1.0374159937854415 -1.074765663400326 0.13759748478593892 0.2624898665174603 -1.2703305190696588 0.8840210490306654 0.4874633804613325 -0.5132722693568814 0.4482363062717461 0.05824280528234451 -0.4667716578033837 -0.08086167455359748 0.6626962824467405 -0.6649236662782837 -0.20181121339935493 1.110082024256523 -1.3623008367679326 -0.8363533379756779 -0.4667704763861873 -0.1668907227982751 -0.8492798002208434 1.1077281636618304 -0.5116333262898017 0.26132130356776456 0.08967010673793267 2.0337385177169556 3.031690473785288 1.8767793496793497 1.0331214293734705 0.44016626579331974 2.4657831396347465 1.3777723635868477 -0.030761580332416712 0.21891492675587113 0.011451731781449155 0.34164576570548594 -1.1191128240152053 0.0475091323943026 0.7997069089911675 -0.3229655533639909 0.5277540595248045 -2.1060669571209707 -1.424831518732346 0.547387615035232 -1.6757244298312395 0.303007466264607 
0.9789971481355694 -1.782513380363352 1.606930811140382 0.14064466358088457 2.2073998366703576 -0.8215862132058445 0.3987640630288028 0.40779846581100176 0.2595755190579985 0.39445107706410126 0.45361287364289093 -0.9310192771630662 -1.5231264335963142 -1.0970973771354784 0.8420158253523102 -0.32870130202115144 0.148894639971635 1.2139815868340609 -0.05836065726282892 0.8820918800039556 0.302560837868622 0.01492469277579087 0.03728782173100785 0.3506061542937791 0.5332253785282152 -0.3041706442197926 -1.5663437066439598 -0.20470545509017352 1.1525475460568355 -0.34814449433053324 0.9212047926453713 1.3251801731893622 1.0565185252294325 -0.3660243035772547 0.06295828929246967 -1.4023518232389698 -0.15993136958461107 0.852880626114276 -0.23503382938714684 0.013419863419861773 -0.10656825469229626 0.6939126959764895 -2.3361976993792686 1.0122555365472354 0.317783943056858 1.0252451976199075 -0.03170283820252785 2.2576168599086115 1.1739786426627001 -0.06517104160006319 0.09907166628299809 -0.6464087078707119 0.23766667405486433 0.13984562298315148 0.12128830446917528 1.0483875834813337 0.288533778753226 0.24725530817429747 0.9042759897236952 2.874801401228372 -0.15996044997006756 3.679717148263488 1.0751306882935172 -0.9044271670528942 
0.24426781049066032 -0.8864534017548136 -0.7909255928203628 0.13780693307501435 -0.4784826930512144 0.7918919913569966 -3.3652124392597735 1.724701291591208 0.31660165528293976 -0.9194465959969996 -1.2389408191458469 -3.5005878533977786 -0.30551737185800587 1.0873802073518137 0.37153074932561647 0.41794169140007537 -0.7067814238056991 1.7689956330608658 0.10256044078029972 -0.3857114226751175 -1.5176245071945784 -0.6613447625348711 0.4028239575241941 0.9979631925688178 -0.07343828851640075 -0.5145427188876979 -1.0931103505680353 0.47173450419581114 0.8726476882524781 -0.08207287921147684 -1.723336644576918 0.8838754165280714 -0.14748424941687507 2.541675224396899 -0.013249921287913404 0.15358709723385575 0.3462699480767503 0.4010179645720176 2.4851128889611216 -0.9184461269752633 -0.2729274340762046 0.07791311348522241 -0.32076099296700145 0.1219370121723245 0.9460044576103029 -0.5238358931137609 -0.9024223635294635 0.09743624331922962 -0.4233673167482061 0.4930262197047921 -0.5134059618767925 0.6037495838934994 -0.3586055927486269 -1.5165225002400793 -0.8170908564515194 -1.2316139806155517 -2.0786094871216494 1.15291881491037 0.7375468657156026 -2.411260600032181 0.718071822986607 -0.9135974176675363 0.18798052940100232 0.3261041289571675 
-0.3756647503610135 0.680567275205085 -0.6139107242284089 -0.09918581986388313 -1.1764886274977187 -0.4119639901057298 -0.41344401434341016 0.6754278579883097 0.1221453678119758 -0.23302714242976424 -0.04809780657992341 -2.0090870308109148 1.025729487171651 -0.6529172741960835 2.7666140235160954 0.6706628209659802 -0.23014957610733197 0.72452086101902 -0.005749328064457231 0.26761798756814015 0.5803826282306881 0.12028134953395482 -2.398361803799949 0.1984995169978603 -0.17182663721560043 0.47983160402853886 0.19172417105632544 -0.6859128525526282 0.6149187540839506 -0.05438880526286231 -1.0638464883560084 1.882780542937174 -2.656965998665439 0.0812415202444405 -3.4055588576363176 0.024552807282903426 0.02762497794984882 -0.24660620770871416 0.42865321659361894 -0.2117198401525305 0.28626326109875017 -1.1613429098704249 0.1835722101495761 0.3780826270835574 0.47634464885701394 -1.2272420565342324 -3.2377832946331626 0.3953197609995036 0.029220498869510482 0.5664228076248293 0.2629730360458761 -0.2222925711569632 3.527751731730954 3.2724529154169866 -0.2690790331462459 0.11713136845819604 0.9190903932230812 -0.18817022559287844 -5.019831273481791 -1.0603635536740759 -1.144100746168162 1.6041243614460259 -1.0664206564752765 0.5752424603343684 
-0.2563217266302611 -0.5633359049747197 -1.4473832574634522 -0.005798624843292827 -0.6613419239738576 0.46677074958905096 0.5005526559476942 -0.07218450236953024 -0.6279641172062468 -0.9848683924020643 0.3985378596356373 0.9224676067258645 0.2426698441724785 -0.3582121919020221 0.6133065734979611 -0.5179452832264541 0.9019522697222884 1.1014241714454396 -3.4354916656830228 0.3967062457551317 -0.025250155315703144 -0.19845877553985453 -0.11384898857505123 0.15777724418541253 -0.868351572333059 0.3094386199242666 1.2724273793040246 -0.6825191530109143 -0.2501350562936591 -0.557195038200224 -0.08104298498623763 0.7131542201138779 0.7708172587473234 0.4393730870549028 -0.3999381208384777 0.10062602421308663 0.106379036723993 0.4800594678148537 -1.277591571596833 1.3947234682260505 0.20082521062770284 1.104264812318664 -0.9675911651146155 0.035226588717738906 -1.3414621652673384 0.6478904021193184 -0.05818117646716853 -1.532287559539677 0.6513149977421496 -2.2454795095798983 -1.4078016515698457 1.636013813057745 -0.9350158010940745 -0.02214406461597512 -0.5353681508765358 -0.2138306427531403 -1.0957241371067161 0.7487341330974123 0.5280653633705537 0.5008064535114577 -0.44972721685032563 -0.8759791965894348 -0.576122728655994 -0.5844626556869089 
-0.30164062234808203 0.8366387408822099 1.5875312589052943 -0.2428655545520899 -1.4166499642853172 -0.7075737844184932 0.4775104082140965 -0.1971918662301953 -0.48673218657463624 -0.5076363897417544 1.4744549811252423 0.6359768516693447 0.00022927448255819592 -0.7080680985076362 -0.10462806765106619 0.22731835744556717 0.9600167293559515 0.16969439448917087 -1.3034477634916528 -0.32058581181573975 0.591032211037833 0.911582494387529 -0.37215696126973696 0.9011516328142202 -0.4595330400845241 1.2766751477550025 0.32453549142599897 0.9997294243818573 0.1165685180818438 0.3610101368370291 -4.13193694310971 0.35580287627547214 1.6141920357750497 -0.823404334131754 0.24824756067542442 0.34332422934021567 -2.2481042635329027 0.8782763396869179 0.3869629715684052 -0.13640188816810722 -0.6308718027769518 0.7487749235250819 0.640309858710576 -0.11896352713427862 0.1395839261126286 0.22234607774761211 -0.20496377732213478 2.4202159358668216 3.069716740988854 0.39041066659766 -0.11817933142213224 -0.021467858740524846 -0.5529461876948715 0.7109058600350656 2.0687804608776545 -0.045642020476075636 0.5593527221400995 0.14906679155986124 -0.906882006807286 -0.03669367851267091 0.04385764763355829 0.23404063053010343 -0.416410255631967 0.28931913847222596 
0.25444094219893637 0.17041757019670792 2.2490548405928164 0.2721921600999782 -0.11619376341906534 -0.05142299979032295 -1.0828043545706703 1.4262810885042139 0.9905568732984977 1.2591778024587963 2.6246531925480334 -0.17808983424070882 -0.5105377171977529 -1.7630026568496906 -0.2586482217771638 -1.6533935358594072 0.4400929408381605 -1.0775333459865153 -0.6269912459421852 -1.2757241167050704 0.9755968791087571 1.9261932003681326 0.2829617381212787 1.560834290167032 -0.5311448836837495 -1.4380683338878897 0.109342155374255 -0.3169390920787582 0.2858270477307347 -0.26199155855829537 0.790462172434588 0.2990705994701984 -1.2281810899334376 -0.0016233660236754394 -0.9037765641903726 -0.7601584826095851 -1.13016659819872 -1.2374008116171535 1.4186238860730103 0.007533243318613072 -0.8010917024390484 -0.4617781823881629 0.06890394827844155 0.15758481358116586 -0.5618887453373206 1.857803044190073 2.2742321583065905 -0.30665128032863936 -0.29343161168402165 -2.3356278164163786 -0.5542031128046545 -0.2796825379548113 -0.09630668730991719 -0.3681268909899457 0.5189492074529171 -1.6307818467662718 -0.6916666175805827 1.0556817181832163 0.35332907298134697 0.1311660386673276 0.6854577962497076 0.052726397174969485 0.3114833615722442 0.4928872059045574 
-1.5319259688050204 -2.321136918658806 0.2913236075645211 -0.5220374380316958 4.910488325991257 0.6527614132888749 1.6547008034189254 0.7380591232806778 0.5283763409236533 -2.00005520743373 -0.016823952661047466 0.3139781467718147 -2.1597423106162474 -0.30782116630441186 -0.07724327400598736 0.4633601061123721 -0.23659940247126077 0.47201545886444113 0.31148840392236804 0.9299873022287684 -0.7852953387906187 0.5475205183939593 -1.0940032891432543 -0.16252112410258135 -0.36386253322363227 -0.04074488621018419 1.1701030582077854 -2.2141339026328275 -0.5531340287648158 -0.5538179761125066 1.1949440245259697 0.8110417431588733 0.16652943965342562 0.85463572929478 -0.49977338117167286 -0.07851017237379916 -0.9181164202479801 2.145566880814936 -0.000660341126745392 0.18492808144446352 -0.5329802280423522 1.9620668833412303 5.0763943917270415 0.2996999463421201 -2.2263021593381396 1.5306878050266055 0.7075363300784117 2.2818896541814477 0.3382200665547323 0.7368648099259715 -0.14567238575719427 -0.07020286720332043 2.7855435128949453 0.2854202230842258 0.5191183944945315 -0.07240216873696066 0.1083867848156249 -0.8595737171717531 -0.3298697500593714 1.619839495039509 2.290721697133452 0.3907088932532363 1.7830587656280972 0.7251688563720877 
0.7972277126052087 -0.8745144536719267 -0.2805799688067778 -2.305193495300065 0.6295763206978926 0.13514920493686647 -1.0413210288008974 -0.10807677045250985 -0.6831630356771853 1.0814998365943138 0.6319409190796188 0.32266958369142296 -0.053630167907358604 0.2165327319239279 0.02076367182862947 0.5046881655760584 1.4859668133244728 0.32853366057099265 0.276395936191384 0.08434813436484581 1.5044499057916694 0.5540420077107151 -0.12904292992383476 -0.6683752764836666 -0.4872534892259147 0.1531071962032784 -0.10333742798848934 -0.35630189254776357 2.0878435339481882 -1.541366680041946 -0.771685666388177 -0.268156100808223 -0.17392356693304398 -0.17452040273674174 0.04464088367865319 -0.04635172700137099 -0.3534580945768679 0.7244186575802534 1.979426983306271 0.9042666175974414 -0.38000300815050686 -0.6321807288540494 1.9924157055771914 0.24246296433802228 -0.5488350713639119 -0.10417316225021574 1.709606608359714 0.12008330421416419 -1.1939707952417506 -0.41035582929217373 -0.19027056626724967 0.0530765997403401 -0.6096889161137687 0.14717203897104797 0.17485893449091156 0.8986307353232464 -0.6511255894253078 0.6255976071875087 0.5983134784027284 -0.164782400442985 -0.2197270051284624 -0.2036317752401482 -0.1650674182974638 -0.33012986955356927 
0.23657428695654645 0.2953621119611199 0.027603449250527153 -0.5329801907908279 -0.4262494657902161 1.2444467445828606 -1.297283874634819 1.526406682463449 0.636146667855809 0.02348929856314856 0.2758703026307299 -0.8615649249745265 -0.11057548460344466 0.15768850356302477 2.1158797394484203 -0.2514540736125603 1.0657605380720985 -0.4810734535662388 0.029705030818915634 -0.7502883807101959 -2.542841382592099 1.4299794581172236 -0.29733119739098096 1.6258387611598695 0.9531796597210539 -0.5821698659029164 -0.674309551842148 -1.0494634774551779 0.13044677232660074 -0.2519479875703901 0.018804712336712697 -1.185017819044618 -0.14384761134332624 0.5127167009658916 -0.13845710213797432 0.5043357725883701 -2.008559567861587 0.12297090514857652 -0.011685583283357549 -0.16597169220948585 -0.5962959581937237 0.596510866057966 0.2028018495036407 0.42519953528057886 2.5546685605399375 -0.06599607795864222 4.329558370631731 -3.4555943439309726 -0.9532654870459453 -0.4123661809160059 -0.5724175313347726 0.586045874902857 0.7045672435165465 0.5572327608926518 -0.4830106339964561 0.6259180448697373 -1.5640425230669879 -0.4755707131969436 0.21011756923698505 0.21365824246565168 -0.14684999630668333 -0.49459153683533763 -0.73685325663758 0.8349733628038535 
-0.15641795109223988 0.616142356823318 -0.4150123465310064 -0.5811784244687008 0.23385274483553567 0.1877398934900031 0.10315200121310195 -0.24132258587532315 0.3023134594511468 0.8452616776248222 -0.7641212819779766 1.1816818856966196 0.6479508887650708 0.4755517203114511 0.3390020818760987 -0.3720337287677413 -0.23627664268194787 0.2705045841999944 -0.190024858976263 -0.012700335275354928 1.1026830823573843 -0.3058767368778069 1.8291209854539225 -0.4326532892009384 0.04556413466870655 -0.03784349764240191 -0.895920953304009 -1.9104957469715855 1.4059530092347645 1.40777483662057 0.4976099229676058 1.1885619657291475 0.36952129286754265 -0.008911881741116345 0.22375844345870494 -1.0170985326093074 0.5306315366959278 0.40507760604747506 1.8656675988053182 1.0706470087780264 -0.25705662430525694 -0.7829832077191851 0.3461197070436561 -1.4778522875826297 0.354103365202575 -1.2716519112769344 -0.21623018801760788 0.14451988082289183 -0.21773081146387618 0.2613838871225016 0.020304596169054393 -0.03431280305960279 0.40992713827301147 -0.9496981915383051 -0.2911818904374541 0.8834166466660693 0.17597155242394044 -0.8888392174591166 0.26699690184096997 -0.0843360005509275 -5.536960804695279 -1.139318109523609 1.224472049323075 -1.381947738412665 
0.346562377455441 1.4157045945225055 -0.27641567187663524 0.4980873449235716 -0.5617726432616721 -0.7948051007577932 0.31353485059145153 0.21847426994532892 -0.15271421041224764 -2.2548054034247764 -1.1309942928722074 0.661765644685941 -0.43318080521115765 1.9072051571785238 -0.43778814474150846 -0.26111087730879 -0.3199295456400847 0.4887774873907561 3.420353880232197 -0.8596099540944384 -0.07638626935958258 1.3014854288725999 -0.42089162273066993 -2.9515907963032784 -0.9992950300974427 -6.363656357065919 1.4912403568403176 -1.5268759599201838 -1.1481959098531178 0.8448203822365202 0.6755857598177345 -1.4450447153138248 1.755832763106262 1.094157481769909 -1.44082887627209 -0.10795466923767194 -0.17266034292030455 1.08307027357253 -2.6645674992055786 -0.10816037602708682 -1.7642214111522059 1.1154618903457112 0.16729971958473105 -1.2241356030411763 0.08363893443843504 -0.2771210907553548 0.2884503086775994 0.7009735283702697 -0.7005037411577211 0.4184023205910776 -0.26963500903216336 -1.7050683628689443 2.901561062447339 -0.0907477206217563 5.39123155433741 -0.4491931940280399 0.5485197560028532 0.0013430536109108242 -1.014875681710942 0.7801516173749785 -0.5357978226988891 -1.1545348592063376 -1.6264499465295406 -0.01727794366891954 
-0.10889395288973497 0.20581603356626388 0.22286342654740893 -0.05241573062133959 0.3044441653632156 -0.27590148253881625 -0.0033748880759658702 0.6741067675839649 0.9790347853292178 -0.23974490558612482 -0.5180784971385196 0.47638283664624914 0.7223420121739307 -0.4576569524002365 -0.014675959553404144 -0.3359227559491106 -1.8502391467188535 -0.5600823043498822 -0.0001287950518892494 0.12179688064990389 0.7960012359350783 0.7679750228608191 0.03455070027572735 1.7666021149076478 -0.4532965611635704 -0.6036446894758447 -0.012927282133580888 -0.32402706648039065 0.08370494572870464 1.0980197082298015 -0.6144044051161853 0.052781935450515634 0.042703049725689377 -0.18600366888649086 -0.8528970905825116 -0.5712301624851092 -1.4185499447562921 -0.14721878445047315 -0.3115766147326341 -3.4128601781799337 -0.4856791777106524 1.8353842998066054 3.6870424591382776 -1.8580091938591528 0.17815069012076554 -0.7877421161088495 3.5251442387757614 0.14093077255276198 -1.2485779987664163 -0.22718963346379997 -0.6536683255230944 -0.8790360217897057 -0.2774268549185813 0.5252581187673391 0.3608123330310501 -0.2671317517285521 0.6885287129373626 -1.2037551709195677 0.2536346572417938 -0.3528730373774125 -0.7098828362343401 0.13738259719087653 -0.7311623606627309 0.4301843286580846 
-0.1374279625141238 0.37983412393323945 -1.7251095995633519 0.9488838233027289 0.13212078987675707 2.0148553620171956 1.5012831878874828 0.21591248686025705 -0.07999725001757318 -1.0796068444869793 0.6561049626586829 -0.16765157360793143 4.3819129280121585 -0.3457267333541688 0.03550901546337669 -2.630136467516537 0.5376214541644684 -0.07231415202703302 -1.2974839017763493 1.4918144682688106 -1.2037855555831063 0.6045842539194141 -0.5092075077832896 0.07986254219164564 1.979613118797652 1.209648671013901 1.1191900991559782 -0.0964833133693709 2.160292278717109 -0.447394460770443 0.2027771199595092 0.26997093326545996 0.5746264278213464 -0.5547425752753591 -0.6378896386670599 0.34272297949805297 0.16664169924717115 0.0007800459757656645 0.1817800175310266 0.10837210120665249 -0.1377072025262386 0.09202081675942861 -1.641937467283429 0.18885920159324576 2.1979993984426858 -0.7797857923583479 -0.44382248422035453 1.1825108728796971 -1.1450845142482375 -1.6535493514565993 -0.2615078096531919 0.5192179461377561 1.1787165957101937 0.3553215266454166 -0.24361580813336053 0.06801125196653846 0.8348554619653974 -0.2673527906727722 0.20333017861920788 1.0801959961036136 0.7220674661641583 1.3832199109813983 0.28872461654021797 -0.4703066979213793 
-0.23804088937867238 -1.2821627967757891 0.6025443093824464 -0.38822832417433023 -0.1792394629261114 -0.697347487175546 0.29803192959042235 -0.26147258938455353 -0.17293739140662487 1.3882527905086124 0.2591904316038125 0.6466803746665307 0.5140050634237455 0.3587215613781228 -1.1234989802765112 0.37507599539384406 -1.9524191587046333 0.20317525714136744 0.5420090840057259 -0.17810073778863797 -0.046732432427692955 0.5888547255342926 4.6389125670035325 0.3005886221721421 -0.5819846610107604 0.42925658338044537 0.18676817446489616 -0.8669865078531718 0.6163423421774853 2.2144643672255424 0.4679276343189051 -0.31393864293090695 1.793026774040829 -0.09100764799063785 0.6255763290393129 1.9632523175826833 0.2658671232551316 -0.15955008318978575 -1.140830451002403 -0.12288920830351024 0.4894461210723319 0.608464881789476 -0.3183410438100753 -0.7230628923255369 0.018587581359539456 0.22319036653258195 -0.03472100867588817 0.04001973718928364 0.339021607131864 -0.23044157463238554 0.7118410858149085 1.1270612588539262 -0.6476720168054614 -0.6376884434582804 0.2503323083136738 -0.1166339777108864 0.625491943325279 0.6614844386331679 -0.38756383037578623 -1.3772743264667098 -1.8258158533682425 -2.1059944810579494 -1.5487116342656093 -1.0037592214207371 
0.36214116131528684 -0.42032718298442373 1.0796097587093996 0.5518062078896508 -0.006482598243948129 -0.08930862440792753 -1.1901674695538362 1.401387516297984 5.827545768497579 3.265407980845114 -0.7305213351041175 0.9203357251786308 -0.7073081778179001 -0.33768670943059736 -2.1038555996690573 0.6763853723977172 1.0954791309241303 1.1542893958580906 0.6504478947945578 0.4159297694402176 -0.2856007986501107 -0.386610152141538 -0.41461456904059846 0.325393137510496 1.5549548195810363 -0.8520501739079703 -0.3773120232173496 0.8316433706884295 0.6981926301138979 -0.1999804037667212 0.10483701325222386 -5.584289243587201 -1.2860387369001247 -0.798421876820894 0.41140197935970607 0.06414250671469963 -1.13892703396707 0.4355387622902963 -0.01703960644417118 1.1039503553455265 -0.2210509345727054 1.1557375766483244 0.17959701278794002 -0.06607306012744088 -0.7493304442745704 -0.14034655279008573 -0.5126693929916974 -0.511929186497948 2.267487664436332 0.356821765899284 0.6269238797596938 -0.32944373361847107 0.8423385357314583 0.6098499705335763 -0.17331810583786478 0.2318793345498426 -2.7969524966878456 0.22974484014084062 -0.42747326802530544 -1.056083377746722 -0.3113951165574513 -0.07468874404013291 -0.010956694193327739 -0.148213735232469 
-0.48029132773857347 -0.32441392618820675 0.37217948022892894 -1.0187909114677114 -0.3847829487239054 1.10151514571638 0.202747316881654 -2.41697387211741 0.7188678348656958 0.4560140173704992 0.04267448676327102 0.04108666291619381 1.9663293211840913 0.017448226753157704 8.715210386442399 -8.718896108917038 2.625173537458357 -0.7838869596454304 0.754349474347616 0.13911385999955353 -0.07233494961000933 1.88884667665461 1.3183410150039219 0.991030547564921 1.3113696039382547 0.9937572718305686 3.7913396212497816 0.362476845477332 0.30334474690084423 0.08958987123016064 -0.5833949782704936 -3.0887410123204564 0.6349535076232523 0.3484752877672128 -0.14562898914210246 0.12344269948485248 -0.6962490128345263 2.0923452795531654 -1.8183947802607798 -0.00840954405251001 1.3224516422838766 0.13519964325596284 -0.6567030498627806 0.2992292118143224 -0.8412284903873484 -1.9586534898777916 0.42236232113691463 0.21877724197544932 -2.7218654424072586 -0.9665860652718056 -0.8563790358605377 0.40728124072018185 1.2168201881516136 -0.6064015306688401 -1.4316749087071574 0.4257494999926415 -1.0605370643410745 -0.06289534623663345 -2.1921854581227844 -0.4455020159421443 2.313865474858915 0.16786540931589733 0.9798630282620693 -0.16469971869248068 
-0.07034691091059798 -0.7929974499286114 -3.497691385911326 -0.011272590222399135 1.8593660493312232 -0.11662919208103809 2.6840317665819997 -0.20875226665911772 -0.4141469441822095 -2.207907314379596 3.2339717545917854 -0.07948517359012434 -0.24747176085280165 0.13445049113877008 0.6454162342070182 0.5543345755098533 1.7718221233092328 -1.5751269182213135 -0.7609043041573229 -0.4950074397874088 -0.09942580755509514 0.47369866065243993 0.8747086631174827 0.7302265119054925 -2.3354718072201535 3.72449118248162 -0.3477551116394951 -0.05137335555049979 0.42957131755345634 -0.06791392939772976 -1.1493246252948908 -0.2516259188420954 -1.2037954921462346 -0.20864826326587116 0.07835754753330489 1.015557520748714 -1.3389548101849877 1.3482323193532808 -0.20367076222378078 0.21909049545751708 -0.7358703813972611 0.32232065599119913 0.11533084416532392 -0.40051759912559576 -0.23458520968395238 0.9904266939863786 -0.10328783521586699 0.3922672299270461 0.20673366475239466 -0.6717063298149288 1.7000424017088434 -0.6062263441244876 -0.5283163033498799 1.7025099266953978 0.5681058813432217 -1.3276878568900625 -0.07471733225194384 -0.07766170444447283 -1.3379839319551192 0.14183215348892206 0.5830245881937199 -3.0980109252262804 1.2154027408097527 -1.0033593837056145 
-2.962237067767996 0.0021839242151809415 0.018652373306293712 -0.3859384765308945 -0.2352941439544565 -0.3013646141251001 0.8095184925828353 0.11831171588041105 0.7680110911919881 -1.347877975649974 1.2751399408267603 -0.9611459433254871 -0.41750053369303813 0.5083031139244353 -1.307126931619206 0.45171832161924347 1.3867540228095574 1.248092760747922 1.4276579588241172 0.21504215851549768 -0.7865777107693208 -0.8620463530555614 -0.57429883004483 1.041914108530296 -0.9934062191045318 0.47564930777418185 -0.7841205697869511 -2.1557886469368936 -0.7434766910357022 0.5157365156109635 0.016064318327480124 1.3744773930542369 0.8937797497648401 2.600837974948764 -2.0806929714735816 -0.6331709443754582 0.05766306215162215 0.3031516522888878 -4.110517735438468 -1.0353082925910266 1.3551267466874017 0.20147361479249848 -0.04623596795723564 0.0817648900532132 -0.16472540126775417 -1.22631091093826 0.35250370014739757 -0.7433853153239224 -2.282833729672935 -0.09272844188329246 -0.01034826433544054 -0.11381816544051566 -0.34528779573600815 1.229432164327867 -0.06500692480925263 -0.5431152763168452 1.0721394998019205 -0.5493545009154166 -0.11838667426359435 0.4062995432049867 -1.3302478207100663 -0.036380614079149755 -0.5201549723686886 -0.18102261882923812 
-0.10308117985295448 -0.003966328753128619 -1.0474745213804342 0.9122674361898908 -0.07966978948774892 0.9480202628362344 0.19216833340203965 0.030550693227944493 -0.14093661449850425 -0.5907949980404977 0.3743792674487398 -0.1190954505480971 -0.6245454563289263 -0.9060706214362808 -0.9085597568411699 -0.44620546672221933 0.5258955526893168 -0.22950178477601363 -0.710450773382016 2.2217902768895113 0.9611483097850614 -0.24115807359047725 1.790453878502726 1.3191411865119966 -2.3944674900249376 -0.19340899612202367 -0.9034865233424245 0.3721322643561262 -0.712709664388567 0.5045048080169455 0.12873940049840743 1.2587830659546126 -0.13791737350038202 0.05321508700445783 -0.7197755683321049 -0.3206265344432821 -0.8166461963457853 -0.13064118151713072 3.3209236198441245 0.4254631855319881 0.19360298514615537 0.8140756590857643 -1.0253242473514212 0.10543364966901743 0.464283157345685 0.6964907887350803 -0.6060962644664847 -0.8725122712422311 1.5814790728338135 -0.8020421442782639 1.3964493270276106 -0.9306853964714066 -0.5966036879419353 0.5629456862423867 -0.8270305585798357 1.089998471483243 0.09124908115672684 -0.8328602520380892 0.698138906847782 -2.1597674287031317 3.059262972404723 0.9269848047551361 -1.1316827046151552 -0.6044642110414638 
1.0924665710610524 -2.778844183181919 0.7062696991144759 -0.35903525133014424 -0.4611209265194021 -1.876092575845587 0.39273223514584393 -0.3503078396174723 -0.6667680879595673 0.4586797675166034 0.8183471330447792 1.1791028854827785 1.2937322697169347 -1.4912128847525992 -0.8668986105763452 -0.7392739328606979 0.4884194479727873 0.7253457188955749 0.672354171873146 -0.14436612773340884 -0.5945309622742476 0.6638411286660794 1.7956208561399056 0.012872604476064694 0.6278008869053979 0.744314619840846 2.671213975677502 -0.15166311513304026 -0.08494267943984461 0.4053373844505311 -0.2844293566628534 1.0929123434393897 0.8228377318181275 -0.5756123283645631 -0.40704600470744356 -0.17207341746029922 -0.34335420461106886 1.8155635460680024 -0.3950720407951356 -0.772863459942638 0.07861339733069583 0.7011968558459544 4.872712950922837 0.7639016549622948 -0.6533805046436751 -1.1396525645456308 1.3777164024907895 -0.45719011706616364 0.11521239558981687 -1.561784259888723 -0.41464764032671136 0.30066888331079766 -0.2317098578206827 0.3623968975342014 0.3059169579925691 -1.2853888074766848 -0.13740686029109864 -0.6074520517704528 1.92897859989496 -0.5921032107205859 0.2547021610831383 0.0951298510443019 -0.43999082071501655 0.5035860851613397 
1.178399221648785 0.6900065741970491 -0.3979549227793851 -0.4694890467074029 -0.02729555807642612 2.2912396954452077 0.345186065798731 0.07260302365807739 -1.224894375195602 -0.30203405553181345 0.23122183252179476 -0.269881479758059 -0.8094548954804661 -0.7637309492562666 -0.2677928876259013 -0.16062479252431794 0.17588649486053856 -0.9762500723390515 -1.1650025140996898 0.6055288885551579 -0.6219293696073783 0.12525336706086543 -0.052075709999395606 -0.4152092980949267 1.102271302748897 -0.6459683290123889 0.2343554327184889 1.4847038651410513 -0.05457263874344504 0.04787054804449471 0.9537598131131706 0.7418384254551892 1.1256189767145088 -0.3789251098799203 1.6047624151336368 -0.20249111530083416 0.36238891717612065 0.2926834183220854 -0.5939938709448596 -2.4844953494075512 0.4153543390465873 0.2676464049739497 -0.7821241062386005 -0.8882722768104663 0.08563778935203899 0.6575398522945092 0.0614506519690271 -1.9925079774138221 -0.23477032567653847 -0.07479176538681405 0.3224932148894718 0.16418458056727622 -0.6420500305015778 2.319012024346167 -0.5457984568917328 0.23182874311849236 0.13955974691635742 0.19612582653499153 -0.9090373947249585 -0.2966930510838016 -0.43180972341511487 0.12072739468319943 -0.32421605315695967 2.1373761829692945 
-0.13018139167841059 -0.18718759480992078 -1.6396414569921873 -0.12506011614892498 0.47743322398225496 1.3131372956860665 -2.087783853433948 -0.4666054638481386 -0.12702819465668055 0.7295896787566031 -0.021659507563358434 -0.7701812865219825 0.5496581096136756 -1.9216850365899312 0.12643110205737423 1.0986200874989491 0.6665652839135631 -0.034795814021590425 -0.2568920241887708 1.0101215570774493 -0.5882652803663654 0.08598066840206774 -0.641878311000446 0.3376474522544185 0.025461690995035844 0.29121312969085544 -0.4892678081663756 -0.39027821292581316 -0.6246171952020436 -1.8858573297025283 -0.30541560555050146 -0.11568104220648764 0.2791184246645395 -2.236481389696958 -0.39006644177449057 1.8558235388375217 0.054334670427028955 2.6026645094274854 -1.7013282573636443 1.492579976200921 0.14653867217946628 -0.41849103897715156 -1.6743517193071322 0.19875188067571695 0.01797700537428361 0.4965155738741877 -0.9825308793163021 -0.3224795168510596 0.4403534804951965 -1.6582129391744216 0.025467468149810584 -0.6426291376012573 1.797460501312043 0.051799355836903975 -0.9489553007367812 0.48848388877119253 2.1191820931830856 0.6373103428892303 -0.1523408331131294 0.321021805750893 -0.2201266237273753 -0.007007385005023341 -0.5691243550780472 -0.3499236068190469 
-0.19433953886706318 -0.05854891482405153 0.2370908113712858 -0.15784029666410657 -2.618088792456946 -1.5185953606653972 -0.18692850514628667 -1.2844190347122937 -0.5680837609181282 0.5405177553152022 -0.845742458557037 0.05572561555792668 -1.114790957069606 0.234136002674078 -0.36524045931061494 0.9282797951262691 -0.27661841616461 0.0941693735569473 0.17332135517857378 -0.3590677994216809 0.32773509991972183 -0.25186020695382527 -0.31732287151945043 0.1957028276275715 0.5404264320053865 1.1989557674664613 0.8951479537690314 1.3807292075620587 1.6720409741097588 -0.4934398162610449 0.6015898791342564 -0.4964922749265886 3.2308078139463667 -2.0763160330973918 -1.7107377079446227 0.5120403624200283 -2.117301794123792 -0.21309460920251122 0.43380359290202275 -1.9183159965113727 -0.8052086886811451 0.2522618915638564 -0.33541397244180665 -0.042485526220488755 -0.14819179688092501 0.5226947133128902 -2.252221668217792 0.9385413919428505 -0.2500396251943858 -0.6080077337865863 -1.402512694802614 0.94739539510106 0.03226776912660997 -0.9085326466342388 -1.6239639307926235 -0.794943708804519 -0.703688023852677 0.348606759610356 0.6109466020960771 -0.2708114410913354 -0.13967794803982742 -1.7126064223360888 0.2660112643631445 -0.019051180987272834 
-2.1376570542756395 -0.6548672847023478 1.6681154368861049 0.6938396159334892 -1.1680849861916622 1.7512300093453645 0.3855456552866954 0.4818093159764343 0.9273637955332511 1.2953490896399538 0.08940069378849759 2.0981144733834522 1.4541739794243613 2.1117658140477307 -0.048359353413515535 -2.094645154167231 0.3557411447960013 0.4332339106327779 0.4354649552832184 -0.11039670319426902 -0.016665317140260354 5.186461706722347 0.4104991412420436 -0.15567883972882723 1.5557232551066802 -1.6226748516252565 0.9609148027577507 0.1019768568557072 0.8212087456663044 -1.52670341432304 0.07130270391989228 -1.1304158057340152 -0.006892896253636413 0.9366257533965844 -0.945379590455501 -0.2521739524100361 0.6312491576291307 0.30115332278231477 -0.39241813586823 0.0422298161726253 0.7222349666105362 0.9189102930661331 -0.27405678703124026 -0.2073217503648493 0.179197737000655 -0.8176869914342859 -1.6695529684087176 -0.21198829014063308 -1.687818619880188 0.05549035505273061 -0.5956445132090594 0.6070535378425305 -0.2982184963913445 1.608978734505149 3.0128588599576274 -0.7221709279246141 -1.4732936304275166 1.921880939232383 -2.829966517587772 -0.8840481169314589 0.0867348979028842 1.298423837473909 -0.3218096625215512 0.5195146165537291 
-0.18072100086656825 3.468110290237299 -1.1039552565378241 -1.1689808971015243 -0.6213191733773803 0.5351154008049603 -1.9689947343413534 -0.7846208264734004 -0.41367277144683473 1.0006719400702677 -0.05523208524202541 0.8060065526856994 0.1032756673300798 1.2764203592606342 0.5723257042838048 -0.16359137714122435 -0.7406972825924824 1.1573853833481351 -0.9794231145851067 0.3773410521573525 -0.27002041120162995 -0.21576542695700368 -1.4613709648531177 -0.28543115003845904 -1.7752137106223234 -0.7806394464987634 0.7077000248803077 0.17788366410758935 -0.2868273979251713 -5.281912657683833 0.1088376233489992 1.3600303701129155 -1.765786727918633 0.3295224665807758 0.04138879661664219 1.0061701340924973 0.1628140486719418 -0.5814532913802658 0.08258637413452573 0.2512511334248321 -1.2827184155365972 -0.06582160554556496 0.0365074214933468 0.33942489013841237 -2.3584733827372646 0.4407540082578259 0.01366056562057373 0.060613181363047074 0.3788602147976593 -0.023387674787047133 0.45119287881462994 -0.9388283445843324 0.3646049748010747 -1.1392954481698347 -1.4324349748075125 1.5240154865917146 0.8424160819607683 1.4280620644677622 -1.4365285197718438 1.4599123731215602 1.1540006200181465 0.5626150008227302 0.4258154232177412 0.10455213842150303 
-0.959935991019608 -0.4257187895192281 -0.8524572735322228 -0.2333535734996805 -0.7281384337057171 2.4358555850313928 1.0901252437904194 0.5886958427308342 -1.2980966382448984 -0.544689272566592 0.12431150447392599 0.5342373655612581 -0.4210321322477652 0.7287129780731298 -0.13576076332720818 -1.1508388377270498 1.2026270950253477 1.243271839105787 0.2368473877252222 -1.1071130266593858 -0.4589176279753447 0.5488469697039685 -0.09119004538962339 -0.46732429952402355 -1.0312778230585598 0.1561620776516837 -0.34401784457752493 0.6923620106111055 -0.5601017109604216 2.2162263702298413 -0.32725154815008084 -0.2695952781862063 -0.02539754836843046 -1.4362322157701772 0.1577018469538938 -0.03411944870134177 -0.19919420922022957 0.024669313358126194 0.8497250048412236 0.03075648603018487 -0.3917541004045669 -1.173054307581349 -0.7201429936699894 -0.26179302482310535 -0.8637459416345404 0.04671993657266599 -0.1613647310907687 -0.38775729921701546 0.492369137734485 -0.2715549337433885 -1.026701188837195 -0.03569196381850974 1.9020662156452457 0.7612785203049194 -0.9742450831523733 0.10944067044248999 -0.04376066319961546 -0.6632311049815997 0.3584850651868122 -0.05144127523126371 -0.16995415218108373 1.0815809565244392 -0.5477702170328119 0.006919426223831547 
-0.14453157070511494 -0.4625635501075553 1.105341753117262 -0.15699036215112636 -0.8202397565540962 1.3444033837617528 0.3379574934962967 -1.582695922519053 0.12159095862408881 0.3826455935391601 1.4969062481692423 -0.01279267754385876 0.26100472616226145 -0.5012136911673591 -2.4287340189201436 -0.8061330449728877 0.2657164018647355 -0.6695799995686573 0.30004744436041325 -0.3389927971227885 -1.8294263143704426 -0.014500936436609239 -0.07016717771196285 0.09575534495675213 1.3476206812034126 0.09676037665292701 2.0130111617372255 0.7958654396040632 0.05719827845430172 0.41133380989559903 0.2519048335275333 0.4898122397140014 -1.001713841705939 -0.7153351686941385 -7.100492931733949 0.31800195763572287 0.9162732490557093 0.0318913147260299 1.2916969211334357 0.280735942383766 -1.2169869965413513 -1.169416638349768 -1.1908282621407291 1.30112636514357 -0.028220947525171288 -0.2113173287445557 -2.148582558115589 -0.7073645479366342 1.4526097868500083 -0.768438012375031 0.12702065488787884 0.13796682829460988 -0.8421301335367695 -0.42405099071262553 -0.7454724591963257 -0.7355777009783319 1.5084957848294658 -0.16786173574251548 0.33713659831028375 0.9672209635428873 0.38196340437226883 -0.8595581540065156 0.557133689989091 -0.4884934118096267 
0.2895363969503756 -0.013952068153326122 0.9205566617845733 -0.07868306870497287 0.5367774458400699 0.7810091343364733 0.453455802386524 -0.7457785863583267 -0.6325438994836853 -2.2039579751845353 0.15021909807888653 0.7099742899714403 -0.42426422252419715 -0.48487638971514896 -0.30277571427883676 -0.6873665820861422 1.6424337218423553 -0.3723817095516838 0.15768141837676314 -0.0052755520011452455 -0.3144790197816173 -0.06645210568065697 1.030241905055676 -0.2637199688971799 -0.5349596884895763 0.5864218235853921 0.2747295247823061 -1.2065202231231666 0.3668680494612212 0.5900371914093601 -0.20555778007355077 -1.9609844851521832 0.07393782826248134 -0.4637053167038327 -1.5101043183414307 -0.6663098263896955 0.41753915256928736 -0.8353002014428591 0.5371633349303455 -0.42876233978469114 -0.7078936788866882 -0.9414893834079247 0.8552600630523823 -0.32709635143676985 -0.3091794541871568 0.46957646556283583 -1.517833095855358 0.18024230399306462 -0.4162272559578626 0.19445559473969246 0.4213566668106489 1.2055829376437899 -1.6971801934440067 0.7671083026611292 1.0325481399329397 -0.011558609372572902 0.26208029169650077 -0.3807657363998435 0.33280125912068653 -0.8190660581391815 0.12192550413939375 0.5083954300761624 -0.06062732642632819 0.8059001244775162 
-1.6033817524955216 -0.6025649756759898 0.585268875579057 -0.47090556738152817 0.3264193232983855 -1.7808123313425102 0.03445786971479043 1.3298352859286535 -0.5782418670819599 3.13112168843831 -0.6157029779451677 0.14473857407402488 -1.5870511713649433 -1.6420615644065497 0.03772247632125437 2.384596777906426 0.3036028672076919 0.32597847183579004 -0.11307998881328966 -1.510902128745412 -0.16774104637640702 0.07045840605062233 1.117432387678276 -0.06113599258536593 -1.0647903534845145 -0.1927252807038546 -0.706220826144585 0.46744892235674407 0.38928482477340126 1.4361103586868678 -2.0222199830255314 -0.5705222422473972 -0.11462391130885635 -0.6781923367655519 -1.144335984976548 -0.8027693746730771 0.06692870658965314 4.532283108145912 0.4214470224500262 12.207935020193636 -0.5629874873781165 -0.03985278295659202 -0.07886981415399615 -2.000376006086268 0.5047916838237266 0.2593930567395877 0.691912101064074 -0.41919171274475703 -0.40355468418981577 0.18402894001390993 0.6071001750564465 -2.4301304359148874 -0.047393702576964174 0.8051801933351072 -0.7625495043272693 -0.07889743696476012 -1.7983085865388229 0.4853033383425161 -0.2698667250785216 -0.15033770016555092 0.15634419618493586 0.09744874285356131 0.8369484026295397 -0.7134750599736853 
0.12429835696545989 -0.2723977388772256 -0.3766725101479658 1.6853685780119565 -0.44976800264067973 0.18885940585130856 1.4962415342572204 0.8291850951801433 -0.9993248905409994 2.4276785526342555 0.7751608971862738 1.5200184242581867 0.37371497738100823 2.007936171752882 -0.07347416517066852 0.26321689971468953 -1.5319020642096373 0.05701701158953842 0.2589835252322681 0.23356949624200063 -0.2847235085530944 0.40583327219126963 -0.9127412098137103 0.14430090829037198 -1.2810321162879377 -0.49459454225952154 0.08440440844561749 -0.06701358470311003 -0.05627460802409404 -0.0251192068412034 -0.7925500406025315 -0.0571582626844005 0.06406542782018618 0.26548841495626835 -0.20467123888539587 0.8237065238786545 -0.026208170198593644 0.647424241852392 1.7285229789242107 0.3047926588430028 0.16645842695965293 -1.4065926229161168 -0.279292678007337 0.6815644863191777 1.8310324698644465 0.596762716764791 -0.14279523253194187 -0.49074151150799417 0.17394203042105627 1.4161399678927222 -0.18956075723652102 -1.6374334127575296 -0.43147850334733506 -1.085630373982413 1.7445610610052735 0.6153331487762377 -0.4790371295271372 -0.9674125434408349 0.7288889716246675 2.0515212243859406 0.14464197318707459 0.7715494375141598 -0.49990176305472644 0.7712255207350178 
-0.3928188963373712 -0.08117123758514486 1.2109427878552972 -0.4498085661145792 0.38359869991783085 0.8910177883580958 1.1212997398087021 -1.8708354762273651 3.416337625616618 -0.12829865614252378 0.34977603068829255 -0.7865239118026093 0.060753679219680265 0.4580027459790439 -1.4406983629071135 -0.5323548884178624 0.734474653002913 -0.16846936434884102 0.8912458315586014 -0.16258264477438383 0.1560605878443271 2.3431131585119993 -0.05770815825679972 -0.04106985343314945 2.8682839825971813 -0.12893190426589124 0.17735982958859642 0.39503763173514944 -0.44387086237050233 0.3810871606125956 0.24538321472735275 -0.9020085768903443 1.1801304091574294 2.269751200782663 -2.3449112873714086 -0.37240005548683275 0.782054278216079 1.852526062223738 0.8095610020046109 0.17683579483148065 -0.48118746347260005 -0.0498468545982971 0.9339681886390884 -1.1476850482158871 1.3514131479527252 -0.014828592252588013 1.4299736751867607 0.20768554213699275 0.7275472270395177 -2.0881328715311693 1.5369871980278862 -0.8277549867791737 1.156071319258461 -0.7291388397623382 0.3802639835705542 -1.0339521359292905 1.4901780059852656 -0.4618161615374905 -0.5568949971381464 -0.9627735482174526 0.2766845411364898 2.1086753022982068 0.5063849143210317 -1.6993119592454078 
-0.3469426696197975 0.3026452087616452 -0.5305119381570158 1.3572240836659146 0.04941826273903967 -2.718278514300473 -0.17198199814949264 -0.39876682508106454 1.6588100597320923 0.7377316778675753 0.062438127276022826 0.8903686138046303 2.3067512420537906 -0.18091398079860674 -0.34753858435775886 -0.3330298883022061 0.02970517086727817 1.2023342205921028 -1.2048867232341511 -0.12282162028871658 -0.15484819820890813 -1.2592803909460648 0.1580983563636088 -0.14687480706788025 -0.978417631138043 0.6605466521091693 0.751561513122706 0.1578800724567589 -0.18479162120329956 -0.9026228131715602 -1.1268352279939298 0.5178187421661541 0.018198961943134324 0.599708791378894 1.0856647018360341 -0.37548908806921133 -0.1442721110813155 0.09135188150063567 -0.006726140085789312 -0.2705508426571878 -0.6712493277926901 -1.3137207696535564 -1.412872208756026 -0.012561240368010745 -0.178978081629665 -0.2518219763799641 0.04407959452457301 2.9238014337413425 -0.2612240508150157 0.5890452722344562 -0.15867323009486892 0.8873456172929272 -0.9104038565752273 0.5016663150842315 -1.6840280336472764 1.888791616602631 -2.131523842584518 0.6552349360681887 -0.36177010700560314 0.06231483331752335 0.7288707497249096 -0.011076206856362687 -0.6842717871754421 -0.5447354886362867 
-0.23068323101046634 -0.43676818908750237 0.25980431122892483 1.3891705286612028 -0.5845813757628674 1.8570230943080384 1.466171475860044 -0.18114936316139 0.47716461941893396 -0.4490587726763262 -0.8897139124622155 -2.1429777132558447 1.0140205996204443 0.9048896049471676 0.43457760737967505 -0.5429857213042463 0.5756813502880597 -2.2506984404603596 0.06221495383676236 0.6087417404883396 -1.0835468708223785 -0.2417322685374446 0.7771758400928174 0.755119234017757 1.3591021824183003 1.279958421985834 -1.414688340015126 -0.04471147703090247 0.8187479698650997 0.018813183259889968 1.1520754787101584 -1.4443481600818868 -1.8646442119929232 -0.328006325931882 0.8234534846392293 -0.8104516689726117 -0.7120662912928403 0.5348627878779355 1.9929589395226932 -0.25291350089024944 -1.0168270087098685 -1.315835576000312 -0.16280905048056768 -1.2954170735340653 0.7902407046115694 0.5243200908990702 -0.7189212907524974 -0.7896356601897296 0.2783583587812605 0.17275970335691201 0.42312371454003195 0.6315446498714526 -0.7010060840666856 0.39446202764454724 -0.4295027286743815 0.4924619276679181 -0.38868490314268617 -0.5324178232626917 0.05205822891106111 -0.06786746380662424 0.6127923164605784 -4.207759715942196 -0.9193791595898755 0.4589512744701784 
-0.25352391415024617 0.9772718279354222 -1.075787931744405 -0.5016985682488302 0.9706511089694202 2.2458671669328263 -0.4308279484532824 0.06388905508183389 0.09769928413693817 0.8220885890749176 -0.6920553624634489 -0.7972606331731693 -0.3726443552724831 0.6286553243049033 0.47484717710790686 -0.1858975481128879 1.4688980688328244 0.08751790337077817 1.379206072751481 1.7318492095888038 -0.25334991635008014 -0.36059655961385956 0.30375327363816623 -1.0124208410014865 0.6772527100312655 -1.8383662403743695 -0.9607363036828103 0.4062054506242838 0.6412237438411894 2.904300309301946 -0.13209188090951157 -0.12555866785209616 -0.07370655957639022 -0.8686625492514554 1.2903807928926976 0.74155462748809 -0.7657336688344102 -0.9549636610402847 -0.07892549756599533 -0.7380513073921572 -1.0587535348616102 0.6893841679442878 0.0035857667540235426 -0.36117265838810453 2.946770890311535 1.4672266352955567 -0.5706538324716616 -1.9676452207408746 0.08018018703698998 -0.7236665123012676 0.2881846891858199 -2.083422096476681 -0.5870437527645497 1.6531708095691293 -0.05578679255278725 -1.9870211750911189 0.21843418946863125 -0.6762839544277205 -2.6024630876421537 0.1869680200212236 -0.3122927251145399 -0.2633122070156907 1.0686622189648334 1.5017818026750316 
0.1863334261210582 0.21930568006200724 0.20658049811028456 0.07029510032885716 2.236158181716588 -0.4779093090374433 -0.4624621449596399 0.1846315285272704 -0.783902518832962 0.3941429113308581 -1.0168066948788839 -2.6506342481342644 -0.22324579281354823 -0.3014490134865023 -0.14204921954115315 0.5457464774977023 -0.8659687187183882 1.4821388129693351 -0.32813741887549386 -0.8198798563687847 0.41931330572465036 0.5317928998982067 -0.0715085366918862 -1.5093054239205173 -0.8669126363223683 1.240355681973052 -0.7301517949131421 0.9106795128187181 0.10750283429983694 0.6345456576777896 0.20206437729221197 -0.2848599719172479 -0.7934729745731053 -0.6884198102445448 -0.28446717530797655 2.724338637147937 2.0659190289903204 0.6796497335122628 0.23074374192714828 1.0292099729260555 0.1704055922650559 -1.6242618994264364 0.7514646936888241 -2.4112323365750368 0.2879847104562382 -0.6194334761171459 0.8393464339207937 2.6791678486729116 1.312420070867246 0.14250919270258908 0.37886837999529654 -0.5404519662945245 2.9385062122956187 0.9490217125486702 -0.33788652766825145 1.0189119009532566 -0.056293343832955735 -0.1485897537294674 -0.7096226038030096 -0.9057882511329521 -0.38677052865123696 0.6570218863047368 -0.26356302013078764 -0.33788920199678324 
-2.8934378010735164 -0.3554860888817007 0.8805541624080566 -0.8568972045687634 0.9276992433833201 -0.6078323576636229 0.1298066009361632 1.1185826747509255 0.3316842311947834 0.732270606566826 0.26784518212371183 -0.26226275113858044 1.7596987679868479 0.21631304962757297 -1.437167908456932 -2.017624966894663 0.382429642928717 1.6451147908315535 3.9774458193155025 -0.8595599256545139 0.49513866042562443 0.5267463666873954 0.3187778850346673 -0.23005456197364813 -2.1064964600296556 0.48080046872757165 0.20981364392195126 0.1940196800049434 -1.708002389338212 -0.15727914592065512 0.5017694360987979 0.6143769737358187 -3.0606080978254533 0.6648520110962727 -0.5195495621716787 -0.7619932624648615 -0.07965903588290837 -1.089903816106114 0.17423771816490352 1.2067307469855015 -0.5357714093318569 0.2276394821650964 1.2046774517827032 -0.5466188002257678 1.2570930982891781 2.3460747334597656 1.3551247869960035 1.3818478436371553 0.2166954827601608 -0.40068536917685527 0.14493958784136884 -1.6362522480157489 -1.3680451343614415 0.1853452260922659 0.5072632939507116 1.0082065515633511 0.1654047003385506 0.3945023429788776 0.36190409039543786 -0.8330597223309955 -0.1536402352052881 0.07763916966751917 3.6867081709042733 -1.1281527439479773 
2.2866279603940636 1.489667757457015 0.636722243276244 0.17522099991916354 0.35259112610386956 1.3525426470803403 1.3748296812940581 3.17265257818041 4.128945572757852e-06 2.8300201445650166 -2.29804123112646 1.738965357943359 -1.0828476866975691 0.5524309091486026 0.36599599901358576 -0.3947097199351485 -0.09056032105530457 1.0736462905880755 -0.4303832793177238 -0.6535634899927699 0.38550254279918567 -0.9967699513757187 -2.1411212577473067 1.494063692079247 2.1820828590762376 -0.20754550499049135 0.5464869479554837 0.05647835633683741 0.07992257963564128 1.0487826278615984 0.1622279253771765 1.2674139113581742 -1.7920571637593268 -0.5252194516002162 -3.144281601826603 -1.3523114369960518 -0.09360319721551127 -1.4146033626460945 1.5877449021563337 -0.188480097502356 -0.6161347199441327 -1.510062871410181 0.12513844682861486 -0.6317987386584458 1.0110438522392227 0.8267261991706139 1.8098824549815455 0.5917890296595816 -0.17775891750221362 -0.3753200612127809 -0.5229037482340017 -0.003451308698760433 -0.44465871223468667 -0.8118952671131264 -0.8135243359652229 0.5809205800336437 0.28056119054896406 0.4409258521453171 -0.584894493846527 -1.127248919222786 1.2385715172997178 0.4249628182960881 1.485872394161003 2.3724531393638006 
0.3363220299113091 0.4045451129485634 0.3413208660904238 -0.0473787975493208 -1.750207176404012 -1.3636095633260155 -0.40745016187278144 3.434176215600359 -1.877107135678146 0.05403741784947194 -0.35618154926020285 -0.3244334793659121 0.3961199529997971 -0.5078045437058051 -0.9574927607566216 2.673692920943261 1.9366696244033061 0.08935093395161917 0.3700329263600481 1.2794907248364855 0.4158109807241925 0.028363876746831385 0.06576806993936833 -0.8386371326213479 0.22906972603308312 -0.7446632620793758 -0.6578284790523167 -0.5391883602301561 0.5334924913139547 0.47692884676763875 -0.40242311431328665 0.19811435998903404 0.30649295635145374 -0.16164809473214475 1.1273599506049283 0.19543317349338568 -1.102599261200903 -1.286448509963462 -0.23236422175907193 -0.9716647054341355 -0.12910417099016713 -0.7204369927331268 -0.9627288334828832 0.5509784935483619 -0.7838305828952307 0.2362280676828288 0.5247703610701079 0.5604556692296031 1.0166033831058725 1.2664421873453795 0.13277835761959628 -0.15505475668426025 0.6518466501912843 1.6308148291026265 -0.34347729842443786 2.5395982949929055 -1.363887018503246 0.19619530715714972 0.6030213289420081 0.9783882804094889 2.459178951633651 -0.6796055894323041 1.1583289237024887 -1.4827911253121306 
-0.8726560333497484 1.131033504866781 -0.5195656871993191 0.528134617599803 -4.260249438416478 0.8423850672838841 -0.05427093043457936 0.5032671838348659 -0.11606522607399389 1.4862753844937604 1.2269149798453136 0.6035982077187496 -1.4033062458994845 -0.7581162325977558 -0.4992565635163297 1.1011597916516285 -0.9987899676732283 -2.1252560215938647 -0.32995507490018405 0.021615411476751563 0.3487310438348065 0.08122881640131971 -0.047713120832426056 0.16193544660397458 1.1263279634453338 0.9441375413158387 0.19907545953020847 -0.7380510715293251 0.5168712066345088 2.541691624219494 0.22622656240784375 0.7907642099760155 -1.0999302909420714 -0.6204648507469133 0.2426330763875439 -0.6352198507099726 1.8636666130849266 -0.684284320985289 1.7425788826055055 -0.3400541825634585 -0.4566371864158312 -0.3609644203015518 -0.6179138999135995 0.12772146343197344 0.14787672465201884 0.23291985196704448 0.5199933713732268 -0.6028856664822885 -0.678729606057966 -1.8520643911680692 -1.9385325946648209 -0.15048866677143183 -0.1843618375237196 0.24827212669157764 1.1771252287886338 0.22917121909770727 -0.27525640125528217 0.4115544973980203 1.0274408700859923 -0.9648678689143698 1.2974572853047464 -3.5397209011284176 -0.09949099948647844 -1.0436741833148084 
-0.5993892710918649 0.05338250338722688 0.4093611583204489 2.2377396251542714 0.2566779232109367 -0.14048730843907137 0.7436452189080768 -0.025329955464612766 -0.9944771821654247 -1.2503209750851525 0.3477168550719761 0.1636944116728708 0.3821155582943426 1.9544645166223351 -0.5787076729400736 0.33606584539295536 0.847631684565366 0.007326189350588384 0.0005670624081847127 0.25028460101577205 -1.1227720487031505 0.1069688412529764 0.2938119062154381 -0.2409156921981637 -0.07724649099485568 -1.2344387103872647 -0.4890831080157954 0.26296706534474074 -4.408505713303003 0.5717814850683908 -0.25108018118477793 0.34371481754921707 -1.5708001486657954 -3.318897373493991 0.14806513891688894 -0.5056021916457691 -1.0141199381109482 0.10995743896331708 1.7464386143258805 -2.1277475071290777 -0.17561952606214074 -0.1979561881056802 -0.3361404567158818 1.9621799700621143 -1.2124777623818481 0.3260018169824592 -0.07775122663092329 -0.31162568245821276 -0.05650622097787659 0.9768582734111326 0.7594007011749185 -0.8200758680233917 -3.028737226476965 -2.81648611149541 -0.8638694799185246 1.4482529826593682 -0.277318732170589 -0.8138763924406 0.7657690321581142 0.24038729316744276 -0.009255249625902235 -0.5494291569383575 -0.7848456695206125 0.6197693227046055 
0.5410640647511048 -0.1411028091648894 -0.4815048534135982 -0.029167890505884506 0.30975989352176775 0.8732145466590011 -0.8986043009178745 -0.2604115642075256 0.004031360833112193 0.5131990077704957 -0.7997538068478441 -0.00818497151410505 0.1293019169330826 -1.1329503511823682 -1.6644531292200455 -1.2304894858262525 -0.5731844372187176 1.6391231027818014 -0.7984953964641351 -0.5101120979326733 -1.778621292768664 0.695304673740631 0.45198526694140273 -2.005516194936941 0.9748424222679669 -0.8746275687751883 -0.5334466571984827 1.0228821772650485 -0.8463757878658469 -1.2010160606932172 0.07506824142708002 -1.6141470359507721 0.7754318684863593 0.7474473840948012 0.30870069219434654 2.107912638953747 -2.037934450187377 0.9933756442261462 -0.4705914780388233 -0.44713946159857093 -0.9615546089948341 5.529934851512268 0.026506732232158502 0.40139485700392563 0.3293539082799339 -0.2195697871632881 2.004120040085752 0.029756716999553644 -0.8081738512910853 0.11370350376562101 0.16642607886293756 -1.3308829550525105 1.7985077820590527 -0.2209258547745539 0.10674192953736594 -0.7882573641392963 0.6019669474600299 0.06860283694522683 0.8662532457121241 -0.19706815916927706 -2.5648861369714546 -0.7256728718737827 -0.5728962827856439 0.6803962941391829 
0.8240397987110473 -0.4591685162524493 -0.8810111326463793 -0.800557876134138 0.17355023511236423 -0.7940180191793533 -1.4813582566951446 0.41742520496288144 0.09907880435233792 -0.5598338010452615 -1.0022821285968735 1.224011581813647 0.3574512459595269 0.24664073505600306 -0.7346009271280569 -2.858267351937484 -0.9748144115081371 -1.2785186315533494 -0.33600740506814053 0.7358529258875088 -0.7907258177209271 0.4413615073545617 -0.27394121612042044 0.4479411596978746 -0.013802312975443492 -1.5768081531928162 -1.1402360998430312 -0.24961493832052503 -0.46688827354803086 -0.3353578846464737 0.9025569837456552 0.13900632732573714 0.06148995042170796 -1.147987434763182 -1.7324613072558501 -0.6465067371135419 -0.60908082397261 -0.16162208156476943 -0.914575770748719 0.0017803056982463666 -0.8523302908797884 0.6615455785995251 -1.9839259001222869 0.0033097364294038794 -0.30152809128680513 0.3305373396466894 -1.1751546493111547 -0.09457822568816238 0.25028975542090515 -0.5886223975328868 1.59099933068554 -0.0122581417558602 0.27055808331440306 0.2707033336460409 -0.533585970853236 2.0987274411852237 -0.13416408684038425 -0.07507042542096305 0.3440562463310422 -0.9975368685914319 0.0505645885927904 0.14747761598845835 -0.42593028513106923 -0.0151946715715641 
2.183126369734366 0.2481677221773895 0.23937592077842582 -0.47101919193690167 -0.8975924973412854 2.212985505511712 -0.0006895793700785989 -1.3045329832589225 0.1530795928725171 -0.13848074536124086 -0.44008056323275496 -0.4028124388848991 2.191364499851852 -0.07404825718893093 -0.3302142162125807 -0.5147818219180988 -0.014031390056188156 -0.5032783198530256 -1.1336522465860752 -1.5811777312136597 0.24953818036224798 0.9388159253022968 1.709589842781271 -0.37655072501826 -2.303394472987059 0.7155875040800852 0.44417621694512766 -0.07173079082618934 -2.752778004978475 -0.9201168701468944 -0.8297176932621104 -0.5730631555461086 -0.622921417010849 -0.423176280752082 2.590008366280489 0.021067691700580357 2.150746539401472 -1.2298625728596264 1.8243163457072493 0.6594810696301177 -1.4171110470438368 1.6260886563073595 0.6534839452368237 -0.38603109468737556 -1.7554491712881541 0.34551733664489603 -0.5539218600960526 4.002220807379156 -1.7483238416634357 0.6933488583814265 0.9864690274883805 1.0330285417964402 -1.5211875616954555 0.07041785284497369 0.42424847061508975 0.5515146497253146 1.016743970876324 0.6015067231681206 0.29555822417623057 -0.3883904332052802 0.13744033655775692 2.5325813291624497 -0.37533725305038307 -1.0298735210887733 
-1.3097774914894653 -1.3334382698198886 0.3296674129060939 -0.12145005348357586 -0.41236381807521727 2.1391691529828547 1.7436633910430566 0.13078988807183306 0.08240014012112318 1.2414284827719408 0.6529292612395939 0.5576905612155985 -0.3544548163736492 0.20312336430281472 1.695323606555209 0.13714575311804286 -0.4120737526910913 0.3980894700629016 -0.4591064411933987 0.14431104699405561 0.7836578206152103 0.24125988990675987 -2.103381550847782 -0.33356213578343635 1.2117465329427144 0.14123530013868632 0.04028651219060666 -0.13253660268668194 1.9359137558927184 -0.8451736746039917 1.3647439326600275 0.35612345547854796 -0.4495220120439377 0.11970414007447974 -1.3759638443411903 0.3985300254103771 -0.8074405166623239 0.23348053051182394 1.2464099931742316 0.7974168523502342 -0.8065945137978268 -0.3012286435570168 -2.1785155439047545 0.5254638303660185 -0.9212592842607661 1.4348766753747655 -0.5459863365151055 0.3013731901995445 -0.7640774895771647 0.628898925392109 -0.16977591440263007 -1.4366871600690891 -1.2583994250870225 -0.15035851423125132 -1.165776350946257 0.014722929783004683 -1.0254622732351053 0.09294468189111749 -0.34577928897797344 -2.109266698860807 0.3438582217047994 -0.3559580842862772 -0.909207223143174 -0.6016482925788782 
0.8536687295770412 -1.2240779589500814 -0.8111374289556214 -0.5185424391613074 0.5714188874162985 -3.3623827906387795 -2.476436794335088 -3.7041155844916425 -0.07324205413832545 0.6678517434036183 1.0173407463079578 -0.11615391726097206 0.3976812553232705 -1.5908712553448268 0.56317415542919 -0.40597896145956663 0.04187287930321907 -1.2662583440574728 -0.17975205955088988 -1.215088172785913 0.8423875578382447 1.1881251131503132 2.4247277591270024 -0.40084143491283336 0.6865196649000356 0.39380511604699087 -1.0535460338055085 1.2767616142370635 0.7958962237182683 0.2879705176511017 -0.0959490329623839 1.4098973743483152 -0.3624293279299953 0.9436423565466012 -0.12375578853901384 -2.163955956736288 0.2534993174244146 0.31635599704306067 0.6776876133683674 0.05494772209882532 0.4533941056087928 1.1219655735840524 -0.8838250294532608 0.40419693285426084 -0.08603476723358562 1.4196213128301334 -0.5667666105624867 1.1563954192747345 -0.35029256963835764 1.0225306143256074 1.0137933924985671 -1.4790747016631858 -2.2844285983378105 0.633242142042636 -0.21837820237535108 0.8685947007021245 1.5712600416158526 0.039475411305335224 0.001675975264199901 -0.15957845348624866 -0.41270960330859185 2.061183920485682 1.2752052337517794 -0.09019429931187566 
2.4998338098359705 -1.320491672536652 -0.4781799934117108 0.9072637876777274 -0.3392702520286053 2.7460421085757303 0.052791623186167334 -0.47667097202500774 -0.6225290090810354 -0.24244359238323993 -0.9016698883313757 -0.35746846804111604 -0.6693385750907401 -1.6028880267345829 -1.0797234307652723 0.5608052614908825 1.3712714167081754 0.25151937596157214 0.08314354724554071 0.12317289601916494 -0.1587787679055263 0.18168842334026444 1.408499608962002 -0.7167842247728148 0.6390046594050778 0.3555462758660905 -0.17601727992146873 -0.19521792538027 -0.04639645223486256 1.6742809352921397 0.11900155107829632 0.2537034860281715 0.2982176827074606 0.08350651109117833 0.4984754795540155 -2.664039712377027 -0.5436320631581125 0.17508384458956533 -0.7536801415125075 0.242830431512415 -0.2697897453625893 0.24222145216039237 -0.26335150712854416 -0.764395412667382 -1.3095182120732676 -0.3810442693593442 -2.442804414777113 0.15191202741826923 -1.2034981585791813 -0.0675313398976533 -0.41580878572062974 -0.5295349488243585 1.2869090285598763 -0.9053932755250572 0.1681202876509961 -0.033481852161717146 0.24311771666793888 1.0786782141310334 0.8589288558219982 -1.8720729764837787 -0.323709340838695 -1.8401288873170436 0.14083429245035992 -0.3509530511599663 
-0.8579765300718885 -0.06359355446036966 0.06066071206304833 -1.0085477721024183 1.3646747348129693 0.07450108043750693 -0.42529869307329676 0.21436265872576454 -2.250252111370015 0.1168051022799875 0.05317575533875805 -1.666745747821921 0.5192103920667277 0.1499627295584923 -1.882424576977664 -0.7421209659196099 -0.3833213156747924 -0.3427131766341239 0.2760313561660735 0.9512888042015626 -0.4108842038225863 0.41567041035311747 0.508608803773741 0.003350981566832769 -1.4061859918921888 -2.2665066856782583 1.0839502867120332 -0.9833333923119079 -1.114638993919239 0.07256720788749463 -0.7460705938536397 2.1347081305400324 0.6814566103876768 0.6651613998604443 -1.0747829359744 -0.3280975599896611 0.008303659418206608 0.8967918100111796 0.18643815399455876 0.019119205294241114 0.07185263718973023 0.12445783416309203 1.9794049482067375 0.39063447425784614 -0.7779305840024073 -0.23996362572125107 -0.02619695960914593 -0.2883834902241563 -0.2984417687360076 0.8787118744082779 -0.037122228346402775 -0.41703079873146887 1.595005826438046 -0.7845641300628581 0.7090071527619721 -0.9393057748625515 -0.059960834269682656 -0.38458485186418045 -2.9188474502380592 -1.1786013152670352 -0.04069229300139727 -0.08207087439312816 -4.182611237232208 3.4766958906275396 
0.12871341185710466 0.5821701041871709 -0.7780365046685588 -0.8811095600934524 -1.8470008174072157 0.706054396511289 -0.8801077051161924 1.7554617902111158 -0.08890028172135359 0.740720095015167 -0.051161192058576194 -0.7776565835959464 0.7578510474659652 0.1548332762098901 -6.412810519863367 0.6151761996110817 -0.5619171327300057 -0.16472323014172294 1.0297350183872307 -0.4353874695549029 0.5323970775415627 0.04332230941153007 0.06908802732349598 0.27383953303601355 -1.3373527084014307 2.8578029892972316 0.5352125702016136 -0.04971326725723633 -1.6876721377760022 0.24243722946405993 -0.28215806574048274 -0.4266395238712735 0.19576268341757463 0.9671710914859785 -0.4927753205823287 -0.3454817517586902 -1.1223270809370247 -0.8941073941384376 0.31447007171563973 -0.311619088134782 2.3382867759049226 -0.5768667782815727 1.3191516660090286 0.7060284927767451 1.2007701339725447 1.185265332369851 -2.22067558409341 0.1486162249046456 -0.31201721180942954 0.0026299546367024177 0.7749007091718119 -0.04392970636966381 0.3922168320052112 0.17419451857137003 -1.5261659751690442 1.390330645243587 -0.1676459242848837 0.02325509432547494 0.6026094685663516 -1.3559921724842618 -0.038345535941941455 0.36277286397487757 0.4878248474611155 -0.54615788682063 
-1.4216957076864165 0.465256271574986 -0.5735396123094691 0.589451601759927 0.6406946734299689 0.6759577718697141 0.9067547306023636 -2.291547806485971 -1.1842836955935088 1.223858687038366 -1.0156031825642855 0.20167424475850623 -0.1299178259713907 0.39511628040430175 0.6113923291102378 -0.8623178554534267 1.0327779279758362 0.7647531590520958 -0.23835199292312367 0.34781754301509504 -3.2512281945169335 -1.5705556868419013 -0.5694237683284705 0.6407535925916326 0.3947120963462464 2.197601234359549 1.2243670148512562 0.8097768006791427 0.9586212259736141 0.503237737533631 1.4581916262493937 0.05865917910139799 -1.3102673616538052 0.8034861604717594 0.642521545211915 0.6599424703671473 0.7136068141552888 -0.8235649453843225 -0.19774016391959492 -5.0825235539286 -1.1120465615205921 0.7245891800157375 0.18027421838801663 -1.384899740880228 0.9153385005107805 -0.2612404234090253 0.8688396332278006 -1.2044977364375813 -0.7500657081493616 0.0411384505586905 0.31601316688557357 -2.6506202669564507 -0.015266905778029537 -0.6972318135349187 1.1475434205994968 0.4169619642445083 1.1772492196017212 1.321770882882684 1.2353808893440092 1.4255895660248987 -0.7120521891918297 0.04345328670858242 1.5594623648601713 -0.2823911493679136 
1.5276372548733241 -0.9247804115898328 0.33268410270927185 0.3427160762591812 -1.9641172643088582 0.873546863826062 -0.2915816634827723 -0.5252531745813425 -0.3593778495747347 0.11776383820225006 -1.1366140294604399 0.16715558839548014 -0.745769339173942 -1.2791461940019702 0.3669760579285637 -0.6721077146627485 2.4050050123162823 -0.4820529647967008 0.17723219167598406 0.41279316135759797 1.0705682479310716 0.11584511604877969 -0.13152145771748078 -0.9248047289195316 -0.6183148468799136 0.6655285542670151 -0.23743674743192775 1.629386597707458 -0.516356068756302 0.044572178561927314 -0.8302434720007487 0.33238845988344984 0.18993773200252315 0.12801034407822948 0.7975228434236706 -1.750194529094295 3.1630171340633657 0.1581777900054365 -2.5330760313675196 -0.09349316757608736 1.1894062346966994 0.809697855196122 -0.48789502132553253 -0.02247575612635561 0.18392355166856128 -0.6291544011940681 -0.23823427614033268 1.9386036141848118 -0.00665218809673546 0.053098961557763676 0.17688228013837637 -0.3104630361077463 0.3218225473029674 -0.1397384741236833 0.38709682271382084 1.3925506747473442 -0.8887741324862432 0.27194877390471267 0.262023639053321 0.2937671890597025 1.6351885404879187 0.5538415796286905 1.1869586341472689 -0.6863120733725351 
0.34224131929018303 1.5194488298332605 0.9301001699533487 -0.07914598223469933 -0.8163667717418116 -0.2764163405467937 -0.429878374806512 -0.42953579143501197 -0.7333124037178211 -0.8070743259667541 -1.065914943867862 4.700428248562721 0.20625532911045394 0.33689349717602907 0.2888784743976018 0.015544558937777406 -0.09438860251732259 0.09473280427984339 0.5644314751660274 -0.9781562262005667 -1.245514592924442 0.025960632642558042 0.4143778131501634 1.1121896398090458 1.7269918028423037 -0.13654261975309606 -0.871986790042574 0.0647889895352739 -1.1029000266295375 -3.1737753158131548 0.09036562925456577 1.3709481268749142 0.09033783732276753 -1.522784193057114 3.0199444619804163 1.0482484240894125 0.85066621419515 0.5769414704221464 0.2975081189204724 -0.05505140896930138 0.48882200351205213 -0.13577694087451106 -1.1047523400522694 -2.173134565872436 -1.1558655277380718 -0.37955657070185195 1.2755945256701904 0.5740575903460539 0.24415241343533198 0.7731045703484277 1.341483030150292 -0.7152183606201461 0.37114217752421463 -0.9292474668547069 -0.902834576012023 -0.41642922638753477 -0.7988808490718803 0.1664684860155912 1.07347209743667 0.4035205521989044 -1.0591476380318838 -0.1183231272744317 -0.41356505671410126 -0.06629025258314433 
-0.7990716332940966 -0.3782040563019332 0.01929263657427796 0.3114298379754906 -0.01625738321475202 -1.1941583237591487 0.3451992480493268 -0.4521265181174064 0.8671757507459721 0.013481518917313164 0.014924395860952002 1.4655057502867614 -3.3805464617066385 0.3389030696973033 -0.6712310437431456 -0.5588456290911197 0.4517607671829044 2.2697656251461007 0.8395590742800924 1.5851864980094315 1.1294465595482868 -0.23051620309367177 -0.975490675928041 0.05616034594280092 -0.6080587622014624 -0.2892753500789528 -0.426489305849745 0.2586648432527254 0.1904126761276811 0.8781236296172716 -0.021149612233609744 2.971790490835497 -0.3724413943660997 0.687118131762861 0.08509692012489653 -0.5565579216178914 -0.7798543355326042 -0.059099378850983104 0.41871185582002246 -0.20248514679178745 -0.6908309156584385 0.4803589364816432 -0.311845259483759 -0.23251930593520556 1.1688819007722546 1.3140357696395197 0.4478247516931851 1.0984151156398283 0.4525405403733294 1.1735426946442102 -0.21822112638892133 -3.210670220719765 -0.3070653919554074 -0.8451791967723536 0.26274906074692866 0.4039570070251882 -0.2962037628820627 -0.7283828304981182 -0.11551987792903326 3.4900305163127463 -0.32883466981401016 -0.6324537251980386 0.9852069031615037 -1.1733554015837717 
-0.09849017008170735 -0.39885337591039843 0.5373059146143785 -0.14470649240493919 1.6053567803817852 2.1362726397439324 -0.354247344297612 0.05328185264868599 0.7325135556468015 -0.20578167023258764 -0.6404065045489284 -0.4344503058821836 0.08040349702304993 -1.7022797107150869 2.4522840239016235 0.5494957577266111 1.0301162446532388 0.10678531446584284 -0.6682760011492984 -1.5623804142312436 0.12016061755041986 0.7261386945334816 -0.17812711979460844 1.9040095417607459 1.612178140223374 -0.6692384242848002 0.1676445491263209 -0.05738396551110105 0.40617532724907396 0.06961510980488872 0.5734977432925681 0.02645580527556837 0.644978490567774 1.1866744339190616 0.03988854411611083 2.2158060091531615 0.6794766632347915 0.2672715430931538 -0.13904046444794713 -1.9804291767728681 -0.5918870392216143 0.04757570290278769 0.39750118151814745 -0.491220313615806 -0.21394960800182844 0.3675960494334736 -0.6935212196280403 0.11448959708716062 0.8582349514457653 1.8104891086779147 -0.43947660360816726 1.1456393309437025 -0.5423102637450802 0.06426963155277829 -1.822505662069314 0.6896893940062073 3.441378870912951 -0.10360121430987161 0.44061951081364176 1.4501521742180583 -0.8719827665820115 0.1182699645970355 1.266299878711455 0.606180406601311 
0.8406347159682948 0.40841425193127434 -0.430078931098808 -0.06166629832894321 -0.8406963169615506 0.4898179409719913 0.9144691077265555 0.8879126881966926 1.7468123993592386 -0.23457921705580076 -0.5462208975118825 -0.1758222343495244 0.5785043283754658 -0.14816598849543663 -0.8028694125717221 -1.3951537519552448 0.9411416054607091 1.0878289742449825 -0.014895352747239557 -1.0627285878473378 -0.13646498805315901 -1.6133603481336007 -0.37774027250503245 2.2631661728011285 -0.35417472934015093 1.3869123114414479 -0.016455229579063535 0.08353207330003119 -0.7048556213493614 -0.9832925504462222 0.2472567845790168 -5.295104204471853 -0.37939982229612607 1.6029122487130796 0.4640162709364545 -0.3231456024809236 -0.056392850291427175 1.428052040473662 0.28209302125565233 -0.11753826307883147 -0.5588876431697161 0.1108031940744094 0.4611363431670467 -1.445174972890803 0.5258549372389044 -0.12243525827811717 -0.9363587885548446 0.26799344864313174 0.683764132766017 -1.7029328758268854 -0.015185064075513365 0.15682250458897296 0.37298090241539594 -0.7939114744357796 1.6785564770025574 -1.3186999942106612 0.2284660735776913 0.8187927986633116 -0.09201015631095832 1.9878834996725108 0.8626199694541654 -0.4577843053826966 0.19620525552810178 0.14452203752784437 
-0.16080992934778365 -0.14346870593738192 0.5959159772115654 2.0454056933804314 0.3013166473261102 -1.011440223218196 0.5869933507772904 -1.447343560478657 -0.2783422370302881 0.3258739757500494 0.31941182714859295 0.512256341366026 -0.6099769022977509 -0.06129987197616795 -0.08425513435307576 1.4674492384125315 0.6099456266690703 2.485587055113592 -2.9275652028404333 -0.7836465361935097 -1.047483362154548 0.31469176592845466 -0.695636938119788 -1.5034420046537127 0.10000616115969486 0.09875409879200654 0.09694790943232198 0.10812987418400027 0.3901135178869426 -1.584475374159719 0.05640962833658327 -0.6981864743112366 -0.2889664037897583 -3.2192934955859216 0.08973706485908654 -0.17179564958052912 1.0474624731965665 0.4856354478546727 -0.2007444446746626 0.6618098887251597 0.6497398193728819 -0.34810174342886013 -0.25840622589233875 -0.3483536205853299 -0.933956909784251 -0.18435090053900507 0.5608172708063545 0.6085005143560989 0.2634463120990336 1.2785456894522005 1.0751841611418402 1.0034912288856341 0.773334821913953 -0.5774163932440842 0.6183318542506459 0.06083665023684934 0.5539533590556566 -0.8582626117529687 0.7837587450474656 -0.42509266675032725 -0.12994233935135513 -1.3583148506853684 0.4961173054468916 -0.20541326840523116 
-0.10315880593433666 2.2801042307693624 0.9136723977043362 0.47105844368240446 -0.06192992877080087 0.6493062847668073 0.24942566089085386 -0.1710180319945437 0.19204221784759049 -0.5928169073810293 0.15610243958901948 0.2252486754322541 -0.43963173256624616 -0.9984107021693253 0.06669157213875664 -0.1112574603884785 0.8336798275216326 -1.5090965525079219 -2.4060159441935833 -0.1289775260018269 -0.255384629946522 0.7167080707914875 0.7570275291968421 -0.0855519494073057 0.5554319240929034 -0.8471431143794258 0.3745517211716124 -1.1574514789129697 -1.9266569314388813 0.09086474897479475 1.6149198803141032 -0.1811750413416461 -1.783215486284205 -2.1291290622653265 0.11285285752510628 0.4326414844158515 0.05156318526073286 0.9699129152821037 -0.10462757241842757 -0.3395441604938224 -0.6852650411604749 -0.31042319644422073 -0.8509292958474662 -0.3834343046276266 -0.9896278251041954 0.18375443849789136 0.23545906552432738 -0.6866911487295105 0.05295555907815053 0.580762163654531 1.7314643471483273 0.03217806584292785 -0.21648809184162024 1.006415138084625 -0.16203282337485067 0.07398845928748603 -1.0695439893272354 1.873277209871491 0.031191404471926053 0.790196305219395 -0.02058482875151334 -0.5489404463665675 1.4549154647527633 0.06484545502744403 
0.34282484987768114 0.029593923287348153 0.5337381995680777 -0.40808403610134725 -0.023572401131788413 -0.765225567526658 -0.4812221749914731 0.9633144646765206 1.5631557641964573 0.6288313534813177 2.4478773644357386 0.26261624183522764 0.02263089518100129 -1.10385389134442 -1.6483258521884159 0.22383099088853808 0.9469562726475775 1.1776056447320733 0.6785391839114955 -0.0869005161082999 1.9982536751789126 0.9674206824913422 -0.036812973184922486 -1.6993572391857734 -0.2717220212940508 1.7464192632261664 2.536788983374435 -1.6253692173754892 0.838191011238448 0.7784445983385165 -0.2767436217160906 -1.8516004012888492 -0.5019945350410201 0.32844426603829024 -0.5438564974208647 -0.41538056902701653 0.2507163582020763 0.033655669271194615 0.05819869121537424 -0.5737756421145743 -0.584892833702933 0.96892683835894 -0.0013680460736840195 -0.6463482246692622 -1.3467765380127081 -0.747780109458269 -0.3778009667903828 1.5279421926524523 -0.1974481532652923 0.15101787111961412 -0.2899180232029794 -0.900191641589476 -1.0664782843517706 -0.39496654600941106 0.7971219539404257 -1.143676670344475 -0.36945968089207004 -0.9438133970982124 1.9367143715047186 -3.1293758949601895 -0.6731932984197255 -0.7256097994229348 -0.03731225295649182 1.802170062024261 
-0.5637859620090889 0.21319366823498898 -1.1064597343816445 -2.832512729036474 -0.7478779115620318 -0.2122596385027651 1.3831433244140248 -0.1504927863298717 -0.4524999299774341 -1.4236684537616393 -0.342907379204472 0.8346518472958107 1.7263291880946736 -0.40445747238658997 0.32044384591379366 -1.2181157661394995 -1.2289567106985557 0.017193246915933717 -0.03651385781242073 0.4114807534332786 -0.22205757747471355 -1.4552451889130098 0.3515100791530827 0.0072421754451982906 -0.2642825616616417 0.5357753118931239 0.31584924804856435 0.13146449544828373 0.9306086981102509 -0.2683459991828446 -0.003884846748220984 0.7237055373798191 0.18143696695474013 0.1740674667415039 0.11266327348779227 0.8750749251993306 0.5122087677921099 1.524484152806331 0.12394015326989472 -0.29290683858246674 0.08079604194589211 -0.2916206891037693 -1.2661831004709616 0.32616498638696545 -2.5576983978771883 -0.042383195034932354 -0.6327844338807839 -0.5243886499278543 0.10427650044150535 0.36807341196050253 0.8841657874977876 -0.9018128300060072 0.6877498728714827 1.6836487873231292 0.9293122365388454 1.6053360336243816 0.8277002220804518 0.43404641083607687 0.6277123109395771 0.23421469097511205 1.0126087566339752 -0.2421333137029739 0.7047334152607638 -0.4503268165363422 
0.32868323946640376 -0.5179874521813218 0.20229045101112214 0.7514199961432052 0.13584817163239296 -0.41271968370830703 -1.1514955100848614 0.7200799454741907 -0.12181103827465943 0.3969179575196743 0.9055110066606493 -1.113357651538329 -1.9691584273526634 2.3757019545140987 0.43040149925431875 -2.6020110312648277 -0.18137906509945553 0.36604108233217064 0.08182247120870659 1.4682976620847341 -0.6316226004234604 0.0071147991329548865 -1.0492310518931112 -0.3870217754655469 -0.591569616863995 -0.783784445624815 -1.2745837346566913 0.28868150903260614 0.046239629236409875 -1.3506701814844662 -1.8838992651596693 0.16600542631839804 0.159598178329199 -1.1689295668180415 5.234416034780532 4.123720112715572 0.11094695649455508 -0.08927643792132454 -0.6295238867523855 -0.024065784800339093 -0.14314137211680597 0.26200945110727925 -0.13544005899054704 -0.8969034729570661 -0.1480624067406874 -0.09261557537543368 -0.18512149593873703 0.2229263696976046 -0.9213383374113686 -1.2548418938957386 -1.3854592019042093 0.12296390780572712 -0.0030937464666867085 -1.2894288130529092 -0.4004423009192145 3.3906214210068777 1.788407746855935 0.29538241486688166 -1.2864402505214814 -0.9409518568636364 4.214136020045795 0.47305017270984584 -0.3398258024190207 0.8029663113281559 

0.004153380195644645 -0.01481781384067585 0.021233881695764012 -0.005123630601006152 
-0.0014904265783592411 0.06588022646827084 -0.005265103542139476 0.014282132233286416 
0.005680648040882625 0.0031006579802818294 0.0013682824128638286 -0.025564660584531624 
0.004493962483745644 -0.004558067654747378 -0.00521343808350374 0.046829098965056624 
0.001106367298635559 0.0004829733622550133 0.006366647224840741 0.007821215628646263 
-0.008821500301302786 0.006897383361069599 -0.005525489438287736 -0.0006448689717949291 
-0.006982346694001071 -0.0010297939514344674 0.0031245359337507476 -0.013331451600716802 
-0.007712960465681624 0.002019256453669811 -0.02487920990583606 -0.0048904435148122705 
-0.0007689785655635151 -0.025694021690050316 -0.005555227426870842 0.005665222343780349 
-0.010233663847001214 -0.010662931428509104 0.0023715721766478957 -0.023042135237152112 
0.00098234132508233 -0.01087234279195879 -0.009026222837258192 -0.0014494842543508566 
-0.0009632986398614267 0.020901598119366344 0.02249295802054706 -0.008379850396684445 
0.0008768657221031438 -0.0022078471410080947 -0.002120937483983118 0.011770951672909 
-0.013566802507325186 -0.003737119130560462 0.00012755255654776684 -0.026233264097188503 
-0.006375042511958604 0.011598354504500842 -0.015771347590515558 0.0022357305560501703 
-0.018503084219388614 -0.03160333014144071 0.007846356743392483 0.008085501723528976 
0.009110617175002727 -0.0005729047843204818 -0.0028258265417059375 0.007953604422855698 
-0.0021056500015062176 0.0051781554363214055 0.005741686515555441 0.0024988012174259507 
0.007328873567193694 0.018120978429729425 -0.0030228870059798513 -0.001977130310645875 
0.0015035786867539122 -0.004131456209597268 -0.01271096186286909 -0.026433364062368615 
0.003989924484831778 0.0128989933608653 0.009841744976175999 0.025774463852252794 
-0.0004424672895896443 -0.007121668482898788 0.007803656431891835 0.0008398103995219102 
-0.022881856027141635 -0.0031024958606727247 0.02926728657904592 -0.004940473430333798 
0.0009350060036152681 0.003973456598934704 0.0006001517012372194 -0.013109224245191531 
-0.034697435219530094 0.007808606253518313 -0.02603972643676928 0.017085454728397436 
0.014124758451682 0.0029486070156164407 0.013150423860688173 -0.004418237458556375 
0.004348263988588276 0.010235765800805157 -0.020329746556931018 0.003054747062099582 
0.021341286688502912 0.0034822188221184246 -0.002815241642829335 0.013473243900236524 
-0.003107605864199722 -0.01608659611266139 -0.0006753202542204652 0.001175921931810061 
0.00823453965827831 0.0036645556941341854 0.0025424126764343555 0.005435722247556773 
0.0010436125047715075 0.003187299435646219 0.0007006285732856714 0.002019070798478935 
-0.010752818322459582 -0.0010415910539925935 0.004641829504061424 0.0004930096281109234 
0.01318919002718582 -0.013613537601095807 -0.010438999767018049 -0.006751724748059195 
-0.01043459942587698 -0.010235802197517428 -0.0003169142900060808 -0.011011919461334155 
-0.01075375225432565 -0.04197792780455951 -0.01658502745785474 -0.007190456771985734 
-0.0026901177696156972 0.01174795821017546 0.007510483592459431 0.012167458190433583 
0.007463455503857456 0.014074843325360197 -0.012483082654528355 -0.006413898988738629 
0.008745549921935766 -0.0006241872104833097 -0.018672418492488844 0.0034343499424060874 
0.0017246331278079063 -0.006105121221210953 0.005706271125581748 0.005384518169362375 
-0.10357419196769244 0.0028920487477630845 0.013600022456626129 -0.0008644048933560192 
0.0006716535231226946 -0.007228632962979753 0.010404253675476965 -0.002827111566365786 
0.004247372132131566 0.013999967910610697 0.00705478388200315 -0.007214258429374251 
-0.012938876706801432 -0.02653707718717571 -0.009426963908807033 0.00046577421153463146 
0.02064836032858965 0.0023346633398971498 0.003721679301005664 0.0006667009048430069 
0.04104172201918512 -0.00035763294191307784 -0.004399754087515902 0.0036729133070146362 
0.03344749032018019 -0.006467865187274504 -0.007282170628878941 0.004090256917818589 
0.0058363003273524845 0.01539776779251327 -0.011265211596211204 0.004858348627199485 
-0.002882311690081575 -0.00011554723425012303 -0.007609350473537117 0.00681566814192602 
0.0012182840914487436 -0.027478487407834755 0.004984095998808776 0.006232942900856894 
0.01660437655187912 0.0055580373102643126 0.00010230264255577128 -0.005112313691533505 
-0.0012189356583916764 -0.001486538940827983 0.013076729723224965 0.010763015268788924 
0.015144465824610053 -0.017815256747066743 -0.0010886028266023913 0.004378662110328615 
-0.011185292794566155 0.004115398465933434 0.0004811787424553161 -0.00658372865535653 
0.011145156100541353 -0.008961879005477916 0.006735975923049061 0.0016203925041536453 
0.006229436581841851 -0.0034909589311470017 0.0005001662143564382 -0.007035992994631987 
-0.0021252319439718876 0.0014826204934702432 0.003162719748034324 0.006399152124018061 
-0.0014291948163409694 0.001084800669373882 0.02047953717739633 -0.007421464708567775 
-0.010208160397377108 -0.005379475100444465 0.001656323917977998 0.006096550214603334 
0.015781414621257844 -0.004203338317268999 -0.004146018457885041 -0.014682007294917308 
0.002820271346114413 0.000282687035102597 -0.006679939652218094 -0.004864367205983264 
-0.007587913745802004 0.009732878331111156 0.0016184955208992597 -0.001550052718695779 
-0.002109752150626152 -0.0124236462398243 -0.015770212631731284 0.0012226699877137686 
-0.0044689433738739825 -0.0010858871264054933 -0.0030952242663707954 -0.0028426240607116703 
0.01148679941317992 -0.013607356725198583 -0.007704537287366963 -0.009680112413803347 