6 64 4 

0.5878037412894938 0.6297414894500567 -0.14434779160790098 0.4579473221172666 0.14261076972453945 1.453121477731827 -3.837654936920995 -0.04118170417684583 1.157367403882144 0.08730893252332798 -0.059520290362788386 0.19260002417048733 0.2155216366479505 4.275574414998894 0.8096024767073525 0.8049783133080837 0.2846483093818417 0.4726597452291718 1.8474496163674876 0.980161540806802 0.07297933979335432 -0.8124866937724978 0.34738166435207396 -0.6767389966268881 -0.22043027655683695 0.3656251991383385 -0.8222831068662836 -1.0942218701085802 0.1360888046115295 -1.4924507084861578 0.22425760351833668 -0.20033187245943695 -0.76878689782631 0.5313126576053786 -0.5852244809114149 1.0283682254366222 -0.1578731855422116 0.6763603812187534 0.5686581920438658 -0.4759615011305436 -1.2893632463143674 -1.6300960718178952 0.24438418802054498 0.08636102753034987 1.4900994743703793 0.8812152428403521 -0.33112419632684753 -0.22377109280871169 -0.4904120753762517 0.8835212186800605 0.0745953825198243 -1.9250181776899753 0.5763328824982125 -0.991149822736129 -0.8461245764851915 -1.5868801221790474 0.03633440968011916 -1.9888202378849384 0.25020440318656534 0.4631229478315216 -0.7619923965564908 0.11134216312459844 -1.042194460614828 -1.3377882389011646 

-1.3284793958567798 -2.0524044007935367 0.5551766460618726 3.7526258125381156 -0.6947683237988805 -0.7858650442215495 -1.1176572290135403 -0.5859229065440416 -0.3492810164848349 -0.7921108108604266 -0.7233639995900588 0.3036893510072642 0.12026171848762328 1.2352124304332939 0.29076918686176206 -0.44675736616078493 -0.9787571331605425 0.6365133299674299 -0.4627260534992688 -1.0840591980397727 0.1328219442740227 2.383074564915689 -0.4610166925391821 1.6935123158920902 -0.1544386851752572 0.6300697186900514 0.5082431988257152 -0.3498403172623627 0.814764519484915 0.12059753661296838 0.27659525217604336 -1.8320713168114895 0.547865449640419 1.0540635405045535 3.735326136954198 -1.5052791225478295 -0.5395113883174297 -0.8164380666187029 -1.3026990568548549 0.52167129109191 0.13013227915203243 0.05335655534696209 -3.002915054445087 -0.4072346305177631 -0.4528282019388698 0.14948858144801896 1.2644503065218875 -0.31230157330084 -1.990697341859309 0.07131907864206774 -1.7500639541004799 -0.10985724403509167 0.14144653724838094 0.24032773500216112 0.4176425254420484 -0.563513951478266 2.337409291117908 0.6043502462283875 -2.093504989744994 -1.5852868914453389 -0.32609158346838724 2.7142553725679597 -0.05310001099293671 0.07333206651315541 