6 64 4 

-0.6902990540861635 0.20760311896755226 0.21639867746196845 0.2878448461039511 0.5815309180410482 1.5510449735000558 0.7272901971668511 -1.197995330180219 0.6633804455351174 -0.4941026844741957 0.17612383273377358 0.583092841086656 1.4197514891913496 -0.37734107946500567 0.2810993448446323 -0.6402671629979614 0.5328633867424127 2.348951706276961 1.59326520561105 -0.20460970170277104 0.5845041060991497 -0.7971853477616158 0.4982726340108458 -0.6505751062790506 -0.42566969773381236 0.8081074241896076 -0.1492046895912692 -1.8599790260664788 -0.39032676086940865 0.3863814946051572 0.36259571078068836 -1.012376994011439 0.49397327942881386 -0.18583257165356495 -0.446587627770051 -0.5006511593205553 -0.36548567427815387 0.3295130245515614 -0.8841404515893273 -0.4215938622727262 -0.6051124381579616 0.16616817775613435 0.014053512356811718 -0.20493277739755505 -0.26921939936272177 0.31321434276150584 1.4620330527412806 0.47178614193958135 0.3765540913468926 -0.026377025564310656 -2.345237957021109 -0.44499218809394997 0.31895002458253674 -0.11776016968547875 -0.16346612961407014 0.6967032473284074 0.4415647118501833 -0.8563608128804231 -0.7219037589751744 -1.4174968176665421 2.3426623441759213 -1.029307647715345 -1.2287118075810608 -0.6340997562395446 

-2.053546828994002 -0.3089545452831573 0.972290176864475 -0.8763943607857392 0.9914058510971301 0.7816713660986352 -1.4274069363414792 3.2249571058025106 -1.231113785650088 -0.17134315352697077 -0.07651774971320702 0.032655846029727334 0.710114389508142 0.30303030322882607 2.2734184552210586 -0.8316849372889749 0.008520862253948169 -0.128579509767649 -0.25537695818653167 0.8840432771177361 0.00933102253014819 -1.0341828431534066 -0.32895739401378277 -1.103976266963401 -0.4658627617514744 -0.6815438593036531 0.3406884008335949 3.6639881703472925 0.5396618596044876 -1.2474290427592214 0.10776776426984377 0.6334329815164246 -0.29388432810489745 0.5237589457773562 -1.2053110955947448 -2.6243291465174914 -0.9872712086387653 -1.7159691306024165 0.5212816102897687 -1.0320735070126392 -0.8291675955585673 -0.6128304891614162 1.3300802249600019 0.9045938316942711 -0.5424937270794075 0.7334122264031887 -0.4003345730738571 0.5471259548702965 -0.164491886594733 -0.8810078191494376 0.14659411207752365 -1.0952840550569647 -0.9549234462411578 -0.1356174462937574 -0.17101406489006513 -2.0231387731514197 3.000194769449572 3.3886793842657563 0.9665623245411689 0.034655579348531945 -1.6116656176736057 1.9982296123639538 -0.6132715492866364 0.1440050468903626 