6 64 4 

0.6519775623209437 -0.06136316394907466 0.21600393393584597 -0.2940227450794178 -1.1383881804423441 0.5147725501944547 1.1559190859741153 0.20007701198990205 -0.07685942564076556 3.3075671133900886 1.0021576540745478 -0.05476688359961308 0.9026443644953661 1.278958676882359 0.019847090344973603 -1.1657722984538041 -1.22341887951701 -0.38871134068547925 -0.4587320813937433 -0.6779933415310078 -0.5303476657389713 1.432893879008541 1.3707937710411537 -0.7048453710421546 0.9745189972780427 -1.2831622828929656 -1.163804446963937 0.7201303237925647 1.2455095752136176 2.0415898205724288 0.3444479377648166 -1.2382214530054358 -0.910685559877133 -0.5418436218370614 0.2198512404001803 0.032730428247350535 -1.0446080073498858 0.18236686263195695 0.14118841158575637 0.6739319297658632 -0.8702056507416595 0.074330236393524 1.1692948573158737 1.1865507766899102 -0.24507590645794178 0.5477177496802796 -0.1547449993582253 -1.0920934207955055 0.16443272697236844 0.35032768872985737 0.22869065652924506 0.006651652903062553 -0.45959858435637335 0.07038372835578881 -0.3531046153764867 0.10891576796029495 -0.8892323543727662 -0.014012002053623207 -1.0610843283227682 0.15921930427263362 0.2629144476475127 1.204048763411924 0.045912252821623506 -0.7934925686787725 

-1.3325687055243272 -0.3736070753153816 -0.45890359875449993 -1.9220576196067998 -0.7972652392512667 -0.3093850783030104 2.7173069599534543 -0.714106764205201 1.0539215218533264 0.05386996925744214 1.1031135246149435 1.0977536042014993 -0.28245511919495836 -1.2884577193014348 -1.3854195352375667 -0.79822620342386 -0.6249936763999705 0.15208278297982042 0.4875993611192142 2.502715896488408 1.5697201614358611 0.9041073376331863 -0.5563809505437507 2.1769450496128653 1.0575528544723136 0.7810205017047089 0.4837171097300932 0.8334304578504995 0.5337376290248804 1.1784242386458414 0.9729222272582583 -0.3951819317584738 0.19919507606976422 -0.847183030031114 0.3158930059483564 1.1936779907107895 0.5367128133447169 0.2866177773650612 -1.4336734291833955 -1.0914893355288449 -0.23406885650303202 -1.7435617970454993 0.9251300624236481 0.967233952448495 -0.6408601738827321 0.7228870976248654 -0.2151340537861192 -0.45756100692246515 0.4665765142518221 1.1695157111940886 -0.4856905168139682 0.08791959488924718 -0.43577152990130796 0.7559413366494135 -1.5261632084454033 0.4849607761832437 -0.04744069274141889 -0.232777901179114 0.134400614846719 1.3745216213898142 0.24745543741060294 -0.7598860538729684 0.8369033569047314 0.18886983907247964 