6 64 4 

-0.24308642683624873 1.467655658190405 2.922072374539799 -1.716225992032735 -0.2172265166185963 -1.2542801485783095 0.2570098523640866 0.06827245400238334 0.7159714044288673 -0.21726627110660826 -0.5971173151057495 1.065468951916705 0.23893151846059998 0.41347848821669514 -0.23292309827422836 -0.6060448134882309 -1.652302702476754 0.26360926541475493 0.8069207968182363 0.14886462579433427 0.16622037237434198 -0.35107489352234356 0.3403114826188353 -1.3695470845275781 0.3899393802474173 -0.6700669339289179 -0.2669325118471688 -2.3551287183768324 -0.32613309498074866 -0.357694496247121 -0.11655003493843501 0.4502936166466823 0.10394609610678021 1.625422400957285 0.4603836222451931 -0.7968681850833526 -1.0444167983692565 -2.3580282454029304 0.7071815212285311 0.6529862230832715 -0.6967942357676155 0.903071677816158 0.9152505239187464 -0.2930385556591784 0.8642812839156083 1.8375109589679888 1.0619395962664142 0.6866500067518384 0.5099343905916203 -0.7221991756005077 2.347826023432394 -0.5805972180522175 -0.29971978935980065 -0.8004092057127908 -0.2447380669641116 -0.6028768658618586 0.9404464337337697 -0.4688430260784111 1.639189400794558 2.6312091616880324 1.3178633483025814 -0.16794633467196948 1.8715816950397428 1.1122655328008686 
0.29909974466073097 2.0717081547589395 1.0535036288121207 -0.0713236612220503 -0.5364453135674719 0.08267243681187852 -1.608424505902849 3.803121812804808 0.587790796405577 0.1650571550750836 -0.3420500982047147 -0.2696211500579598 -0.013487259242919051 0.809665246170164 2.056459840018669 -0.9117445702970994 -0.912438507670524 -1.4996079877801125 -0.00014434627837146973 -3.093882610590539 0.07364803811255262 -1.2856397849333014 0.5851902479115277 0.08507959530579402 2.4030105900122627 0.45917261382653973 0.11569479954799106 -0.3258863971930131 0.3191386154334314 0.012123926860413055 -0.1872237930948727 -1.69878266885856 -2.00052786248283 -0.8870536730639138 0.17783955042046629 -0.7812068854528645 2.433154037156209 1.0405975907096905 -0.4420279580609887 -1.5562176211603853 0.969130044009868 -0.9298033730938468 0.4423118789839842 0.367530938822452 -0.9833076101692095 0.36410260456387245 1.0879254407767742 -0.21273264392051883 -0.28025988032571403 -1.0691688386362537 1.0344311881451869 -0.17446309436819613 -0.5377362906155466 0.6919887067923896 3.095466391293683 -1.0804154240136665 0.5968894452671218 0.7416350412436441 -0.9660875307528759 0.2513545110158591 -1.3672542941849515 0.943795004677339 -1.467674462014242 -1.6437227824453542 
0.2780182604290479 -1.1122622852759894 1.4295896386969162 0.836294049004598 -0.248164439602913 -2.0718309846699214 0.9353748637716572 0.32607316817606113 0.574232135504066 1.4795767740966643 -0.055196402193839145 -2.0243855464373124 1.1052844754577262 0.3058989149540718 0.90948985297475 -1.47940096671925 0.07100491547020672 2.11110920819848 0.09648737351456292 0.22600208048681025 -0.36399944042390864 0.686426165224817 0.3925645730070721 0.8313757902060167 1.130204068499238 0.8385992994419208 -0.2741542147105068 1.4548434071604974 -3.0264176202498168 0.3667600991951906 -0.6157277139133335 0.3911474117259128 -1.0278283983029868 0.7283760723300322 1.225381445978469 1.0704504249251763 -0.1564271987289123 -0.47935354931729346 0.05601188774378057 -1.4723182862082322 0.5410504182271445 0.407986183511391 2.646086011916059 -0.8933681625107799 -1.4499480181091113 0.7512215281192025 0.011910057697660324 -0.1906713426538557 -0.982598460295516 -0.4656935121465523 -0.5593934568954402 -2.936490950506224 3.081050521104484 -0.3938920377167817 0.2870590902878112 -0.040860359666824234 -0.5684139222563739 0.9044522280820462 0.41329992946432287 2.2746016721246263 -1.295161577113291 -0.29517350216703114 0.26049302023182364 0.7675974646529862 
-0.9964016900023254 -0.6629008421060927 -0.6819175392581316 -0.9677385461024249 0.03253588006194651 0.5071330021839191 2.598283701567919 -1.3037165419944996 -0.5811691463721521 -0.11474832263824249 0.11053930634226489 -0.22579315204734055 -1.1193877462049364 2.677865406643931 0.06998640001027434 -0.2741686851042803 0.99481844488703 -1.6116207002786336 0.35754272668939274 0.694978724607025 -0.15848297152706187 -1.8212877211905274 -1.575679806733339 -0.15741900420700888 1.3650411430966283 7.009130782961478 2.0812497481456314 0.8576648843260951 -0.39660646009109607 -1.0547812315655953 0.0453524058341757 -1.3875315022494474 1.5920577628172472 1.2469574481680166 -0.04897898030503023 0.07604479429538212 0.8889384150684585 0.608786325409846 -0.23639953672616623 -0.31334128383237997 1.4142021734562775 -0.24413564323744252 -0.0898101722358192 -0.2881865072099941 1.4511122303046469 0.6375708152490919 -1.3318113675008578 -0.36071410989958314 0.11696488365983791 -0.7335094139665381 -1.7199129292473279 -0.34038725666738406 -1.0261289680559993 -4.693119001314619 -0.6846838765383677 -1.0571215125537017 -1.1893791819317427 -0.15296740143411297 0.7791081045518017 0.1362042059745862 0.5865063273670076 0.26227331875690596 0.32130172908399235 0.16617122903488274 
2.1531260779557715 0.003770104500028659 -0.18720034846768277 0.06075639227975819 1.2484827131373193 -2.6134285608101036 -1.676113593014082 0.014035696876958489 1.2885798923691696 -0.07373721143851893 0.64978686162423 0.14719408056600053 0.8870429678210865 0.6825971807146656 -2.324313183153947 0.18188244956980285 -0.15043004330010168 1.5364782151553165 0.4371036122927024 -1.1717247943560458 0.6039112192925099 0.12184129076942021 -0.9377512035598813 -0.2304469459331521 -0.5524832715922421 -1.3379857050659394 0.9422765566741491 0.06576611860397678 -2.234872515288839 0.376767834124598 0.36507909130854743 1.4040043729000231 -1.8787563269893646 0.633511028388712 -0.2501828695397419 -1.174029287624403 0.4111991081022584 1.0132844377835122 -0.40452155092499503 0.206313718685799 -1.0044154426332061 0.04106407966656931 -1.0591659877653956 0.64164362830922 -0.7462876746279681 -0.10105743983642274 0.006429878744784737 -1.7437615609488282 0.13371122616629505 1.0528588049544816 -2.1514574125453274 0.5155201070716122 0.9271083493823613 -2.3680324331576594 0.5944485151396167 -0.21500730582730285 -0.051283473519812196 -0.22524653522849752 0.44724880769808 -0.26627727691506925 0.9404602221029417 -1.2419380741604746 0.21613960735965065 -0.5818608311005947 
1.3852578169085163 1.3409937072373768 0.3227753682327589 -1.7979897942912617 0.6014987833814989 -0.36818797588031754 0.2054800055918123 -0.3078534145777037 1.3241904027086366 0.5180022553643422 -1.3661544830341492 -1.2704935464135316 0.05422086474812614 -0.8923944927185301 -0.31470167798912946 -0.6103769779392896 1.3443468573529391 -0.1468354410384501 0.22019181723643994 -2.298120861720759 -1.7414705159888757 -0.5132324847843753 0.5415856921422164 2.141534703038876 0.7592171876676758 0.7587199615757853 -1.7680523492362352 -0.07662131336840432 0.37646241919110973 0.6594541079874432 0.11972180197324919 2.203258535082221 0.377506699180825 0.7600609111798733 0.5264862742981522 -0.8988997451550609 -0.516702041260801 -5.338942583745052 0.6367043196159949 0.23116769857322855 1.1497492463781869 -1.1717291298674082 -0.175313733076263 -0.1513074891741281 0.9353574052077527 3.673073466011232 -0.2140978640103033 -1.0218835332809728 -0.9928492577966602 -1.4764887669474798 -0.5827009752597324 0.6243544872958743 0.9882265990746325 0.1325193220417801 -0.31643032522453707 -1.69027923043137 0.08542593122934888 -0.3191942040154041 0.2448067292677421 0.6632809114035435 -0.08725191946478954 -0.19068069112393862 -0.10384737193047484 2.032318348792898 

-0.6345523402783032 -0.34903846215718987 0.16912301938135377 0.7198702144811057 -0.48525991314360395 0.3730660770531684 -2.0370602157753903 0.18550243993252932 1.2262507271116534 0.2784486346487686 2.2846223146278226 -1.0541800634535157 -1.7196721953223115 0.36146104749098606 2.0153917719058763 0.749244490933213 0.7053766063331525 -0.940769525233907 0.599148316628213 0.39786012411366173 -0.5219862038711189 0.5006436446932693 -0.21485597059202352 1.7694941154709698 1.168279384040205 -1.282787465873874 -0.175121413708126 -1.088956308754702 0.9146386535346372 -0.9257159531852001 -0.11417954261641165 0.14470020811688325 1.2548182067706437 0.7118277277832615 -1.3410417168111828 -1.4072829961091227 -0.08273238246021809 0.6516133764748525 0.6757668983728102 -2.4372894362196384 -0.33474191597842606 0.2288819560339012 -0.19763087410011684 -0.8041371512513202 -1.2435621862421624 1.5643247437262482 1.616077218380002 -0.07390362384584219 0.14930907777169125 -0.4239622324205003 1.3052895927174382 -0.5020258002967644 1.109042097445911 0.589152623354771 -0.15420973810213007 1.0661651423164966 0.25473715413296544 1.26108478433984 0.5275305822897951 -0.5517265175194801 -0.8045973307527323 -0.7683977852703958 0.8039236731822921 -0.5306692177548492 
0.6086058752845204 1.3878737387303755 0.5313342770025254 -0.21890601514282276 0.829327913756494 -0.2790905731303117 1.375318292752098 -0.16592736686307602 -0.7647350926829559 0.3444462840531193 -0.12748978939458586 -0.7891236103009499 0.2796081517079159 1.0528690176198288 2.690627667898672 -0.2503901711440235 -1.13596525384732 0.9925811205421287 -1.9573518600213067 0.6145749382085031 1.2991214353075562 0.12621543719470482 -0.00823491829418521 1.7715681030805561 0.16990906469416828 -0.1531612623690162 0.5114660538506872 -0.7264055000113989 0.41897488231214464 0.4325240821643151 2.123342672578753 0.29921307998647967 0.04902173672003958 -0.4909313562506054 0.28238173352327883 -1.223648911193638 -0.4554338371172878 0.9031429828787167 0.7314674713080614 0.7711617984982493 -0.03531904479052119 -0.34307856076670207 -0.012188825857847828 0.5675952863705305 -1.3183905160621938 1.6524962553984142 0.1456442075843728 0.9220698188638824 -0.7480817568125672 -0.16320708025958416 -2.1105761085355836 1.8461044157610236 1.6554809478371404 0.26763385880865614 -0.1563288756707813 0.6668921170144931 0.14204443531862748 -0.41738980574106865 0.8984023854442589 0.594814700588361 1.2264026266779182 -0.41991934303983314 -1.7638230906804555 -0.9936979139948904 
0.294461362441637 -0.4797924596116253 1.3578239038605022 -0.4922134191571138 0.7077248991363944 -0.1502067406608388 -0.16974848809100343 0.44026063896308737 0.9735920298632507 1.007627306310846 -0.12711710092960013 -0.6003090278162974 -2.183740610450594 -1.2145214494631187 -1.3172388201272243 0.21209701892231622 0.47839614584142276 1.2270529073522103 -0.33476039820888825 0.7648289602372882 1.2230955088039333 0.9738686338439122 -0.9223612632935515 -0.4099349267890947 -0.4969436491589711 1.0210184286588009 0.8603922374936753 0.2812433757156282 -1.7049819878761814 0.5357186743988881 -0.9214144562568042 -0.7676332339610881 0.10735880486025759 -1.562865468733814 -0.3653695900518073 0.10280370086093639 0.9944537721221717 0.033713638593450626 3.2112025788129888 0.5675630319088956 -0.3500759161144284 0.44157598631053036 -1.7264969634295726 2.610363817161683 0.19016359001154828 -0.6061428389379053 -0.5899359895708315 -1.067284414143068 0.7860884026044199 -1.34020234042249 -0.03340003578898254 0.24706915031667018 -0.8361942741194605 0.1246701779855528 1.3768905098818645 0.3647022620934747 0.14505123481697546 1.9713378107515285 0.5172354929491818 1.3824368291089517 -1.9075481807975447 -0.00031658490166796725 -1.317785134961433 -2.5814048325403087 
-1.3048049675391342 -2.0024940496954238 2.595811776434366 1.5963193216781657 -2.7976790632680086 0.8882734173194979 -0.4671808145054636 -0.9450981254952276 0.09375202681662993 -0.23729576861152993 -0.4209678532975868 -0.15495720066086402 0.15066293597778554 -0.5476305773759975 -0.1293806907531354 -0.30105765783027527 1.2533438571339073 -0.1831924142312624 -0.5324462170600416 0.17483034641477624 -0.7150041012451227 -0.35650694147092155 0.12194293819600949 -0.44487170295732353 -0.2894516269609189 -0.5826951468057058 0.13453703266738187 -1.8589594254942199 0.3397611798397942 -0.6927769261154068 -0.9840680551148526 -0.19507653039070724 0.32266255348223105 1.2774843315811577 1.2662226323722876 -1.9080081731428657 1.0165598969424863 -0.8170804577674455 -0.48613924800021174 -1.4238491242190023 -0.2129064167434695 -1.1628893224657049 0.31519079851367066 0.4771052359251407 0.7527545212343375 -0.6648526422933096 1.5179092370981573 -0.20805669394608228 -2.1227156223012926 -2.7612694570092264 -0.3683081544007955 -0.21984986364285283 -0.9972325511325912 0.21597949595577806 -0.5412272749735053 0.9925723463063414 0.7390963794992053 0.014994946636795545 0.7462110290327804 1.3687764102669768 1.0429158176715823 -0.12394121644715274 -0.6492428672040792 -0.2087627085144845 
-0.8124163831341608 0.08927605389159227 -0.1973147344251143 0.6568442390115222 -0.3725404843921586 -2.1726504646381235 -2.141810155036791 0.013013091005653673 0.11770910052707576 0.025788458504730907 1.9580629064489838 0.4593045530520742 0.08577003061773748 -1.1186859858101688 0.7024559224293722 1.2821163747376156 -0.9598477507642025 0.16175741659269305 0.6521285521677326 -0.6820404776592759 0.17628722967677785 -0.05983460732653225 0.9543173089240634 0.3688720119695623 -1.2841867147473631 0.9152868439245139 -1.1909812114889053 -1.624037714228738 0.2460338428328344 1.0670788460011078 -0.022952272696942985 -0.17684154227571294 -0.31445194369555446 -0.6441503981668002 -1.7336765994876295 0.04763094822463462 2.628925963119132 0.859570244955045 0.8256784516816978 0.011655044857142116 1.3842145084116404 -1.0110367415145176 0.7946823944612493 0.5122675265322394 0.9178721828053131 -0.1560422631279853 -1.022570328433875 0.1478746255109337 -0.43394701651515194 0.6245605643629785 0.16997997495706305 0.21516230691611501 0.5484471865513939 -0.8785013903975729 -0.11837872778585386 -0.06305614197645562 -1.3322505335180368 0.6559427122081579 1.226755349604994 -0.5468521093060736 -0.6710815929388166 1.0967252755189156 0.7124237458394493 1.1707150766299572 
0.5359042038991383 -0.132090447682985 -2.234742425840028 0.9404093793086366 -0.9697250635233948 -0.32918857836252086 -0.49531716093651534 0.5026142916100765 0.8034389090748486 0.02545675263075595 0.1273060220023064 -0.1003687729343674 0.8437613989273994 0.015062111365794837 -0.24712640574758607 0.48696334984650325 -0.20272675350386307 0.01928998993931479 -1.8652068177532122 -0.23600397092321249 -0.9116352659981317 0.3681180728503227 0.056629774313267406 0.6429629017882897 0.12578131169469092 0.3181430809798164 0.33032673410051955 0.1662548934988788 0.58218281483483 -0.7245047732252857 -2.4063670378117874 0.9420288641932031 1.2151799904641158 -0.1306614820900404 0.7411844797001494 0.4484570791173153 -0.6157375579922163 0.13597698849291973 -0.8011092384134563 3.6369705602377946 1.0379400726879824 -0.19853121387903333 0.289381887512818 -0.5717729684122863 -0.2977605870963161 1.4693365479030953 0.2931576995349244 0.054083474144196855 3.2187649976038473 1.1596389060198697 -0.43463618378804936 -1.1767797924489523 -0.3437082038870492 0.6848642977080941 -0.014331591958544294 0.7452351948992059 2.1861255559435455 1.5014009539901534 -2.12608973225814 -0.11984907494496858 0.31169055867337403 0.3681855580547917 -0.8096662347944334 0.02420756064811778 
-0.6953035254094366 0.1893373034318425 -1.2370025095835757 -0.5178130254876409 2.0092305446899954 0.010177159624591718 -0.6904475644808953 0.8478497431111109 1.61157475801579 2.7681336918284276 1.0615742087948428 0.5729167466430177 -0.3798186232606554 0.16241492811584532 0.34902927203681927 0.6021844547775865 -0.6150845850561065 0.8523478992214157 -1.032088758631617 -0.2762843744526575 0.2401572491051458 0.45941378596806026 0.7491041788022087 0.47041512019111076 0.4070438080508561 0.09838427418313371 0.8761254793277163 0.22449334766649146 0.06919919881613762 0.747266406113124 -0.45998977568987665 0.417455043528922 -1.0846006869683307 -0.7548811201567253 1.074113233643071 1.9845460766859748 -1.9072049180541406 0.18757699050749282 -1.097146225627497 -1.061983668074051 -0.2523131749110558 -0.7421570126182213 1.169203045264765 0.12466509316594905 -0.8973211149067497 -0.5020442101644151 -0.8269006314741038 0.32580843098708256 -0.12014893844310344 0.5539826349592212 0.522351725985207 0.10483695502682341 -0.7736506010341615 -1.4002844701865387 1.006495857890258 -0.619301279268736 -2.267169618494953 0.6022147035459057 -0.29234042020697204 -0.3823037203098067 -0.9500228678670862 0.26119900165831894 0.2976259633024101 -0.0003924012634384749 
0.3190893353573938 0.9715494499664662 -1.1495406709943683 0.6976374216820322 -0.4578897117350594 1.0267985832240478 0.34683695835154643 1.1405543803302733 0.37728980416262187 -0.32689039252965907 1.749206930279267 0.808496328511973 0.02033708380954258 0.5376264490560715 0.4119714258871951 -0.6804423771321432 -0.06381863946652551 0.3894868264884899 -0.5344962440504887 -0.377028154311613 0.8148953570367761 1.778975351960409 0.5760406679401763 -0.28388493741027115 -1.0495661999800785 -1.2203891398581552 -0.34475808902733424 -0.6507232316032201 -1.067197599414804 -3.7976279855752653 0.23078929304203796 0.9208632161155927 -0.17435365385863902 -0.3161321471235569 -0.11957836875317106 0.3052281930487209 0.593590248155548 -0.0802885394779442 1.490206802691225 1.1675008099450244 0.10938469246587867 1.1763631224559108 0.2536286506771446 0.3473253341580822 -1.203061071641127 1.5343928542803718 -0.5419264051390063 -0.475146559886128 -0.23043788744586638 -0.409206547531433 0.13647270215260604 1.3043757046638094 0.13216892915204487 -1.079713203788846 -1.152082246064001 -0.51394033085894 -0.7946888812731087 -0.4644936290976168 -0.5975849594995449 0.4237330831923266 -0.5897470271210916 0.8123966467108564 -0.3345970413296931 1.1375916150741607 
-0.7712139244715327 0.39662903020872314 -0.26728206336159477 -1.7326943968810424 0.8296481877728836 -0.09791517729567499 -0.31900525517030015 -0.31676506932862875 1.4340080656512326 -1.2600594757508512 -0.6276921007999852 -1.8080242340604218 0.08516637810659627 -0.5075243487315795 0.6270941075920439 1.1475629085480243 0.4075945282382756 0.1645576934198981 0.9437586195439004 0.7639501039763873 -0.4065251073898619 -0.09065940712049009 -0.6908170718898077 -0.7613535107091439 -0.19123253667599768 1.0788807232128481 -1.4909823652663208 0.9126820608427281 -0.41084738182887365 -0.8539453749031304 0.39987026748101 -0.5405387527411825 -0.38638729736405614 0.6901885770123982 -0.6434758858459203 1.0434891192888385 -0.6086042572791055 1.924932154303716 -0.8074803075006285 2.648635538324846 -0.17184986612226483 -0.5747528024619479 -1.6585211462075102 0.9005204162714752 1.1409860102904819 0.3433748291193647 0.5035903850018623 0.30615677914115236 0.43103493965995965 0.6045236124636852 -0.04213597141255605 -0.31614364777990167 1.4854436256968184 -0.8047408307800571 0.8766445040974845 -2.3678276860231504 -0.5808392380450675 0.5034428177570373 -0.9433658430478562 -0.04255561403770169 0.009301831790671851 3.3706189070173487 -0.41580126267784107 0.8207678263725953 
0.02302675635151327 -0.008939682958813117 0.24754179839567833 -0.43879880322634646 -0.8820559235549366 0.05531134584249775 -2.8173956538044056 -0.2154216879036176 0.23908443877871385 0.5839128437419188 0.8735378611603608 0.5230136759465159 2.2584757569048284 0.5645076619389697 0.0381855173438281 -0.6621929651170365 0.15929831391243396 1.7819527124516292 0.43066938605121424 0.6071797197225435 0.1693825071076934 0.00030162374840723115 0.09221815561167382 0.2535131974243088 -0.15016310826986906 -1.8123873117254359 -1.1984147344917928 0.7960718454276327 -1.7706374835176986 0.3871619910850178 1.4319639854315611 0.8055565928705751 -0.08666748567482405 -1.6841190513239415 0.49614965494644436 0.500663590713915 0.6808511959464596 -0.043914502305064294 1.3886243129257052 3.959157728189354e-05 2.102409330291078 2.400971069951309 -1.1655585553958783 0.6511948322728779 -2.208382788056465 -1.4596604220711162 -1.5774243944605542 0.19031830332674196 -0.6186658487889373 -0.5072829531419205 -1.1909803127809677 -1.276678840987689 -1.9229885487700071 -1.3942856627797546 -0.5380999826242656 -0.8939095345644547 0.40357174090854286 1.030051602465527 0.9067229096661497 2.1702656701731957 -0.5866771543428859 -0.8345615688500866 -0.5509165073879324 0.6668929635245835 
0.9939515040620298 -1.0415579177690006 -2.6656625472419995 0.2909302457333005 1.7352446543306168 0.5182691369818763 1.1448771479478632 -0.7495934543747047 0.403486489686483 1.0677084307614222 -0.3983240923168486 1.3091017714052244 0.06215274106774924 0.4889078389495988 -0.4716562577798098 0.9617413323078398 -0.010560502922743804 -0.018366700759043297 -0.3909354131064425 -0.4946087265746851 2.0203384482494555 0.08448477589222013 -2.3661203374558526 -0.6725762879342209 -0.7881350508659931 0.8683093001332867 0.43148470075069895 0.5001158287028122 -1.3151856777150306 0.052137688521052744 0.22025316708712514 1.2655231956459885 0.33849445612568235 0.5306073070170073 0.7185114461423885 -0.38186250661440996 1.4948883669031103 1.1776182215207849 1.6232886545055076 -1.0603421582733263 -0.3849675386901742 0.5544739436181696 -0.4241731758395791 0.38388414197101584 -0.3127165718320665 0.5580624991371638 0.5737007319979888 -0.18981279392923606 -0.6800301918693785 -1.560102248711967 -2.39246646617761 -0.5222676015488553 -5.005733859976346 0.6821139088244464 0.4270121759167211 -1.1735491225756485 -0.11825072935864128 -1.3070451464473316 0.9727371198680004 0.17658379253561515 0.3076086487015365 2.019901169475774 -0.38943672210650554 -0.39818635126056867 
-0.9602950195077324 2.629583680854126 0.5585268278915684 -2.7590414924228464 0.23645411983318845 0.930378147025581 0.31965765536927326 -0.10632610223763686 0.17190881407935402 -1.0019542827133434 0.17485286028016084 -0.3578132312571669 0.7240495182441229 1.7837414647093 0.269915233926378 2.6355489345325522 0.07765976183558256 0.2660130750878786 0.36585478582528674 -0.3941102935696191 -0.09688899569903141 1.1992577526414523 0.8324292094560085 2.1584805113840515 -0.3297972279886605 -0.11297907558358355 -0.05726593045631078 -0.06315382029292836 0.717269363164485 -3.3501203376868474 0.028907360003790204 1.1593388575887247 -1.4122937716500965 -0.17296169481882373 -1.8839263141139875 -0.67034698965027 -0.36090681768825933 1.2260211193212038 -0.7740731782049615 0.6338507277429538 0.391920249087281 0.2075159392679754 0.12922764989047383 0.2062174306461315 -0.03609062604640048 -0.1102014490603442 -1.1431818877450257 0.08080152823544065 1.5402399803870632 0.1363761925698058 -1.7743433370631105 -0.8727599182334304 0.07024255404335049 -1.8290965593280297 2.7498313927358677 0.38412399950765164 -0.6672084608236124 -1.1521385741984371 -0.08688614898819401 -1.605431106677371 0.14219534364890626 0.3851326140409826 1.6444359785788447 -1.3614950102353467 
0.21724351540420483 -1.1519557573227215 0.4301871997977301 -1.6363855111310517 2.134080470717304 1.993019157632572 -1.1315734721925699 -0.6439155196763666 -0.1310329541419794 0.6666548974690797 0.5516615298514099 0.6528006918781826 1.2419742472143125 -0.003338472934812425 0.980281307506917 0.026674423053419972 0.6424538666999167 -0.6337653723762436 -0.12861633422569899 -0.008885744273492646 0.8811613473134176 0.3690745195332515 0.031132394395174352 2.8515135264547276 -0.6961295311136835 -1.4875433778993572 0.030370887139287497 0.04701315166719495 -0.17295715010276788 1.169830965673683 -0.2976509892786628 -0.15497903821812997 0.6482634780522762 -0.7495448656099234 -0.8999208808676181 1.1872985853951608 0.28858777720069734 0.46179298502221433 -0.6210409233354474 0.37656715186412 0.12598822815736427 0.7523669644230512 -0.3020065949864117 0.3302820595345919 -0.8010575408203174 -0.15008277754266625 -0.12345121141855886 -0.609717193279995 2.208145724212757 -0.04086359680149386 -0.4328538676582068 0.1658435188365494 -0.27791982817719185 0.586266237626391 0.7422069387600698 0.5788776779132698 -0.4054877387364193 -0.66730229401797 -1.1007524246273406 -0.07696775676356192 1.2227060708627566 -0.907049201897563 -0.0483399722629035 -1.1077937603066326 
0.39796327108936863 0.6718486595874388 0.1838303174687918 -1.2202501513945592 0.44249762474968446 1.1421514373817963 -0.148350361120629 -1.103073672905523 -0.6415253472541105 1.472510075561263 -0.986142513028821 0.1555548660350156 -0.70828998280756 -0.3012824899057415 0.5646967699557889 -0.7854097727011579 -0.37686453381355217 0.6523521937746056 2.3247346839613554 -0.8073811979557025 -0.1804019638845026 -0.9621998150144755 1.3342564863849655 -0.07745013214782631 -0.631882966646641 1.272495848625886 0.08635524068162807 0.565986018310701 -0.7686535068038486 -0.8870632731144998 0.34346875285061657 -0.7061450080485445 -0.19390745203688994 0.5482120244516788 1.2392767216619451 -0.5609708524934285 -0.1006424174968147 0.2207288241428366 -0.7546018445399219 -0.5391412630290359 0.37370731801950585 0.12508804975282797 -1.2866962506300055 0.721698736991399 0.7744309480318066 0.1218154193614098 0.5885473241773268 0.1223955262790587 -0.5474649536281296 -1.8230861726845502 -0.9838435192936904 -0.30943206389768263 -0.8365806611379653 -0.028799773361434255 1.1645925683157006 -0.41416603940883684 2.2739029888234663 0.7119231429994084 0.7101268340015261 -0.3889623966287927 0.67695974769292 -0.46605733163163793 2.4787387070429245 0.3851785777116941 
-0.15396818546612703 1.639251473308302 -1.3712671546470994 0.3586720294902691 -0.7057774183174668 0.19987850477268418 -0.1636295165839365 -0.7876204253100811 -0.965087659602554 1.089342976836649 1.3034114147663076 -0.5877086003141502 -0.6803348979915126 0.5542669147377896 0.21107022206513398 -0.5347401583870938 2.7104344709155006 0.8053761079513401 -1.3488385087175432 0.35774057889443506 -0.5924271436125454 0.07083623933138868 0.5589651245921107 0.2543707059356004 2.588056193319925 0.22844757946262478 -1.6385530616965451 1.2101100964383456 0.16689246183672998 -0.030534428289591537 0.8091730589966604 -0.28905728433962025 -0.49056954570640343 1.4915324725586778 -2.516992783903768 0.72770759223538 0.22488612656215942 2.9543326686567832 -0.2665912321061625 0.027843428178577035 0.5644299166588904 0.8651476384136416 0.647256771453638 -0.1546433896684311 -0.24508873789613528 -0.1121381223619699 -0.1274853632386174 -0.21021336345880134 -0.29634618758315473 1.1130158338495226 1.0990054338652926 0.9635914012452149 2.68103653782878 -0.30730519981092946 -0.40143674580584987 -1.8111311453360446 -0.8499722266617892 0.4027765072442148 0.6195576196682441 0.8742115787203728 -0.4207974636200207 0.012203216881700115 -1.4743203497927737 1.3963699989804652 
-0.2658828243668753 0.15035141874823638 0.39924085292477357 -4.5704235727487434 0.6270388499538809 -0.9223749669889011 -2.018200317783387 -0.13573698177066315 -0.7591199604175337 0.10881441237645106 1.0383023791584671 -1.807248845738397 -1.5105996760568874 -0.9590440589184687 -1.1037411376448016 0.41309446338932243 0.12076697676591912 -0.012453749108865857 -0.3160345528977728 0.929416966552423 0.3958865938959968 1.045075529769159 0.24052321321196796 0.5174527597141574 -0.04628647701270653 -1.1135448281208482 0.45360915686184583 -2.080659644809708 0.30493717827330424 1.7881437228746955 -0.07356522750614002 1.6364970806266672 0.3863502504560294 0.4972584870831766 0.05667068811269532 -0.8732775889186569 1.548282740778897 0.2753477439481552 0.788956890157628 0.27927923697636275 1.336244862425095 -1.6174906926684969 2.1425950463413606 -0.20275807135474683 -0.17389320978131093 0.4693295900842373 -0.7699412334248517 -0.7088122402159849 -1.7905098095290197 -0.7820370601813542 0.3150826031943665 -0.5220981200150495 -0.9820064758288468 1.4048096915982313 -0.41299097628621256 0.2530859412823664 -1.5766317328922672 -0.8393784898397025 -0.5913080468952445 0.4640791024017509 0.8147987077055877 0.7468675630015357 -1.6935073414961066 2.5057374128267194 
-0.05396337709760531 -0.4491104463841311 0.14844040288413352 2.5131263243786326 -0.8843130730356815 1.2693255173939784 -0.21317711266792622 0.3961887798789692 -0.30838973269203535 2.5995467593893267 -0.8626632680024449 -0.8632062228996042 0.3083296560375958 0.9078395739469924 -0.7033611643828125 0.3039776337477107 0.15543413049354018 1.039662491461162 -0.670801830870503 -1.1475551711615415 0.4256568745703899 1.2539058414102875 1.8403020927084563 -0.39204225106979024 0.5551702920975138 -0.17114065792481398 1.3567918005651782 -0.1288271439780821 1.2827473078236313 -0.7010777557295138 2.556491674745448 -0.7063232384640041 -1.5110821202769833 0.007370817475095271 0.5560133139742699 0.6714290652425705 1.1684613417031 -1.5070285884102743 -0.7552109461343766 1.5409388566399835 1.078139110352078 -0.7778116617520635 -0.40312152603664 0.5029797985558055 0.4206345551557222 0.3874231342689744 0.2517435448805755 -0.788471158643734 -0.5481424685046696 -0.04827120574648224 0.24854307269882858 -1.3637557049344273 0.7160578169142341 -0.692447830554658 0.5589498328196945 0.8087008767802745 0.775670806651894 -1.0468252011379944 1.215794499311 -0.04099908739705816 -0.42694113352675894 0.6341811598288705 -0.6158247598023727 -0.11832068104368665 
-0.4151471733651408 -0.12868989892343896 -0.10367630614566375 -0.28442365574577105 0.18633857705630863 -0.05446957829608616 1.5814430116024984 -0.8408094107116285 -0.30304482906726554 -1.7367701411243535 -1.8933249685553348 0.46838702577389657 -0.17438706990690347 0.5849653597975701 -1.6789734692069065 0.260373048189953 -0.7403761342819495 0.3138657845454122 0.27583761864585726 0.0745868203443236 0.5065757530134 0.7613161534461251 -0.40622805533390854 -0.43136843209708353 0.30499435808985514 -3.2359822530319726 0.9868051655834438 0.6830592361540965 0.5800674841576104 0.16907815103898277 -0.26402640921841664 0.4352757872204265 -0.7924923964523017 -0.4551147652541438 -0.15717270478375606 -0.9909576860474766 0.8085431898159001 0.15594424866394221 -0.050604737975628145 0.08586116023643417 0.7047365261041829 0.52510809799204 -1.2703578364758623 -0.298033765600575 0.5166142678755592 1.092025217776506 -1.8091221462543328 -0.6886701865017638 -1.0401336085592436 1.646814910347931 -0.8655805234838987 0.18548598944774936 -0.379039816392341 0.18732950223674327 -0.7257630329784123 -0.1959500038870738 0.6859306786575633 -0.8679622541189534 -0.2807016610257885 -0.2250718028605978 0.8709330722359149 -0.039184412249867094 0.48823691422098203 0.2348567875706569 
0.07058928745852276 2.0518631278230246 1.0485407946100034 -0.4845794618000853 -0.07780749739429726 -0.7774611820489313 -0.5708881006490389 -0.2521001105124021 -0.19982817461250402 1.522181285713703 0.12285022208080089 -0.6518550618165436 -0.8091015061779476 0.8704390547407894 0.6229555458189819 1.5056999832703097 -0.22407406273045885 0.6915260269244747 -0.9921580728306759 -0.75506477501262 -0.4293815579292024 -0.17914945697645715 0.244959849922903 -2.6044830279116202 -2.502303950278737 -0.48795640764666737 0.4980143399215013 -1.2557840644895382 0.4646946089448127 -0.842114255360873 -1.099567925534533 0.14262079466438327 0.019813082239360343 -0.7483042791340544 1.3608090842255391 1.3851473041111837 1.581662845434003 -0.0015824058298197874 0.24021304612393785 0.8956663007250257 0.41787087891623875 -1.8181476808999462 -0.5458958198587407 0.07347760044512142 -0.058116325653168106 -0.32947988756194674 -0.2855109565200061 0.6349190850183798 -1.6488876156745926 1.5646811139351977 -0.1674626397718806 -0.08112895565686307 -0.2570722013135657 0.03897991150504057 0.5173958408893435 -0.8688257860521108 0.17563318989344184 -2.286957270516083 -0.795111330240636 0.0782277915489661 -0.5624129491564182 -0.41236549220299823 -0.35393677089905856 -0.6671465274795684 
1.0128247813005113 0.4110685185695658 -1.1262196141453007 0.525298031888279 0.22442536080877937 -0.007008139471154236 -1.5081608293223274 0.9266981573793212 -0.2254291415198815 -2.2135644243480663 -1.9482758873178772 -1.6094277778395631 1.0116202133366148 -3.3141585141822505 2.6250591377017356 0.020660319663369092 0.07622348571360119 0.3119467033927305 0.33307935538825406 -0.07672651971284689 1.2160248941249678 -0.8568290238011537 -1.4897359838431998 1.2883918100248801 0.5965775271581253 -0.3584436088035044 -0.35833029119902116 0.1829177012773186 0.6142592585801144 0.0017832559693608694 -0.9007918634539072 0.1084811515862782 -0.5404931231172796 0.9078941728558937 -0.2702003062650687 1.0555561921315826 -0.15860947759734947 1.2666270624269447 -0.7274504087179801 -1.1106888531634058 0.7511537005759584 0.045836124625192015 0.8379129559447007 1.6106375795965369 1.0193443631189494 1.2177614020970833 -0.21176623112377282 0.6785650361741273 -0.2797267327632952 -0.6430073419263697 -0.46425404352870525 0.11517662628010618 1.5926709124326857 -0.3656421907709634 -0.10496624700681634 -0.23630480075707586 -0.11676517710661391 2.3726630365716037 -0.615065758190445 0.3197656129193719 -1.2998774879116406 2.141648940151421 -0.7826995824160969 -0.6072267724024415 
0.989022091444293 -1.030918109792305 0.8491895153569421 1.0738737085643506 -0.24161390651647385 -0.8582341920747061 -0.31136275853213335 0.4615544402651564 -0.3144750132436508 -2.249974549356047 0.8004265688857236 1.8126484162995455 0.3503437058280707 0.2921055386709536 -0.7162285619079172 -1.3256270558378829 0.7640382901364702 -1.4242091934301795 -0.7329731114245329 -1.3366277691749235 -0.4570310454365681 -1.257161722901537 -1.3218501898814228 -0.16196822806992248 -1.2286182548996096 -1.0278067352877218 0.6373235859010767 -0.6443094574662341 0.06358401863148756 3.7748090614688663 -1.8875436703551016 0.7049613315446569 -0.19260462084227295 -1.1462582914547248 0.27992240670511376 -0.7374960338184187 0.09278179483065356 -0.10384318523250627 -0.6726019132836522 0.036858724160814295 -0.6429737905327505 1.0384033125392025 -0.7300644935378252 0.2920432812943935 0.2690633646641062 2.0410315610042646 0.0629583468194053 -0.019189184516026758 -2.841723880580617 -0.8619719113068237 0.6123209173527124 1.5834047300381888 -0.8976945947379668 0.04550937233762916 -2.1930022957532023 0.8271657097490349 -1.0202504243772006 0.04142738176766173 -0.4972409306290969 -0.6589741097696179 -0.5834688018044134 0.8032718552329983 1.0193326642758909 1.4674227120007348 
-0.7528959863009923 1.8788163648949021 2.0775214034320584 0.7977508740707768 -0.8157321510742124 1.0528408817773698 -0.04043150308142494 -1.1261955250963371 -0.33180583297579785 1.008989505523588 -0.7068519443959588 0.12475037770988746 1.1991002245706486 -0.40312528255285823 -0.7212219006351757 -1.5775603581633348 -0.7977455775068693 0.4535072315182372 -0.20085657817926358 -1.495305741435872 0.008501939932292969 -0.18710868625367255 1.0317570415276482 0.41411887695948774 0.9701375518483508 0.5523707348237255 0.08409552643896229 -3.0750486893267883 -0.4326653865869323 1.974930696306905 0.046250138379928064 -0.14397608739657333 0.2357036333096393 -3.5020268180530865 -0.304973449574744 -3.0036793985100667 -2.3888131539915087 0.4703579828306049 -5.1687520243290965 1.2581866353765312 0.569367534190254 -0.5828013642078148 0.3533471590965372 -0.06396564790561794 0.30776284984043495 -0.4952490745841249 1.241845383395637 0.6025629394564864 -0.2340303775151822 -0.20331520214705934 -0.35095941130698294 -0.774276004943404 0.5381338957003992 1.021664639853262 -0.17173118418099795 -1.3196724016959014 -1.0581467948866239 -0.20282505924073949 0.6773811586345264 -0.4232621310967162 -0.13862068532998628 -0.15906232825888983 -0.09476007883037238 -2.46813705771451 
1.2098986952473898 1.3512334612525079 0.13938707146805773 0.6564268644784144 -0.7729679005972288 -0.37104397900360625 0.45032876193681654 -0.1980062972897608 1.3791009302387982 0.0357013097119538 -0.9392159235871708 -0.14446310791544303 -0.8821081187820926 0.1978404575619143 0.4536871500179428 -1.192400375560893 -0.7088281066069745 -0.22486615310566732 1.6217509622790682 0.7833746129892724 2.30092364700255 0.2355620706156485 0.30119970145015834 1.193910514392589 0.25989654577994936 -0.3489271286365815 1.4919489164261077 -0.18349175748116597 2.884844738199886 1.6541521652278743 0.5722698745752522 -1.1472684765523367 -0.2785295519143413 -0.06272105146569339 1.0125157358433445 0.11703678442103346 -0.4419498203937846 -0.6573031548976228 -0.8145301759408735 0.23701304728319664 -2.777127594101959 0.22283514871081225 -0.28866344988904624 0.6776049136399793 0.025890802874712786 -0.104227092246095 -2.4833740706886256 -0.26580033892833954 0.07205403702085279 -0.46095944331601774 -1.3038887929315446 0.3581470642762224 -0.17784992973740982 0.5908708404846253 0.019737987550782467 -0.30399964815702346 0.023996340054334618 -2.0036339791674713 -0.3728236458457104 1.3949664222775737 -1.3487321902569809 -0.03512031936412315 -2.1556739688002513 -2.0035751482887894 
0.3191683675274891 0.9419433706127054 0.0031921715916053512 -0.31362354618002247 2.868852169560314 -1.9284574912224421 0.03214604431831781 -3.422248760253337 0.26852464404539517 0.4518982913739817 -1.2781055513363984 -0.04433571270187852 -2.643938562335712 -0.3823302247963541 -0.8024015626134731 -0.7127004553811587 -0.0724432647072743 1.7520321496543394 1.6962662467992515 1.0941204518203937 1.278830570037411 2.2025100716726653 -0.9298232233112856 -0.18753064501419467 0.32329648689153845 -0.05971208333704456 0.4116770395685247 0.4708203058614036 -0.6410936273472944 0.18203665624078674 -0.07487939846270884 -0.8383472395850056 1.1662156681844449 -5.871126051980586 0.10437640726545368 2.011964239661002 -1.6108208877437846 0.12536493956801925 1.5599687127174626 0.02771424233430361 -0.88714609929389 2.9297936828688345 -0.13105799710620972 1.4235788962254352 1.6707044311472878 0.2811744251573905 -1.5631954411958833 0.708017875414954 -0.23138574852671986 -0.7926874524614618 3.9584143237245595 -0.21653611149667967 -0.18877149336631935 -0.1059493193406954 -0.6976527112107593 -1.5514334034575215 0.0543423644115631 -0.18272810864420494 -0.3274958963337238 -0.768613408544345 1.825776619905299 -0.11121621322151608 -0.4395187833140641 0.8209318432404471 
1.214051024485887 -1.396410751031537 -1.2155158550644374 -2.451712248739816 0.9331481935993412 -2.250288038584679 -0.4655714646158277 -0.7658918090991002 -0.16828621466704574 -1.389185747558201 -0.9677577797180975 0.4322210104716902 0.697713878642956 0.37093270606754375 -0.0064707992987903685 -0.8517992634094889 0.32106011375730403 0.17440575467625793 -0.2488322849230589 0.31328948049996536 -0.7795322123636224 -0.12004660747455673 0.3841799045334857 0.4877043976466692 -0.1207630804828699 -1.1131401754447299 0.11302967764509654 -0.1416066355313235 -1.1718603837442132 0.6391016556081026 -0.7710339187201427 0.2654147604775891 -0.7131437615069195 0.39644814322913263 -0.5407420793037423 1.0282960855909573 0.22678709098346778 -0.07453020242530733 0.7262626130870877 -0.8602850666492402 -0.48368275672067 -0.06257899375321395 -1.0083868649906595 -1.641750132434007 0.2052224197845586 0.34767438880718543 -1.1959821817605925 -2.5597616666597873 -0.07130518590684871 -0.03956968274369033 -1.2873287334722994 0.8343363461481439 -0.7171480152740937 1.0134871115843513 2.1042137529872975 -1.4030266500679818 0.015323952002903688 0.8351038322652035 -0.04525257339386005 1.503454271845644 -0.921711683500625 0.9456030324786329 -0.36069655353160845 -0.4594421038438076 
0.46558159513943526 0.4770785760217009 -0.1690391866532033 0.10856289792515844 0.1537720801218498 -0.4759319572193069 -0.5899365587118037 -0.7111329623447041 -0.4730371933319464 -0.38324311015029716 -1.5323633114916517 0.6783986657907629 -0.10202727921778672 0.21298878074853697 -0.7810118056982891 -0.6743707319272801 -0.11808693596524764 1.0865368649614455 -0.9758556278137818 -0.2165010682154412 -0.9286278895666754 0.3717274747648024 -0.24843326394248627 -1.0905299335280902 1.6754906318451706 -1.67242411051574 2.265638169754802 0.028718958116651525 0.5173352613342984 -0.9890535927365658 1.231335937568782 -0.008625239880376622 -0.483551779106339 0.8337554415395952 0.693459386652314 1.5925476399277758 -0.5720228277680677 0.027529074232614883 0.08235113945687496 0.9124887153334142 0.498143326901055 0.03181841353178987 -0.6560284015571174 -1.3042096944749049 0.02628890969322401 0.7726251729207891 -0.028655566047890078 -1.1657549564408163 -0.009067147045826885 0.11601068239303189 -0.055056776907345485 -0.14561527788808443 -0.022399876254594216 -0.8439394059224175 -1.5847922138978325 -0.12801370578804894 0.2443293721545077 -1.0744318090509637 0.7713008742677528 -0.5147059152843815 -0.6749874970674853 -0.6440712447495848 0.10802082564297313 0.5606845225302212 
1.604091684609156 -0.19746775226815425 0.473701780932895 -0.04372028242047083 1.4262126565631117 -0.19402798145648967 -0.10191958933565146 -0.1515671858376476 -0.5170231251323696 -0.0561302842466507 -2.031005684707182 -0.6537543925934116 0.026987670205999563 1.7398149532823433 0.784283222391469 0.22060243368180235 1.107890651782447 0.2652279823762115 0.49077286816514776 0.206841396724053 2.0661954057604057 -0.5017341895012627 1.1764062117475726 0.5535690127347135 -0.08388422854926987 -0.10468567306498794 0.5882740657613128 -0.09559928355242103 0.1250045459485217 0.1994695842795169 0.2585034165492179 -0.9022001176083536 -0.009972662893726931 -0.07755074350162341 0.7532103003248218 -1.1051994311646378 -0.9787924739088844 -1.8502348908699229 1.373831317822438 -0.23677388380688957 0.17360837539955526 -0.052928168193100186 0.3303049653964167 -0.4654851087256978 -0.4555820877651159 -0.8152943282474825 0.5558836102326283 0.32862063194290914 -0.7500814786035516 0.04305561911923219 -1.943866604692598 1.0791259073043546 0.11534724618371389 0.1330221529362216 -1.419837513024399 -0.18272787705958377 -1.400263620434146 -0.7228494489641377 0.07092454727198473 1.0307167950426024 -0.9644217751602803 0.344545958756796 0.37969737038953383 2.326057010307491 
1.1087392148467985 -0.11757066828504531 0.06548226973898263 -0.13912563609312997 1.8505916177235444 -0.36425380344830627 0.14676294103967524 -1.0709688788535443 -1.3257945774850417 -0.14878003716594923 1.7711785636408321 0.6333943908691982 0.41866976836637454 -0.6234996199568333 -0.2785606367536662 -0.24248998738640198 -0.35628495908308533 0.042868208244462434 0.30458642431066507 0.07790433012010974 -0.2611515246146012 -0.817913272682602 0.4789851747951057 1.590537018742705 0.9969853496926896 0.9651953252701672 -0.4200428002912928 -1.0372740209107267 -0.2991596800222255 -0.14450779111377796 -2.3790351067974354 -0.4001125477549071 -0.2819013903578461 -0.5950988278354533 -0.08257126296811529 -0.14682492375434386 -0.6404680990680263 -0.5620621114185452 2.825528721275919 0.10938215323709742 -1.1226368666770092 -0.3449717993258847 -0.9079237323083881 0.4811152804149559 -3.6621871728572333 -0.11523872595701358 -0.27004549930655314 0.40096812288155165 1.4909803661443946 -2.1591242739059417 0.671991811655728 0.59785822718194 -0.31335976968715523 1.928402886650391 1.7473482085843761 1.261484729566022 -0.4135118758600961 0.29528428143989277 -1.358381293855996 -1.2826146362912185 -2.0956681552831653 -0.21794575947154096 1.1035090111967496 0.024896609888026874 
0.5377609356977947 -0.05693026987008773 0.5395801888546501 0.3919784456974314 -0.15281997571225242 1.5427585481569563 -0.5086050283701901 -0.4646806253765567 1.7623905212200186 1.000971896427047 -0.2888479233811346 -0.7489761024676401 0.7155774253950171 -0.3237499735448906 -3.3023999028756457 0.4980961017584106 0.06917464864278398 -1.3158622501773394 0.06662280040873413 -0.15712823134558912 1.2731023423336987 -0.5722917074948662 -0.1595677278888895 0.04057335452565314 0.7405815301119226 0.396779037054064 0.07878378636946329 0.2665843553458116 2.052735329040815 0.1905537482791931 0.17190454218995183 2.371005170792838 -0.056486611626947424 1.3513310577373059 1.2411329603977064 0.03684289273943548 3.8531914702195973 0.4642861739583656 0.7191211928187698 -1.4250907581260768 0.16140059376606186 0.16135285175235814 0.34224776959543424 0.1475337968359893 1.3789512854218395 0.619998376909018 -0.5608833897987986 -0.9973454308417296 0.09582737544800188 -0.008282898578760706 0.2792992845336961 0.865778246513285 2.607594033209198 -0.3609162399994552 2.14712098906241 0.4452405141945465 3.550426048597545 -1.2367538906756432 -0.17277551541315303 -1.103810142785904 0.3566369151334769 -0.8235554169032993 1.6181053630647297 0.23815215407717852 
-0.2164030361731633 -1.574246330418799 -0.6956106459567956 0.8565459232190621 0.10225294830782855 -1.121725818855694 -0.3463683402214404 -0.11180029608550918 -0.07748267364661161 0.0275288869909948 1.567152305117263 -0.5320282080205618 0.6037546448709388 -0.7283490079885677 -0.510465874470839 0.06946900048440714 0.09684861109113783 0.18749924599415738 0.2839802287403166 0.6856046990394471 -0.19589124897465576 1.8097032263380934 1.228013323561773 -2.5283195208746925 -1.2704220159467512 -0.2617650546531053 -0.09025196013013469 0.09254535154393627 0.3876576069328212 -0.09678939811520948 -0.4448686273596645 -0.4909079490213525 -0.47132552029203245 -0.8063441210465793 2.511700132215563 -1.9855378344875174 1.3536138919265963 -0.8042765802681981 -0.22398252083508022 -0.04205698345964857 -0.5677870454983309 -0.5736232840326587 0.3312580782259697 -0.41181671987429974 0.7490619356454958 -1.1877800000138932 0.13199431995271305 -0.5147242201797557 -0.45444098237431935 0.09544838927150452 -1.9456074335408817 0.43129138050014376 0.4170394766436565 -0.08966740727327016 -0.6413380844423786 0.9352864369929722 0.4046531433954219 -0.2513571267444062 -1.974133751407501 -0.37896883386386443 1.8992310468146123 -0.8185636290795474 0.29274047139206916 1.547417306564223 
1.1213227226351936 -1.0980589171081063 2.7982486446632553 -0.059834131608317825 -0.8456223898224858 0.15102458659244195 0.1426713741750693 -0.0028807394871597928 0.6293434301646279 0.12297790374337186 -0.6867509171907696 -1.7036516223227314 -0.8009329218128666 0.043851428213114906 0.6287090512987676 0.5202058512790485 -0.4480501424399206 -2.116986333075805 2.282646991761051 0.6587508511160568 0.921823288463008 -0.3679567027629848 -3.111670306666022 1.166871824495056 -3.434757443004923 0.6024533558552458 0.27544859128682114 -1.830252945217185 -1.6167069075460503 -0.4550308317276007 0.7693218954490468 -0.7201665685407108 0.5061620983428339 -0.27124641864179877 -0.251231030420069 0.06836663893865334 0.8886964848621297 -1.304681916576212 0.3395864046116717 0.12673044178368612 0.7705773989502248 -0.06260128808398609 0.3964097035208272 0.31607760712387617 -0.6981966319640112 0.06221620519864147 -0.5609072164940025 0.522729473584097 -1.0461261971522609 -0.04643758217990377 -0.14939479172658188 -1.0092689710598954 -0.19055236695619157 -0.7179854890887141 0.3898990048869463 -0.7672876754549939 -1.0361148062456298 -3.657132071455613 -0.09087625000966433 0.33728048970776514 0.8493477268143989 1.684157523250121 0.44991580826942845 0.7179080365748137 
1.2044363470592572 -1.226019531722701 0.04637708082592821 0.053557415080177376 0.760377018671862 -0.8187032785935993 0.1609132572489785 0.5394029408824683 0.11956214284262927 0.9809186340167197 -1.1564953378850626 1.1713475533383813 0.04529819985356028 -3.0097837684945707 0.2893077644278663 -1.0221048665469898 -0.3523559401087052 0.6816076990743011 0.24814334899629875 0.08751713546388035 -0.24925372444549324 -0.7696867579467266 0.24167229880936777 1.1281442491134561 0.45176158478309675 1.1557452410008249 0.24558346217104354 0.0644728754104242 -0.1554410006566875 -0.30751686406003464 -0.5302909728363835 0.2947903168085218 -2.4288701915293323 -0.9744457446370861 -0.39335588346966843 -1.4510380966229428 -0.028333590985540467 1.9833286626756121 0.5906799192969027 0.41362027661030715 -1.1876026689634744 -0.6355637821443565 -0.7737252881669529 -0.5552587584774519 -1.0605737932396009 0.3274162436783053 -0.2946855566624981 -0.2155233658208121 0.5973434875331525 2.476257493625577 -0.2256381698754036 0.05681456593696716 -0.28457459990365747 -0.6852368896431611 -0.6027543057368147 1.3575958734984075 -0.14106307476458238 0.02438251405012245 1.4988712315593595 0.4946554130201634 -1.0551364046282183 -0.2010775387245445 -0.9294621651437155 0.2314720167205022 
0.4961701269969552 -1.04840778322325 -0.6029025848232926 0.6381165755308481 -1.0868311621162536 -0.613310126560512 2.272492436423602 -0.038561351791688375 0.4436880121241513 0.44259474639347846 -0.5154549351864686 -0.011408332888646011 0.5804947970425519 -0.008759437367238198 -0.17331745046103827 -0.38994625865736604 -0.7934352475088888 0.3305785781299682 -1.2151905915784738 -0.6855758799323188 -1.7666788310934969 0.39395210479977905 -0.429691491388673 -0.7934124272220121 0.8427332751009534 0.669873917063159 0.954874177702719 -1.04979493141473 -1.3242808559369679 -0.4938983315490109 1.8114974367762375 1.2204291726749865 -1.462835677754537 0.7776470599603991 0.07577397686711927 0.6287627322012773 1.055483180915501 0.31742530131116203 2.1332564632177045 -0.20435693436483127 -1.6706222783792388 2.2156647028714023 0.4447489954074165 0.9274759488673705 0.1919278803611384 -0.46670492523173984 0.5510699486088235 0.1423779832098819 -0.0021111657616327477 1.3530785785540143 -0.33882895625944137 0.4914688228238844 0.8105010866793839 0.05908491460100087 0.8851221410903078 1.1368459180640618 -0.23159121469924437 1.8168226768975424 -1.5743388248940375 -0.5946462446573891 -0.25251102595201924 -0.6334895078614619 0.7890762289255987 0.6121396763015438 
0.5982614447051298 -1.075253838662194 -0.1150319439981016 0.9596579082866099 -0.24029738833756553 2.561890803024528 -1.6234280836938433 0.7479927868455365 -2.7039002574762896 -1.1533345273992335 -1.4896297238581853 -1.8178596602839443 1.0260042502805762 -0.6364754648898625 0.5211349552024296 0.48194709697106186 -0.3546906138206754 0.4896350588885025 0.05628403950220588 -1.1989046276395163 0.23594185523582145 0.08949621675112236 -0.9002644002627999 -0.31179083612207265 -1.1239370275430374 -0.46618175364815206 -1.9706742950405147 0.6792819442906155 -1.7643353847136227 0.9416440951620003 0.2991105321851122 0.17292323616308988 0.1067669051592039 0.7140983851249335 0.4350719620516772 0.30919081435786266 -0.6986020992355894 -1.2004807143637355 2.419999887552986 1.5866572411906523 -0.574788380897051 -0.3365924223044965 0.6178408153647826 -1.2346977162027206 0.8330338856180423 -0.07035324486353721 -0.026951613709142175 -2.3586732343356855 1.8055230916438876 -0.44806935294323896 -2.0680549042851597 1.1782161123347588 0.35612462526624344 0.8310745886509922 -0.8299135322791094 1.7142541842958037 0.10443488127596799 0.9107978354835481 -0.24268745306192618 -0.48131069556496064 -1.0258487932536546 0.4232791690261075 -0.07291494509994206 1.6335899387786863 
2.475366383544524 -0.7439385883926276 -0.39541648025256587 -0.9400035939472565 -0.5476007236391366 -0.4936305697871056 -0.51036467650315 -0.3093376120637346 0.06993956802880961 1.17436683395667 0.9639195553179821 0.24929823678955082 -1.1478406005498374 -2.57720777090599 0.2502609436961613 0.7700646287740076 0.2082880346554502 1.7007996213287184 1.276195224530306 -1.7269368859686633 -0.2677814526009339 0.06300904620258284 -1.0727951626258372 1.1904077147121868 0.13064007949238507 0.18808315853954918 0.7653746240240533 0.396107142849873 0.44931928268407967 -0.08018900105086213 -0.3384911931611955 -0.4950778378380326 -1.2970130526176815 0.027883236374801428 0.3955818214381754 0.3120702819189812 -1.557067763071813 -0.330434441663574 -0.8430118177875257 0.6917959897324977 0.5111464287140816 -0.3949920438652184 0.7000239474282185 0.07851705582130655 -0.4504217747878738 -1.6273127363312287 -0.6917029672466897 1.6497752678369009 -2.2698741123914328 1.7522843648749709 -0.9885059533363577 -1.5977372238738528 -0.19809478513524795 3.1128000331655405 -0.7402703246199467 -0.3186564351917861 -0.9018798711185488 0.7964430572055136 -0.37475531953338803 1.1924611799271558 -0.5650530505955176 1.0477519274410185 -0.7858104353540698 1.1515478644248527 
0.6051501811676027 -0.3331061446096013 1.542276113161797 0.30271247994189077 -0.9258470139034289 0.48095257828786026 -2.4111945991681814 1.256080834948398 0.6216628944042207 0.3468890752759506 -0.02558083687602997 -0.40545220024242523 0.8517886531293688 1.284458370901939 -1.4561880583262603 -0.7216233709025146 0.5996182059293518 1.684078781759099 -1.9923356568564536 -0.402171935587543 -0.5015607173702219 2.5920647037586133 -1.6355690438520456 -0.2516428958782313 0.3101392258493979 -0.28264341617454836 0.1070817847820478 1.200425482097123 0.9938905980203887 -0.7890843322896932 -0.6075615688510649 -0.40843003014273993 -0.4794411718584053 -0.011891705907047087 -0.5458915768649748 0.5915190668544804 0.11988162471226421 -1.1821579775207292 0.15203857045502747 0.37467323057472496 -0.7638257553318356 0.14442895716616955 -1.2843104794475795 2.1691128670514863 -1.9366072805742545 0.36288324041632125 -0.3412240377641735 -0.7065603356780285 0.5494842955603244 0.30077511960182235 -0.7784792699168617 0.6374310159457791 0.28730608625505816 -0.35046919681627153 -0.12092359082663412 -0.43063409887601223 0.561880381489748 1.3605838826364365 2.770229211796543 -1.0035299059501899 1.1582900614013238 -3.565010284063987 0.03030898393414321 0.869448473535499 
0.6899585881462955 -0.8307942932820613 1.8900230990593743 0.4388956307857662 -0.5189001921604083 -0.8041098921983477 1.8496665342329703 0.0601902561053038 -2.2063557285094544 0.8833647229700939 1.030413733681014 0.10762153854396908 -2.3128252181979825 0.07588443608873986 -0.23280298620795767 -0.7159691501904013 0.12414550745592773 1.2957528632063298 0.8935249725573761 -1.0454414302697272 0.8689981979107055 0.5873880674792773 1.7527882766296974 -0.6468286400685002 -0.15003288782744284 0.5967542074149276 0.005899103930470106 -0.034844834415837384 1.1564479125604588 -1.5566749151123358 0.9248669516023583 0.5364152698753386 -0.37648709928810536 4.39595962001254 -1.244285054227483 -0.02101309035858614 0.4440047537063346 2.839297228388437 -0.8997147361448876 0.9536433778312442 0.5589194752384888 3.081152982611706 2.5463707656327395 0.1522262410921397 -0.39085474290099465 0.31824945613070865 -0.608359765879128 1.663532937149529 0.30088259287757685 0.4758376770061805 -0.5743299819556978 -0.4412193075903879 -0.8174798087631463 -1.0859220189861547 1.396491934225529 -1.1044517632826043 0.8849611671949736 -3.5370329948157035 3.534230782073838 -1.2012561353431082 -1.871899731153335 0.1247851541232783 0.3210743411385929 0.3331010861301534 
-1.8339863135881904 -0.6193142831924909 0.836487779103512 -1.0440122056798735 -0.19562078230752963 3.3338515884457554 1.5753225713207302 0.8861224574374946 -1.8176962402027403 -0.6158703400929453 -0.46532201439494164 -0.7950538319457076 -0.28767516606126453 0.34513339240644486 0.2905076496871512 0.7386801679982753 -1.807285801649062 1.8577564026622906 0.5498477577889522 2.386707142630521 -1.636959486800645 -0.9359447233998405 0.13080640175332445 -0.640280837214942 -0.9580143161890947 1.734248769809284 0.04166894206962052 -0.6966097249511772 0.4861614402713271 0.4849454929196633 1.3688028741700344 -0.8640960477223706 -0.3158008604696122 -1.0150835067783925 1.1951199544295912 0.07554703115737042 1.8761491811919635 0.40227717903013116 0.16641517382161547 1.281372235415771 0.6545905183276768 1.0646112539112986 1.0496336133549042 -0.838025788727033 -1.1880029552173663 1.9509244084055586 -0.2019417020886794 0.2555180082076873 -0.2873140853530371 -0.8715958883981016 -0.13928161063546224 -0.41163987554857895 -0.45284469989916876 0.8150063038700237 1.7331648352626605 -0.31009069727937366 -0.7559473171097356 -0.8282935273483076 1.6307941688712537 -1.2894450092031458 0.16070910227829935 -0.1350318366229201 0.3361337260482724 3.22946000988102 
-0.0848257797699199 0.5105649680593022 1.0983591968441129 -0.5840594879508012 0.2620995318688556 -0.42966540556831406 0.3332897570867912 -1.4541775440841982 -0.2323429374383129 1.1798327395795576 1.0609313644952054 0.7144248392064637 1.0633193780443275 -0.36746025899320606 1.0372010514655572 0.4240773500391456 -1.145625364585165 0.186461240647943 -0.8844788599287401 -0.39714482291346603 1.1851863036772048 0.30657000092022263 -0.4106082460733384 0.5617496355066172 0.44366506484928114 0.012179726731462922 -0.947833620477669 -0.48977212509157153 -0.9932704470405759 0.2556870441444376 -0.2516226217024736 -1.1785161651964025 -0.12170908071248328 -0.39566783007900713 0.05642998018593163 -0.45937820406450547 -1.0922554794236359 -0.41817299087299126 -0.17786086613739538 0.267436303916362 0.13632645013923617 -0.02192157246629656 0.6436845955704319 -0.04213222703003758 0.6982798825506655 -0.10066575754716235 -1.0235373910900647 -1.2105290303099887 0.531197843272415 -0.08962335322073642 -0.07254346262625598 -0.9964620173878249 -1.1209210344064942 1.047133486570634 0.4605116096521956 0.7667997213567985 0.10264249891952892 0.228853820866978 1.0632026179805287 1.4079056102971246 -0.9643688416297875 -0.9300322293260692 0.06766830824615198 -0.42088241156081774 
-0.6506593177028098 -0.7614682462136758 1.6257057595478928 -0.08770083201981176 -0.8172768446375359 0.0436446976173589 -0.4169308770856897 -0.8835372267160233 0.11574826487569527 -0.9479676101281268 0.38983286985066606 2.0000113137118523 -0.44995297273543866 0.06304419944834343 0.9042533341453478 -0.3483479185996193 1.4300726955796574 0.7383098813514303 -0.7440380519178963 1.1618877344636411 1.7152273869303403 0.9428945040399265 -0.45001658765754227 -0.4929585024033178 1.3055953515747112 0.03873031305281798 -0.26460320931095677 0.860701450892814 0.4171944072705839 -0.25215823594898135 -1.3710442885242602 1.3312474279774076 0.6302642075409146 -1.6561563473531489 -0.14109516682660384 -0.042022684319549405 0.5409775983350207 3.0034179508625716 0.3084336049419108 0.33970753201011755 1.1883120835773981 -0.34257080953644486 -0.44892141939522945 -0.0290255532393454 -1.4710593795935976 0.2533462399757858 0.24574938351701436 -0.06820494301157262 -0.26389641666999725 0.22074424690340702 -1.3214493571495165 -0.9188559332381123 0.9044682676284399 -0.415517226434211 -1.0803757173563175 -0.9054176217425448 0.3155905661695629 1.1071164664812951 1.206848074826207 0.6311584114525065 -0.8574616051711913 0.10920259386704477 -0.4421810583128837 -0.2779489138747507 
-1.1856361873491343 -1.7765991842825466 -0.9310061476729479 1.3735863320626027 -0.12973987392955857 -2.654345831692471 0.07642965028894223 -0.23878326562185817 0.33414761839198837 -1.429777323029716 -0.5193543157593719 0.007072405609525311 0.49622662988105526 -0.3872915694687345 0.4829738155419173 0.9246052730743106 0.04175750465235883 0.8419878079409213 0.5417546982765569 0.22816292645226294 -0.3105590831698476 2.6488909071182904 -0.05837259502092244 0.8707007085628123 0.03664569099170056 -0.31816118602921845 -2.6089121281127365 0.2853568850193881 -0.7671484667512024 0.6293176343497018 -0.13107260125594636 0.24536707256916612 -0.19678827499054594 2.0865275633706246 -1.316240333474408 -0.6913721732674345 0.72756177210735 -0.38676395981029804 -0.19401944533137364 0.36967417392772467 -0.2852558967366653 -0.37699033123337544 -1.0576326352742627 1.0929172448956832 -0.7266890407980804 -0.5156250649435216 0.34835099238057177 0.6186061880641308 0.8177070964615869 -0.32203212120665997 0.03821146329675409 3.7122180819840205 -0.4511499102898039 0.5730559618256315 -0.7196719878952215 0.04377498810015714 -0.05232202965811063 -2.5409487875492447 -1.006729953273054 -0.5838608691958249 2.222028956436448 -1.4894588322000761 -0.05825203183973683 -1.7562062023357239 
-1.5053583243766946 -0.3933457120299796 -0.09053828814973408 1.01479293655653 1.0148800144334036 -0.5012374221002897 0.463771171804369 -0.3610675284007923 -0.9678179692830465 -1.0061137450969568 0.8131348850758011 0.8594562083640906 -0.24941799852197546 -0.6885855626646447 -1.2639964979926899 -0.3498052811599049 1.7162288681174946 -0.8287798682758121 0.5402210061164824 -0.4632727409123191 1.8664176352654083 0.07769254494296636 -0.42122163216244757 -0.7484500638309064 -0.34025708224905166 -2.120509074379836 -0.8435197997798352 0.9709235922537939 1.3138324013272156 -0.551645876998393 0.05458723436223653 -1.2658777068297538 0.13575794943643685 0.23649883804751895 1.4271645686522931 -0.32730915738266714 -1.1517183800944633 1.2590851290043041 -0.0018392443578039283 -0.33258591643284907 -0.44114215452737443 -0.9125677205958358 -0.2829450482065798 0.106024406917587 -0.25948175868917767 0.18678860477969098 0.39532560459061805 -0.04810546502644948 1.0264254145492813 3.0796018508947722 -1.0462598563511742 0.2366381752640499 -1.4623610201276414 0.46801011641284207 -0.35462181862731207 -0.2878626508776741 1.5156020775135164 -0.4612200153109336 -0.522041087451807 -0.4515566500646775 -0.043442324539559124 -1.8181602842270914 -0.23175301205099397 0.612448585582692 
0.30118199594834266 -0.023665836648944623 0.11428931997338394 -0.7615942720030445 3.8022963836496224 0.12797002734818097 -0.3967392159277551 -6.242835781033817 -0.47194867141860053 0.19475652685653103 -1.1070225982014203 -5.0871240264440605 0.40074590414635636 -2.040254437046313 -0.8902467323375053 0.6763008005109535 0.08517367866077558 -1.3961688609021052 -0.009675908040792274 -0.4884822954952715 -0.596137487470638 -0.03927966425513282 -2.0266876759672185 0.06087355012858718 0.02039695331468197 -1.7390283759732743 0.629757276603978 0.6452977646061412 -0.6048388475924256 0.5634281660420126 -1.1246158640250463 -0.5375611971508133 0.3037208980651268 -1.7571591782351945 -1.522927480949596 -0.40829879996835333 0.5868909282518933 0.3116075927441867 -0.5745378879248841 1.2558641074342414 -0.6642498001773132 -0.3393105652333366 0.32746404289223346 -0.8957514066852239 1.1999963197434034 -2.8788676680422896 0.28752414477667065 0.6266962694697331 -3.751334426909397 1.140652970487135 -1.487083036615708 0.09851165000355468 0.6303301074474839 0.7586005174716699 0.1475427056502238 -0.6714194376702459 -0.5930236131866822 0.8151158387166922 -2.4860593315142596 -0.004444461419258051 2.4661148043431598 -0.028536587528104812 0.9253353061892378 0.025756410683951667 
4.085669051404342 -1.0094461367435434 1.0315157010800027 -2.5840732781264153 -0.9886474856209111 1.1479762483380271 -0.9262271027914061 0.5464391929839157 0.23773998921264733 -0.15606834598088498 -0.0696992740646075 0.08294614141311786 0.48441399883116887 -2.3650572910244403 2.270724460494203 -0.599596088191439 0.1361933509085002 0.34496617117469497 0.12440132131569584 0.013118449078456235 -0.8589446816395887 -0.6907307340632969 0.6073693499283581 0.04921093178829237 -0.4335651561293222 -1.2815500589061244 1.2419929007879345 0.8963156534405583 -0.7235079415231016 1.5575887144522653 -0.5870684905882239 0.30616967543922935 -0.0767234231860824 -0.028478026549524686 -0.3218816676470012 0.5550779930348929 -0.059605046059268904 -0.34079206873231016 0.3400290828891099 -0.20316840290271554 -1.3713119293350078 -0.10390591328581526 0.24903228062944263 0.3999015700742515 -0.26808266163283523 0.8820062332618868 1.0518395397700562 -0.25149298064458175 0.28136480717538304 1.5951982953774566 -1.2220306528416487 -0.7164814886313841 -2.3065921141958596 0.1373303638125213 0.2955033925740999 -1.3537473598836858 0.7944884692093752 -0.25549343263221136 -0.39760673733794033 1.8953594644325071 -1.398033708991187 0.05803392932584819 0.25262188821907133 -0.12684122621093893 
-0.9926238493475502 0.19060157659271662 -0.2665735183687661 0.45284680354351786 2.4937745862908067 1.7773817555813496 2.109502551515292 -2.6189037988474237 -0.7739207647317587 -1.2530727456766948 -0.0456271734938468 -1.332124606822906 -0.7737657634877761 -0.11068919371560212 -0.7418374867486783 0.8978554667052312 -0.2360300176476161 0.5476351343028146 1.6247207370074952 -0.7046364774914177 0.18568292100643805 -0.07278919833332674 0.707912817317683 -1.0994675133776628 -0.7542366722466183 0.8878625868285738 -1.02503944694833 0.31347261180110486 1.8694681484775755 1.279170616590191 -1.7040763106907175 -1.6618376753032778 -0.22863140724104103 -0.5094434783108642 -0.8558279569117584 0.16044723446680212 -0.09873703519433291 -0.5011142935790259 1.3523383745832027 -0.2975886350338825 -0.9784060877914205 -0.9528786056605016 -0.23313261721383563 0.004552540957749798 -0.20470372264863435 -1.4213128938619566 0.8357032382166225 -0.7621064254671488 -1.1683295795741513 0.4187468165796753 -1.474241814320148 1.590234883677806 -0.6550489093916648 0.023956901460596428 -0.02203246499569324 -0.7127330803147887 0.23762191684343634 -0.1864292575383575 -0.3806420662256289 0.7666958070347103 0.4471466083669521 -0.7953945198454258 1.1855482046819108 0.3663014828854476 
1.5092731548441853 -1.2809054424030981 -0.19642244937757114 -0.3981911508135677 1.0724669119707637 -1.4991778272513856 -0.9489180050123902 0.8464404479606984 -3.8991762666425815 0.9203652209417534 0.10808731248006936 -1.2466984911754158 0.5630819662270675 -0.09336695055138965 -0.09350214005562044 0.5696930255925715 -0.1596445521632041 -1.4391310864568523 0.04627121487741999 0.5536670834884694 -1.2679793488837936 -0.12227624372992452 -0.5000125893643351 -0.038481208203347 0.5546993639551516 -0.8827758861048023 -0.3340000642802691 -1.763363398743946 0.19606376340188506 -0.19235837691384794 -0.03384483766218979 -2.3693945608459215 0.6531665319556506 -0.3511263592642734 1.2161371418089688 1.5144266854229345 0.7647414768121614 0.21379774448919253 1.8622388744177267 0.060653748009362976 -0.33449296653091976 0.34230306250963216 1.6987658544884165 1.6860260138735086 1.8621902856668693 0.3370088964023927 -0.3146000201597914 -0.1436801401277321 -0.7006544668029682 -1.6128553151423142 -0.04015238736367591 -0.7903968232333375 -0.018039341774129088 3.9832703364945967 1.078669834782948 0.7579283855339385 1.0797200024859333 0.6165954719495338 -0.6562382174928713 1.6879551232300345 0.9915180701760571 1.4140438199020735 -0.3023554030855173 -0.07939489177933974 
2.768492417246031 0.21227897707320223 -0.32685521601805123 1.7103557183920248 -2.16282369404545 1.050082406025392 -0.1636979447204429 -1.2707003328889 0.05299688022274302 1.154958939148962 1.1740946255710283 1.2322858948523656 1.034180810133386 -0.10645027768217333 2.408977330622956 -0.5069670974330979 0.4594823601917071 -0.2845369934422833 -0.30561307373436997 -0.16669797226413088 -2.6297993832340296 1.8315300218273318 -0.30387886510168904 0.6858851970776426 -1.2412959018616019 1.2945022157110317 0.9072717026222105 -0.7768129095419266 -0.10271838521992872 1.5899109170180594 1.0755807238126802 1.2301555349681466 -0.4096646251200583 -1.1481940348437718 0.27671326193137047 0.09140176045875249 1.5004023674388156 0.19456353788030537 0.201617656040397 -0.7854527097868947 0.6616740076766936 -0.1723618214806685 0.5224543961175171 0.8188195098060604 0.2985820785231135 -0.32113522924702026 -1.5772965219638557 -0.37253266350029723 1.9958614969861892 -1.5201856756146401 -1.481065899752154 -0.0545467281183819 0.4380026620302702 0.40952588656585504 0.09986232749926179 -2.4343165420403965 -0.7838529743759037 1.2992709567856402 0.8280826861493294 0.12798775188085018 -0.8375261058679637 1.307240001379508 0.13070042959010728 -0.3894694064538863 
-0.8750658964688032 -3.0014762413391325 -0.12147528208184047 -0.20314936479356735 0.7333413902502509 -0.21247264030453009 0.167545510588053 0.11337996887915698 -0.48392303997216524 -0.6786594151541159 0.6390995809384502 -0.6509621090112707 0.9117883059233562 0.7048117771245095 0.21874469355332576 -0.41195793378776663 0.7015081077087142 2.5389567129443047 0.20856503866440096 -0.7134443134716001 -0.4361245931687189 0.4370204241149261 -0.10116659798879148 0.3105964247050976 -0.09040477519245506 -0.6052301591032643 -0.3727313912995143 -0.9620973215701322 -0.6077458116902856 -2.629412330054591 0.14871235671484917 -0.25469396310649267 -1.9214436792157983 0.5493936968884131 1.8736930082057526 -0.24407324974045105 -1.317855422324599 0.5500593077100289 0.7195459971659326 1.999120096028161 1.5538363822554944 -0.8757542454128607 -0.09873102563302692 -2.248344297434768 -0.30856991961107555 1.425611690498657 0.7087004618709739 -0.5731052482226557 -0.9702887553976141 0.9232393075972469 -0.8098764445144305 1.9469282043879668 1.6687422273500458 -0.5752830777099337 0.44445863816164943 1.0389772687256693 0.4604351717761231 -0.5741216194926639 -2.6032403862767515 2.0486560041098336 -0.3579407481409523 0.5457112307269646 -2.7670712471759704 -1.2804971567628365 
0.14452865351828997 0.6031137969097766 -1.0267112447088402 -0.6523761978756091 0.4327506758104306 -1.4812478539815914 -0.08478460274395115 -2.0267802858740693 0.3619637563679991 -0.35134954928064305 0.4801270983194709 -0.9060906000095494 -0.7170709470483363 0.29160036727650107 0.33915624861649196 -1.0839871948830093 1.8205763054553474 0.7568339216560487 0.663524004573289 -1.6444257675027576 -0.24372392136343554 1.7468515794176838 0.008118340311800526 -0.9856767738687505 -1.6646427008335836 -1.2140777387375101 0.9123351681401212 0.8399365118968279 -0.26317211533069784 0.17256796720537557 0.02446390545606764 0.8923590952725969 -0.9400841281078659 1.1681834555729864 0.3645862017335647 -0.5899658472392594 -1.2917504498017272 0.04434834281057404 0.44309091385944965 -1.6714447069603637 0.36163384763944356 0.20556462864075103 1.412677314966614 -0.5876401723465899 0.5540084121975488 2.143940880438758 -0.01768931614039544 0.041908193666265504 -0.2544017030241191 -0.26445807120649956 -0.000385724956228663 0.17864603979257168 -0.0673134060897858 0.3250251574350105 -0.9612804410278473 -0.5349339229658692 0.5807345502353384 0.8657855088892767 -0.19145696825559633 -0.7213834687653796 -1.4727105318862725 0.13130374324838687 0.7191582803258969 -0.050632424556472475 
0.45475172487760346 0.2530189449025935 0.3349717549991631 0.5123705657529178 1.7253652053121018 1.6754652239681507 -0.15464684547741556 0.005021162265331155 0.4366239130615311 -0.6963371508017525 -0.13808963238327882 0.08606178312959885 0.43363795811705075 -0.36967862446845545 -1.1386277269239542 -0.692262692513871 -0.6553810624052304 -0.5401745723160036 1.9694349805506084 0.8289397384846063 0.7509082799855317 0.49435294757933584 0.29230189572178816 1.985525758483375 -0.06449558657326156 3.2899661305242005 -0.46802620693650115 -0.11089904575725507 1.163842036778419 -0.2579308599526266 1.358092397227919 -2.127488980341173 0.17895913121155652 -0.21430016134608698 0.5283381221826039 -1.309238945635072 0.7909472568551744 2.491099325402754 -0.6053284179896453 0.006132425012799236 -0.4829678595552072 -0.3610754075950474 1.174427371167077 0.021466258855504343 -0.34621912744053895 -0.9932395063974123 0.43663511147355677 -0.8704926655408683 -0.7293979161594255 1.4887092518403233 -1.6679209050075074 1.1442922566243336 -0.08766466386265748 0.10078119605318098 -1.0081677519735177 -1.163999219223808 1.065030234618152 -0.852847198699306 -0.018373885083670927 0.02233514211409077 0.4553041522384162 0.3036250189376714 0.9362380025816425 -1.8155623567975174 
-0.6978162940550665 -0.17015008969930684 -0.1014504708997251 -0.789907944040078 0.09623984956402203 -0.06794421886583855 1.2441069146698012 0.5549680433549818 -0.46137314034286664 0.6452750274258926 -1.9621160902341264 -1.6562482489488517 -0.7408088872194516 0.08816326454757219 -0.33913579624890877 0.7556323217557016 -0.32150194871434123 -0.01844219793171483 -0.4190022286229352 -0.06986725398984264 -0.08939573024437218 -1.4916441532841496 -0.6013902918213554 1.1764220632938638 -0.4922546772598572 0.6802162258061938 0.511415820249642 0.2020805935961974 -0.27685169164042 1.1196806059653377 -1.1291944487047245 0.6352159308533639 -0.3901212675542087 1.373133482149071 -0.14051144681774325 -0.7649240470275853 -0.05269225194294233 -0.07495879226916773 0.19917111386826086 -0.3720334208270024 -0.41634958364523555 1.0447545520787602 0.24570898087220272 -0.9243248356308748 0.05046634395363104 1.303390075685499 -1.5250483045715166 0.21343354211801022 1.005292730152161 -0.049850087202729564 1.7319687766624152 -1.211572321220553 0.060322528046149744 -0.44651949438727184 0.4545449416898375 0.7884290095061178 -1.9050134013986406 2.4648887083392665 -0.5260206903784065 1.4559835837973267 0.5072631774565792 -0.01246629164658576 0.19628079067805435 0.20280617909004686 
0.22322611818517393 -1.1909488222470437 0.5179525468473788 -0.16458575565588357 0.08425209722026794 -0.3651115532417417 0.43559601830961897 0.41897678962049484 0.05067105004792525 -0.31388250229852965 -1.5518312948502395 -0.30513220176626976 -0.3117816188284095 3.897369804664402 1.230347994125151 0.36599836302858696 -0.5488937657982983 0.4766163646020862 0.25439562982056874 0.3328127612850504 0.7294140052207138 0.3907422519616135 -0.004978788662116062 -0.5087326203691181 0.937949099838378 0.990029254362877 2.4408170111478475 -0.08939932871822809 -0.555060910822991 0.9824579025939519 0.8459088548298821 0.38878987542574484 -0.8951574629780942 0.09162654118305669 -0.21870576561230923 1.192454207955246 -0.8016110185151731 -0.2332867509251282 -1.5670970101347061 -1.4079981796026286 -0.9977487956440407 0.6961349041438073 -2.7907907965398517 -1.2934083282870628 0.6575327309073133 1.2314844230543889 0.12390748226905597 -0.1976774147292442 0.27250528698414084 0.8210886045810785 -1.0702876914514043 -0.6260408263153988 0.9111671044011669 0.6719706948662088 -0.7261960455977949 0.056495952597961675 -1.0966557750581203 -3.273948014242003 -0.9994397062645873 0.01590504193303714 1.2926735358618728 0.6870111711189932 0.7529613510960901 -0.11538581762312031 
0.7865741631918526 -0.24405617835864615 -0.659428399489857 0.07202601029816268 -1.8189275698647274 -0.2528654609457406 0.3276838980236753 0.3462651638439657 0.3735935198963162 0.7847062237891504 -0.46514584396453795 -0.08570666839273611 -1.1808452931735798 0.06883256961138257 1.3734212306431646 0.5251961725391753 1.513611476359168 0.8482865456595016 -0.8545580094054052 -1.7178586691261049 -0.3539457975840645 0.32272811278214175 2.149254489089956 -1.8046822709772157 0.7815598716100377 1.8879749415348817 1.499974046523792 0.6439281210192843 -0.16171858509711115 -0.050507102110238546 0.5764256460127504 0.0366518734283836 -2.1202471357628214 -2.6654652852592458 1.1275636347912177 -0.09657889738095221 -1.3488007776687063 0.6317178627979444 -0.4370814241886547 -0.7223138232818974 1.8295891593262703 0.18731277080314196 -0.4557830743605625 -0.23418351912820698 0.36340207781350137 0.8919705494897039 -0.5988235888883412 7.935074857782649 0.07506842125319128 -0.9996970810328134 -0.6029893247018132 -1.6551266871816412 -0.6556461543141393 0.2156050008149127 0.077847928563833 3.070142303275126 -0.6035647923462243 -2.3904814997235957 2.560961598816065 0.062403986193402816 0.04798845903979889 -0.7888078908536538 -3.475543196119116 -0.5167263279036789 
-0.886585027086773 -0.8922647383405785 0.07440359067709935 -1.3952131199972586 0.5040343267183394 -1.028468985847688 0.6670558377570863 0.19011504128080867 0.7402340137626023 0.5577795674643196 1.3518417595095162 -0.30444664336730115 -0.08909583090751688 -0.9644905358319654 -1.5093569559636049 -0.3521043955052922 -0.4094270877636764 -1.191527524669608 -0.29512487636597845 -0.20624357694858375 -1.2392955292789531 -1.3259876043297592 2.218893942489611 -2.9168607351954736 0.03946707179710621 -0.1332427885959309 -0.031367775463647794 -0.4870485243320043 -1.3383946644418756 -0.7205242923218017 0.3893013374654793 -0.09805951720913757 -0.5029232071821421 1.2176301578692477 0.7209179926014092 -2.8276202966037163 1.1641890683110563 0.5803888906826872 -1.6549285804727225 -1.8050634403964936 -0.8608870223843742 -0.22805743932473452 0.21160403866958494 -0.583853106951075 -1.5167104131323785 0.18054982652586796 -2.4659187405529677 -2.732793583278673 0.6147782632525128 1.210327232741155 0.005043606496455273 0.47658729456664595 -0.5832149176757249 1.1621942007362887 0.4327426303130696 1.155567165057502 -0.5318105616716632 -0.09986343230628772 -1.7329589440598598 -1.0420020890621464 -0.25406400283004854 0.7406285967383981 0.6822976840830451 -3.26652251369885 
0.4652458333899465 -0.2639282290899498 0.776111040775197 -0.20047925360403251 1.3921823817687633 -1.1187532774278388 -0.47645284664460524 -3.488435722661873 -0.7957519135943782 -0.6407805645587521 -0.4913462940146668 -0.8920544439544611 -1.1159423644200737 -0.15606191197199848 -0.29264177751827186 1.591663823138604 0.509408763802647 1.2118786175324903 -1.031607710209151 0.3405947835888972 -0.7814648051325018 -0.2653081118032386 -0.39555104990414647 0.7321661628102735 -1.8026571081634064 -1.7565643956728754 -0.061117885056778114 -1.172462768874233 0.13525331452827052 -1.4363905245951603 0.6783740855028587 -0.7487158749012268 1.1887822681426978 -0.5349467395799311 0.30199114742685107 0.20960505849087038 -0.007586273129913125 0.4722627417290156 0.5091110790819089 0.6336037025568624 0.3736517885671591 1.9349309215468307 -0.014319591068081922 -0.8047193196204768 -1.8303970014260098 0.5121406756095895 -0.12979571342937019 0.46424887109018315 -1.7178961449924992 2.945498277340022 -1.8312832909347831 0.44328784961241025 -1.6225456497418438 -0.5541650934984103 -2.0405597944071596 1.358926304146869 -0.19614668673552868 0.7812003095960891 0.07193626387328092 -0.8957411311088146 -1.402855444269702 -0.30718328909574083 -0.46642938107934995 0.5904808413947698 
0.2844052510383515 -0.000628818017170509 0.4418457102972987 0.06177560938140055 -0.10090090642545442 -0.12019541195334951 0.06408371018652999 1.6171762431648802 -0.961088139465816 0.8438741257787992 2.0452136187489014 1.1585860168089581 1.1456240903727868 -2.100877012553207 -0.06614091472768278 -2.646981104929965 -1.2539232629990726 -1.5398825439752317 -1.196697637662633 -0.4137778297197831 0.40528804752329056 1.1801625849913255 1.3400704763815487 0.9136056188069396 0.16846713711479716 0.8213315773989822 -0.12933643355025118 -0.679288229653326 0.8104519103898031 0.42816222806425536 1.1815974418975244 0.35056389542006805 -2.32414159330399 0.15364874795373892 -0.4701238114030814 -1.3540701514944928 -0.16355681204763547 0.9374735993814911 0.9389619815677126 0.039562252207547104 -0.19241587229393586 0.2341090618843385 0.7025822980541144 0.15213395475173272 -0.8725818808466432 -1.9377279707084605 -0.11470542225114505 0.031616215077568344 -0.04430295368972921 1.5970210388257884 -1.2456706387686962 -0.23660242005962734 0.05358520451956838 -0.8739395150261385 0.3120377191411028 0.11082959512337834 -2.5144872949447947 1.0312767655653785 3.0594107187611037 -0.04238843787448962 -0.9696034245263959 -0.9954853084851831 0.4798097865288599 0.8184263862127098 
-1.1478454086693395 0.9375465321851248 0.7499679984648919 0.42119913898875894 1.2287356729593077 0.9836878813980116 -0.020202366912428455 0.08698862106923748 0.8553100087031597 -1.7761618768211425 -0.37486160511951183 0.24157936094493823 -0.4683076493611783 0.03332478772053397 -0.542995150063352 1.0004442138262664 -0.5445739140265677 0.903807568728519 1.1782840108352366 0.33859710544593663 0.04274786201007283 0.09607936262952423 -0.056353350589783885 0.678617750059403 -0.5559478999122305 0.1182411530965254 -0.2887782408873194 -1.0861102839771462 3.248275332268388 0.7772051822642289 -0.5871648555035278 0.08697531670366504 -3.0407226893963903 0.2707383216512295 -0.5345178468886191 -1.5160538263058387 0.6891471091487068 0.06413883597693101 0.205941998958858 -0.2313878263833309 -0.30984421032494297 0.33670256157822065 1.662033322107326 -0.9169213948300937 -0.35753352106458863 0.12166292269604521 0.8553944211280772 1.0968770194345334 -0.17816265270386067 0.06925274542168544 -0.0874233174270057 1.3346134541564165 1.0775879616171935 0.17044561142137943 -0.9589782130524026 -2.470183235188925 -0.39510119928728377 -0.9948829416273818 1.1542021622830823 0.8557217461961965 0.9954475336732308 1.453830366255016 0.41914573129146904 -0.3869519745201253 
-1.1027961903642147 -0.39134511460526655 -0.24406094382549035 -0.9075864528395421 -0.46380863069661443 0.606461532407364 -0.7959183678634664 1.89502311438403 1.2689029728698709 0.00438424428823268 1.1265756714971387 0.5963728183420063 2.0296534254012766 -0.24981195433298592 -0.012268826047361882 1.005458334951504 -4.390817818355909 -1.5179459342812327 -0.7037703498427589 0.17423892732405696 -0.8407001879053655 -1.5170026619613028 -1.4263330982925058 -0.9464707997432562 0.20212438104376268 -1.808318653724688 2.336238234676767 -0.0669515334601326 -1.4205501982753335 -0.6371718314909504 -0.9904500790114155 0.7163668118608177 1.5802326530273851 2.188596879512393 3.5697223560441227 1.4359054406183083 -0.42379192544109157 -0.13757255827012999 0.5223580971297617 1.1943953111452217 -4.701407999907122 -1.4636251227797512 0.0681936911252755 2.366993570649737 -0.8554126659946966 -0.10623627549078783 0.4912581612620115 -1.4454375427945607 0.2370233979818362 -1.144061304197531 0.24030628540466376 0.012494672236525195 0.5446246558306073 -1.3072775934221006 0.7157168937378423 -0.6195910495178744 0.016829485975253213 0.769877236656401 1.1219471707334194 -0.5854185329016216 0.20500096430169001 0.7271293188407403 -0.8493192669474683 -0.7149354767678334 
0.44972904619414755 -0.28015157442871275 -0.6811339591253079 3.0607689744416833 0.12181849152304902 0.701346811025855 0.47295219090141527 -2.9848897515966906 0.9337993839231712 -0.251877243621805 0.4983455997846797 -1.230084351603947 0.5295346155669739 0.8778163441595072 1.2791304503497993 -0.22757763601401312 0.8406248419810342 -0.3320605681259837 -0.02954112289713183 -0.4284633718286789 0.19004869396823568 -0.24965357604888272 1.035365795476806 -0.015174804658119517 -0.8275481487750735 -0.20724266264846872 -0.24361034158657371 0.2787106371508334 -0.40267178627205763 -0.40026151608500016 -0.25141627559988927 -0.4351905552527134 -0.5350634088029343 -0.40638674397535685 0.12410478600249811 -0.14386738328133328 -3.396778948968025 -2.2183259381940066 -1.9808417012704929 -1.5627741859542947 -0.7701786184863303 -1.48168910194367 0.19000511327864883 2.1699871503010217 -0.27335450027110436 0.052719270759958796 -1.2891043465575869 0.5716940989660214 -0.20412340855034444 2.1726004646485233 -0.8578871575348261 2.6556917407645533 0.5549880852170274 1.239268951095408 1.6778260094458488 0.2437690693372233 -0.9420693271700175 1.0186016222652785 0.06270381040842747 0.5971273345133818 -0.8737454812933292 0.5665140563234108 2.087587856214145 1.0345875789432992 
2.163406583572906 -0.19582357616567928 0.5049178182865843 -0.6383080654853268 -1.222482612622395 -1.06785850540779 -1.2763043286839402 -1.3047953186688228 -0.16666177841982133 0.2905770667661122 0.20563294174488564 1.8585394298898223 0.3036663920787076 0.2143577223600093 -0.4790006320244583 0.6935792466337138 0.21274304404815406 0.18245811519233543 -0.9445310897500394 0.5383312044507677 0.9602479528719523 0.17436596574183408 1.9535370367906186 0.6409774821907117 -1.063593155052954 -1.2933085813347673 -0.31939774984254393 0.5678814913638552 0.738877945919647 0.16692419252575372 -1.125671249722815 -1.3779509292318 -0.5145304115692216 0.3990724826655206 0.998143413703933 -2.0971929480995453 -1.4431736866449318 -1.7013194227011228 0.7115222984686785 -0.5822855898010668 1.163881849030765 -0.12262660179485901 0.880913677442618 1.5647465906654154 -0.6470913466349149 0.5166528265838211 -1.9565327320675823 0.45671655545890233 0.7307995195170107 -3.589236844945743 -1.94255977943491 -0.13554555344403188 -0.2935165783588575 -0.1806383545108481 0.8103641399310892 -0.7309451090915765 0.5151800109982718 0.40461891814469036 -1.4959493609444723 -1.4079329956109021 -0.7429269417145148 -0.6130567862429663 0.5402690026021385 0.4365424777534931 
1.35497598073886 -3.407760463274751 -1.8929930140027151 4.393987839703373 0.5573927833195861 2.29204017044439 -1.2025893006276684 1.0757367630336494 0.07171377924766169 1.1858000881655903 3.960536333951434 -2.7567250623711277 1.3483919875349775 0.6736432458654016 -0.12023154451774047 0.38259251876739736 1.573204385416525 1.1639151116982287 1.6796415770680955 0.19496914201944596 -0.6830728261025991 -0.10728258652080959 -0.7587790310153261 0.4319960516769611 1.2979423034070245 -0.5445644314726712 3.283171129608817 0.7141222711626136 0.7221482916244547 -0.42325623648116223 -0.18677092390680247 0.9569007183136112 -0.16443048085296944 -0.4729574749712461 -0.13162924226751638 0.6674223694168147 -2.0874121425283803 0.5241051360486412 -0.6873713373787534 -0.06373690482553598 -1.1073061909136053 -1.264490278840212 -0.22127519195217624 -0.3181841691772914 0.9313633405212974 0.04517053329875603 1.1081457128716938 0.1889494030379051 -0.3108389884145065 -0.4813700953708825 0.8298426411843951 0.4880256587355753 -1.660545391205388 -1.119928801188882 0.5572056627831371 0.5583732963056652 -0.19667858060203655 -0.833156657658366 1.5012046384532791 -1.0862495567084898 -0.7576338810344803 -2.9548133281009785 -1.2199942849672725 -2.0662465847340816 
-1.8650620181866202 -0.4707612139258478 1.9871362754917614 1.3551604476733625 -0.9101447155572093 -0.2715702012974864 -0.0553676161927813 0.716749264134606 0.4057615811339091 -0.28474576623756265 -1.3845599927598289 -1.923535615994582 0.5402668972064574 -0.2419572979576337 -0.26515806193629216 0.07024304876011497 1.190431361114406 -0.13807323924600537 1.3857758071395092 -0.6676495852303971 -0.8047548403472287 -0.38309045356216875 -0.3481135014420169 -0.15778149726113014 -1.1713810224691614 -0.5455430988848307 -0.4142978632203387 0.913858727811732 -0.8735723762345468 0.06647959541274116 1.6256741278174527 -1.9518911837536908 0.024875327318178528 0.09463048435586087 0.04890832547049056 0.06495942173196109 -0.05593043100270564 0.8920885379136456 -0.30596200650339 0.5145792989048559 0.35202776354589427 -0.052308858307027854 0.04374907099633265 -0.9885361234581388 0.0009851151875331539 -0.6737583636888459 0.15626180005919987 2.7054011064997705 0.7076949995188766 -1.301923977029817 -0.17483610497301405 0.2304644436943749 1.1131512897561826 -0.9573371529870057 0.7489728188506449 -0.14063369914331186 0.32954988700158827 -0.171847891562625 0.30370203364227294 -0.15111342130152094 1.0826865503799668 0.5145381954791041 0.5393815476979495 -0.5706536621957367 
-0.6741551756003142 -0.2007939088863624 0.08055859610983501 -3.667791927386574 -0.4221880385950808 0.6748078421213071 1.3550524706124383 0.2869135257692647 -1.2730310922236017 -0.5031359083196385 -0.8844874627182846 -1.3300567944720532 -0.7328939728417535 0.09984845554677373 -0.9406977238355742 1.7336314248950508 0.10421198982455132 -0.9085849871527176 0.034287950512427216 -0.11483226283976106 0.2394423645136033 -0.13285582834144602 0.2851770211705353 -2.52936354535613 0.7578084969281353 0.11354617848209735 0.09437173759512546 1.7209457348248403 0.2819781158200807 0.060796587096688066 0.19692215259871587 -0.8298360217438309 -0.16699097220464026 0.7586382023348264 0.07867808037390829 0.13808536745074376 -0.4731103874050286 -2.395500638784352 -0.7594346972759379 4.536739841243271 1.0075356178978565 0.1345210158654176 -0.12569248526637938 -1.3747194794666149 -0.10952304345579988 -0.24869981887135886 -0.6254718169120378 -0.056316876646256314 -0.17396154979806108 -0.937025460715703 -0.2743255838134438 0.011614273725295625 -0.9181655322580039 0.4572772861646102 0.8040563776234606 -3.349506311084271 0.758611503969735 0.8810368410707855 0.24013602930748523 -0.12670742756762612 1.729778535689208 -1.2034125811637912 -0.42238236372724647 -1.3224675993494985 
1.0400283096354994 -1.386470924910691 -1.7978205062848645 1.4888486563482395 0.09974140669812064 -0.4037594307290691 -0.2806522610796203 -0.5527259744984341 0.4614367239079121 0.7913709246510802 -0.04407441530938179 0.8911368046075651 -0.46431457659361824 -0.15329950618048419 -0.46181890724123476 2.1777682366170854 0.44331929972276857 -0.21988045016348892 -0.8117744007905773 0.5941001945931871 -0.6111891864661899 0.6888559582146843 -2.9446588130663387 1.0063506779674023 0.40108138313306596 -0.16171786770423668 0.4104260054857282 0.0935168930671852 1.2479277162428788 -0.4889093542266532 -0.71005191588153 -0.06869401173647662 0.8178504256186685 -0.28083472984107893 0.29488978892336953 0.4866588512333628 0.7304861742461581 0.8969303201467184 0.0570862294858511 0.17765185704112416 0.6684209694608358 1.118303305929865 0.392991016390564 0.22207763809361783 0.6281157186894736 0.11253745784428536 -1.0366219421058611 -0.885292047336776 1.113100806227897 -0.25403233559031435 -0.45907664184826596 0.46234044573480687 -0.26001767317577895 -0.6486082955899549 0.8495194173597993 -0.26260974366213624 1.2766253029569923 -0.4340677901128014 -0.13613269439860648 0.5452927115348352 -0.10115736263347108 0.9472862805963117 -0.006808083429677037 1.0860292151836766 

0.0014697779699397496 -0.026549774308720568 0.0019855021662810884 -0.010425590957351384 
0.005763013976410651 0.013278285680632461 0.005150146716000657 -0.008677725004961227 
-0.00977702805023802 0.006079000763601919 0.029614331679591908 0.008068362754398022 
0.0007397252869247109 -0.01981853716338227 -0.0028793001232212943 -0.0075719190102053 
-0.004578241626207008 -0.003393780685921443 -0.018119079011046844 0.003399256979015937 
-0.014373169890220317 -0.008086553093055506 0.01630843243270256 0.00035680688019584507 
0.0004072268106989738 0.013145494282823342 0.001996481698641173 -0.0035454240733244578 
-0.010939695508993324 0.002912183793633328 -0.012429648042744232 -0.011737007090807581 
0.01842598402598822 -0.007637786449139159 -0.004362325215887636 0.019794063127967856 
0.003948574591875877 -0.005596988602746948 0.012773816954432561 0.0083576625656569 
0.0026482969448699514 -0.016308294543563563 -0.0011612474530987272 0.005046443681389718 
-0.012987695961276935 -0.002310091650906291 0.01009497269878652 0.0029702581731629878 
0.0007089844382713489 -0.007549712027134913 0.019679808883401918 0.0008019423831952123 
0.0020508264507133754 -0.002235863045316842 -0.007786320330937736 -0.0026782474111082316 
0.003287749076061665 0.0037473409276295383 -0.00893682593998126 -0.0007006403600505121 
-0.0028968094538941607 0.0009829301877595953 0.009001497515548936 0.003222012210011308 
0.0024147081378992834 8.895660978835234e-06 0.010736688238567771 0.016422913798668098 
0.008894161046177488 -0.0020616495328784233 0.0007239254198170729 0.004341760637649751 
0.002502484119294263 0.00257746406762354 -0.006613087286007459 0.0016320833495286427 
-0.0023653452826041207 0.023402550115284658 -0.011447845510033517 -0.007437619735960823 
0.0023807985122043106 0.01609331018651049 0.005341785904511177 0.004210138825862074 
-0.005410989408401076 -0.0062308284064222785 -0.0026000894498503513 -0.0005522454763349676 
-0.024584012426899535 -0.0023394942293929427 -0.001070962987711199 0.017749248697452515 
-0.011153427410252673 0.001246627344328539 0.004456381877945432 -0.002126837789401469 
-0.0030600615043940454 0.017180414319115007 0.01629966752453017 -0.002415727060845088 
0.018469471780324185 -0.023565074065136894 0.007273191260979163 -0.0064043873119820115 
0.012691568467420299 5.6821031148589774e-05 0.004075656285439309 -0.025591439907360347 
-0.005633999286405323 -0.00355312547502516 -0.011101689875888708 -0.006358829180897612 
-0.006601135223831865 0.0015750991993751867 -0.0016914899708808414 0.000770309035400241 
0.012617399581119742 -0.015562491971079074 0.0016311962041944952 0.022950633495646192 
-0.014975355973171218 0.007472137059104036 0.003956138723038339 0.008628537225372487 
-0.0023460611470282394 0.010369539637976878 0.0019422347814076841 -0.010729819316972871 
-0.006421483967941986 0.01595771405074494 -0.01029484932526203 0.009509247285932552 
-0.009610072081298136 0.012318377294079674 0.0032281842514029517 -0.0049402479440284535 
0.006225463065512174 -0.005673666308404162 -0.008965271267562558 -0.0005869121051410542 
0.0038235822804572428 0.02795099517166946 -0.01266348996096522 0.0007499554960694618 
-0.001370867325987964 -0.007261110694894925 0.013704428768409853 -0.0019052103484896233 
-0.018763011205404502 -0.00538561839218632 0.0025366101776840193 -0.027675635421739973 
-0.005082963501642491 0.00533894379063563 0.0018652823643601209 0.009454632502348983 
-0.004367359631449045 0.008020279178012242 -0.020656844412558384 0.006647240648226516 
0.0043057601781093194 0.014115809349693144 -1.5251399940377263e-06 -0.044946756961763 
0.004333430429963986 0.0017813312677229592 0.016384813294102785 0.011693112268028959 
0.009761814578706226 0.009094407274747517 0.012634783045767756 -0.0007969227923337805 
0.030872414742609225 -0.006126690838498421 -0.017269142494549226 0.005775044115269549 
-0.000448252058179815 0.003263147445468376 -0.008581997536486611 0.022434907051201512 
-0.013512168549847202 -0.011953938672973664 0.004335104805865241 0.0039702829628185925 
-0.013875443791466328 -0.019008651160913183 -0.005973872909527858 0.007909979080354599 
0.010353677075290862 0.0002950925582386367 0.01038108568765599 0.0014467506197025316 
-0.018493782886772867 0.004070279479785777 -0.019360450081137313 0.0009593061416600516 
-0.0005426623273044048 -0.0019079524480047929 0.0026170833727226016 -0.0020592648001070955 
-0.005300553823787778 0.002562055123170546 -0.021349096114408526 -0.00242306267702899 
-0.0008414626510762868 -0.018206883969225162 -0.004815224714814086 0.00853473668613599 
-0.008712666805257141 0.022266178921069496 -0.005066392789152057 -0.0023652483242146316 
-0.0008412916420723229 -0.0034183881631024374 0.0008778068814796683 0.0009589141638439191 
-0.013489002173593877 0.01268989134687747 -0.016877797902963683 -0.006423433028304341 
-0.006090588697211416 0.018673482754915663 0.00870457444336415 -0.007766782068859271 
0.0014793498730904368 0.005166028211988257 -0.005974299268406163 0.01039321969661382 
0.0029023957420145777 0.014153779426362242 -0.00024100083319004352 0.006668451502732505 
0.008191557606652973 0.009434971463024841 0.008596737080345567 -0.017862823398711196 
-0.022758097108195822 -0.00480980206301254 0.002054740540157199 -0.002569465398423998 
0.019869551786754886 -0.0027985505700265 -0.0030466784721643906 -0.002293327404356508 
-0.00464407634342326 -0.015486836663085172 -0.00847865737738325 0.011458322804176508 
-0.006881611886453302 -0.001975446293451317 0.01882503375718229 -0.010230790200752436 
-0.002163762131549339 0.01375843231531508 -0.008082654206175294 0.001996575710465654 