6 64 4 

-0.07403846047437504 0.2871068357287062 0.8325955395660574 -0.537054951328501 -0.3703859591944395 -0.01173137631226741 0.05537449450824179 2.4659275525542466 1.3576410000367807 2.191331140951567 0.5370373172078482 -0.18080277737864947 0.21017491871403893 -0.3205353296572224 0.0812538668186482 2.3146314952321068 0.1889497541885057 0.4803625501759522 -0.82792288320351 1.8922896648993148 -1.8285290566091228 -0.5467421212308581 -0.3556921362774459 0.3406197087253004 0.7433369704081227 -0.1423985566667366 -0.14571876620633714 1.09935810192951 0.12291801238814491 1.6295629194033439 0.9783003080006658 1.2448675613705587 -0.43012817546680926 -2.1073055420041555 -0.011176164487202978 0.530943357247651 -0.3088126886095638 0.7173482249037961 1.4313030542327172 0.48390944264799557 0.525366330562699 -0.1020042065504684 -0.4781574245701828 -0.3449280586363343 -0.7197388412068333 -2.10039521676138 0.39674944033960047 0.5976195518785794 1.2525002523823425 0.14764902551867548 0.8572860473026161 -1.3352804025012592 0.13378721090381707 -0.4486056892941572 1.6737073972459149 -0.5424805321818703 0.2877527548878318 2.410745395764681 0.23863990031210508 1.5116480097976774 -0.28818729416041605 0.21433451336679554 2.8074993185229205 0.02120105242745187 
-0.44612363714488223 0.8181402612761913 0.9840596864805979 -1.8365872222947726 0.5020863544606726 -0.21474831345368536 -2.7568762933343467 0.4202708634734982 -4.242434057955524 0.32079165651464747 0.7255424263793229 0.10641294076113576 0.44794681090219607 0.5438689048297233 -0.004955733507755173 -0.5980772793099011 -0.8126646693100266 -0.9193088673383011 -0.3530430639758992 -0.9852706986063767 0.5385051584916213 0.05729408443646026 0.18741437399119615 0.14865400647638255 0.7977621411434601 0.7183689365021488 -0.4012062787703967 0.03144870232480514 0.3432504179371105 -0.021457167074411514 0.5329477667831677 -0.2182936594337759 0.6871968836384218 -1.683877917433452 -0.4952613492455523 0.3075772680083125 0.8278064756115714 -0.46150003941912254 -0.10920428659607759 -0.47312703558124053 -1.8857601934901902 1.0460543342861661 -0.8191647218575787 1.6631385044573777 0.35878652586809956 1.4892260626190936 0.5351552488471222 -0.6458650747535735 -0.1305504420514607 0.3647864786497615 0.8744179903089593 0.32694612279458246 0.4691604988900171 -0.05228994355457849 -0.10653656646717144 0.4329530577200817 -0.5245144872038904 1.4155434067168404 0.3399374752570597 0.09020009233607691 0.6412267692805295 0.5740727874496516 -1.8102851564045368 -0.13317222071930715 
-0.06288842087321203 -1.7598690278600242 -0.5748520650470893 -0.7135494893731174 0.26802559092599176 0.737191461574074 0.15785113666915948 -0.6970987592347448 0.8383665379289953 -1.1381554870582902 -0.07113225154441027 0.17297288411925854 -0.6370268649260808 2.528501513874101 -0.44608088524318473 -0.7201056734727168 -0.7409057442520717 0.6777640000572658 1.165394889826237 -0.19620912583705752 0.06893190954419713 0.06870851008882059 0.5189746035398131 -0.05485225933501962 -1.3146718709893404 0.3704250646827973 1.0217771561177216 0.19185978873558315 0.6514352784196447 -1.2631666482411963 -6.463786601762111 -0.7827850780068062 0.3421026180051897 -1.2246374436444736 -2.179827213573168 -2.0508953222637403 -0.11300007838546323 1.1189680568072766 -2.1842976935792633 1.0656642301712613 -0.992568682953577 0.7302659771162275 1.3347947671274352 2.190524475573266 0.43395538197893724 -1.3841140261900047 -0.19612452774256 -0.26752732248043004 3.2291664709234587 -0.7388848813533573 -1.1754450607952982 -1.9669877116573629 0.29769328169449044 1.919513403584041 -0.8247610895875149 0.4954135185657739 -0.4538468464773688 -1.454224533846395 -0.11758486082786211 0.3705990447038964 -0.3847911428730061 -1.6366970311991098 0.35739797402954854 1.3408844270981177 
-0.17888850057537928 1.094142511644842 -0.29480131364733886 -2.352562758101127 0.016543447847033436 0.7230456205648451 -1.4334630783077367 2.187895264792833 0.36708792088335396 0.7327302744791547 0.24517570513684853 -2.6573079359770295 -0.28754099238105885 0.23570925820154962 -0.42402973156083007 -0.022766858730185406 -0.19112224990459578 0.4445811221557734 -0.7750815430021034 -0.6594905081785497 0.8267720162055933 -0.1284008766819768 -0.33485921354290116 1.1935643430619274 -1.5127015295343076 0.49536502650261055 -0.21623841860560428 -0.504057301800623 -1.431040081041322 -2.934773947272837 0.5110545919078695 -0.9000211988009912 0.7738993850884388 -1.4585364361877713 -2.407101422899274 -0.9976447274409085 -0.09808053831563375 0.03882414590383797 1.0358213176111224 0.801877193010839 2.292448513459011 1.452778337120547 1.145732395562739 -0.1210662721451867 3.059765036829678 8.838480167557572 -0.1554553824461002 -0.9329765853413099 -0.36199292611153056 -2.4585257576572372 0.3667089633450006 0.9017206583106572 -0.8252318990778207 -0.7635140459452541 -0.30751695596409717 1.1218131988455953 0.28004103211821857 -0.4102605132268581 0.5844746960357907 0.9074620447594381 1.174699811258772 0.023550941964943103 -2.35979986370346 -0.0767731268119013 
0.13198350847225618 -1.1269258547499932 -1.2969611079022998 -0.34491909252889236 -0.38229582811923485 0.7172306671066634 -1.3579297495729747 -0.35262654240263347 -0.3390831411658297 -0.392464025684295 -0.018945434075011737 -1.1387497406984335 -0.669250809269063 -0.2992085638815859 0.5819346679736885 0.03853941019191115 0.691428633504601 -0.5775158903673036 -0.8250003199184841 2.179663023412145 1.0915675200144754 -0.5782380687919769 -2.0508077530764495 -0.9020368251705516 -1.1852706094434657 0.5171622308046796 0.8493279103829775 1.4377006437317665 0.4881171211621604 -0.0547227651070554 -0.7010898462979862 -0.05250916129922293 0.2811094834498293 1.6682684897107884 4.61618295586086 -0.1462358534472813 0.15652783684694851 -0.22366498918224145 0.6196506844122827 -2.4323783964400056 -0.010576110535285912 1.2692073560429844 0.7197938356012125 1.2206953240904745 -0.5523344605800647 0.6224725959016799 -0.2755584662185756 0.3971842912128186 -0.34025133092949245 1.558210304086605 -0.6226853653992608 0.11687029965306156 -0.16072518571839237 -0.23604850591641774 1.4226999051304812 0.2739472674604329 -0.10097052945525674 0.4807891212408652 0.9382050251958728 0.7335251315150133 -0.5074937563467343 0.7206880830429785 0.19998831911837775 -0.2877649916960717 
2.543327882586876 -1.0881111453452421 -0.332502170393281 0.278963512643657 0.40058942528935865 0.9394295715227163 0.7140024606387692 0.6570005814779447 0.28752841761238235 0.9054726119031067 -0.1460844197103448 1.7154122488676251 1.8373878702635775 -1.0042226910089052 -0.8095584638055492 0.5983977530666275 1.476193745995951 -0.595413065126109 0.9531937749792414 -0.9763540905068926 -0.29090439952572816 -0.871441425025065 -0.5390386205953728 -0.30777336380198234 0.0854508350646045 1.7356427031430948 0.1139961405743457 -0.4273319049137502 -1.4147680670553586 -0.286727782809048 -2.871745184944419 0.18792484160250683 0.26151393193375067 -1.404073328302174 1.4957815182879548 -1.5859771496983486 -0.011760833368346975 1.936587906985449 1.2981666198145092 -1.2246958694806322 1.0081992512990694 -0.09275021668301602 0.16385035472843865 0.25721454072496336 0.5609640213156976 0.4564871250079514 -0.24124406144901825 0.8511702778170421 -1.13376560682165 -0.11850262667437 0.49095441556512354 0.7182112081273948 0.018762622939880992 -0.35037828557760436 0.9295154902619857 -1.4827956619585847 0.27527849837507784 0.24233554966447163 0.7716319429868723 0.2927106498808123 0.6331167597406788 0.7168398115734509 -0.7929537166344139 -0.11722176908835213 

1.974034874330652 -0.2873512474441247 -0.5697156505629755 0.2179625230628922 0.3772866460879898 -0.3268025744677986 -1.0081083714192696 0.6212712989559636 0.06647412571604282 -0.22334848417843167 -0.039971387633620854 0.5412522767051385 -1.0690836791258838 0.10817628189627046 0.13313496065741703 1.7227124978577473 0.4978066133409126 0.2728300301920735 -0.09897881542537398 -0.41916165871333133 -0.6319315550263357 -0.09845762371638231 -0.36240306855505233 0.3112644437578141 -0.4283986850987718 0.14168680104625633 -2.7671493386231494 0.3990756235737743 -0.23500619001988032 1.813200622484324 -0.0890513634083679 -0.4609338081706662 -0.6480160756481218 -0.33073956406557337 1.3717235288504608 -0.2252231483374407 0.11574082534902079 0.1579781027890528 -0.08322323114995998 0.2824135271221093 -0.9043908266575407 -1.4985449899991086 2.1392931150537993 -0.20610495756821057 0.01071358042767097 -1.0240058276756636 0.4670498326897411 -0.5351233885612897 -0.14176737896572103 -0.7252455573402264 -0.1416780009764322 -0.11603500950711788 -1.216524265950313 -0.7737309775018952 -0.38733565539449644 -2.030670330940489 -0.836331468844372 0.1798428057727564 1.7748593130740922 0.1517049302952294 0.029218560866359905 -0.47879453802058347 -0.9532467602104023 -2.5090853615903943 
-0.11644026975051423 -0.24716207494839548 -0.3384853941547966 0.15481023134252045 0.8388900977609128 -0.86200997718433 -1.2333732823854602 0.8516767711737347 0.8333815607889483 -0.42213556093231974 -0.4569242106238393 0.8127582118933766 -0.4667513580918654 1.0352323338676221 -3.464933254031845 -1.2429228403659494 0.25392880380070365 0.29473208411651275 -0.21605189100034786 0.19176570921749897 0.096678378203626 0.3972744625405802 -0.23796056798078596 -0.40981657509360014 0.7848996819059612 0.2493317382859825 1.3587528061178082 -0.10642676997493991 1.1918713443506335 0.23264767174408088 0.004392199788675043 0.4634202224240754 -0.19611979618413158 -0.2612650517864457 -0.7091114062794507 -0.5147628862077207 0.16051488570683026 0.16934128805519408 -0.635654113608571 0.8705473435459482 0.026374715959438556 -0.5890117004780993 -0.3603047138660818 -0.4256614978145059 3.4204164634011853 1.7614735132750072 0.7398869414278646 0.48670555072348426 1.014101838157918 4.664321862009194 -0.48009288567400854 0.7795220697188253 -0.291307218177753 -1.4644395560694223 0.6359277635005803 0.4214466783406663 0.19272430556451547 -0.2620746911784023 -0.582023806722525 0.19847281350942056 0.10169813817193758 -0.3221785917032122 0.09232434837172421 0.0447848148705338 
0.6738370137295704 -0.3716396440779851 -0.5198885678273094 -3.241185295765238 -0.8847687889221273 -0.22990260434631488 -1.1901251784513587 0.38168969706478395 -0.35162799321993504 0.8437262620791791 -2.743921457196715 -0.11129879804963616 -0.4667071804060926 -1.1129221490937098 -0.23945111748325612 2.862005009537338 0.0394365100187004 -0.27735222746599825 0.012757881555828823 -0.4711112199931653 -0.8694458673701414 0.15894119131137696 -0.5213034898949788 -3.2735137715071665 1.3852830219906536 -0.06115970153830338 0.2792184534439078 -0.5972460771560781 1.595196661702064 -0.012196493849796817 0.3379740274913185 0.7623900467302037 -0.43973016768531925 1.177171604293246 -1.7344289853027204 0.38183878873126703 0.2731833584185799 -1.0787214053406573 0.3303343990900836 -0.2620642062996261 -0.9057308981395662 -0.2652453268746544 -0.22051315550775438 -0.41115953088037865 0.7747420298865556 -1.9807585879415075 -1.9386118620571073 0.9290686480566483 1.9963250528684928 0.4610419001843924 0.35657826045394214 0.043344732965892474 0.258085905034839 -0.7909205737621563 0.7206780526272668 0.9788013434974161 0.48783400653263675 -0.22912892672885132 1.7321030307595249 -0.2458357409555878 0.7471180185869861 1.237032001751848 -0.15005400332373006 -0.13693504059796593 
1.1071803977269445 0.6732773810959926 0.13522936397345348 -1.3623136206592446 -1.5556822107644328 -1.3822414138096057 -0.8702940818086341 0.9995100141385893 -0.5514745689312596 -1.9944406075240673 -0.36823227215124865 1.4097085564765315 -0.1762992038669846 -0.4615447949322392 1.0564242057862763 -0.2820529120444783 -0.034704546307882465 1.9755592407118894 -0.5451505359899796 0.6394059616471565 -0.8030880962169166 -0.5916246471829582 -0.9854744477049902 -0.057423181241860036 0.6371536013515895 -0.3593255161771975 0.9555529350423998 -1.1429253898253706 -1.081752527314942 0.08652642109552569 -0.30186247159047286 0.7655841921289385 0.05832332125573642 -0.6040407744721559 -1.0953831474212967 0.5070612052397153 -4.6476933522166615 -0.003933752229199222 -0.5058258341424318 1.3782023433224975 -0.813681091055532 -0.0450367187216731 -0.5973423363826678 1.8398549988031825 0.7372430395995488 -0.7235681593910118 0.17844594497884175 -1.6016619840515192 0.3691159718656908 2.202323984050947 -0.1489012941425516 0.1159574809892593 1.7569540325200936 -0.7145525457879196 -1.2393708408732602 -0.051081949192918426 0.372664886075552 -3.104654120227946 -0.5769474392887978 0.15357466007007473 -2.030348866179159 0.5740766893557344 0.24599586824140143 3.6146199723824854 
-0.8391189623802501 -0.4002723572755304 -0.7485617258085038 -0.8959427938697666 -0.20620480889451853 -0.5878839572097618 0.24538763411926515 2.1837678004950503 -0.2397249827247857 0.5753882115841089 1.6802767002548349 -0.06516422854903665 -0.4207374156917829 0.995404594231958 -0.49283904774072135 -3.2384132751891994 -1.6522142386203853 -0.37107276489257496 2.1297750196426253 0.5414540058020545 0.6194947784271925 0.49892194808885465 1.2792510529562757 -1.135128738741227 -2.104886996125052 -0.8215125606237867 2.428749728142642 1.9251275631772369 -0.5708891892244906 -0.7728124382862486 1.8942649436703878 0.1385964181582448 -0.6604642225737462 -1.034141901096218 1.303716801349754 2.6020859953573887 -0.9569277890728124 0.9800920437843826 -0.23890546580332253 0.2606412895490016 -2.199842059162176 -2.143592652135444 -2.541526001478161 -0.4464823176135545 0.5588115682588717 -0.6146511641266913 -2.4318483378842455 0.05849905360953765 -0.21384584534597356 -0.4659750218746103 -1.103391200262347 -3.075372441143006 -1.2591993564708155 -0.02106525331452126 -2.0479079749429703 0.7350561479259486 -0.8841359952058957 0.7700080374168942 0.3035282054835142 -0.03888472144551987 0.11858280573748843 0.3998412836237269 1.3740138782008884 0.28825601935810113 
-0.03596357720082302 -1.9787695342549152 0.7811814919402922 -1.459066346640939 1.5768455553735155 0.3217136109369832 0.4734992585141 0.49607502050896823 -3.0234543478465405 0.23487130131446757 0.9352986114535397 0.5717018411292144 0.17448404807537055 1.362201712383543 0.21616164834133617 0.777248237586382 0.26518124234678525 0.5273296085307357 -1.2269510542906743 0.4910644212112612 -2.6643384624654174 0.06011401996427557 -0.6616186284134126 0.4240599929155531 1.4209507358231261 1.2566666714210801 0.215882103215035 1.3236650577559503 -2.65732831514464 0.27610978034026085 0.1662107296192299 2.083746059945539 -0.0454814545205746 -0.37384320443015734 0.8206433699566212 0.14282318837702224 0.4310697061500762 0.3057339043192749 0.3770855062797561 2.200459365473082 0.6632651556900739 -0.9659366829627382 0.37582025377815553 0.7362596905105685 -0.1508479287763217 0.9965738870608473 0.24665749291159453 -0.6017692405897821 0.6875051634014746 -0.7105053022941463 1.5569387399115884 1.0061651753581347 -1.5957760295064056 -1.7589020266566904 0.4722430961405024 -0.6313368474263157 0.5473564583237095 -0.708704700962431 -0.7097145970172309 -0.5497060433306835 2.7757420512456186 0.6139387266005363 0.6239455757196567 0.8794093108069054 
-2.5695519578281623 -0.6379995295925766 -1.950177910597882 -0.507869866680617 -0.05228665669788707 0.40237049762422306 0.6060658055565833 1.1479531143615405 -1.2371463219207561 -1.6586426195041404 3.2502438175456105 0.3753346502040897 -0.7941537358256137 -0.2686042511783632 -0.735474981236025 0.45728041683138254 0.21489649577925596 1.6991093942596491 -0.07906592912408948 -1.7353598762671305 2.540300245692063 0.40970108028466545 0.7052036890633613 -0.8347722689272358 -0.08304187362078516 0.05717794893505444 0.9689519205218344 1.6257479331899407 -0.31301968881967573 0.5799972675832252 -0.12380203767636656 -0.06373238625293288 -0.8307317240399804 0.6604708478866107 -0.7011995756361793 -1.0998275587169895 0.6809107534991679 0.04223053003879106 2.5439646753785317 -0.8071797528123509 2.6737778358211037 -0.14967241584744176 0.2705732620103235 -0.31952606510704806 0.08645618964736217 0.40063070604738726 0.5998193851933713 0.3260690834885416 -0.839808243659372 3.176402129087857 0.31048781582365814 -0.7729650492397528 -0.07859464617910099 0.432202950636257 0.02172271568901649 -0.25318214781067117 -0.249260122853724 0.7653182747790799 -0.5301762317070003 1.805922784073955 0.1530934806146112 -0.3031599686925599 -0.6374913685017406 -0.4070545263610365 
-0.29494154413457263 -0.28475941626774853 -1.9334268728962498 2.2360421773880566 0.37720407182490023 -0.1908698246322408 1.3340665088909904 0.3508056505953409 0.17210642418247787 0.7912573105956873 0.4430086655463886 -0.38298116441229657 -1.3267286952016164 0.5335976323811052 1.4749967127816836 -0.6548384218800014 0.09792167507250481 0.1545195471339212 0.14634832851393884 0.16394350107222333 0.5959150423295075 1.100908570561005 0.3006606909860948 0.19290426391994045 1.227444636733594 1.1007363179462586 -0.8548738358037664 -0.032402915657981424 0.6654550258747011 -1.8949435674853312 -0.3972419931273523 -1.0217185024941848 0.28427997536169636 -0.4670024432666553 -0.19481249396503708 0.7540375968827447 -1.962853757533481 2.8837691903065714 0.759142786853033 -0.616986896256008 -0.41223907665001464 -0.08561679580924113 0.11257607296805196 0.2788784100699469 0.9807012335698254 -0.8231673339935175 -0.036354691663769666 -0.6029451998279258 -3.213305775174146 0.5945994728615874 1.2513567325210662 -0.08085305797607738 0.3427567718634691 -1.2522743221293207 0.44454775225442367 -0.5515499758942735 2.558869632788269 -0.6620857046826294 -0.7684523998679934 -0.11559905216158795 -0.571172737547666 -0.7008170406580851 -1.0266431367216073 0.6149305108359114 
-0.3148454076942089 -1.0121395732975724 -0.27773020329350323 -0.1061068896555829 0.6306195696867034 -0.8958954700517273 -0.22715462217187213 0.06774491205334422 -0.05161883659152937 -1.4756439356195363 -0.4283994012119398 0.8474812431758361 -1.4648549788772913 -0.32459971822881284 0.02502576972626173 -0.5295655266147787 0.4642671639573811 0.25489540687923756 -0.7892769942240099 0.007793217111990144 -1.31077331725089 -1.0437529233777114 1.7588871811138502 -1.353421915737971 -0.4144316399660933 -0.5547648588678521 0.420264458932777 0.4687108070088407 0.4725632580659565 1.3541573516439351 -0.8512222705759444 0.8377168631051365 0.90034867800064 1.2809463152066822 0.23218974256864178 0.19630183710074178 2.3136971806955966 -0.31306033466140437 -0.0711860341607592 -0.19189840741018052 0.5176747089432999 0.4487133575718588 2.690847301135139 0.48987839273086314 0.27724213761330574 1.4224705549264625 -0.1767157757342159 -1.159445559127637 -0.2902847347264659 -0.33319744508175275 0.5842537513411283 -1.1114610727494914 0.7003437357059298 0.4080361136498162 -0.0491392491160561 -1.3580272878020294 0.21984284991394995 -0.20476648901834246 0.2965796427476439 -0.995394057037451 0.9419518088503244 -0.001308226164477497 -0.039840254657162164 -1.8821037766241902 
-0.9917445628127878 -0.850845402680211 0.44403732010678587 -0.055303678927476015 0.9657287749315224 0.4041543495153163 0.8418199683979948 -0.399815850342191 0.7347430251922037 -0.9367244375483195 -0.1611732957769145 0.46459083348748714 -0.2534028835494671 -1.3019612182321556 0.577056773688847 0.04435237364335379 0.5026086482189588 0.8437233078711655 0.3283101467632401 0.6806048686617887 -1.396893510272196 -0.00966541029661413 0.8401085539349109 1.206745748154095 -1.3177234532017823 -1.1983555590251849 0.3229845054408384 0.09017473241323998 1.3042743858318662 0.821616567136181 0.2591622933474305 0.23750926766764283 0.4919279536991611 0.09143388741355815 -0.21366737102202513 -1.3554940622315306 0.6353756935389814 -0.039522640318887574 0.2696482043750875 -0.2539529700244014 1.050990263120398 -0.3733648958550202 0.16907458612371862 1.8646910209649 0.32406940592244543 -0.17695686960417242 0.8208693187117929 -0.31763136984452206 0.1275047059301043 1.1836992676077664 1.346503810076946 -0.23152070359757448 -2.0905478994283997 0.12252830168369803 2.1652106161542344 0.8065335236105291 0.2498464466806261 1.4451643952505753 -0.26059009190326776 -3.1939512032660944 0.7897485881288875 -2.3735183872477252 0.4157578088296639 -0.2642828367380861 
-1.3614673076437962 0.410103910399004 -0.33875099125494107 -0.6239274649302434 0.4407134552374438 -1.5175672951267125 0.25510475585767384 1.2041909140493114 -0.08814034118000863 -0.03518685855250228 -0.37461343669162805 0.5167474480133374 -0.5080659134660451 -0.16083717914726264 0.006886105118557722 1.1778788469829218 0.9775847649162448 0.11588044877982871 0.30208786293562584 -0.8865482821243834 1.1089445966498854 0.1214398400399841 -0.775136964704349 -1.366634221036095 0.4398729761304308 0.2605897670007463 0.36167654193477267 7.664885088742364 -1.509500745246523 1.3519336188384774 2.2826231751096926 0.16893888445538316 0.050972961712223624 -0.6140967961573595 1.0161808429218322 -0.4445052739574857 -0.019404037222178913 0.39698816143408844 -0.10948747259209408 -0.9839949027317468 -0.1831420211258839 0.8374857309005465 -0.0740096352568141 0.5146223022762052 0.45232644449050907 0.1202651169014124 0.5452265731318966 0.5987699776035672 -0.0629807055888764 -0.23919762351868068 -0.3313658300230163 0.5085347666488197 -1.99363667477166 -1.0112373588538202 0.35568722456721774 -0.9343236504254028 0.9158059924344021 -0.23368887293388935 2.070779168262202 0.151539424063684 -2.5287809045803407 2.274032382919079 -1.005177003904758 -2.2052174192196445 
0.19824403497962595 -1.0986689873281623 0.3567336687127082 1.5601060068511823 0.026204869409523806 1.4501364953601334 0.28828951734782526 -1.4066992430532328 0.35157935221573 -0.4124361021129881 0.8182336023490574 -0.34811603873812996 -0.2777410029253194 0.6838049946808629 -0.19943975907084263 0.19170294939458868 0.29473332870207697 -0.06402237261430001 -0.47664634142435547 0.2821693528704153 0.2040871381470255 -0.11677251475934339 0.5623719911513084 -1.682151507224394 -0.17563063122132744 1.0946495417979707 -0.5920455129543974 0.38246330856287797 0.2007909806272155 0.023604318236193574 0.2793251002657819 0.24039711182769968 -0.22019168484318904 2.807795094009421 -0.2313878942739846 0.5196503174456455 0.23773919626495635 -0.3162957119264618 0.003827638981183249 -0.6658559538898015 -0.4213370558595697 0.5467984872021251 -0.132430341403753 -1.5241103241925875 -0.19980286257364013 -1.0362792318293168 0.18519813291685777 0.5091204796380722 0.4557642661418168 0.012788919042549921 -0.6080727885204478 0.5412406869493039 -0.26315530384360025 0.494415136300886 -0.021688712418497836 2.0110043376776545 1.5697601086667574 -0.8347134164630537 0.6568448280645401 0.7638717120476032 0.1387854043641945 0.8007106875324608 -0.8764122487086449 2.084509458045497 
-0.20418475972289005 1.2657159311754098 0.6472844963892664 -0.6320963157027744 -1.149090542274417 -0.2320198034118344 2.6387504820385272 -1.5768170449131733 3.943205586068253 -0.998579814880154 -0.24786777696595672 0.5952883742561959 -1.1250964611451202 -0.26115930608739907 0.4417310974457351 -0.832563681764339 -0.5670399031546403 -0.5744623153350038 -0.5185345012526614 -2.9274468247253367 0.9268857691649948 -1.3773056885171329 1.4308939191771426 -2.505352568156748 0.33511468589459237 1.337047867323273 0.33085257381819083 -1.0217512746512682 -0.09443857869417825 -3.547537862829641 0.4120264473501593 0.33757567765643665 3.202867165706378 1.1825873594576608 0.14814905427975605 1.0330481701849834 0.8581867043464999 0.16053874399335258 -1.578101816858299 0.21177481569860548 -0.525090517468977 -2.0784418430690406 0.06009425809169267 0.383105535528027 0.4290175813496506 -0.3253675115822366 0.7750732255869036 1.1738762569274843 -0.8232575884372654 0.06540219008358686 -0.8736986132221032 0.705110314731854 0.26428947648935264 1.069605313097728 4.353192018933735 1.2506102493929068 -0.727145506443486 0.9548442981596084 0.2813783960028801 -0.030117402138286748 -0.17446237764978118 0.8147573834912649 0.6285067094720777 -0.5410298375177286 
-0.7943848808335099 1.118766135820719 -0.15965588164630737 0.33635705373230573 0.3043015800146753 -0.1479207835535616 1.0616701954990444 0.24290246870820834 0.4181410164327329 -1.4891368267532992 -1.6516622616038081 0.008975555134081912 -0.5359826151823032 -1.1295820777741254 1.4156165564373024 -0.5780098117211246 -0.8824548897018599 -0.9158764225108507 -0.7015615206908941 -0.5852161747446849 0.7770341050401371 -0.2433422211312909 -1.6398090002203072 -0.14450720252046526 1.5703764139044885 0.5418592181312263 -0.8243131029609172 1.2424553372499727 -0.12411286560523625 -0.4382241851712466 1.8380911077666042 -1.1573883164135381 0.4299355149150018 -0.4473069362457526 -0.5005106454534397 0.26807837504289983 -0.781273236577565 -0.19443105420915427 -0.35709967471096377 -1.1555479444031502 -0.5424026986189024 0.5912825117293045 -0.19247079277136395 1.1004845438968869 -0.5162955390131173 0.9046647829565365 -0.10117371979466348 -0.0931862640471217 0.810325732438714 1.3853321182128981 -0.09994762516467368 0.2834040895327608 -0.5596141972835896 -0.852891462328665 -0.36041488904157926 -1.309289587519917 3.1037501149375 -0.13264412719041602 -0.28590927852737774 -0.06837378422795695 0.7817926878908121 -0.31539186373247513 0.11780475524013155 1.747832933638905 
-0.11887037089184194 1.1261153391198147 -0.08832149328763951 0.14751275485463242 -0.5869290934940325 -0.2816075319130063 -0.9806464314009502 1.1246522288457808 0.17159686169703528 -0.6671703814898537 -1.26579762819549 0.4127893089510478 0.03520522970943856 -0.34760636554630814 0.15360776336364976 1.2486072903845433 0.7487580948029948 -0.5281567006389409 -0.7187487520850416 0.46639299389901817 0.909008840599954 -0.12196652163944395 0.67826908049872 -0.03323762282985097 -0.461356059476245 -0.42357671386954915 -1.4236731696924725 -0.6325984301188192 0.2474097472319165 0.00043355323970348746 -0.08067722620414665 0.10572615633564443 -0.4528294013886373 -0.061476794816228815 0.19855214642592106 1.7726562296427912 0.11502198831998181 1.0997117025006593 0.27139382453688415 -0.74573901232829 0.6720054950227067 -0.8248464860501066 -2.636020869344828 0.25579843553243453 0.3273178622917709 -0.6273144765830044 -0.1461384119909508 1.8477549122282504 1.834497888695455 0.4011291801705974 -0.3478285770920056 0.2837536710609939 0.5909957381387527 -1.2909601740926389 -0.3372107994713705 1.885989503926777 -0.1824195681308956 -0.2952178738254427 -0.5001361539550084 0.02726215754343473 0.0650137291912949 -0.05917208152609108 -0.7021201083659594 0.7552592927418403 
-0.36851483328374357 0.5814872506356243 -0.0018689995052919893 -0.7151179487632148 1.4139686657186399 -0.46774806002225966 0.5796426804671259 0.44154580755069384 0.4252075375224279 -1.282236791043334 -0.5608861332669048 0.5735536148819047 0.253205987454348 0.9582951286677179 0.21340298444596217 -0.9254240818863113 -1.443613318672059 0.5439674380733639 -0.13448355422672648 -0.7367261459588021 -0.09603819029962797 0.04952943731554853 -0.018225449551359883 1.4149993925893287 2.2589444613000405 0.9517633252700797 -0.6943906591096697 0.810275271542228 0.7074782116873277 0.23174054144117165 -0.049090519222456254 0.2554671071488495 -3.466021471903871 -0.05962093978466133 0.012382094583395505 -0.36366899356662996 1.093960329227532 -1.5956754826536892 -1.7108577351149035 0.2213556464430686 -0.23852213388698468 0.8712538590737531 0.08856767202517604 1.3402589103967777 0.6311946661774204 0.912961847742379 -0.312802434071421 -0.5977638402306485 -0.3870436411321584 3.0087723007333187 -0.7400874309619493 1.4003676539127357 -0.579668621345585 0.342910883031716 0.2123309114158117 0.27262337204665194 0.9500024868305522 -0.6902229965016089 -0.7996494443426995 0.5067789644699056 2.700742801705613 -0.6166018912109312 -0.733130608265466 0.0844009215510392 
0.13386240305758487 -0.27970936094032006 -0.026283997685734046 -0.8617389013482505 0.2527473431345088 0.3052615683014235 1.203282270594531 -1.9391988055374465 -0.8099795165098079 0.31483076884613836 1.0037847586647366 -1.3320597014285132 0.9568052536106114 -0.15569765577227612 0.576924971796421 -0.6689430265329982 2.494897200555067 0.25367737447455596 -1.1493961348095822 -0.5875540336677787 -1.6545928301530965 -1.4021984190329735 0.03092016189741304 0.9338053031821825 0.4672990333437177 0.5615245718247818 -0.08983631665089005 0.36997281635555007 -0.5870148835542607 -1.5400659075103533 -0.2604275066116939 -0.7279401543339576 1.139037635890995 -0.9450897593446472 0.6610742410464628 -0.5648059537135433 -0.07452756374251172 -0.8560409199164701 0.7896539039008016 -0.18837702066463116 0.2541613528530048 -0.5980014627902646 -0.8139020937596886 2.73287377441863 -0.10425582501359767 -0.4659729307943452 -1.2673700304806608 0.19358796417867027 -0.2274856280794155 0.8468533588388507 -0.47719715917504246 -1.2964176627637267 0.43152214048753307 0.05664241590738655 -1.7404530388294033 -0.5585299757957599 0.1524920012888314 0.01552639104525656 1.4871932025963377 -0.12414592842267488 -0.2586915029307073 -1.3649006878161558 0.6274634966997236 0.9384655432175611 
0.35750911200544244 -0.12834393190502624 0.37676541391845353 0.6659937084666218 1.6007683834234507 0.42440260026346616 -1.3821035489750595 0.6434780258939172 -2.2675483215887984 -0.12859933375177204 0.2867273085267166 -1.6324326073522724 -0.7722551917099407 -1.7710184350582658 -0.20357239070687208 1.305943553409052 -0.160962138599479 2.870376057236364 0.37527855985662484 0.09505603122156439 0.8572731346799418 -0.011597106450125993 -0.3507707542258853 -0.3900560486974918 -1.2809571277506322 0.5540981126567416 -0.04006489178389402 0.2738721173541789 0.7778722150431884 -0.5076929669495042 -0.43357847768677465 0.15617179437789686 -0.8261043387212487 -0.7481327618549957 0.39646801835861456 -1.7002222523433377 1.7215182049451279 -1.6384815670553674 0.8643054563128354 0.5162541784448432 0.956112182602689 0.592328235944025 -1.0019760567362348 -0.029568675411977045 -0.36413814188474447 -0.34551693090679336 -0.158659692875883 -0.14646856511518844 -0.7183148503426509 -3.0356619737934873 0.42857203632440083 -0.381662444341379 0.30951953130455334 0.43077106516832653 0.02996706335904725 1.4238636827047841 2.586824088321268 -0.7742154308782851 0.27936030903712306 -1.6002487139193224 -0.9481742431781724 -0.9773476420785459 0.2661914039293422 -0.02032803714243134 
-0.645265846162693 0.8599265026740205 -0.10846519742753488 -0.30664073498782274 -0.4706807695325303 -0.4380132005326968 -0.3548419628810826 -0.3427784637996397 0.25416265041465724 -0.38107715496221856 -0.8212742850409838 0.8013598807492573 1.6419036027759737 -0.21350860341823477 0.16277167237401044 0.28722115351097594 -1.4041888955577908 -2.071719531764958 -0.2684510504502747 0.7472787977909789 -0.2778906212791633 -0.2475821896389793 -0.20305403232302208 -0.4246504009486749 -0.7057520499553188 0.33974037684195824 0.7875288062185443 0.4922900386278941 0.061803578771657534 -2.841632165751135 1.2424697594556409 1.8046890225394607 -0.20880386742929258 0.17265069848981718 -0.8245892752980718 1.302685501444489 -1.0173709201008205 -0.2844469275253294 -0.7330509623045517 -0.18342127541616773 -0.31107943585711745 0.06262662133547083 0.8067540727152951 -0.39972249779833363 -0.5528917361743594 -0.22622511135526183 0.1675378421929356 -0.43703356110759606 -0.03396301948671709 -0.17822677754375962 0.992394662187259 0.8554764207079011 0.8339891234816583 -0.46945508416562093 0.21787611919020664 -0.6478546635103153 0.579188115990743 0.031735704123124306 1.8047459037597249 0.8891577387991402 -0.339848128093254 0.29437360571199267 -0.061242536467725824 -0.3856976186900826 
0.08925002997331734 0.4405360593626043 -0.7212523932696914 -0.39375727764407453 -1.2341195470345512 -0.5301495620460264 1.1505441324093442 -1.3311937213224345 -0.27548356941105323 0.0064217570434641595 1.0059341482526896 -0.6037005536230521 -0.7927549795136969 4.279467735464919 0.3340340861463674 0.8001913561501026 -0.6536160093372326 0.49298176979207214 0.1909523592050604 0.17832733617593566 0.08047591621823422 1.0398999351155094 0.09502040694278448 0.03536518017556678 1.0931032109156638 -0.7383619437961059 -0.7444428620299617 -2.1162266627134367 0.8455524965631966 -1.3789197668974815 0.652356412785804 -0.2357116022169751 -0.12321801730811499 0.302498568272843 0.17700653371888522 0.27026352209521837 -0.3094509008134165 -0.28992483369542427 0.6934769324606993 3.1501642508522862 -0.5378935456790399 -0.473131405489593 -1.1028790965496595 0.7568718644239145 -0.6642936189165942 1.748048101046747 -0.04400043872170589 0.20340107907263494 -0.6240259091291899 -0.25979215406513645 0.9357825582317413 -0.1808348268982557 -0.863299801422829 -0.5738217100519881 -0.6694762937497594 0.5379412300409677 0.42001528366130275 0.2605880030990795 -0.14548710502089213 -0.015769386079256827 -0.4753764302828542 -0.16289155559521912 0.20896993384799845 -0.6893212284355542 
-0.2547389386574712 -0.9619517363236917 -0.03864729926246151 1.2281553810979775 0.7140219250343794 -0.09973226456828432 -6.002267887440411 -0.1916908175480826 0.26926302353628445 0.6575883221942842 1.1590980062685987 0.5232302552039891 -0.5053731686073012 0.6364662832165111 -0.7060668354278264 0.6582606660462449 0.022174938033994764 0.08088996619008686 0.4178606441480059 -0.5551464596132397 0.6419787414937774 0.43799051821154256 -0.1024624247239934 0.585568058648228 0.582327728721485 -0.7235613391664224 -2.2723073083133514 -0.1050459202444765 0.7801193049075722 -1.4142125949529372 -0.2577108308950579 0.0006092919005596548 -0.9393372928556601 -0.21555826266759978 0.11096807781637896 0.31229826015963635 0.8276107198305523 0.5551981743027378 0.3072407092491866 1.6470587800730705 -4.784058843045279 3.099995697590815 0.21005656025975342 -1.0279497320922593 -0.2482360771871126 0.5331674796272227 0.14601522035261622 -0.6831359032457628 0.9259565218226745 0.7604705725716552 -1.3102864366929137 -1.3411668968973929 -1.1685200992345124 -0.44758309342852254 -1.3796957622645634 -1.5326061329386176 -1.9367740652795733 -0.8113102482249509 0.3253181072102697 -0.7336558221182405 1.4287977587812561 0.940320158549828 -3.2751747359345496 -0.31851269210158895 
1.7348796991745936 1.980562762322272 -0.13103260387450222 -0.2731106333239053 0.639163896259044 0.1486971925159763 -2.05489413067988 0.1771209868985471 -0.21923598077459702 -0.14886665569877694 0.09573407154982874 -1.2589723481175366 -1.0882321444430538 -1.2368646657369815 -0.9542643348331714 0.08881142812576176 -0.7244191279233185 0.21488399016711082 -0.6187863020061144 -0.38360908371512903 -1.3845211033929166 0.09738863789685528 1.8311479297960878 3.4253907838548194 0.3177996545624656 -1.1743277522750937 -0.7161245872814007 -0.2984896757429238 0.747856768585237 -0.05612919607220059 -0.3322270160905551 -0.7509657417447864 2.0372091065958724 -0.9841231046251199 1.9394695140784983 1.197394832796699 1.2008678849684098 1.1666293317814869 -1.2728117091129743 0.11897588976342875 0.9107787627702685 -0.11044394118544028 -0.01593523646513713 0.46146624272176573 -0.894287637515638 0.486769749101766 -0.19577579118211616 -0.3078999880986461 0.3974321458239937 -1.1335508342963654 -1.5902750855712464 -2.3158692634225364 -0.5267375670384022 0.2953511124410859 -0.9245430060485078 -0.60014599507417 2.046910312840609 -0.7559482741887065 1.4028184069712528 -0.12274445572693862 -0.4565156862148425 -0.6804741769930218 3.849314998738826 0.6074558684534341 
-0.5253174471464889 -0.16378314298964472 0.3439121748047386 -0.0831867605731055 0.46893866860444466 -0.6964416183455823 0.4545558923428036 -0.38507083108986784 0.6190285082598518 -0.07923781191507163 0.9063589368028578 0.35810085617669574 -0.2897847597292677 -1.51266151964652 -0.20729635593071036 0.04911362983928319 0.2820761756811915 -1.8734666033656862 -0.5955995305994217 -0.528104018400872 -0.06224759252112115 -0.3462060307699724 0.5365703149213156 -0.8531763888817672 0.09669971152363141 -0.4478562290763563 -0.7097042742152687 -0.6273404044476164 -0.8680454465264502 -0.055372569948995906 1.5773534580322628 0.07999464614346971 0.2751242261472606 -0.7709896697480776 -1.5142218231517415 -0.9547623799929955 2.9862869974436226 1.3085965541481297 -0.0639851660314678 0.4421623367568673 -0.537471276102715 0.8890141291236267 -0.8003993427196243 -1.1145530136908346 0.832888899322594 -1.8247540450405588 1.7674342731408264 -0.9645845724499624 -0.41356311957490804 -0.13179729978930985 0.20323838745707765 0.6152912503180634 0.12804693034693057 -0.5234141588605719 0.23129918342177783 2.323797922130669 1.9794841888224204 0.08759980826897615 -0.49838339446570956 -0.30426162438723864 -0.8784628263376613 -1.0070457737037783 -0.26551554663059057 1.6158383143249486 
-0.5724653743766004 -1.491173429212297 -1.7729785398684759 0.37533227568402644 -0.4037414034823534 1.2498223225033844 -1.3474300705786564 -0.25693135206969514 0.39815120550517075 -0.12789793593986012 0.42278229356161334 -1.7007500308099237 0.41094555140484673 -0.03140157904394369 0.21689272746558724 0.42968748971633103 0.3974795979856035 0.53535558350744 -0.31481373568353205 -0.39039440662083535 0.8427739512037213 -0.7375872525468726 0.3337843894775793 2.217550069788708 0.09463106033970485 0.23343614890567493 0.09681990050219964 -0.3411568261060562 -0.7897748063590674 -0.2544073632084095 0.40505485948975395 1.048038905285219 1.301988004365201 0.7523546081350769 0.5364984130999467 0.4214756253672455 -0.33085843576308455 0.03501658145509867 -1.1501723613972805 -0.2710187260971021 0.7209882495182124 -0.6804723948606584 -0.5383299925411167 0.4905266122310861 -2.2608287447799933 -0.2507651278761066 -0.4634951069972005 -0.4943867323872934 -0.7912432821883395 -0.15613350508342697 0.21334974937098156 -5.38019126031252 -0.6827926016276296 -0.16325164644201462 -0.465668876619156 0.18870102282087875 -0.01624839030486626 0.013947101914659893 -0.0841554796311579 0.665989852010193 0.8896393271533838 -2.412057102895017 -1.0469543953236697 -1.8137147019823419 
-0.3819231968701458 -0.7685492298914516 0.14345133604051993 0.9150113576058291 1.374023858981103 0.03245822858470527 0.16381212484704025 -1.1574935501703076 -0.6466603092136796 0.06783953822414988 -0.5354208314091489 -0.38954460025566806 -0.9087829352675617 1.4762107680311325 -1.4110786701191735 -0.5507222296498953 -0.9550196841550012 -1.7472900625177648 0.29374819745323866 0.06819011529693812 -0.9139772813083935 -0.7321493995243794 -0.06842818873528442 0.5745605310132863 -0.3106172505271704 0.8217749964740484 0.4609666343123956 -1.0369347250982706 -0.0681868837968278 0.4058288684090199 -0.27082689102901014 -0.2910590422161895 -0.5397893883520525 1.0870687220749673 0.3328762369545202 0.9712340634008868 1.6849382952595422 0.4811565281716288 0.9169433294181523 0.6392002354902878 -0.4364251898875806 0.1314680838511814 0.9274628039188819 -0.502410523061445 0.3604032956350498 0.08442682699207926 -0.5512935372462712 -0.005081470708520462 -0.17970042496365085 0.46678413151202136 -0.6265445319241634 -0.21459379289051347 -0.8386697230973339 -1.2153777119356326 -0.621968020856074 -1.379328879540921 1.2400035719168863 -0.640430808505591 0.6532048219751707 -0.5337878012730144 3.7660310442032787 -0.24780899765694642 -0.35699060918845493 -0.22047573310552532 
-0.318633548594513 -0.90117113922968 -1.6846685847732938 -0.7645365923109729 1.1203921864127813 -0.2502033708212546 -0.38942228194756234 -0.9679240077747953 -1.7361396739253854 0.1663097545916942 0.4971307979009115 0.33286706831044094 1.2059762678000465 -0.1033215179534792 -0.9668803203104669 0.02613802210971946 5.359958545452928 0.08377397409165194 -0.09803668760037788 -0.5501233578506736 0.7096674783178689 1.7860207707939255 0.5810137971991846 1.1276856612546677 0.060679802120975554 -1.044345349104364 0.25609052821556494 -0.24615904558424687 1.6617041829383261 -2.2014261815125207 -0.8813523863499009 2.9615503808971684 -0.5283953723886007 -1.3081875924241089 -5.406456867600245 -0.9174824740564658 -0.05539748128245726 -2.560703050075216 -0.7982712503976724 -0.5737962398070029 -0.18530023497731465 0.7067862159146406 0.5956960839290437 -2.7919162955870003 0.48843688362394905 0.12046090222992378 -1.372485386402481 0.06954753402014759 -0.10275913524713248 0.6610127033904896 0.8604880799863428 0.4006757535931242 -0.06302473708276603 -0.5986227102458624 0.06831184635821103 -0.10106359997139744 0.08166549324451314 -0.9415711445204558 -0.1821755866765752 -0.16713293704693735 3.2169904428174836 -0.5243544955907743 0.8080104867289286 -2.2296700334137314 
-0.9691348819476412 -0.7425995516263459 1.5357642435770045 4.158196684948496 -0.26092782466031744 0.5346084351219692 -0.65491048415966 1.029360671098996 -0.3889466143154523 0.27180449149354896 0.14737074125509272 0.329651416803839 -0.2567514091601746 -1.9205611565850331 0.23061935649841198 -1.7202946855955084 1.4933137117589526 1.2933243273921824 -0.10566852508359967 -0.14911783758271724 -0.7316097424606711 0.24288567850595277 0.4110651827972889 -0.22196993041137753 0.39671631107586064 -0.1857062845098666 0.323235077697149 1.8092989298313722 0.8873893823108737 2.601763951854774 0.038975093289343794 -0.7127673580212275 -0.6245458851643212 -0.18694009384372642 1.1645580737359018 -0.46199392017053276 -0.0407086721178105 0.5261202153269781 -0.7672780198818943 0.04265288127211092 0.8191012187511513 0.2047327677399868 -0.3064399331043834 -0.1570437975108631 -1.3168227814872873 -1.1665525071854395 -0.26979946111551173 1.0471591239321028 -0.3055430452410052 -0.4674018011603485 0.07245090167079137 -0.6108738633104231 -1.6467625229774387 -4.055600952683075 1.6033733680833742 -0.07316275958328786 -0.03701980723855003 -0.32891845502719763 -1.1464041143014752 0.9458444147057393 0.49387040147877925 -0.7457179571774448 -0.08223473079097626 0.2268940193849791 
0.3597904644761107 1.368199699347855 -0.3185433515561613 -0.4932817272504778 0.21769933649797335 0.5400224788593472 -0.5377703790334425 2.021875348541311 0.9500462917637896 -0.23300186814279195 1.080972193447287 -0.6711918052893848 -0.1675986454931693 -0.26087721402203007 0.23421396100104638 -0.10101580963896185 -0.04135064538521481 0.20885364172214713 1.2241560336539319 -0.6808796563081474 0.6947221584469572 -0.8038479316927514 0.011533610204063106 0.06221348091639678 -0.8027136727140511 -1.3345962891628136 0.06817628863268431 0.287270461737213 0.19066534180014158 1.1568630917158087 -0.1959493469863872 0.30208448884626643 0.4500314841528091 -0.2444592596066913 0.9912580727302654 1.6071117693703192 0.06011229913530874 0.2940123675601135 -2.847992518122463 0.04684556659538014 0.7518935554692195 1.0350417458664352 -0.25314573735299667 0.22674554353681953 1.2444411576331065 0.2849962125134572 0.7024185067169041 -0.12077744162664768 -1.0029184588940538 1.067757760064722 -0.3330842769191467 -0.6968087140745217 -2.393782604376404 -0.43944973700216855 -0.2027956359576983 1.7585848053886441 0.8215998675744712 0.3097997141401413 -1.0208620223041323 1.887561230985301 -0.1127142331314432 0.4662572921320785 -0.12054792763265476 0.11257195255080796 
-0.41554213743207835 0.4830544969319122 -0.711548789549278 0.1255487145852316 0.6661182863461992 0.7406971866517161 1.4733901002897594 -1.7297260596851036 -0.5968751042382201 -0.9963591361661797 -0.20901962876159716 -0.3626491988531631 -0.36642498492757536 0.6449675409656559 0.38381380677775284 0.48878176586686456 -0.36154761250757544 -1.929557117200234 -0.5955107797002964 -0.5391170210899641 -0.2916274541184486 1.492173166453504 1.0610792159557783 -2.283664111931639 -0.47686059666799313 -0.33223233039415334 0.695802446205718 -0.32230202142925984 1.1876798764108953 0.778598345223341 -0.590085635822542 4.095040487021924 -0.4233075280370343 3.2695727690633145 -0.5978269958857414 -0.6448065746308121 0.4815812187724287 0.5290137124647893 1.0193265034391161 -1.4128508541599272 -0.4674618357806196 -0.5269568601283472 -0.03459009716051424 1.753080082892423 -0.024055898844550918 0.6763157679635725 -0.48815966078844436 -0.11407813431982188 -0.31986283695676415 -0.3839927839730015 -0.5418604785651827 0.6410348336625361 0.2746761291953732 1.0668582843144825 -0.15054249055563929 0.2429968242430275 1.0680074768425367 -1.01679968210851 -0.7865682803934954 0.3973685172465048 0.5348716634507639 0.2864842558022276 0.23573675247249254 0.17497610008700545 
-1.3871553450219638 -0.12029252006654698 1.7150604560346068 2.120487264521551 -0.951536455089804 -2.7031118926302775 -1.2093192179125314 0.013155492668615869 0.9601844047462214 0.21886578059142303 -0.7206983123881892 3.5088213243558184 -0.07822590166101313 1.1963464065290486 -0.15672866268093516 0.21448276335295877 -0.3869717934998591 0.2997624131461391 -0.5264180480786417 -0.10378705251083775 0.5830404996861183 -0.022402389186352317 0.3516600583923734 -0.01940068506026983 1.2885665199765328 0.6544744863615878 -1.1318544143673706 -0.21370721658331387 0.9284670275743913 0.24284190235223643 0.22869742536367893 0.14049801048324945 0.5883864506769594 -1.0830687965484558 1.537697989110699 0.08320321134610913 -0.3483940141964837 0.9922160406560864 -0.8826355627999912 -1.040717170124739 -1.0871344377604668 0.4550338520612097 -2.642248467999242 -0.591076193439081 -0.9260992051532104 0.804882473040026 0.2102821036257522 0.6864943789942785 0.9515362240907215 -1.5306930197083142 -2.0584548562411187 -0.038263577331385065 0.06169094065125551 2.9297855632837404 -0.7895045756434081 0.029454394961665686 -2.4416313586536713 -1.1916287824839153 1.3277788678653621 0.8595290483687904 0.6853285179687038 0.22370742226565885 1.4793995438526188 1.5988480112299208 
-1.1658351958783488 -2.020361772224436 -0.44662118940554046 -0.08724127730374535 -0.05818860198470802 0.14442511644280728 1.9204074354036298 -0.5173627113934564 0.49470103683770816 1.1511367171043665 -0.19093010147764236 -0.47923117035510554 -7.154474898166934 -1.1367249714221623 0.22859470052103006 0.86217141457085 -1.5998523273383694 1.4607017350123321 -0.5469518018709482 0.007441590042289955 -1.5216359108626112 -0.2803906496431477 -0.31685954640419073 -0.5967547788078105 2.4811800065220835 1.0122918235318208 -1.2215757813575183 0.6005949892133964 0.23009810814973 -0.831300075210734 0.05207937095369322 -1.119392606547995 0.7532077231349826 0.5159344294685452 -1.3518384103505847 -0.006002353341345164 -0.5132917763389035 0.5779638050005556 -2.8332821116240026 0.4934589959035466 2.1557188283919033 -0.9003327966839806 0.9767560821474278 0.5889914774040034 0.07540886670449098 -1.5035289439637205 0.570293232616892 -0.05796223728745067 0.21752648484119125 0.23291313633533017 -0.2634438037420127 -0.8986775147531678 1.880444409454357 2.3401172143343394 -1.2963642800658954 -1.0042265055588484 0.004961930570614375 0.36374910235987756 -2.740083114814196 -1.2126121661424998 0.8348634420178273 0.22963005445688026 0.3509495377990383 -1.3487576455682462 
1.6025429743991457 0.8187452785819496 1.47909839599293 -0.24012682968404214 -1.6981878836679944 1.013894854759213 -1.088877231877472 -0.5433636850300714 -0.05134760617028708 -0.2592614808754719 -0.2812497681635154 -0.3365396981523775 0.3970795686577293 0.22268933800430804 1.3916851206895002 -0.45058332535420703 -0.08325111812479134 0.377173620027391 0.3522586170186917 0.5366380715794384 0.6368710756984312 0.6350676508955515 -0.07305043330055999 0.4811634705987506 -0.239137781808396 -2.0426773509431353 0.2566864693767541 -0.6908197087788671 -2.106273497972781 -0.4151491018873316 0.1360180184489757 -0.6255840790425811 -0.634584679413733 1.1289749247496468 1.0124003966189676 -0.5464550966937234 0.9519713259081894 -0.3591025611472515 -0.1886583847040694 -1.2498944610588882 -2.725708100352698 1.3678579755363949 -0.02596530160162272 -0.2584206207675601 2.707020797472265 -0.33625495455487664 0.34714825140012484 -0.6608204977313028 -0.6074349113880569 -0.99821094644225 1.000798054654269 -1.3973280237687524 0.21828321776183884 -0.8578391924419777 -1.631140551525481 0.21430262648433396 -1.8613467340872716 1.3817104377706668 0.1208169595129416 -0.16678843756030146 -0.8481114276351317 -0.46839012594111523 -0.08960206294603955 2.958081069555357 
0.020969315157169037 -0.3713818659942733 1.1991278986126885 -0.5121206961600901 -1.4309321599868652 -0.04044428498953054 -0.46910832018569487 -4.406046859186172 -0.4837990245145728 -0.05682688149468385 -1.6398102169828384 0.3668387330470079 -0.1787298886920493 0.40524482480643303 1.9028041283580108 0.826311908853443 2.697261252562956 0.48824398720747925 0.05376260662279731 -0.9009680213348675 -1.741857030384407 -0.23247599769707158 -0.19525441039376487 -0.8165605961461817 -0.9703140173407269 -0.03015208744539149 -0.538547151896257 0.6756736701710645 -1.9363021663754787 -0.9030008576255377 0.17580123027080538 0.6094053745531696 -1.475390488793035 0.9775285518829486 -0.04351095936254109 0.7971871589458003 3.1832749626221437 0.6140957583129697 -0.04025101742951614 0.6438037822764678 -1.7292819933672794 -0.6067337939332641 -1.9054673026633542 0.17048409988276253 0.29014986937067383 1.4349609647669914 0.8908723699474318 -0.44272743623172356 -0.561708650147968 -1.860396096787708 -1.442337387265601 -0.1818406541174588 0.20193487118207218 -0.6738451076252816 0.6874596994952568 -0.8044663508963338 0.6755710091153092 -0.20195961800159462 3.8783807087165783 1.396468272452367 0.36006689217788523 0.8053138451699104 -0.6296710334020702 0.225268526469243 
0.26984541832644854 -0.9181619327867158 -0.3108213117743792 0.8965445166620124 -0.04811800717776888 0.37840919927934014 0.023760909765943642 0.39111034495009583 0.6673389070328181 -0.17966113971116085 -3.487716666868249 1.608423174020778 1.2682732841580122 0.3837651275203803 0.30453673803899656 0.3388786830675132 -0.05544403992081266 -1.0149450056712515 -1.7081957508443235 -0.6901850967756729 -0.5687463721186893 0.770765941536482 -0.006626841539177314 -0.1520474971309006 0.09280848729799128 1.0559654054298082 1.1010928865212004 2.65090568833951 0.5499124411406021 0.2029521298334706 0.2428628000491764 1.1378878671653567 -0.38857097251626277 -0.11521038116167001 -1.161034744597955 -0.23162661329519496 -0.284050895180029 -0.7981072849806731 0.20806134906545704 -0.25133730249237995 0.16454615674404227 0.6806943002480922 -0.9244270462836182 1.0911549205071942 1.8337046116410451 0.16562741587337307 -0.12348511829413639 1.1293982697464149 -0.8199725836549875 -0.5700982486902078 -0.19656705729314242 -0.48778298636895767 -0.2577146334509244 -0.11066605803193699 0.1828518085618934 0.028802674534240992 -0.3516041937585893 -0.2571607137414647 0.3909928140019599 0.194694556580344 -0.881645129665401 -0.5646725174853887 1.690189212231025 -0.7199129145338461 
-1.3546585553898847 1.3497848032967508 -0.2567974677802178 -3.2425500309379567 0.44106118156615315 1.1494906362191828 0.1799104921062278 -0.9367081364227638 0.7132972349697868 -2.0666672893622247 0.40789939747299697 0.046786579434377314 -0.07265485792149302 2.5041796098867324 0.24220905118544392 -0.08683136423339023 0.3625094825791455 -0.731189321273739 -0.9427783861064213 -0.50078943067982 -0.1187019918561063 -1.8925604889030356 -0.5095893069139571 0.7501452682860502 -0.04193291482982458 1.2676379373209534 -0.5140035669638651 -1.102065219112882 -0.9770577790742679 0.6562314014766036 -0.35275285781555343 0.013746751788362852 -1.8871121083107576 -0.37714554673669587 1.4368068157639011 -0.9214392127982916 -0.7245299648175655 1.8367260702012314 0.10475359679235034 0.5400130955196135 -0.5227207806498968 -0.6582399844567299 -0.2886949494255606 0.4222683066995575 0.5156481393697182 0.5861680514923772 -2.172774350344051 0.6849943356138135 1.2108561600146335 -0.2339836016493217 0.579014015610993 -0.9107559698928591 -0.4700510231511801 0.922911885709256 0.4704879370219872 2.281506139686348 0.11113412527568765 -0.4542289054004863 1.2417572438616065 1.8490054390812931 0.5825572971721342 -0.004008639756585113 -1.1627956200853964 -0.04325752985517483 
1.3076170814123935 2.6938727855138733 -0.1218382080058301 -1.3980366312319792 -0.4025685232977999 0.23497939960376357 -0.8441775919819297 1.1144577510921119 0.4027916076998497 -0.445180205387575 -0.6917522788344592 -0.2181704054148742 1.1098098637643323 -0.22997688867435453 -1.0041285574851466 1.0268124582865392 0.06279053303286816 0.1687483222940569 0.22015645881833995 0.08557408811559283 -0.7271831636519808 1.7516437501593327 -0.7096182406871294 0.31249945237312593 0.2539024180644845 -0.7670471093833381 -0.46995471122379817 1.381208336562378 -0.12776703916242832 0.4658601705157406 -1.8638725282317574 -0.96232670360883 -0.08296553300331554 -1.8356668380825925 0.4158011652591268 -0.3732831475578169 -2.181982234054786 2.412545967650125 -0.4358576568114828 -0.06470765711323978 -0.5469418688923774 -0.09655275550862921 0.023828897269521986 0.5464621554466652 1.9906049434986155 1.6471572517876834 -0.595010411576163 -0.940507093532212 -0.47344910500146625 -0.4402489560372284 -1.5150602461753753 -0.2278597095169574 2.759853928947156 -0.7707897235389719 -0.24329149939012198 0.13673885045103157 -0.9763484057426536 0.8654463815775231 -1.0456048185805156 -0.3024109256607592 0.04134193914884724 -0.3865661100229865 1.1662277993372467 1.0835206526495027 
2.4280658276549314 -0.2805575365051374 0.36647048694476553 -1.0141793682588998 0.27373146399897536 -0.2384138757972783 -0.032051451571377385 0.2905821976971328 0.084125439669166 3.1673114805086717 0.2509455017562379 -0.0361488165675858 -0.820104145709519 0.15095986159495628 2.551768009040626 -0.18431668414488145 2.5909642053924293 -1.1716278447725677 -0.5147904886564514 0.368873053200652 -0.865679562393764 -0.8754329505405045 0.16354216372367278 0.31650474009996826 0.09264939993983712 0.7460752799045404 0.2682094305013499 0.9662710730897098 0.18768340383480428 1.6516165315674562 -0.03281625100104435 3.4175227163931936 -0.42867844177390935 1.4513720618825479 -0.20763781483606525 0.6569047888548017 -0.5335066729729852 0.1898726893079771 0.22774088813430093 -0.43276713657170657 -0.4745495208740115 0.6627791923863567 0.1438261038509211 -0.3476753918071467 -0.27704131603288756 3.121358143475447 0.42249023238032224 0.7447599916287938 -0.1519156683396495 -0.17055189864730885 -0.012225660388804358 -0.6056017298251156 0.7768382424707339 -0.09279896586885844 1.4295174437816707 -1.0361292704718723 0.3700858237212631 -1.5535907295429077 2.180950806108553 -1.8652741355009814 1.7130435133115833 0.4456593520727712 0.29699065031132715 0.4339164680742986 
0.9634906388777625 0.8141868123380788 0.11653607352029226 -0.15063851211252455 -0.33950575014622764 0.11301001188969133 -1.4781778161205261 -0.1425955543745721 -0.6766754407091726 -1.1152215513768673 -1.9017864988357753 -2.061795331947728 0.6553006402204044 0.5392555337375841 0.790597918663864 -0.1266938422023766 0.418662426067088 -0.454841819607689 2.631239859101355 -0.3988557944767929 -0.804606177971669 -1.2976154192283116 0.4367690540667004 -0.11198518052468544 0.05634830366304182 0.5061389855656918 0.7156674849683179 -0.3208363667885419 0.4144756607362004 -0.5137280852196374 -1.4513231325691671 0.4923570986523987 0.5323535598291628 0.6169189417312487 -1.3692452916511195 0.2731887442520993 0.3170715240533866 -0.0359395469825178 0.13993512386187634 0.7869574603830924 -0.11071925879507195 -0.2065082384961074 0.10047323712259114 0.06894277118815649 0.20679576158283416 -1.0390744691483513 1.431021738115124 -0.23515620506617743 1.929766326284743 -1.020920702187017 0.571191597820037 -0.0987917344086634 0.36879586457177255 0.15036581348957617 -0.6163927202607253 0.2910646540455727 0.6986288081887013 0.3561110829290128 -0.10894316417735783 -3.6054905847100485 -0.2478761441428484 0.6584540131590049 0.9106055825859379 -2.3025904201901954 
-0.892398995200408 -0.14129852071896468 1.0180137740324267 0.7052126271597445 1.2442973054054858 -0.7935332634363913 -0.7201206210525993 2.4355680478126125 1.186071870952626 0.012183572031126425 -0.7866914438790297 2.318538998365449 -0.7077242119664449 -0.8514160065637123 0.23671253873179607 -1.0752159499720795 0.138757003362303 -0.04183863107975221 0.4012411188171405 -0.0053571437055055775 2.7567692156208667 0.18895617701515513 -0.37460236474289826 1.062598818561978 0.22849208282090022 -0.3457599285884996 -0.8733337373180403 -0.046472755656295064 -0.20154878418355315 0.1256641367549958 0.618643928624964 -0.0020203776029874966 0.3018524120388157 2.0883513718432387 -1.5847272216700257 -0.5753552575607866 -0.383132374885492 -0.8761718605527488 -0.21802710873458944 0.8446824696417549 -1.0616274869514393 -2.263870127960881 -0.6355572504064904 -0.5829710654955564 -0.24206173234071468 0.6910647044529411 -0.22969657644111663 -0.036351354648818175 1.0798284310826232 -1.119838079318996 0.693544531650443 0.7683509738481833 0.1431544881575409 -0.797734747617924 -0.4592583365042271 -0.9167803893687809 -5.535870864123512 0.22589190657471292 -1.7691914260763653 -0.7783508408852514 -0.010679522674871073 0.5010770289418871 -2.1046578353103844 -0.8667698984053562 
0.8983828231755078 0.210789228242797 -0.10297536398910237 -1.5924892547641338 0.20214764560386836 -0.23210499669975698 0.20734089360383776 0.444907528120117 -0.00039339232271500994 -0.14045651170689705 -0.9754590783266472 1.496340310568873 -0.6020236341329886 -1.0795146340890294 -0.6209049928162633 1.3062899001460282 -0.6344334841708613 1.530063208554279 -1.4760681663949844 -0.34211172588622785 1.3545414066847523 -0.6898754426227451 -0.6114431196117847 -0.0666003773544807 -0.6044607225134832 0.388068693263673 -1.6356694257840538 -0.040269907075026964 -0.9057591038606528 0.19956133475663151 0.522413226426018 1.123212022428167 -0.5634640639901262 -0.8266972061747114 2.476678749453713 -0.28476325543831854 0.22621098723692584 0.7352633284586312 0.2563384535987086 -0.25418568598195723 1.2043649633687585 -1.5643304058745906 -1.3589355253516877 -0.15734825969210572 -1.1574374922911304 0.572033551363122 0.08222273272105499 -0.6291229474919755 0.11974970857859557 0.7922654946714013 0.2748432695923719 -1.2340277114739249 -1.0786455146793559 0.407095106691485 0.07897190201268053 -0.7367085365149303 1.1500769882321842 -0.1749195962575509 -0.8060504436363727 0.23702572369471042 -0.8666813505641777 -0.9343458131300535 0.6700426156211766 0.1598507493742286 
-1.256663698582075 -0.006022080958289744 1.410758886651664 0.2514868415569804 -0.028649148043371635 2.991230711910467 0.07510549063942848 -0.09394282869208097 -0.5828468486990368 -1.7013066456501063 0.5647280628590094 0.16020914500521935 -0.1387741514627734 1.2559396230727284 -0.32617132117775394 -0.3601182321821248 -1.8424748511122895 -1.1627471093047086 3.652250023881652 2.7295099233887723 0.7739839928208874 0.3591241716278462 -0.006873430283157625 2.5940746436984874 1.1697814716422372 0.722801378619943 -0.23194284696546164 -1.0199006651539513 1.1417219550696884 0.08095644467035519 -1.2144742517898777 -0.5627295279434399 -0.34258564317979434 -0.09518116985251444 0.15450383077985153 0.6446395287542919 2.04750094417871 2.331162339549483 0.06129916428839945 0.12975639950292145 -0.35688170401473 -2.0966595482571746 0.16331845045562704 0.4922372159205752 1.1055534896036325 0.5473564540817396 -0.8286062616420897 -0.10089901174801863 0.9368929629463221 -0.5659484476900478 0.4991248576772771 -0.1002758789173693 -1.1908134781264113 -0.5574831715458652 -1.1393344807143297 -0.0017564856884309053 -0.13423573202459235 4.117355582237626 -0.025774603160968242 -0.13911181343831758 1.6928325034769152 0.6906064807006592 0.862217521339379 -0.7173638746185725 
-0.007243571079410564 0.3327769857493457 0.27995365735707517 2.650675602757697 -3.179318814387239 0.8265638234883181 -1.3661497306177988 0.30458673687221843 -1.166194737620663 0.09325514311985353 0.3184244680430983 -0.23832893141560935 -0.9249120038137043 0.8645097145543001 1.0222759978180231 2.280871071443347 -0.5486668971537798 2.1392778238171686 0.44252350000532303 1.761155576252221 0.8263854584255899 -0.12062344056306037 -0.004900044138232972 -1.2653630572929129 0.97314238310519 0.5467370348197069 -0.064296852236935 -0.6153442031185572 1.1099684379402204 -0.6459967833285705 0.43114299756905905 0.1342774913803678 -0.3185919353936475 -0.5058565365870008 0.9932562443859057 -0.9105378450239601 -0.17000560906609763 -0.16455941125904477 0.042095153275294284 -0.3194110039488897 -0.12896616610554898 0.5594948035173597 0.6312099780434455 -0.0921479563074919 2.301489623638901 0.5345120907225979 0.31921769162300623 -0.21692370145462575 -0.24909301831240288 -0.8418862229905489 0.3560610592591201 0.005563236799321583 1.6304392365185147 2.1120743127432258 1.1040770228646601 0.07022824043117037 -0.44436977030470953 -1.0313186494318758 0.024785749048963673 0.2533038096397467 2.024896267458074 -0.4665116758125087 0.7287763715558306 0.16131291033362785 
1.4237305694280622 0.004053384279822135 2.4457921185581126 -0.23463907394151937 2.7864974223389 -0.07963590401549105 0.08330723313986362 0.7259140157262302 1.0008670193066156 -1.093354482452216 0.3808999889021815 0.17063134560787477 0.10221549067700793 -0.31223533887735105 0.9972133159007014 1.0201156635408588 -1.7178197440637515 0.4932082536950893 -0.228720880262053 0.1764261269913505 -0.8509953317980102 3.571021844144168 0.8081791849087359 -0.0367756730040179 -1.9814645028108515 -3.965592343535346 0.6079416043108716 -0.07250986136051912 1.1121943980627795 1.4315373078824833 -0.3007365145494215 3.531484677310788 -0.2283356314033598 -0.1102429453984324 -1.317944684981118 3.1297983119015607 -3.0899125319097434 -0.2748828931066711 0.004592222470999942 -0.07187461656850884 0.7751166292849847 2.648984238760989 1.711576227626525 -0.74528015102847 -0.28669591240927184 -2.272969911763771 0.23026253421485457 1.1680487489249973 0.5097865804059292 -1.0143068680693315 -0.46001967987675374 -0.46402965288874654 -0.8981343217085501 0.1864444675099612 -0.6697121654313128 1.8287395007794354 -0.9281848266478295 -0.4755035934855257 -0.009040270104805037 -0.22841591162573277 -1.4684989880142993 0.49142796620135687 1.422259333562327 0.6278114739234887 
0.09926002648667982 2.802101032817943 -0.26903947110887233 -0.52360431469837 0.18867066166350538 -0.11677922676530389 0.3522090296714275 -0.871753390218096 -0.5343203023649917 -1.494997945644364 -0.7686594105064958 0.6821486870047683 0.0003175802286335268 -1.0081781198782853 -2.4537525843120007 -0.278257395876338 0.3087236745466841 -0.6347042294156378 -0.5026601897861532 0.4531823149236106 -0.14680835625465966 -0.24157440307408187 0.6463341737239012 0.3097028643169211 -2.5078271423125904 -1.7315841682928454 0.9990541503923805 -0.8587767014473641 0.5916849277220237 -0.07280667225479666 -2.1272194660518373 -0.765656465059874 -0.2601282189693463 1.187491453558631 -0.4640054503199108 2.0901258440766584 -1.0552100000005418 -0.4631191495410552 1.0891510753500508 -1.609147816761083 0.580706659428797 -0.8424675034965041 -0.3805108420107133 -0.4631059155127507 0.746457666762831 -1.1742817468691547 -0.3663371709804023 0.09061717081504199 0.9523393794571234 -2.099741675065876 1.056303626584216 -0.009920722278883827 -0.13872232755255037 -0.004007369932738346 -0.04021076385435944 -0.5609813862368317 0.6998563958231115 0.662701532341367 -3.755182778214998 -0.47200967063228977 -0.2741506888157293 0.4215250399419057 0.949284224722379 -1.435030544970559 
-0.37152069170901436 -3.04487404973572 -0.8143919976573492 -1.4157866888992425 0.8777621830615925 0.3597941438514224 -0.5444953577194613 -1.0711115841366252 0.37669129401872936 0.0999845526191049 0.023532570972357933 -0.2665435294596168 0.5016140737964221 -0.9255171826441154 -0.5399318212443455 0.14519190619213504 -0.29846033398754584 1.035017982655821 -1.390936880361314 -0.6352838146614045 -0.760358881334411 0.462255845196891 0.7562876244824416 1.055429250684302 -0.8034139473392675 0.731483116127376 -0.1394659380824125 0.036961724672878254 0.027976143383993412 1.5427555902047514 0.8193407857575876 3.5955325184220808 -0.08296726583062998 0.48957581826268753 -1.1863726180240113 0.2915820295725312 0.18233465442317456 1.7171324636292777 1.8976230636078044 0.179484149124093 -0.42372049584793753 -1.7290782324601066 0.36562393550631045 0.5971931437386042 0.2910444606143734 2.3929167045891977 -0.35762250315037 -0.5802426617748198 0.20365078859204844 0.04226373416124911 1.3702351681408638 0.5386784639743981 -0.8688907797655473 -0.6677246913377934 -0.4622078082365362 1.856362122748689 0.726691623289429 0.20186765642893692 -0.5928488804006038 1.0871511557303093 -0.315374112210955 -0.803298193440009 -0.6127818007324307 -2.9193992894528424 
0.08255035446449632 -1.1043561092749223 1.6200848779436567 -0.9336597039451808 -0.1741345143248652 -0.9310208598482399 1.2260240109108969 -0.18585818013718627 -2.7332893046293965 0.6438366723467032 2.100286551481618 1.2592181005201797 -1.089702914555421 -0.21237330994338505 1.58290846160413 0.6285598715365854 1.5786911550825637 0.1889790041216648 -1.1607929450577004 0.04795529027396988 1.001702308053807 -3.172007221437136 0.4988766158826062 -0.614756286892394 0.05923158338292739 -2.0520795599966717 0.0704487849397796 -2.546941873876083 1.423677931001996 -0.17876781736334854 0.30879656293604635 0.4215133891745212 0.1737974352427751 -1.3427865947056365 -0.6492758060681947 0.33042806847744977 -1.32556897222592 0.9809139372921044 -0.6222206133466105 1.6469940829945968 -0.28201192013187776 -1.0456888229747454 -1.505007819775639 -1.3260057033534958 -0.6953574820019971 -0.43943772299694694 0.879055591621746 -0.39619015994802664 0.6877007665815047 -1.5569058530498248 -0.6411068636518713 0.24004322122494026 -3.506828422137077 -0.5522986033869547 1.268653902476027 0.5250311740425329 -0.21400554399395522 0.06731351068719989 1.7397857535208294 0.3951144392757064 0.3631827933690148 -1.2612526615143551 -0.22510574230898422 1.2253625179524645 
0.023755437098986375 0.16950923216526376 -2.8715632218974565 0.34068735950615153 -0.35587459292580637 1.5465648999844919 0.15470291611670875 -0.1778705464638523 0.1591979869622623 2.007198049795575 -0.9734950668056858 0.10382648337195041 -2.154968644313556 -0.018181221436889407 1.5543064812150849 0.33317794952414387 0.5942790651152244 1.082430090183327 -2.6753279709977926 -0.9406188760079884 0.9698199617654875 -0.06501376450767736 0.35572313139884876 -0.009400859341639433 1.2021435797412094 -0.08337282545331798 -0.7353787856437746 -0.550674179206155 -0.7252164693461465 0.08794639190558992 -0.13052700745975146 1.1973223130900683 -0.5629792626756773 -0.377074442715114 0.8912935119757046 -1.132016670759424 -0.10985838506905479 -1.2287144492015645 0.04164345615768369 0.2444202268126139 0.5373046141055394 -1.0770697805071008 -0.2850082780014675 -0.06606133791964344 -0.32430556308406927 0.0421415788481166 0.08858916117373489 0.8000423437272569 -1.32389605207106 -0.019380518197358875 0.27906762775513533 0.684801995715264 -0.479825826338978 -0.4562394388719919 0.3351527265146271 0.7706952879925006 0.2416785709646602 -0.10151982464070863 5.581614457079757 0.3045012063322038 -0.05825981992087511 1.1613935025549726 -0.6586202802013034 0.34922870886693735 
0.35952970651209365 -0.7391304339707366 0.19231890351451023 -0.2520087941700603 0.9703796896969429 0.11811941590295591 1.015948876291716 -2.8451555486552174 -2.724947193575134 0.24240282010713082 -2.3584578851206364 -0.07696307358582218 -0.10556844191272903 -0.32592568955031664 -2.0178780077786183 0.3145870734962126 1.1569933733203164 0.45045805447399656 -0.6264457923544121 -0.29820501961222223 0.3272071436177706 -1.3846633858912039 0.4054880336216832 1.4232142975255 -1.3572927095305707 1.3914249583006224 -0.12082562872394897 -1.0719859241977772 -0.35091455787194675 -0.5208745993688462 -0.38146497592420653 -0.7516264064253263 -0.6753875783939167 0.954745237783362 -2.5696678258175902 -0.29927032943162696 -1.1732824591511686 1.3900252113001539 0.33266468182956027 1.3678579040416337 -0.5260215969878734 0.05583029485146505 0.23923108146899025 1.1826552308922285 -0.29744265441721335 1.2431387156325924 1.1674439748042873 1.2258792973357806 -0.2427544565868429 0.6877484263330071 2.557389866072848 -0.4626049474439626 0.0005368738061442371 0.4116660594121065 0.2319035153606588 -0.4865287454493552 -0.5124067453370069 0.9783599991076003 -2.2854683394882422 1.133959561073633 -0.10898556181932283 0.378614098547663 0.11587420349524126 0.5113292519937984 
-0.2782757442248859 -0.07007977783645697 -1.0461197421943884 1.3130376009915352 -2.753242449768905 -0.5814973668498141 -0.6334047411220574 0.575943733754443 -1.6186330177336228 0.36898556510836866 -1.2806337129253984 -0.5987357209127204 2.950137927724034 0.23545032567405608 -0.648638072917381 0.7295465536834184 -0.07000497449934479 -0.10982196442538182 -2.791212439310223 0.44893088261701797 -0.4587044892644366 1.3909312742171462 0.38929861023564555 -0.22796911430513495 0.4468159802881516 1.3427704326221914 0.9221794906641573 0.24057983371038633 0.23364282783272142 1.676352680333662 -1.4908380800141385 1.221631373486418 2.8604211442026304 -5.470832772981204 0.26122650797811403 0.8216588600334349 0.8909426973678041 -0.8395674245674449 -0.01261714630621628 -1.137866741148175 -0.032142954119728055 0.730387147792519 -1.1583553223514138 0.27404232665413114 -1.2965682750519627 0.463876481653319 1.369690311501885 -0.3546613847248823 0.12759526558362821 0.33421786792491115 0.1897394038265306 2.173403125509198 0.05697995888904101 1.3578193155793001 -0.3641655040055039 -0.6686796284960439 -0.33743168068979207 0.4525463846224989 -2.4270919478251765 0.7479545458216893 -0.3734330245850594 0.4709329706577757 -0.11137220868491675 -0.2878264596923297 
-1.1468035936409995 -0.18971577821747274 0.04914764550592961 0.41900739159505007 0.5503085178202252 -0.7546102206462172 -0.40467546487241635 0.6123065397754612 -0.5255216095582279 1.509983477159335 1.3520219644471159 0.8642307632744747 -0.4753415037000025 -0.22818247883616935 0.5827528758653083 0.0637517629612283 0.5249459446935566 -1.1581525813208602 0.19965288950534124 0.17685867336464728 0.8078743508750962 0.42724817979651264 -1.1031687061146265 -0.3089548771211527 0.7702370369451891 -0.2827671318008468 -0.3048808651535202 -0.6934121643437584 0.0803040784125566 -0.557777800769698 0.8765285378822014 0.46387463419455205 -0.9537548667060656 0.7636158011364415 -0.27801736372513886 0.8851583227304253 1.2827744630717581 0.32829062761207706 0.5739695186555148 0.3436862888629218 -0.320529176637915 -0.6815843933532456 0.23699924425652386 -0.7443723473731434 -0.6094894854266187 -1.2362540600451295 0.3156191221414106 -0.7216994220797831 1.0973201508026522 0.43329398839719757 -1.0392676473338944 1.023152776614771 -0.30405840502521353 1.1425240141634863 -1.1014908926227258 -2.3351486896192255 -0.23874192918559825 -0.06551829917945973 2.1429749879075524 -0.10946091446966118 1.5402929972919681 -0.18022299505164266 0.22639737621107311 0.668443540323549 
-1.7399914974763022 -0.05240484155297716 1.079250716172927 0.25348086925418645 1.1338359742822592 -0.04072722287139334 1.5746042939763298 1.211033247119563 1.27323363769452 -0.4909423189191787 1.7046328540932747 -0.30782904902182684 -0.7079949186218731 -0.5749988712760745 0.347927100587804 0.36941866857766675 -1.1836452225475034 0.3546346226499844 -1.1774633562945795 -2.0754716456610236 1.810027537443393 2.418774202174027 -0.5166877945219002 -0.9415583623709088 0.13086958757666423 -0.4329249521644506 0.07584316612363197 0.0984425271710924 -2.1585468409293473 1.027410229304944 -0.1333235688840219 -0.28907128939677584 1.249987854660706 -0.6075979054653494 -0.9939245233939922 -1.766510561086893 1.4399842177580773 0.2044628121672813 -0.09263443556098239 0.8353479980232165 -1.0723877827785047 -0.966380482782837 0.14856277797529427 -1.2355559255026514 0.8725109615226703 0.9841733388668334 -1.9009787158983231 -1.1820430828308637 -0.9297519184151044 -0.3556869555536831 0.39231336359606267 -0.269967369105481 -0.8631579457937768 -1.0754289578467584 -3.6486255027867043 -0.8274599638164398 0.21158832709662737 2.125420111166775 -1.1058313366779022 -1.1364423048638534 -0.10368062566453835 1.118918984277127 1.4496542230843885 -1.0959763820848532 
-0.7178276150618751 0.5466449472040433 1.8150158060182935 1.1177368504333363 2.388136099506305 0.43439481158905513 0.7657460333905698 0.4015600862892457 1.2381615173771205 0.065756582750733 3.283760485074222 0.2203396261648585 -0.08572437184165241 0.12664602143468665 1.4782522826602136 -0.06835632533658971 -2.0859929598502736 2.823065771232531 -0.4159819004018665 0.47271281582003893 -0.7374595063104922 -0.6739711071681173 -2.9412071951089165 -2.3339343119053746 -0.8097217914470176 1.3653979735085204 0.02822296329988555 -0.31264234644143885 -2.926245184887223 1.8650657066946432 -1.556189627501175 0.49260234917616896 -0.49289907375599784 -1.4926328136060893 0.4102211656466322 -0.0505331564972315 -0.5708837856288204 0.07263765304059806 -0.05451626910740502 -3.019288019657362 -0.2411174789007489 -0.028512316643886423 -0.6170338447172542 0.6394192237815924 1.733087413473102 -2.313088401869506 -0.032367975559363195 -0.2694785676277405 1.064660371249742 -0.6954385481252792 1.2377967909667702 0.26205067988456393 -0.4483604412679525 -0.5581144038764818 0.13592285320958045 -0.21056496372804 -2.5891881768976104 -0.32981525439355636 -0.9996191400598932 0.9731150441914019 -1.8074604729917345 0.7646009264352399 -1.9197567272900324 -0.7340431708089574 
1.627904180599495 -0.19369611928661173 0.8094368728771941 0.0011237993314092425 -1.0790827393958689 -0.021229207061333726 -0.10980070533230869 -0.46688937477275294 -1.4233310314909071 -0.07387159079638114 1.026473267762762 -0.10107352139974894 -0.32440165991497033 0.06914332486217802 -0.4546097938110056 0.6685468808448717 -0.5632663164450886 1.3917844700163893 -0.1233866556602991 1.657293083095792 2.481325419972257 0.8685031735184111 0.9372537183620021 -1.1834226082027461 0.25538943539238745 1.4075693015749782 -1.1542058856428843 -0.3699714499815608 2.2707330575180618 -1.6826182294202086 0.2989126249575331 -0.7046773125196496 -0.12446462878900993 1.3541681595696953 0.24242977495341786 0.5600725999923456 -1.1969349758217522 1.026935354864277 -0.42530623916348986 -2.548451233987596 0.5348795385428755 0.38488516638043 0.28366076695193104 0.7461538143702666 -0.7129687941941305 2.669053031843876 -0.5346255024393748 -0.07077451478425535 0.16571613293509993 0.7337730419563466 0.8520355071802247 0.24934239670316458 0.20483924854748975 -0.8431303830794253 0.8836980749596002 -1.5271268818454597 0.3091095041655658 0.96870060557002 0.18908049513434008 -0.7792355833864186 0.4990916210032699 -0.3463744246268172 0.6110017900981355 0.43489380094697455 
-0.5417820972802012 0.05386854228887592 -0.7041239053913161 -0.2175953203503073 -1.6979008476840904 0.21197702225132503 0.07016387663006551 -0.6993055917694387 0.622208228705412 1.1971496351063962 0.3869870926186327 -0.8289508189032794 -1.9367149336918141 -0.07180594947412153 -2.454813593333125 -2.825082536207534 -0.05691255981591044 0.531231676894961 0.7649512403285837 -1.0403481138116784 -0.9596650241636028 0.22133541724706202 0.313461886897418 -0.6318772974542023 -0.44558171697565546 -0.3425509484192434 -0.10276395826141906 0.1513067155536494 0.843203847800886 -0.09642238315727653 0.5529090297806236 1.5029511973515473 0.3769160449479269 -1.8873834224289132 -0.6357479582674077 0.07031513885431451 -1.4943427589841307 -0.5895993664678436 -0.699879167709703 0.5450552568326692 0.1290214258445413 -0.2927368486163477 0.10756767188774376 -0.0260761835565224 -2.0477212521788286 0.2467897413970606 0.26132707157796864 -0.8682214641572319 0.11042047346104283 -0.2590458102486513 2.9854347992305468 1.0488004115647382 -0.4563108225681366 0.42923493166419857 1.722728305664904 0.8854425493048566 -0.04293879253220716 1.566913435491254 -0.11075605569828481 0.1576741155663184 0.8099209990596972 1.3429935020400472 -3.6929377959286747 -0.9676166218451189 
-1.2871873574348909 0.17410247838912848 -0.11927266266877615 1.4652915939966173 1.3768688704648684 -0.20801880384331067 0.1670059446222195 -0.2859724261080958 -0.5571278656291445 1.3122504507681505 -0.037116167227945696 -0.19181878495007515 1.1291015200614947 0.1789791089312153 -0.1628943088960971 0.44376813561456463 0.23169178849569508 1.1170990228549749 0.8761582537752305 0.37118707857374716 0.16139435479703604 -0.28588052527883767 -0.39238859671983023 -0.26699093127532225 -0.25735096629011134 0.3499017607582163 -0.6142022356657253 -1.1921744568333554 -0.21843286119790395 0.025454753705494597 -0.3818628336898934 -0.6598865158089495 -0.2873510270494546 3.0489911265028393 -2.4744442604350736 -0.6314751244426875 0.5385976007767507 1.0751745849583725 -0.22806122103563442 -1.3696268024337535 -0.6358359758516123 0.7703200019460665 0.3408188752041442 -0.38569777096015434 0.56412595179871 -0.8951812662420492 2.306923765280893 -1.2344908480917913 -0.22487516596810603 0.33070791684350387 0.06780070686636669 -0.6937235304006124 0.08288341157031175 -0.09951022507624896 1.1156471217461326 -1.1257570890659627 0.5690225576869195 0.24583891686992843 -1.01458194377264 0.3324191950567646 -1.4017184179250073 1.4346990676549263 0.5831736850947957 1.0877937359348182 
-0.30893240037714437 -0.1700235005874926 0.29760298831226617 -0.5047463656016424 1.245806250575098 -0.07288379836983641 2.530515378684105 -0.20286205805927193 0.7557053237697908 -0.948278120510307 -0.1724528173064041 1.0373097745342374 -2.0175626414368124 -1.9261176022725464 1.1812176284900917 -0.07557499549655688 1.0093379519191568 0.3235076883465873 0.24693586376777174 -0.09546433560456662 -1.1526688791047321 -1.039134983363483 0.13560432689979743 0.9498243797078431 -0.11692046180093305 -0.19989567297911875 -2.6382032348320608 -0.5000524494298719 1.2327773100154908 0.2598319557193472 0.4693011714277011 -0.2780354017637882 1.0534128826529705 0.5310927066564552 -0.49578134660207446 1.257046950278364 -0.8574750408731208 -0.05754927875006921 -0.6623450637447438 2.369366177895911 0.3819541272482246 -0.1709329960749961 -0.3628870765369531 1.4775896970145754 -1.0915038133110115 0.5149425051833194 -3.222112154099261 0.7057084092642745 -1.5956453553099945 -0.030077847948575136 0.15220308160954665 -3.5803399554899475 -0.9322573800989916 0.8320651244640531 0.6436158745301178 0.8920980397870386 1.5763911518025275 0.07463465554132154 0.024308329578270713 0.32605698430450575 0.04685019332166678 0.38111896282139723 -0.7304384546215937 0.911024215073055 
-1.079875807422076 1.3938435056234655 0.9117410289937381 0.4871445680842568 0.9926363408810036 3.574720795390593 -1.354595589717345 -1.6702419573904093 -0.37666987713408195 -0.990893444350645 -0.885451649875908 0.6912609536571165 0.33315885482146834 0.6405902946653657 -1.3481665858521783 0.42075492183018437 0.16011926563187176 0.9706769202560949 0.20930236510899244 -1.7884162077411294 -0.06831242645975404 -0.2875938552171832 0.1829934228735923 -0.6702461955440965 0.15570849547253093 0.4853927915562549 0.24363604444031617 -0.4000908396760971 0.7028845773822652 1.2422155653502616 -0.5783736641169174 0.6864351592717296 -0.21988228423643638 -0.1547654922236047 -0.7204295756278846 0.7140067201595226 0.5916572922466492 -0.018829052888878105 -0.3385006935991652 0.21124139459185065 -0.36060594113663014 -0.3329346477255818 0.6771639301486028 -0.027996322412347212 -0.624888772035471 1.268678432731558 -0.4961892203263776 0.4164204542018047 0.3415861065214686 -0.333384097787453 0.6063828624841283 0.1031691556089738 0.6858014068961231 -0.5136529874739112 1.734371038400909 0.6788428100942747 0.8799794499087749 2.480859388145545 -0.5596414501699501 0.3082419013272906 2.8218304418181446 -0.6182255294552172 0.5901896890492869 0.264663364502519 
1.5082588648041324 0.17839481895351264 0.7429788703080974 -1.254563954647432 1.1330127801819843 1.2311462737835102 0.45491591071601883 -0.49557228481925725 -1.1122567478886296 -0.19608267840749286 1.377366236416087 0.8793082870263835 -2.374379653525611 -0.5653846370787596 0.08430021602056936 -2.3731424574821744 0.1186076494954851 -1.6675628091392427 -0.6429517509167219 0.0959738557955955 1.5422110786230048 -2.0410696089775278 -0.11439036514236268 0.21272653338381464 -0.2811466996759544 1.242131508474961 -0.03222694082467694 0.8253131549183133 -1.7592703765927007 -2.575027692170964 0.8218865240160226 -0.14231812156957083 0.1038887359013853 0.5099243624649861 -1.2795219923319952 -0.2649212330879805 4.763052533071503 0.6193589698190797 -0.5096969059286505 -1.8389526501204976 -0.4644147724057229 0.8793426781223602 -0.5089480765605152 0.5968447205020289 0.45230663839401714 0.7932149044091897 1.0894127379819043 0.16097578943405566 3.139829890591734 0.29999507924932467 0.07275844354548812 0.829412250988517 0.9499061654965577 0.09096279063326672 3.200405575925159 -0.29046988213145847 -2.1019339531233716 0.14236211608273563 -0.9436728634428825 0.2558715021315008 -0.4118910337769935 1.9588283264293778 -3.1936421685012117 -2.53893645215492 
-4.944998232069315 0.4226869287662039 0.8113958791844287 -0.019622308917803935 -0.43790075597651346 0.3678796398329416 -1.266039997300458 0.1125123521740531 0.034817189385377895 -0.38693547838760073 -0.5361469165930485 0.2057513300788529 -0.8283200273112515 4.396838135328686 1.5581210501525085 1.8749747964759405 3.449771264297308 -0.034939960986759624 -1.1625450402837185 0.409208929472892 0.050507285127794066 -0.6947568115537548 0.756832331856652 -1.559051814281752 2.4323100777889874 -1.1339319475275744 0.9903955215359149 -0.2368275500367126 -0.014525946240095558 -1.1780662381088516 1.1940748215719468 1.9204811607811738 -0.6541062651846815 1.5439925204738287 0.19369146685456973 0.06818438366151633 -0.03247099454376041 -0.6782641677042285 0.23411310460304038 0.4228476898846362 -0.31619820424543227 -0.8449398188667664 -0.42315567710849533 -1.3363225483823145 -0.5680031899958676 1.6979709996500754 1.7111662625825381 -1.3251635371561754 -1.5266372216368762 -1.6174297225654033 -2.7552388319471626 -0.2788735067792968 0.32618044492012577 -1.4050303337092789 0.12718894603539388 0.6791666673895359 0.9195760415578503 -1.5887993286071924 -1.1515160287005926 -0.9348947716301264 -1.4147680270511371 0.8738178061413902 -0.07873196276260515 -1.2249444535854972 
-0.09022122727698775 -0.4708367566305911 -2.877295150324596 -0.7141001985476145 -1.0136506739038225 -0.264205879083276 0.29268419180394867 1.8047597888091027 -2.1100559065849267 0.0410636994722801 0.3168779570110067 0.9524839855857458 -0.32747616159884235 -1.7044103418414227 0.39579763731571616 -0.8303548128533685 -1.9217364033050632 1.0142321665163265 0.2745123610252716 0.4299816605918592 -0.034789585022251254 -0.5598592928129196 0.0013447219164517575 0.3034671189853107 1.8593650336275827 0.36122004822936044 -0.0478527961679703 0.08588405294203047 -0.7345626964036087 0.4017831326978427 -0.14288757455618684 0.7139424921690317 0.7115175770519604 -0.8682907793733771 1.8006025525539515 -1.5619096215590138 -1.1377777119645733 0.5607980683239445 1.82464592628728 -0.3257065056995499 1.859655075548584 0.7573715533502628 0.19008047540719075 0.5074942952443989 0.47838767896040707 0.0288508951008407 0.49618714416273046 -0.6926410509864703 0.15870992740445214 -0.47604345103343987 0.16521284686500018 -0.08229164042070584 -0.4609928843110493 -0.9734943050952002 1.4998562875464803 0.9152605187678947 1.4929421623791492 -0.3290079026011824 0.8756453987233266 1.2815583796845182 -0.1392659273310728 -0.21241853699115076 -0.8327535730254032 0.26334965689008727 
-0.9036559027662402 -1.1637618810157138 -1.385485327997307 1.8410786690964525 -0.37425915996717823 1.1726666734609474 0.11622514777013554 -0.6000928658603877 -0.2516060999130357 -0.26895914318991226 -1.1185905012659134 -1.387458946226367 -0.4476759981373276 -0.2211427948053143 2.1566414791027744 -0.17600365298223805 -0.24808997810763003 0.9253006581008494 -2.811488251649851 0.45566752842362124 -3.0198400398934204 0.9626233793315101 -0.7908637353906135 -0.07676986100937318 2.637539312503267 0.9027971300402289 -0.049052888021656124 -0.5812157588474816 1.0077110892380563 1.3759696255200795 0.7533959367191339 1.5262770392497895 -0.20553080504890536 -0.4938192434585122 0.2569052618253738 -0.10912084807673264 -0.9821973012894976 -0.3352918852320718 -0.5979743423715047 -0.554690513496891 0.4052548528077433 0.28991805717340896 -1.9469395529311135 0.3728865793972168 0.960290391065505 1.2830136798704697 0.824469547235922 0.8217169721552308 0.3210780021541636 -1.1019516540825691 1.9430874562956912 -0.8159175850962186 -0.6247248419864808 -0.49770102440328196 0.4637643059150142 -0.6087651520852817 -1.7437424619085455 1.4276747354187986 -1.3499568791352339 -2.0528313024787574 1.6192129207169055 -1.8989080010041453 -0.1453475169620579 -0.14402088249891692 
-0.03849710185980511 -0.6957318379964611 0.9051486533198114 -0.030920748260655474 -0.20860191000061065 0.2549154587200972 0.3889847564658292 2.5783992487376572 -1.1077242547220782 0.13699333601654543 0.7917506027299678 -0.6692161154179784 -0.8370191060731094 -0.007494042634157175 -0.8283563989768346 -1.4539146494209174 1.0201486398492958 0.43808903439949226 -0.05107004808381949 -1.4095418800231814 -0.3754997117639261 0.6855146142929516 0.5776935538842306 -1.223510060957283 1.6886898195018374 -0.26355411784961236 1.664979729653389 2.3508560405204353 -0.7545031152113194 -0.8058144849060335 0.8826954022988933 0.012256826188386659 -1.3568048260189636 0.6197678526566501 0.33194625824323676 0.11744950671828223 -0.46900153627553276 1.7572499555663292 1.17423124164478 1.0701145580012872 1.0940013677036198 -0.6190742846868279 1.0212083854484273 0.6129002438983815 -1.8058083882734968 0.8636967096094007 0.6221996257976312 -0.8101788529467416 -1.4710423287166385 1.1987692142255677 -0.7479506763585909 -1.911025559780608 -0.43611974171532547 -0.23328813325128087 -0.14113643906792203 0.4346267380836931 -0.10478099731308989 0.25959542893641024 -0.07148642796325994 0.08965911930145841 -0.08164650206212258 -0.045811429854354234 0.016402831230936 -1.3619213184940822 
-0.46343494870709584 0.6647865438701337 -0.8072047304488883 -0.07711563355017474 -0.29648757856741054 -1.015599263537452 0.7877339355778125 -0.15198916473371332 0.1965620397635014 -1.26334487433491 -3.0955542169834764 -0.01605261071186158 0.29173309694089 -0.3617022931209884 -1.6177047680117402 -0.7079152992511778 3.608144156742926 -1.7366045364824636 0.5638969235901045 0.4384696714956786 -0.35514081974476974 0.0981003272520124 -2.8082380133417826 -0.1551016331139308 -0.14727440020318563 -0.05669200211350152 -0.5049716074748182 0.18131282565023354 -1.9764278431881173 -0.3342198425720839 0.5475502228050492 1.8195570634758607 -1.047147217007959 0.1323804459567542 -0.9243435663835369 -3.2997238443706376 0.5188374357854857 -1.1766964588320605 -0.9808906683403881 -0.9246564442617083 1.3739119513153988 -2.001570214050445 1.5078868464797848 -0.035056429841972 0.8884629820151656 0.056322696432480446 0.29269832960491354 0.7141279550492083 2.354718638275939 -1.4641769149873944 0.8680094685941881 -0.06722030735879794 0.7942388340764999 -0.8761601859742635 -0.3479835371274205 -0.6271610964143532 0.25770889868043134 -0.1905415124391194 -0.2613665557822542 1.087442798347995 -0.17564027072232577 -2.259445981002642 0.14313716330662143 -0.45916790938237845 
3.1669011302478434 0.575779505892545 0.5968409599803655 -0.23114297320359486 -0.9147230675196294 0.570687887859231 -2.8806303030939975 -0.040662200375640875 3.086916327776353 -0.33321195916797886 -2.3379467593740664 -0.7179064563181422 1.3234270674758208 -0.0758433883972284 0.9525665863276758 -0.7770624909169972 -1.0925051428372259 -2.257599052261487 0.02449362684214039 -0.8098741120219567 -0.0441254879339919 0.45464914287216884 0.16083463998700445 0.004902986622849485 -0.35214342883936384 -0.37713996482183376 -2.148940701147707 -1.3280547995560783 -1.0017714695106472 -1.1036637001412806 -0.9081135610783377 -1.0604131801871908 -1.107541715746793 -0.3920517581167783 -0.3949541113458442 -0.3518964118830665 0.34446189309042485 -0.0385924531203983 -1.2167410834594845 -1.272686414902216 0.714014868324171 1.0155203741760714 0.6395757598087382 0.1344325476419615 -1.244439620974136 1.5100074281959077 -0.998136779108672 0.5684214944063056 -0.19228623553271781 0.08954493421169137 -0.587785680081798 -0.3335064943485131 0.49763866032036974 -1.34217790656289 0.9954873192665641 1.2101761366778976 0.7326364426565374 0.03719385707098541 0.7122064296779294 0.7532752903450277 0.6410432602707201 0.15970396151067023 1.2413778985220476 -0.316678872390227 

0.006926562474415443 0.007896672722847806 -0.008035077240829006 -0.015614755873994857 
0.006614562835008806 -0.014571366515550807 -0.0014745508096289611 -0.014945122820297339 
-0.01755867344011947 -0.0013798538996481246 0.02420569866587379 -0.03383119386458398 
0.0021618567258750864 -0.007492698348830617 0.012670233158028248 -0.014400268766634769 
0.0006360040708169206 -0.0047506815845147895 0.02402629897397042 0.025295510847690498 
-0.008377931023028293 -0.0025247434632193065 0.0009540834182373075 0.007711720996150274 
0.004304954406931422 -0.014000373363720252 0.0007851163561097709 -0.0029994666839443635 
0.014293728287464228 0.008459846629285948 -0.005261526138230377 -0.0035847765466913983 
0.01575640975350364 -0.00047070716221186975 -0.004724696962943446 -0.0038919095100575143 
-0.0051564578017889795 -0.005283252735411745 -0.012592382531631406 -0.004017722701771132 
-4.6061193910145744e-05 0.023719891729223667 -0.019314320310490327 -0.00649967314247855 
-0.01897727314428193 0.006289399901913752 0.005197415113846049 -0.003990953553251876 
-0.026561383770657667 0.005312524713480557 -0.008077290625869099 0.0013950224981928955 
-0.003748540906754952 -0.004253489516026468 0.0260899243124455 0.010667916536478913 
-0.008638668404791208 0.0007744028087994374 -0.014475598325168208 -0.006871274062536346 
0.0027691072830327733 0.0035396143103479556 -0.002142590857448052 -0.002421659182972178 
-0.007929038824004586 -0.020617610404635753 0.000773862427918658 -0.001734154858341623 
-0.0040435985450429065 -0.002289103471266377 -0.024982190939567418 -0.009344409472773083 
-0.009766750135983604 -0.003979292897307817 0.0008726317498862384 0.020113100943435238 
-0.011007019643310356 -0.0050373861107937375 -0.0026649775534634355 -0.0011944065913713513 
-0.002557256338975422 0.008234057663377377 -0.006135842087129542 0.01131836802376107 
0.0029663842522790283 -0.01046563550178247 0.00034182332818442825 0.0020430731142922925 
0.0003039986023596849 0.010068453156075338 -0.0065577630731645424 0.007510720781723256 
0.000210306489077642 -0.013360258385816523 -0.019026818755158176 -0.026163053418205615 
-0.0020711935311627564 0.0034339699578118136 -0.008632460197382041 -0.002064935953369901 
-0.01643594191552518 0.004080929314083872 0.004921986500778538 -0.005233643107829644 
-0.001831562756613243 0.0023743396965932076 -0.005168249537631547 0.022984505345275442 
0.010451795005476586 0.016726686879259826 -0.0014981848856505955 -0.0027249659983772864 
-0.010601037023874884 0.022857755316519367 0.0027103945058967465 0.010822455015854564 
0.0009266461841625676 -0.016266328244227548 0.006379079544689643 -0.012410518646083878 
0.003868776919656587 0.005989676736904233 -0.0018026835313566874 0.0012139422085432926 
0.006672481452015255 0.012514258181768725 0.011330442267869311 -0.0231020184386225 
-0.00029773750880173963 -0.007354493422257265 0.003108691188063196 0.009420358397906513 
-0.0007069373693715415 0.00035930759079554796 -0.004385833520642154 -0.0008469236462150193 
-0.004899093577788367 0.026243734474425955 -0.007150877517076984 0.0016785781617410702 
-0.010887415338023931 -0.021241366046575172 -0.004572280469037883 -0.009684975050274793 
0.020870351319094003 -0.011025820728941612 -0.000997009606161613 0.0020693547103287388 
-0.004729202534286372 0.006207753217213049 -0.0021303950687417365 0.005926898177981089 
0.002470446016362715 0.02367212604022907 -0.002137012902449447 -0.00048787874861262254 
0.01112088827014361 0.009480286381262944 0.012249854399669552 -0.001507194112943829 
-0.0012297872303107665 -0.01457757221824565 -0.0015506493864991342 -0.01670405154911531 
0.0012988614610055214 -0.011841552649127276 0.0005153599494646613 -0.00318084143740661 
-0.002838729358464377 -0.0028250447953527894 -0.0062519027802008555 0.0014968230274883998 
0.0039967109984287395 -0.0025552662880934445 0.014455410623654503 -0.009637504745879042 
0.0017223436150707273 0.0046242097865208 0.0010137524712411766 0.008169843538604676 
0.0035235778289618947 -0.01696121181573594 0.000698670342058875 0.0011332068746508822 
0.008786432205343128 -0.021147695189444534 0.0008514003071020992 -0.00019431380779820536 
0.003701786238933938 0.003913764852164868 -0.023909924863246536 -0.0038649712961713488 
-0.003564083624217019 -0.0010905458374207832 -0.008187864784875211 0.004806404605536898 
-0.005985063277597935 -0.010684463226137152 0.008022652235055024 0.0011479459634027112 
0.008588367768316882 -0.004948672346253545 0.001978280928937222 0.002492857030482658 
0.001953700194096115 -0.016065481781160455 0.0032332491606235766 0.001141676608215073 
-0.001948325605514276 -0.0034177734014005983 -0.0006891467964585563 0.0036860530573302464 
-0.008332333057984236 0.008882646555695966 0.007215486534728292 -0.009131464210480543 
0.004094311216677967 -0.009140630080625305 -0.005267431316340488 0.014642179762161677 
0.0026988760847655585 -0.01486230293170399 0.0010868297102990798 0.002456946651430242 
-0.0023442758357217477 -0.01056553101283769 -0.012606041541318185 -0.02288655256316031 
-0.016782229367379352 0.004505328641654732 -0.010115387051263216 0.02857372085070977 
-0.003354685230172938 -0.0024665020500964814 -0.005084034527186025 -0.008519243532412993 
0.005620506199970673 0.003779906713758109 0.005962976952545332 -0.0007003152635913119 
-0.01186518930191049 0.005312288980558973 -0.021576990857942163 0.003967766290024406 
0.0021225580186978506 0.000554513182991634 -0.006067760191414818 -0.02009658041233351 
0.007283360268065164 0.0030271290851155057 0.01243753986407675 0.006330180294859729 
-0.007328105982049486 0.029378898708832223 -0.0014172300145660027 0.005242012943707452 