
0.0019659048077287937 0.016136998645813045 -0.020055942827005485 0.0029342217325044303 0.00637338955852205 0.009382463926480776 -0.01351551180913406 -0.010654345314668716 0.014307729941254161 -0.013557632438513118 -0.0019427639024486127 -0.006996436758527152 -0.007549097833090885 0.003430124817972659 0.00935667142060564 -0.0012539070112375509 0.002522201140790323 0.0031120780791868024 -0.013543034763704371 0.0043094259117604896 0.00030814217571474426 -0.00532549569521989 0.01161792174368166 0.016366048742839197 0.006450689373617686 0.01345104544555294 0.003346557057754176 -0.010578833436277161 -0.00733659075958968 0.011248918552250945 -0.006626572096039135 -0.00698293284412883 -0.013978896886500265 -0.007517539197654321 -0.01892285343146898 0.00350524288290206 -0.007902767421229882 0.004081666095254953 -0.0031303408058499112 -0.00434695121196666 -0.023469901659710555 -0.0005652260558125839 0.00361181969251539 0.001844981542290778 0.013965466864643375 0.003320065320228919 0.0018892468306409929 -0.0017100759176690847 0.00040080752997730167 0.013228247020761402 -0.0019177479902107045 0.01111920400649375 0.007527558733275013 0.006554953939685518 0.0034455023045222312 0.019029503628955495 0.001353372513908224 -0.010507202340783567 -0.006082192081743377 0.02491356865047009 0.0018411082269895775 -0.008505487886149894 -0.008120107990575763 0.0019319325161830153 -0.003934221424137506 0.004410956463346866 -0.009606472984186128 0.016268615472976183 -0.010226216947050495 -0.002436723425618595 -0.013858229768498334 -0.0016172993894101092 -0.0005803237221489994 -0.010806142012650906 -0.012462177975388912 -0.013549396869647795 0.007923871932304496 0.0050864876446072805 -0.0011649434669018619 -0.011125425957563759 -0.002271765692867514 -0.014836836475701836 -0.0011741125667836716 0.008576620889977874 -0.0102091036866095 -0.008930181382892418 -0.005043294811917821 0.012415344510693621 0.021269938940113198 -0.012282713975154803 0.011182790948955301 0.011463695457149132 0.015710309852360615 -0.004639079019594696 0.008543335062947527 -0.0030133503926480384 -0.010276433532559645 0.00019679240289135848 0.02551484326308101 -0.0037267844235209695 -0.0015729081312179304 -0.004035231637074132 -0.008967992889697515 0.008159916671711356 0.0051798588436040485 -0.009346963793683272 0.010562337613540971 0.016432302063391635 -0.007044160460735796 0.00010405025157185326 -0.008890035619343331 0.000987386056377783 -7.813020860584759e-05 0.0063097880979292595 -0.015485391402101097 0.0006338942916612054 0.004165136629278026 -0.005493219594945655 0.0032858561990008078 0.009797255281717791 0.0007451213449710986 -0.006956325214551815 0.020801937008230683 0.0050220948713669104 -0.00022094770647028365 -0.009352849503131548 -0.0054909918838312735 0.004019012830932761 -0.01097772129101522 -0.010717481412618824 -0.0012643401832534216 0.014748441585010636 0.004180227342037045 -0.009172853147274788 0.005194824766872235 0.004849526361359624 -0.024118692790185733 0.012440972246227505 -0.015615565417951822 0.0030004820950926786 -0.017403292388318555 0.010012859800094778 -0.011439925944379242 -0.016988550865573687 -0.004953955164606683 0.008754653592382419 -0.0024584451866240106 0.0021871909554611563 -0.007438280923762367 -0.013287198642926835 0.005596615966334752 -0.001970383282745228 0.008718196631621641 0.008551864709665444 -0.0026794933413406747 -0.007991806752411538 -0.0007417620601668645 0.010290790352477248 0.015082227469704557 -0.0041464624131069844 0.004716908977122566 -0.0038967467899604026 -0.0013468207984485762 0.009805459566732207 -0.011076775806986799 -0.021289348833644136 -0.01516006560322645 -0.004483397814588731 0.0008913510760724555 -0.0006593080289305952 0.0028744738782767332 0.0019417709692090394 0.008014673177222292 -0.012266873236016195 0.00028946521300773773 0.0013909955727765837 -0.0015311047385539354 0.003182118104358186 0.0035843881048511763 -0.0166439856819065 -0.004711245182828794 -0.010490705235450875 0.0019660947750359875 0.010481170640819899 -0.00130572191303834 -0.0030959176765738496 -0.004104450753090827 -0.006512858617037598 0.010962263553891946 0.002504845513541159 -0.003277520037097047 0.0010184922462576531 -0.011478751068170302 0.0043416786337218335 -0.014671665886491065 -0.00652577713748269 0.007268271046948518 -0.006512799212418733 -0.0002403709237275589 -0.010304757150732521 -0.006915839171383378 -0.01145976254358318 -0.003833508088661206 0.015866561757279206 -0.004511323622568223 0.02756538153249853 0.011956805773011059 0.004108433500383878 0.012096269974536457 -0.002501668753238329 0.004706133273922899 -0.001472310279960579 0.007178222663885495 4.8229150480103125e-05 0.015521375845395658 0.0009559626262836403 -0.007678998378182842 0.014969785308518137 0.0006279851544269022 0.008376431448226689 0.01276403632973284 0.003960946498608593 0.007067040586766627 0.011481089751234727 -0.0042806981588317475 0.007685240327649787 -0.00831679247871147 -0.0004348115792125363 -0.003632490928746086 -0.015540444003063588 0.0121736082788715 -0.004119478635044872 0.0099908595991055 0.013086822400563611 0.006054671856371504 -0.0013406641009064434 0.020177097175577915 -0.0008478048592531329 2.6924463438222214e-05 0.0036275495099341256 0.011681511331049102 0.01932307909830742 0.008144258936574523 -0.012938517173955505 -0.001068392918733677 -0.006045284733223504 -0.0013249836626621145 0.015060849814646282 -0.004456234373504133 0.0025989654506251166 0.009054496064954119 -0.007519165090243421 0.00013529974305730383 0.029883156703954274 -0.0057600408256951174 -0.006001474878863773 0.0037223723730204538 -0.022498286169118233 0.005114734465742298 0.012016039399685334 0.01502861242425397 -0.0038924698880282373 -0.006364971801900125 -0.000557804835630187 0.00253844930096869 0.010835594195288139 0.012932742287339394 -0.006238770800272528 0.005535211258290904 0.011723536160569498 0.022369816858686713 0.011224841650295218 0.01133416187112329 -0.015908974555246792 -0.0025903106217555058 0.006312354308537413 -0.006243997745390081 -0.011376560751762275 -0.0028287077923588467 -0.00011453070769475854 0.0008479308959802301 0.010879379699881302 -0.008510279325670486 -0.018951333897511694 -0.0070600037472043665 0.0049140413586665314 -0.010080948104301227 -0.014242055670520242 0.00483204818993135 -0.005375873467748665 -0.01246958123171812 -0.0025227541393336235 0.0008138642159273983 -0.02974316906261322 -0.0025084790202836295 3.07159995589678e-05 -0.00359607800111374 -0.00469997442512133 0.0021971556855968797 0.003743502617917937 0.00403710333418524 0.010076926924443121 0.007732406631520245 -0.006522928045826492 -0.008203746732563508 -0.015251093370856197 -0.005648567730822781 0.011472975192551837 0.008722026425900026 0.008081591317448818 0.011774256520453878 0.005347203476267053 -0.001006366198031015 -0.00038731852542364805 0.003908333508015871 -0.006625937847929776 -0.004791064466862198 -0.019766865049567747 -0.0090808144275967 -0.004892913715624308 -0.0037221632331966193 -0.010075270824313639 -0.004509130602952197 -0.006909916283615389 0.011324488323019674 -0.0032938037608150218 0.023090932802288685 0.013461656206432138 -0.023560338158169176 0.004740030915786861 -0.0062311995249338375 -0.0015773472510948764 0.0046192689151431845 0.00929804316416311 -0.015140527354735174 -0.002611991253137736 0.006074229534471136 -0.005867708881606462 -0.005527936404687251 -0.001987526300429966 0.002221188275930536 0.012994692528130944 -0.003484643823037598 -0.004399453308788675 -0.0022236376679535016 0.020691538054430993 -0.015148144078202657 0.002578479587221495 -0.000817582872422412 0.01265595955044126 0.016403206739377455 0.004600351459009631 -0.006490629370579757 -0.010318256521124678 0.009035051348266272 -0.001883563936298639 0.019963294792665433 0.006711781073824156 0.0008111115596263272 0.0036278977635844463 -0.004915384374146435 0.004951785227739261 -0.012243739682067553 -0.002964405046860818 -0.004022058615021761 0.00333408680564142 0.00935210240459193 0.013139615087047361 0.005937319902559517 -0.009057534810526709 -0.0014400186692383702 0.010514390508620193 -0.016274386093285832 0.02042497020591313 0.015982934597874903 0.003244537522479212 0.0013888250078526272 0.004055855633936139 0.004469269735792714 -0.0034433897074488723 0.0017155070776086764 0.011018163788630374 -0.00679614430935951 0.0021121572131322357 0.015200886638077034 0.0008189986175838532 -0.005287688092744896 0.0034602059604493347 0.010865240639575785 0.008496216486192597 -0.0062644232435833695 -0.0021555583070306823 -0.009023350025808683 -0.0060345433165740195 -0.0022641378603242045 -0.006589373225089024 -0.014591123202153652 0.012973129358703319 0.00758125091129118 0.002286976199019383 -0.002444442779322292 0.017313443944949023 0.0017217327032926794 -0.0009685422344820056 0.015353394645361965 -0.006397686209822388 -0.0005092109917523046 -0.001510285556937928 -0.010767787447106925 -2.8327742209641706e-05 -0.005687563521276403 -0.008387116562121431 0.015096045945036272 -0.0046265869517702245 0.004311140536267486 -0.0029642625549709486 0.011902550243662047 -0.0010469368477766462 0.0066189919827256295 0.003329402932228351 -0.01047090065876718 0.00880130257199421 0.012650313348009163 0.010114355378004519 0.01592110372875459 -0.01924808584955639 -0.0005073808142017483 0.020636641370121195 0.000586905382023525 0.004370721504033928 -0.00037142734808606146 0.02358595083893985 0.017394155144069924 0.003167994004254766 -7.218289168104818e-05 -0.003060987317847422 0.0017632020821276354 0.0075290801766318615 -0.012271550069946732 -0.008281300778287629 -0.00676046431110023 0.0036182619633738284 -0.012194538525287589 0.005709078808040814 0.022247012442175373 -0.0009271023655551313 0.007620277200310158 0.00523782182864306 0.006744328890065064 0.0014249420558632606 -0.003106010360317802 0.005641853315507169 0.008830129101001475 0.011042631899615333 -0.004172146052717164 0.0034792835991462236 0.007885629697962974 0.0036010750094093357 0.0008470573738673348 -0.0037050702626728062 0.003459842531472047 0.0027712117075108494 -0.005177112922801946 -0.01336319266687065 -0.0015306682492479875 -0.012515561844219453 0.006955424163678523 0.0011068668020649424 -0.017319074775835993 -0.008414739936214173 0.029270152787320557 -0.0068491691199247945 0.0006057479845080072 0.008402118456343073 -0.020907477906968387 0.004671685909644982 0.0026838988099479326 -0.021614905571149538 0.009449408531929526 0.008568532254805323 -0.0011686804094567591 -0.017629116370360166 -0.018008481199395864 -0.0031155661002122276 0.027339573126236513 0.00035958711062250077 -0.018564836834017676 0.02063361624168089 0.025523430547865354 -0.008788730172443002 0.0027389360915181338 0.013157076787620488 0.017324103074798702 0.0017759150690642225 0.0018886263411737661 -0.013048279813800683 0.004612959036246742 0.0009506334441417196 -0.01254368898668403 -0.015586625136456074 0.01956474678138337 0.012849450091727992 0.007512040296767162 -0.0045823106269274865 0.0006687575905155689 -0.0008642464266708326 0.002277295308111233 -0.004061414953279016 -0.0018998503364261116 -0.013386081681099102 0.021507671476193684 -0.011375122177328952 
0.010911029528767933 -0.0028423662872312894 0.00880047066255761 0.018652468160854054 -0.00422353107599085 0.015581798346369326 0.005567262495286647 -0.0011450910276450167 0.015395630175393527 0.002524184988879743 0.005892747729745508 -0.01444305236456371 0.018401131619999136 -0.015400846478267631 0.007706497212279843 0.0010662878961448978 -0.013738853463471219 0.0032518624976980554 -0.002132246064535311 -0.00621500696532929 -0.013375811206841661 -0.006165449418420096 0.0037986220159890315 0.012825388553831822 -0.020165148480283692 -0.0029297328646013727 0.0030540203608636672 0.03216130229071971 0.004171092802966768 -0.0026244775389489628 0.006318542261969471 0.009751202276845002 -0.013428743799512848 -0.001251958503137415 -0.008619746124975559 0.0011272857270659344 -0.015135311377593687 -0.02258732481898941 0.003340031643010172 -0.010912417052645474 0.005830297453213936 0.004396349816242311 0.011591753919751382 -0.007782625671052208 0.008081451546494912 -0.005218700207220264 0.014235411709219228 -0.010114365707745218 -0.004703148681112964 0.004436273846179353 0.007878577840518966 -0.01225433794184483 0.003194696214428474 0.004940845733040502 0.0038039620009588265 -0.00031745772392890726 0.01418197171262384 0.008211720728670132 -0.0013257220651953165 0.00577805505692707 0.0015255873226061314 0.003340159673168119 -0.0027857152379732685 0.0023149699375041026 -0.00407473790063376 -0.0012104103935563766 -0.0073118470451981115 -0.008537493363661787 -0.0062874885443457715 -0.01386455860018288 -0.012402472316517237 -0.0077709267549976304 0.0025503419101084858 0.011772365511665765 -0.0006120458140771649 0.0031849748033390495 -0.0018701369395325356 -0.009777264317535448 0.024372076609405928 0.020938149892189846 -0.016913684878457912 0.0020348789212199106 -0.0025676823439818404 0.004015181482664045 0.00267751489300732 0.0003335729866864939 0.01499532027433817 0.01410831745780608 -0.013449084687470395 0.011256425989952655 0.004416794220263943 0.010075648400901407 0.0035150921917103685 0.005630247754600903 0.00284810744679244 0.004956813705872495 0.014893975459280354 -0.0221131264423577 0.013997581909775458 0.007594692496722171 0.01766491002819897 0.013615928640201563 -0.007784898088028361 0.008890796402099405 -0.002498019151158948 -0.008165618510946843 0.017139323662324374 -0.009379163223945696 -0.008518449378924408 -0.005288824220276409 0.009894020023801025 -0.0021869152077481093 0.013771411774389251 0.001092306882740127 -0.00726585840415833 0.0062548237684555445 0.005370169402541563 -0.01167662482204753 0.005767820865325117 -0.006358958157748085 0.0047888078548578815 -0.02107488883737131 0.005358490799467179 -0.009125493431202643 0.014171804138430236 0.020874486102974873 0.009978620032876319 0.013255553503278974 0.01055778646003839 0.013787707422257716 -0.01564885954334563 0.007650143870232089 0.0004578589970814717 0.0039499267901009 0.0020101466308091835 -0.015515440441673656 0.019981957770086996 0.007320205916337266 -0.005862633565650796 0.011250144373015086 0.018928439044203313 0.003191993396518479 -0.018783891505574853 0.005279581912511852 0.018807509045612993 0.00671164917545551 -0.013354691606111982 0.014002779322793004 0.004003080023616968 -0.007885303127217249 0.007538559862029426 -0.0074745606451923 -0.00232473773187491 -0.01903464199784903 -0.0024395257081418317 0.015258908747465848 0.0016149581649517516 0.004769094267896679 0.0040587185071759785 0.007832477794276135 0.003525148693964725 0.007730041039593131 0.01160234447981254 0.0012441077275778868 0.010731372940424566 -0.0011734683706179881 -0.010281350352707518 0.003830707537184464 0.01352475811681721 -0.00024323067425427412 0.0010972241468038754 -0.007576503558599412 -0.011617996467805581 0.0060551875251088514 -0.0022878662907978116 0.003048268990979513 0.00365190196199006 0.004178672749432898 -0.014978726190050511 0.005004577801218525 9.57386025324627e-05 -0.009888730232088977 -0.010231143704615588 0.007910204521200647 -0.0008346562856995681 -0.010361844374008658 -0.0035358191913878513 -0.007207951533375547 -0.01955416457948929 -0.002710039184088068 0.014403853253460632 0.01855007503939073 -0.0045204994576185644 0.005284971944659556 0.0062290215458400515 0.00280198940369089 -0.0202332035091124 0.002628527424760672 -0.007585701159704558 0.008804660390016657 -0.0011563992814756455 0.0025469795917682308 -0.010090322002102522 -0.006583743878295052 0.005500045675993665 -0.003299294355601007 0.004167980244218173 0.009013691542998912 -0.007495927138615216 0.010338489297964116 -0.003622912000070418 0.0036408410747736535 0.00013209850473678384 0.013483032882647851 -0.014323379511724086 0.017921382761309987 -0.007307428333930213 0.013616179409557498 -0.019135089055578577 0.014482725510288084 -0.0033254115811394516 -0.0067512824216547146 -0.0015369274920325735 -0.0029513311330045576 0.003122266931124182 0.002156326764919727 -0.0014190835043211714 -0.010585571697041926 -0.009149280705807662 -0.002226359992748738 0.003350640616307512 -0.005916358048784699 -0.0022050433997544664 -0.02340710907969621 -0.003562741757404954 0.01277951016527815 0.009125762564319236 0.004471777413491103 -0.00949164501224821 0.0009290738360902051 0.003070555924152018 -0.01409537220898453 -0.0050466369947199585 -0.004817055629660452 0.0075536709920720445 -0.0009073391836017775 -0.006202977875238103 -0.014167100762082843 0.003399676884445177 -0.011732104708964304 0.010950722448609155 0.00792056291182727 0.017591202655639477 -0.021341298500462142 0.008799094222740172 0.007772972077079802 0.0061532352186294305 -0.00883091227503467 -0.009815370794413312 -0.006257577346050302 0.003376545112762066 0.004335123658917265 -0.02298019412406666 -0.010518946788584001 -0.01880730124112006 0.007497259048894449 0.013804492304403278 -0.006979833364271409 0.01129641833884187 0.008386894926954085 0.007626748043403764 -0.007142513689646321 -0.01506577369373018 -0.005986253001911346 -0.0035529718628112554 -0.0019375115188521098 -0.007685854810168833 -0.008924771409930402 -0.003666461675429515 0.013335992757330186 -0.011691492386197481 0.02014253993380461 -0.005415204430389701 -0.010806569642929642 -0.0015942534652432666 -0.01284128014870597 -0.0018138378709292695 0.0007881397706435506 -0.006063937454964808 0.008314971010869369 -0.002037904020816183 -0.005209315434950269 0.000760081980365375 0.003935828476437635 0.008588046589414141 0.0010960686809307495 0.011835368910455136 0.016729225908003333 -0.0008462924492575949 0.0019447903271237893 -0.005170225626448323 0.008882701567012123 -0.011566831966846252 -0.004986772869484636 -0.011200237241859324 0.02524164825456605 -0.013951618889173224 0.01443237309332512 -0.002703262783259186 -0.010206293473018104 0.003364937691985253 -0.00619167966838035 0.008108684025650268 -0.00035870464146061417 0.0035119807992889996 0.001863365574897405 0.003223320638420922 -0.005514813691802594 -0.0018363865829582665 0.00485548090330405 -0.004391449780134323 -0.008035117539419682 0.009953688933613937 0.004057258066528995 -0.004258365281315161 0.004785057436665397 0.005803007597646894 -0.012048965082648879 0.018596182956471478 -0.006740302020152346 0.004121042957794667 0.018791462734794477 0.007811558505189991 -0.01301331312344234 0.011609046835535103 -0.022806874604407414 0.024998209994504847 -0.00884665226779554 -0.005375723563065661 -0.012722746008663377 0.02229410003415284 0.002201146074769241 -0.008202011611960821 0.031890675050857735 -0.003223451551799937 0.006123070854190282 -0.009392234769526399 -0.005724990727454031 -0.004143988560371894 -0.007486446869603915 -0.004434250160333858 -0.0004736453823097766 -0.0006293798731597198 -0.0024682546710139567 0.011608693457764982 0.012192815220615499 0.005944358595056173 0.01162978884974594 0.005413914717995215 -0.0045084657770068275 -0.007095146352064248 -0.013660550192621192 -0.0043854078228556395 0.009713924447237043 0.011663084799355978 -0.011048662673210214 -0.004177640643424926 -0.0025380429227938317 -0.014092501742816944 0.01878099025786554 -0.0044808255534343035 0.00019781678722453612 0.007047199400955673 -0.0033963601644568207 0.012276106323579566 0.002339778263660361 0.021158680156967664 -0.006940192123854397 -0.0002492472984708692 0.0068248589826377165 0.009524835309634275 0.004935554459984855 0.013813876945372203 0.011702059151325692 -0.003903354930518244 -0.019470667872678687 -0.006471245955300008 -0.008699254705776205 0.0018106814318208867 0.00996780851572829 0.005182362087400413 -0.00459123242308227 0.0009816287152008619 -0.00672373924287299 0.017106248977563326 0.012268807552891486 0.01156213919175421 -0.027907990410442375 -0.007559400384232182 -0.007389933060040776 -0.0003053368313588261 -0.008564489940510192 -0.007025991749936121 0.0010300223757674187 0.024463601295686824 0.009318519346538323 -0.008717883180879644 0.008879002412595389 0.030221806029331773 -0.01103327233197995 0.005483732451528007 -0.005654559086742728 0.0013779804548300185 0.0036229293667969487 0.008931545933658877 -0.0016542170889057312 0.0023884571316291963 0.006188342959370203 0.0009651868665956513 0.0009742361440017596 0.008215876664971047 0.008028661500379912 -0.007167237067312394 0.01132520065718267 -0.013469096916733958 -0.003930150875615026 0.003367072491714798 0.013841533544926145 0.003098827437623688 -0.0021795031273593806 -0.0009018277339398001 -0.010509206583697845 0.004670521943724099 -0.006233998923950184 -0.009481727946141164 0.0057812449224575735 0.004113862885125766 -0.015421170907422694 -0.0066309531659132295 0.0015339278744950777 0.015494571571432608 0.0017960197295309027 0.006157449019718183 -0.00571486692909421 -0.01960245087400071 0.0027955490383897276 -0.01593449534377689 0.008693267766022354 -0.011196656290629468 0.0025005905898794222 -0.0021395803841866264 0.003790214918354235 0.0011296828921591858 0.0029471294422276036 -0.010865036960562435 -0.012072626451861244 -0.004280653826564103 -0.006476544211574954 -0.008312982746484917 0.010622627809098083 0.024287270083537094 0.021273000940629623 0.017860784225285767 -0.010399565294256367 0.0007019553255343881 0.01185616034251459 0.0022767210835065044 -0.010986674311875834 0.008117568550866662 -0.011824395953220554 -0.003997058898569981 -0.018946460804237505 0.001402585326648825 0.0075072862213897106 0.013322056875554716 0.0037947810790669285 -0.007482924920325942 -0.017995872407277024 0.0017563634827749179 0.021310361787841386 -0.00014112115523254068 -0.011560419995002114 -0.006630822422145917 0.0006073829648234338 -0.003825726464642318 0.008173650238145173 -0.017657478629401764 -0.0039902798514164315 -0.010003232365329753 0.006436349771874576 0.006030416532850242 -0.016649853128695637 -0.0014397314559790688 -0.0027404193603677808 0.002788847724707087 0.005854278320435057 0.013894691788927485 0.01290616221575021 -0.00374525800660473 -0.007660400717851834 -0.002652056653993588 0.0004370937291405499 -0.004005126269598329 -0.005251412617264729 -0.01700571360659064 -0.013755380909903345 -0.01612237988652576 -0.016098462824897596 0.004202603207548472 -0.008531737859348461 -0.00544404095068409 -0.00210713096200244 