6 64 4 

-0.628650370521321 -0.33652268311708633 0.21976729413066556 0.6168142834081515 -0.8888520833185889 -1.5055782060197813 -0.7299665956814521 0.5095554276980001 1.2507420970037326 0.6722956030036945 0.5724207627014127 0.593682852365735 -0.5114825980126421 -0.4698652066361001 -0.2992373936177184 -0.1971683955722549 -0.24747287596690334 -1.1371982633422089 -1.3200335572764157 0.47372436640840043 0.9675484604388201 -0.14218203705087112 -0.24224976364356152 1.4800514915851006 -0.9055389530600211 2.0153021426236113 -0.27133355539033266 -0.42245981044196107 0.8225471330734399 -2.069597346620859 -2.24803261130703 1.156592330823783 -0.505277958460334 -3.0645432239809756 0.581849989871104 0.90801741394343 1.215384626524095 0.06867462485740738 0.6441192144476359 -0.456935572800904 -0.14035138426510613 0.32197962375102246 -1.4551075574503047 1.1263335755604995 0.3520017115324052 -2.02061466571325 -0.27909227514639656 0.8090376715557039 0.9624877560337491 0.0008908246395552172 0.5606777728051436 0.056329906721226494 0.8863573278027393 1.0021543168879992 0.2841477455583278 3.908901509575968 0.5956194918696422 1.3474112499275592 2.1485505638919653 -0.39216191059707073 0.4999594449401189 -1.0393811162849662 0.44447343852808807 0.986932887492488 

-1.2548773176807666 1.3855727882334157 0.014206993499074365 0.6452623523315947 0.8760612245018533 0.15556045646870592 1.8335223432653291 -0.21635117476954188 -1.3625181599017109 -1.424152628328386 -0.16072010620212093 0.06336716323925777 -0.2621503638348224 -0.13279886949169853 -0.4918462698665387 0.3682787045012212 -1.9502798950091964 -0.1334775024593866 -1.202078245214958 -1.4667183707202724 0.9703947503406848 -0.4285832399896531 -1.1398420375166458 1.8799961381690236 -0.7853021033198082 -1.1679369791504848 -0.43276159435800116 -0.1901783744620744 -0.6696818167013141 0.3779308690874074 3.251794196941729 -0.1787830401434776 -0.3753827794308871 -0.04866314199886385 0.7222236702565823 -0.03404441528543162 0.28498660298829204 0.5020529127849681 0.6747366664022795 -0.007417267705719533 0.5379412580938022 0.33209143487183423 0.076036662631149 -0.2718430765423813 -0.05938942980556668 -2.1958110302799545 -0.0779407159141105 0.5494881982373749 -0.7050143048460599 0.538848820128767 -0.5830653551378475 1.5105341135947954 -0.5570411074802574 -0.3247937470345496 1.1040636670667896 0.07051058225466897 2.142980434428415 2.38199409897467 -1.754679698560308 -1.0671616899112186 -1.7703394030663506 -0.05654588120897313 1.26738102524333 0.5725669761972292 