6 64 4 

-0.06331847001191679 0.2973893917546863 0.8897434660023921 -0.5562320626249926 -0.3815523108105231 -0.012099690906250246 0.04982582887769081 2.546209987714869 1.267563325601448 2.3045761444678696 0.6213825544918918 -0.16245696143273755 0.20171308592397189 -0.28145208697855023 0.07665478577461181 1.4453522607595337 0.16556529112775356 0.5017433641470411 -0.9214405827102665 1.5935487620169537 -1.7354619739765904 -0.3681485642501273 -0.36498029890449196 0.34461495327019737 0.62628902534988 -0.18554242555095746 -0.1262390440288726 1.2856543333536228 0.11046131463656798 1.6637316724925215 0.9330601501419195 1.419999517560641 -0.4142539633875102 -2.1891233961886805 -0.0103195422386392 0.4236323620487466 -0.33440705634033896 0.7878750160385656 1.5893222451401705 0.47328541309081334 0.5438561195328346 -0.10797651550890235 -0.5920362053974503 -0.2976718675075506 -0.7354220039362007 -1.9340514970712588 0.4882203145333136 0.6474006254855873 1.1193947770739376 0.1458092030409041 1.1590560275341073 -1.0980449951168523 0.13827969891649286 -0.4505621031163835 1.7146634843258466 -0.48390486486155015 0.38828262607549857 2.4778215008073903 0.2183972832262996 1.3975227818873917 -0.3313009646301504 0.17235757755067474 2.8394708690593977 0.017630282013728918 
-0.39313987117683485 0.761981443742215 0.9319380471420656 -1.596122611041629 0.476302126719787 -0.18441826269658035 -2.923845682994127 0.3746459241990043 -5.196463307001635 0.3056108996420122 0.5652572790250736 0.12366355874717919 0.38125331879680746 0.5106585973228062 -0.0057430837819936725 -0.671191173062739 -0.8097302750507742 -0.863503158450169 -0.30360593204180186 -0.9854336818575059 0.5416908533072652 0.05680432790760602 0.16241849656744956 0.13011528588071128 0.8851464692535442 0.6213798253094452 -0.36346828082852134 0.032938550653274765 0.37714784154704645 -0.021944929484716873 0.45300989754932497 -0.2554265103663273 0.5702822502542247 -1.586092703044336 -0.5186528008830477 0.33197589084280393 0.6945559966158934 -0.485319476747342 -0.10149887330096864 -0.354978591240514 -1.7370054014375205 1.1571371086440028 -0.7412134845042396 2.0395586243030346 0.4025847064349223 1.3745034180684408 0.5254983660489794 -0.6817996481216609 -0.14859969289461805 0.3669939354413582 0.8515575420779933 0.3128512917510107 0.35231892050738545 -0.05707556587363479 -0.10566074939965227 0.5185213212435816 -0.6650629506771882 1.5072267034034796 0.31017137326307603 0.08767217743589227 0.6509455127066679 0.6810101637539301 -1.5445736601185496 -0.1380876950765851 
-0.06501623152408717 -1.7460049483348494 -0.6064512429249388 -0.7065838893148617 0.2997513059015484 0.7415430517186732 0.1293243141056898 -0.7854095682631917 0.786181774439885 -1.104192932409792 -0.1006657639468223 0.16693138764567164 -0.6107631512183648 2.4641146181535123 -0.42865304657380876 -0.7422233188210363 -0.6517378485179157 0.7326322891700919 1.177645849888587 -0.18885869447580775 0.0513341641278685 0.06046715618808605 0.4601356099707668 -0.04999273091661993 -1.898237605105331 0.34016286423194736 0.8998332891854672 0.1825615723751973 0.48645155057866984 -1.1975139441216998 -6.884383026376893 -0.7358542421648985 0.3309603097662262 -0.9344743264168125 -1.9718601698413165 -2.0660422897859547 -0.11113094514536823 1.1698384687203212 -2.4127252570571667 1.0736887637820214 -0.9388580233560294 0.6791307451292868 1.6137244011305498 2.068294123831112 0.41655835378273665 -1.7552098862604422 -0.2093868057357815 -0.2618044894898637 3.4201483808380218 -0.7730502257250312 -1.3483482645544678 -1.7686668407009147 0.2849493726382193 1.8823104527914671 -0.8674521815561983 0.4457366648942302 -0.5513750779117368 -1.5560056067590737 -0.10644992057464973 0.39765771760899876 -0.3922829064453376 -1.9619339326501748 0.40837506139465174 1.2388713522816497 
-0.1667654409681153 1.0916050468654679 -0.28593996262107635 -2.48660195896994 0.01861957828417175 0.6327818902561918 -1.4171553173748466 2.1917316869653467 0.4194548976594997 0.5075432412694637 0.26996548933979325 -3.2131306011340826 -0.34078437143248286 0.19878693864207275 -0.40705047703768615 -0.026524882743906644 -0.22176892159208034 0.4509165685240469 -0.9775185551643464 -0.627692375846725 0.9625945657578084 -0.12894212133607572 -0.3560985895576638 1.1357549088938297 -1.5061369572570311 0.4990170328942144 -0.22388727149842239 -0.6136874715008672 -1.411218240527327 -2.4428314893300844 0.46246516315047087 -0.6997869217719908 0.6694018681149952 -1.2095855945955036 -2.255644793400016 -1.0516544180173983 -0.09773996058623749 0.044083092311282365 1.2032041904909465 0.8912082922244992 2.3365592631293812 1.4795281760898527 1.1356866661259104 -0.12952838729479293 3.205032639472322 9.975123932250037 -0.1509912146196849 -0.9685698313055181 -0.3271473248800199 -2.4105589284971654 0.3648109190367137 0.8507078819594444 -0.8006039561705192 -0.8977600479033871 -0.3215924358809718 0.9733654933476797 0.2645473513223038 -0.43902035741476503 0.5041300048934506 1.0421878581458976 1.2819399183804938 0.02831934087946302 -2.9571421801166227 -0.09189176953495205 
0.16304569807510322 -1.5131963785704967 -1.33857501489657 -0.32634828744796235 -0.4152122613007227 0.8039279014007987 -1.681192533638406 -0.3029506999336504 -0.39302601083690575 -0.5300283837862699 -0.020371617400675498 -1.194325516078537 -0.6920968385203873 -0.2671422162616438 0.6642705889610075 0.0361055935701653 0.6417466594604366 -0.6933287651916171 -0.9298578537572628 2.31202477781372 1.135160722730954 -0.4386297817233623 -2.1323957516314107 -0.7187044560625722 -1.339786190606209 0.4838935834718538 0.9629356521921622 1.4648577377757257 0.621819627100394 -0.054997805842621136 -0.5701261724585732 -0.06638652236154877 0.2338904701053081 1.5421070922125724 4.72924419459197 -0.12971566541040355 0.15206743941089196 -0.21884600310911734 0.5008259855401209 -2.1208206362260884 -0.009186703111321443 1.2317035270986842 0.6317721914360889 1.089670877374205 -0.6905285659622598 0.5485705619673628 -0.3344196013469718 0.5038963095500604 -0.3289394321790711 1.3903685083184103 -0.6080960436562017 0.12495310030391514 -0.19306673434768376 -0.25590740946284063 1.38027067677012 0.25073190035192516 -0.10085065252663136 0.4014475119068476 0.9283877321090896 0.7193595197277437 -0.5400745016309941 0.5009393145254784 0.23700406555760214 -0.2707303781006016 
2.2259773557189395 -1.1087956080032748 -0.3319405060813778 0.30658019393987757 0.33689246687813906 0.9492605988380889 0.7491146814198153 0.6695549349978887 0.3093219416118176 0.8518032563205177 -0.15303669188459737 1.9767415529442878 1.9494870458608984 -0.9884943635888558 -0.7022804701684514 0.7238056334451294 1.2756464082888077 -0.5550269870273392 0.9691704116768148 -0.9976655107772693 -0.2776980347699711 -0.8083496430214926 -0.5765579024339916 -0.29218643925589133 0.08797173258198558 1.6858561719985417 0.10209409053993315 -0.45405281982871165 -1.5347911332920279 -0.26790250346618344 -2.697392240556991 0.19049949100048594 0.25896437386215265 -1.1698604987976362 1.3792543217342204 -1.5972128777643124 -0.012519517107525137 2.1983303551933826 1.2979060761090695 -1.3628615813894225 1.0632828125870266 -0.10636039301958806 0.1570102644000674 0.21848696246720462 0.5456426811355344 0.3688137483976907 -0.18457772789545912 0.721119245692258 -1.1356708853475967 -0.10982350917844297 0.5454875732144189 0.7820800494123203 0.019419610278818722 -0.40309568020050424 0.8010411729413534 -1.65877198051048 0.3031319462822959 0.2582382152334274 0.8410583949451317 0.260809443792472 0.6133446089121467 0.6851882774612562 -0.8471322364992413 -0.13817942808294556 

1.7059768663520058 -0.3796206247206537 -0.5860075901921453 0.18289008512665544 0.3010683062402818 -0.28147186027717225 -0.9935103831711375 0.5555080421068302 0.06262523817001056 -0.22924306630901675 -0.04214573924361489 0.5507235238647905 -1.2297757682229267 0.08307644393259767 0.09837085522036375 1.6501999288311728 0.40530449035957217 0.28331374631479017 -0.11685014657750724 -0.38972121018763145 -0.6710819101541645 -0.09081908828761447 -0.33915755626461164 0.307790782365992 -0.46208264785742775 0.13494992352650614 -3.2552906747652317 0.47027172266642536 -0.22318080515548783 1.8815908120207483 -0.08084036851489176 -0.49114768871100584 -0.7382757222811469 -0.3233953300562887 1.5804811693240874 -0.2690254813048815 0.13296652551027904 0.1367775937622391 -0.07470915315847593 0.3485906966576156 -0.8402253116579687 -1.3647312020089608 2.275010855725102 -0.20079254335195806 0.009795244516009433 -1.0298481134735833 0.47727425204308893 -0.5148834898249758 -0.1612771199342857 -0.8572376022410814 -0.131820620330314 -0.11273246490123931 -1.2047323518131678 -0.805777880786638 -0.34120133202350017 -1.8854985209290247 -0.7860678329880021 0.16909817597551874 1.7916146933064505 0.1421191995043823 0.029109322271059522 -0.5545376729237246 -1.2130843877364448 -2.019263272772408 
-0.11946037556118302 -0.2591442451089847 -0.385010892786542 0.16744918419689464 1.0735889250731245 -0.854867889612513 -1.2950259293752733 0.9336237483069438 0.8858199839887606 -0.3667036870362223 -0.3778075978069996 0.753994878302736 -0.5143218813670339 0.8227970956392396 -4.032158203369713 -1.1821414633423664 0.19605184286106933 0.2640997449401194 -0.22406443309170268 0.19871276383417966 0.09106560278763588 0.4283398215637262 -0.23997871559287168 -0.43703616966883074 0.7291416031735808 0.23953378686415056 1.5708795600096837 -0.10012378910891302 1.2634517793255409 0.22052586679084404 0.005069941927394264 0.49386060234247336 -0.22347414952945813 -0.2738336393326779 -0.8794975003979978 -0.46754665106211984 0.16401097798689518 0.18080659927912077 -0.5532379606538652 0.9596859162363843 0.027162672434594127 -0.6229135620268061 -0.37165445489069543 -0.40040582425097504 4.020406997543687 1.7017669483469937 0.7059244364299442 0.571928289909196 1.0961216243969845 4.253049741027197 -0.520972229344552 0.6599146301536148 -0.23870959907402242 -1.5164769779904397 0.6714197728041301 0.3995971882514082 0.1802514118979172 -0.31793714009133844 -0.614071863729874 0.1583445366827896 0.09673594189400804 -0.28694766383927484 0.08997171977001772 0.038215852583374864 
0.6085158023467395 -0.3196969697290852 -0.3578333019770731 -3.29375268029029 -0.8108175194964303 -0.25082565052512795 -1.106574885566486 0.4595471911299668 -0.33351753138971435 1.089169776912389 -2.3394956489983794 -0.10236681460191889 -0.4179922040591505 -1.280695807375278 -0.22499200203217595 2.960730610135994 0.036207203477959075 -0.2549532299937381 0.0101964049782482 -0.44760933884794063 -0.9123906499060904 0.16382705792531332 -0.4883603158237599 -3.9373871292701463 1.366617340605789 -0.0629988809435406 0.2607791617110605 -0.7068804302959447 1.636448055946412 -0.011393855644137743 0.29993605478473745 1.00866664870472 -0.4042003505497786 1.1561484366466788 -1.8132708638103048 0.3405973944359429 0.27310876369358356 -1.0862999675096539 0.2876998832050956 -0.24716501874004093 -1.1833391592392615 -0.2557768182977289 -0.20619375017264943 -0.42600864333314836 0.65688079259501 -1.7343780913074602 -2.071003907716359 0.978249960907804 1.7790380288040835 0.45437223036827495 0.3404696944592301 0.045953249843006104 0.3617853249781028 -0.7602520156406831 0.597026280411458 0.9086321854620064 0.6035169899025224 -0.32486273452795267 2.10919556892416 -0.25682354994374834 0.8459804859354627 1.152426392627902 -0.17671673774685231 -0.16963729654345738 
1.0519592864423857 0.5759540438948259 0.12846988294828904 -1.3438994081235631 -1.5369749556862906 -1.5527098106361206 -0.7567087841815406 0.8521801488519237 -0.5579619664840139 -1.9171235377735754 -0.38873808028541057 1.3101464186970095 -0.1720313623843966 -0.4754439036920435 1.1298482385179385 -0.32206574501454915 -0.029450369175240177 1.9580934055608452 -0.5770258284986457 0.7064078968111457 -0.747713571736525 -0.5574191452244943 -0.9059419197719784 -0.054261880341102416 0.8084400708158107 -0.34613537589993465 0.9907463348943949 -1.2607340181793036 -0.9936890325587222 0.08889802734673115 -0.2888522833387912 0.8349817627060907 0.06579474121437752 -0.6042434083914945 -1.1562321905986244 0.4817891931846524 -4.216847803477956 -0.0037909473588750167 -0.5740851423793398 1.6033907991591505 -0.8580638381684285 -0.04502190657784934 -0.7702976740281242 2.1984755028736536 0.7953623599517511 -0.8919463431093546 0.16692461231243547 -1.6917716004328045 0.41686134508822054 2.1046422540732035 -0.14591005822934572 0.11502716298182437 1.5664415177030497 -0.6875143723458299 -1.3273639085419127 -0.06510433130326365 0.3472843980622078 -2.8614858081615084 -0.5755957808948229 0.15112010903649858 -2.065191987240747 0.536357100260575 0.2889752743416851 3.0776840032853663 
-0.8910827886374936 -0.4970463116996703 -0.629810761656834 -0.8780426639702824 -0.229957062733526 -0.8013553032824587 0.262846088393422 2.1049515446535714 -0.2471405112976986 0.6258267145399765 2.173060133022225 -0.06203052880886456 -0.3280711488041088 0.8941366379618811 -0.4605342835541829 -3.502192031342375 -1.5920685798617877 -0.2840641413642576 1.9076802945502624 0.4818620650748471 0.7425508308727821 0.49598948590152425 0.8527623632688568 -1.1172892842920763 -2.1431843690933237 -0.7500244421134057 2.849634073217501 1.7187440396735991 -0.6475916846649812 -0.899189720424531 2.119851270831747 0.13857335360801734 -0.6739820541991947 -1.07534884033051 1.5032374135485367 2.470553776738553 -0.8504407340942279 0.8577050606790851 -0.22728962441664016 0.22584018612212153 -1.6345676924035262 -2.201014830863879 -2.2470878619171746 -0.4094413940409114 0.6054247877784017 -0.7562455405644858 -2.641438493436613 0.04798525253841236 -0.2315730166225436 -0.44429590135115027 -1.3301371046292512 -2.93571362337018 -1.0277287489105007 -0.026288548627391918 -1.9262500108214147 0.9015430997315763 -0.8270547242388796 0.9168428468836641 0.3009386846892164 -0.02986513771569277 0.13119245626178 0.40189680243700554 1.2273871492830386 0.2036803524311522 
-0.03960433682391461 -2.2573189299094425 0.7398801129169151 -1.1119837821729617 2.406208704362856 0.2824239602058032 0.4091760980635283 0.5438862928821462 -3.235106971566679 0.20669987152666366 0.9033970530875833 0.5327642268336018 0.1727717763677096 1.2600729380116784 0.2528092948576413 0.854227052400146 0.25937830659100014 0.4998451224147153 -1.2064364572595772 0.6482184232598286 -2.6566772874257327 0.06941315183327322 -0.7040075667535924 0.4238283534065363 1.5537509465321018 1.2222206439587415 0.263560758435381 1.1711112250036426 -2.7686172008866974 0.2477029382625534 0.1665620833749891 2.2519583099840124 -0.0426872289324493 -0.38107674597332436 0.8117211324538709 0.1388775152775818 0.48527796617704794 0.3092267618122767 0.3148392886417672 2.4159058690009765 0.6858368386962823 -0.6844680917050949 0.3765107209362025 0.7982984582763224 -0.13566655207535125 1.2409428165103245 0.2675140779083983 -0.5827924084588855 0.6137709343698509 -0.7363541520880852 1.713138514960706 0.8092085658410905 -1.4229816901212673 -1.8033407396327878 0.4951494539995342 -0.6336690373321506 0.6662263603479961 -0.7217150093381032 -0.7619127129392096 -0.46827390318323714 2.9053734506355884 0.6130246486106459 0.5560133202015818 0.7160382469431402 
-2.1512109347536055 -0.5186542450795282 -1.4530468772337868 -0.509694064848134 -0.037916540444491276 0.4219750952546068 0.5446871813999533 1.2571649415003903 -0.9599175417243805 -1.9217142363345676 2.91521769300273 0.36239100618778713 -0.74302441689882 -0.30601597973825184 -0.839059593088866 0.5923054639044835 0.21791659643190345 2.065903431557109 -0.0709469022915408 -1.6442981926432187 2.4239135009762793 0.40377024652653615 0.673721273371414 -0.7599427040483081 -0.08282693457766858 0.06645869648053838 0.7998288999291071 1.8317962094448343 -0.4125745311642841 0.6444853018638554 -0.14043829536829538 -0.05457737373059189 -0.7612416886744269 0.7401934923779395 -0.7275954542914034 -0.9331824473791925 0.6147686523855054 0.04294453634933215 2.1714808445257883 -0.6748336705388269 2.4072650230636277 -0.1321352321626536 0.2374522861880233 -0.3945487660116499 0.10483771477809184 0.3680353438668465 0.5849955554571683 0.3339800636321979 -0.7569248128703823 2.827774791710092 0.3247243783658294 -0.7796432997266504 -0.08211875012344699 0.37384308017746065 0.019857455891206317 -0.30489005945114817 -0.22591328656039725 0.7672829726696161 -0.5164283090826894 1.9012510641236737 0.1508150814701902 -0.33406212021612425 -0.6046938556261731 -0.41573611048766884 
-0.3577886479100146 -0.2683091388089552 -1.7702301344093514 2.3353811256739343 0.3121637723171463 -0.17964789375934956 1.582752878397625 0.3501088188386038 0.1825495535486927 0.6443272463287585 0.3741439719254501 -0.32850287701651865 -1.5236293203250577 0.5351593670753103 1.3379076886025902 -0.840701961561095 0.09062500083226409 0.13809716194671368 0.13188883900666754 0.13847471619327498 0.5637097280964731 1.1841317424746531 0.34082490397805826 0.16778028872168302 1.169181414231443 1.244599284366233 -0.847583728235924 -0.03689899898631135 0.6889389310120049 -2.0630908890557333 -0.43358112315117925 -1.1013922282207442 0.2670882463989323 -0.46110821529832197 -0.18676712347529248 0.5683985707889675 -2.49059894347752 2.896492230442782 0.64394301718219 -0.44393577712828103 -0.32970406127572766 -0.07271113447274961 0.11892337205526327 0.25394910662576814 0.9694130697872366 -0.9781327933059866 -0.04213874557655521 -0.6654977068377046 -3.3271055253138706 0.6876175857214878 1.2850305785835365 -0.0791997437763142 0.36488828459994493 -1.0567092407145284 0.36942112766799534 -0.4836164918618503 2.7245408889158482 -0.6685732461784161 -1.165186248208369 -0.1233953968374896 -0.6227507166481467 -0.7510233785270453 -0.9569730876019262 0.7099285608159782 
-0.23601659338115605 -0.8257332996550051 -0.2914112218430937 -0.07731282375362072 0.6339868254859172 -0.879469111357756 -0.20887715478437607 0.07828470143564203 -0.06959584749479157 -1.1479659484984135 -0.45540169045076995 0.7957472614026929 -1.2264384558015993 -0.402707954290972 0.025578877899971424 -0.5528401170531431 0.6036117641144435 0.1798817321677846 -0.8181817075195821 0.006012975443837122 -1.2494987033952574 -1.0830296221304216 1.0504081687182119 -1.4286764896589077 -0.40749457939651407 -0.5602915823405181 0.4341750900227326 0.5707426309060014 0.42509623538747504 1.727239227024835 -0.8475340117513275 0.651364283185301 0.8981765876588967 1.3251431570622056 0.26250320810486194 0.18799638986151262 2.1656021177186333 -0.2164531953434289 -0.1036580254719496 -0.20098554508260305 0.4877931091729912 0.4057991969042957 2.516285989878435 0.5319903045095385 0.30195601101624975 1.3526487790263142 -0.18521895480145242 -1.1897528842761806 -0.3267098055519343 -0.36754512772458775 0.6999444113319035 -1.0812992310700527 0.8876110136015211 0.2586330522687334 -0.0439043238315372 -1.401814037546808 0.24511745076311875 -0.18705648404199796 0.29481890460011545 -0.9544955013259628 0.9061311396176657 -0.0013977499292105306 -0.04267731012671167 -2.459178340427995 
-0.8676126245107108 -0.8631438676195258 0.5120210677234689 -0.07676851582776249 0.9328940031770587 0.4876652962971483 0.7874373079245588 -0.4588832868830914 0.8413470060799444 -1.1174718600439693 -0.13862654752892692 0.4591729344766146 -0.29907477851371334 -1.249327283203383 0.7030562930536831 0.044041192773395445 0.5595853945656358 0.8214664323785847 0.36847224669769235 0.7408622422886021 -1.1397561374337566 -0.009792388841633816 0.8282884611020226 1.1212280760428985 -1.519722158091513 -1.2004637642301237 0.34023702364927216 0.10380093857455394 1.2065135528879731 0.8168794540230732 0.23993745765924493 0.238978706767832 0.547643639903586 0.08354130461789004 -0.24487033084258622 -1.5405464421779664 0.8649182683260377 -0.02607186499220977 0.2701653019373101 -0.23145351483933788 1.1058295076328093 -0.3224545488421646 0.16009509757227902 2.087484659642589 0.34605696658463214 -0.16618000950027584 0.7993653990700874 -0.29662738486668444 0.13539051200961488 1.1630064837123757 1.3848432181422374 -0.22005069026405955 -2.0882088671882433 0.09449043483794055 2.4377574817910426 0.9479523787388616 0.22115761258303634 1.3810053897849837 -0.30842457550886626 -3.742940534417779 0.7653336221871613 -2.089401524386754 0.5149056244964703 -0.25038560267114973 
-1.6740142213198514 0.4107815423926864 -0.3335490034607778 -0.6723951828689912 0.3847260012179138 -1.4479441058998785 0.23261457756448675 1.1149583340483082 -0.08987914816338677 -0.02979793332219168 -0.29450517280944183 0.6202323334447102 -0.6041676243706898 -0.1615293976230894 0.0073537613414937555 1.4406529030392012 0.7839080061441944 0.09828690935626834 0.3092956670222643 -0.8855012597121579 1.0590003441858709 0.11096230680076283 -0.731808560505868 -1.3269462326005965 0.44430462174744345 0.20807854942322535 0.39122929556195735 7.156701202203553 -1.4996127839665774 1.218745690319061 2.063291698092173 0.18400437285546004 0.045289790629588204 -0.5670379665448122 1.231842025212423 -0.4093402198956489 -0.019257471655690257 0.43669165472169386 -0.11540008375799153 -0.8044491693543017 -0.16405760402764463 0.8082599787513604 -0.07821652211763191 0.4769336882863725 0.5946079257811923 0.11425734076342196 0.5219256185884671 0.6196185354255187 -0.05548262623014939 -0.2714836941212856 -0.3070407146198234 0.5081381645801074 -2.1327289730962318 -0.9535199569060581 0.36008251897688504 -0.9375471026041338 0.9279240688159643 -0.24115799824762502 1.8448618835970179 0.14352281961658594 -2.736993351351579 2.2713607570667564 -0.9333290885881883 -1.905759404968811 
0.22664828659553563 -1.1121942020372 0.3925082965909887 1.3213994833711011 0.0236674938201855 1.5886920008720347 0.2626505968012782 -1.3805453986581595 0.4086608388660156 -0.29635598786060807 0.7392592105817894 -0.22920800401248154 -0.26183594149934214 0.6580145687415865 -0.22028488827410508 0.20453118564808787 0.30431433020335047 -0.06746500220724348 -0.47123451743286804 0.3161005395301231 0.29605891282704594 -0.15782947224023694 0.4873823777735673 -1.6053431351000342 -0.17748364629397909 0.8148218544672561 -0.6860782970266289 0.44940054909856914 0.19196181321263547 0.02656447837173608 0.34628197616255174 0.19173434641407272 -0.2192515311723016 3.160141582666254 -0.19530445096148183 0.49554077304109034 0.27262240272216803 -0.375339804353264 0.003666193038115699 -0.8299651556482137 -0.40568550711494084 0.5800431579756066 -0.09583901196098416 -1.3994114331739909 -0.20522316379995578 -1.259927305723297 0.22389598105926076 0.6459003050629015 0.4185231733471108 0.012430361133213205 -0.6403421644057591 0.6948875722607548 -0.2999888122754048 0.4805174504383308 -0.01845104075661301 1.897690163027203 1.6329538362578855 -0.7211955807657664 0.6759101333748987 0.7375415399442167 0.16256696101588258 0.7304303237580627 -0.9568751728743574 2.0016339682835538 
-0.20776529126344698 1.1233544341449593 0.6575312284068282 -0.5802810573217387 -1.2137614592347763 -0.24551423481042642 2.723938348586114 -1.8747811465526314 3.7400730964076 -0.9130502363820269 -0.2855332839115552 0.47260950746328284 -0.9884249183181126 -0.318952010260144 0.4115867200911889 -0.8367135496932052 -0.5501478318851052 -0.5124221388661933 -0.47947610001856683 -2.3267979631944486 0.7824453855418082 -1.227575439495524 1.5741818332402455 -2.2028239151381346 0.3053442967443054 1.0162472000778913 0.3437111386595339 -1.0945516827243231 -0.108763757877669 -4.053276933575998 0.34844846376507704 0.3419193313732789 3.4370045720915345 1.1327786375410103 0.1145006851284225 1.0951058307393695 0.9762803435524334 0.13724624539755662 -1.4840737092089815 0.2206836118653981 -0.49754301667882206 -1.9388414232916282 0.06314587264362226 0.38196872752951494 0.47346486873807403 -0.43428731581741165 0.7307753486363332 0.8938953321279743 -0.5898380048223836 0.057698285468702634 -1.2762282613118368 0.6915403510030849 0.2934341750438853 1.1313230455498422 3.7246098920000246 1.054125895719654 -0.7612485638044103 1.086741607252936 0.3271337325534918 -0.028971412340547894 -0.1362288247367722 0.8303026291251677 0.5893791986188948 -0.6587378239398355 
-0.7416375658496704 1.0822310193899862 -0.17868509870968802 0.44395887258716105 0.2521892735672383 -0.15673864982228095 1.2377844236052895 0.22902038176411182 0.42218457734430825 -1.1749727385965933 -1.4196239407527047 0.009401689237039492 -0.6184230956936647 -1.0289864306532712 1.4652505331231658 -0.617140003492655 -0.8307595570632863 -0.966793459304314 -0.720868204639244 -0.44587096766410195 0.8347639520209127 -0.22782717823524545 -1.7786229162193417 -0.13355012283640197 1.753310447701482 0.4466221325123517 -0.936043004314587 1.4743629737145796 -0.13714527128726878 -0.4505264969870519 1.9490511130590567 -1.2150453947615598 0.39733852137975123 -0.39304591286273577 -0.5408096361742591 0.23063216560857405 -0.7256968007820619 -0.19834863237015887 -0.3424651034069323 -1.3626096335667677 -0.459389040229245 0.7222703391670331 -0.2064421136310297 0.90368086278014 -0.70925070958881 0.7250949836019648 -0.10105881593598343 -0.10147824302829561 0.7752730959488617 1.686210174114796 -0.08390542910684812 0.2315699774277533 -0.5358545324859658 -0.9344437208609903 -0.41148982711884385 -1.1897229011284691 3.0794538691606546 -0.1314396147744841 -0.2929294930887715 -0.07628639951730838 0.820504112770927 -0.3540614402488643 0.12014616298888728 1.869728527132939 
-0.11440886331665043 1.0542816763705745 -0.08750021429675002 0.14442300772848496 -0.46162909991360035 -0.2267617944124163 -1.0925435912428814 1.1252037710447833 0.1473694465879098 -0.6693646781975986 -1.5253096909577712 0.4266689337774802 0.03808649699858976 -0.42029535725231904 0.1371586638210418 1.2740161298394668 0.6944032877180609 -0.6037313143370379 -0.942071512769358 0.41898170667670015 1.2601798032112264 -0.10408470741249766 0.6850222573074872 -0.039255418753202265 -0.36981042101539197 -0.4419145384961702 -1.731502585924203 -0.6424102413713244 0.19057418204750248 0.0004968353104010655 -0.07255022467914539 0.11087972109863534 -0.565572939750527 -0.07784294611830407 0.18795551660109544 1.9774867003128342 0.11210702876756763 1.1846454492818173 0.29415266760949066 -0.6400966778458522 0.6781009576451646 -0.8651902391740381 -2.5121934326246786 0.2659567028901429 0.3478418046896978 -0.6553346346773087 -0.12986336306979146 1.887028890158654 2.045603862729669 0.31922711317344604 -0.4085996383796807 0.3442290070981108 0.5537702896202913 -1.3430815269938001 -0.3942764726613425 1.8289864526645716 -0.2128514709845015 -0.2693029406211258 -0.5359064329306545 0.031902329289093936 0.06905170687484255 -0.05742346757453186 -0.6156024640841966 0.702430218465391 
-0.34453851465425533 0.5640566970230652 -0.0017002661452985243 -0.6978164639078339 1.302241916160086 -0.47234767635838243 0.5716398817831277 0.41884774774984646 0.39984363472941786 -1.399734379491342 -0.4809298589114743 0.43534577682628195 0.2744043786128028 0.9018550467243751 0.22879386964182005 -0.8608557779839724 -1.2714456930359401 0.553809863999916 -0.12174314674084839 -0.6943180869734743 -0.10190461316311021 0.04540874928430757 -0.024461314623517794 1.103856354701743 1.9817712172609352 1.0098165168430187 -0.6391361356104155 0.8227487284073298 0.8165266935606915 0.22671422650473952 -0.052945980036213154 0.23442121312566053 -3.888081881138812 -0.06557621713563186 0.01112422580875182 -0.4901749205239354 1.199910006858531 -1.5351346171205296 -1.8817366954140344 0.18928686048888269 -0.25991920189195356 0.982486739349743 0.07856418023214502 1.4235565791540465 0.5170951954195421 0.8187750869139006 -0.3998734943290174 -0.5936911355932413 -0.33157165532571287 2.852760884667039 -0.6063708343333686 1.2965689408318999 -0.627692464752365 0.3127518241469604 0.19854589241283588 0.2983128718188811 0.9752602322627941 -0.6943141327039541 -0.8330423166159664 0.35544532157770353 3.061469782663977 -0.7099108900567284 -0.7677116159891423 0.08154416260095977 
0.10744701466692275 -0.28478603390345814 -0.028070614579150565 -0.9773333578871201 0.2525513996516299 0.3223280636817511 1.1832371274597504 -2.0980100737155216 -0.6791205775438426 0.3123343640230314 1.0701886733790456 -1.2532370922168712 1.0220607403046194 -0.13490378386609414 0.47343570600033286 -0.5951036945597461 1.9929496890175675 0.3125308947912769 -1.1244047845838832 -0.6087334006977176 -1.2056045046803405 -1.4721016420019102 0.025667877288655383 1.0311658978067355 0.42149314006350014 0.5584905605185665 -0.10220500790361683 0.35967963572356043 -0.49536760278788405 -1.5166370342850506 -0.2426502395345134 -0.644379181127254 1.246349532292548 -0.8042832525521224 0.7847108065058773 -0.5222901417918688 -0.06903108325735563 -0.8567075667812175 0.9477607165626011 -0.1904617474127629 0.2695781995637278 -0.5143848736683724 -0.7141964293182776 2.6124621028656376 -0.10071171843836862 -0.374980926729372 -1.239539478083591 0.18046053360143396 -0.22121790957611148 0.8414108511633249 -0.3578117896416905 -1.3608314276389852 0.36859651797361065 0.05743800429808186 -1.4587701883547297 -0.4805768490710384 0.13622386236195813 0.01641218888307471 1.520204128961623 -0.2206804748268655 -0.26254713425006543 -1.3413634194059423 0.6725408814486558 1.0883309411243354 
0.4139386246999966 -0.12449943003723171 0.40273521006812296 0.6933683202557143 1.5290589353407138 0.3856249452094978 -1.3102150680659947 0.87936312891511 -2.359496583044807 -0.11579196746880736 0.28962898192052405 -1.2623165673424583 -0.6535270104742852 -2.1949092994524517 -0.20060324574650237 1.3634340821703357 -0.16261687388779056 2.648079391401151 0.4212212894591632 0.0893574177125322 1.0622507430494295 -0.009678402071020066 -0.36083813140069293 -0.432522850935323 -1.4060635639622805 0.6710423635506558 -0.04095357981986783 0.2556515341350881 0.7772700996093672 -0.5422454495070145 -0.47262498365235117 0.12698815857052867 -0.805466829120186 -0.8339172758695161 0.4360289831838305 -2.2465658838763 1.5143370932643434 -1.9305584046132154 1.057625309603208 0.6135422557909396 1.0638805222237886 0.5659506654110615 -1.1588704100589344 -0.029184997217264752 -0.44079365522352004 -0.3360564360896978 -0.15471223307661028 -0.17339630041158885 -0.7464909593823018 -3.283651135768854 0.4198298249525466 -0.3573861309711384 0.3075741362402543 0.4596766967008413 0.02964899798359905 1.4685619083631467 2.716101425526463 -0.748674814629256 0.30445224200809107 -1.7398717628165608 -0.8411819833339852 -0.8120723953421002 0.25204718227432654 -0.02514495912565056 
-0.5800307564825625 0.9915967049675728 -0.09958369811112942 -0.28261006707552616 -0.3938864717779312 -0.38367291514089197 -0.3620118593881628 -0.29051638234834093 0.2286419062848286 -0.3393020326675515 -0.7321496295348237 0.6068515313490426 1.6234583694964293 -0.23800539950354008 0.16481962302868197 0.3117318593991783 -1.1383727831372683 -1.8612520989181547 -0.2748239431046522 0.6768098576224666 -0.2864257241090238 -0.2603500358273258 -0.21663288728274283 -0.3845886096802916 -0.9851992598446628 0.33560145623642623 0.5652905339628364 0.44621141052716545 0.06165979872060318 -2.8156479977492777 1.6588589115518138 1.6028358701935776 -0.20015559429712856 0.20356694583573137 -0.9147633848468256 1.2666339228130892 -0.9776626562857186 -0.28589905307917296 -0.7589569668152497 -0.1667181155632342 -0.31666990337735673 0.062117415365690175 1.0060312784653673 -0.34828761586214263 -0.5662800279385919 -0.2675566926897389 0.17010529348975925 -0.4396443565384654 -0.028596078761851676 -0.1846056347793814 1.0086831205329532 0.7989614731202322 0.834356300155956 -0.44466221587979043 0.20474725944054706 -0.7259873263917749 0.5325483628635783 0.04074918851035012 2.0567406064876845 1.0166901790597493 -0.38578078825495044 0.24073642132544917 -0.06506151769779762 -0.43005482757034197 
0.08918614726289117 0.34852821317400284 -0.7774757072380607 -0.34392089048205604 -1.0588088109584677 -0.5419232797197988 1.15022683318958 -1.2985900428860702 -0.27521508163579683 0.0054994786933418496 1.3998533321624396 -0.6732932270821076 -0.8362487076276348 4.935255014278852 0.36492342997813054 0.7445916000915567 -0.6380082720908193 0.5952537214906471 0.20444728476734292 0.1589605585023295 0.08796550006696668 1.0127159945752868 0.11938721744271157 0.04074002064333756 1.0814451660899074 -0.7087294594012341 -0.6884509294147145 -2.0839029446703954 0.8171377643965905 -1.3691580314588243 0.6748047622637117 -0.23537157163881792 -0.1433602915409826 0.3123917688998762 0.20103991675363894 0.29298754046263326 -0.32900712534701065 -0.3300680547888962 0.7299625003584496 4.14710307038271 -0.460304369331234 -0.5033816285538929 -0.7013836104466705 0.7650081024133721 -0.650174480126086 1.7071815696233539 -0.04717626366302581 0.16871429753271094 -0.6563999806158727 -0.26891856976754647 0.9197575228520303 -0.1611669719200994 -0.96739144118474 -0.4318166475877365 -0.7098627036289994 0.5623099848717416 0.3943094613662102 0.2886915197934873 -0.14694528248075145 -0.015272851551298651 -0.5579587537173204 -0.1435901244393666 0.19112664112770775 -0.7603615103956084 
-0.28263512952832637 -1.2149634715372557 -0.04129073982193033 1.1627872398024555 0.6909105029092387 -0.09270689417065679 -5.739420964096717 -0.16377475672578626 0.289391247835772 0.8247911955304649 1.7394640412154718 0.524922508252197 -0.435701158941071 0.6497345608070273 -1.1162766332096372 0.6405832014527489 0.02366100753312544 0.08854268869314881 0.43655440877328744 -0.545977790865815 0.6312812922014245 0.3556723169437395 -0.09916307865539437 0.6552041478029995 0.5703810588565463 -0.7768791591287664 -2.258635725453401 -0.11960141551914896 0.8724564749320662 -1.5725733808880107 -0.23809871926950074 0.0005109148542740852 -1.0344577752595538 -0.2325451479929192 0.11563432686386985 0.3014583453339097 0.7891615149256858 0.5237784304145072 0.4053829427218317 1.5909411074625233 -3.779044237483402 3.7600256136456123 0.21183418950054936 -1.0108643244127187 -0.274773208702228 0.5050676488349815 0.12343431534587879 -0.6258358458428755 0.9688542958363285 0.6781085504352142 -1.6110857513172854 -1.4889319428068721 -0.8721974169754787 -0.47779712837203053 -1.2872993585990824 -1.2769549300782963 -2.306023892040504 -0.842873294452445 0.29396348660536026 -0.6971974713850378 1.3549738326174676 0.9432572366653957 -3.5079969024058677 -0.35074922737787995 
1.4759932552819008 1.8684410544003773 -0.12739301934479053 -0.3031262713266739 0.7557224126163834 0.11760270918401794 -2.3616291044739057 0.17916253836712115 -0.2746542474756175 -0.13319830868403804 0.09721423436455535 -1.2508004959258352 -1.067988388885717 -1.28579778810283 -0.940344399598871 0.09027041628491018 -0.5887664428329051 0.20206764599264226 -0.5723996868968646 -0.40424138748756855 -1.432269959346338 0.10072757674196607 1.8269504386315485 3.361198973913635 0.34494380223873056 -1.2971241216958596 -0.5268853514024291 -0.22869983764914587 0.7606225093752774 -0.06659289523840135 -0.2762137866938399 -0.6465521223222781 2.2786709783626193 -0.9731793053888058 1.8218849730142852 1.381876691469528 1.1756110995331097 1.131375593973838 -1.2116194838224823 0.14248186217788844 1.031537541334294 -0.11933033311871792 -0.01568862541687268 0.46382769056279033 -1.0571985705425422 0.44051955393786263 -0.1829497191564738 -0.29718337863704575 0.3295937211621909 -0.8046262460400341 -1.1139831891195635 -2.2438354304596038 -0.4764040601637347 0.29847133669911285 -0.9106721638780659 -0.5659721228036709 1.8149556484660665 -0.735680471035562 1.170632221309885 -0.13497468381042838 -0.5424029870917446 -0.6913327281000622 3.8350218968844705 0.5580615932496368 
-0.5550399609210434 -0.16187241912574088 0.4306482900899041 -0.08496468905795426 0.5033183496137674 -0.6307596613683422 0.35539834460529357 -0.3611616871712344 0.5918038323418684 -0.0756033818517976 0.8232486339191851 0.3182099947810522 -0.2607622665013491 -1.4472248025576895 -0.18654090796366846 0.05353947699352563 0.2634629658053585 -1.960187126697861 -0.6729749445770294 -0.482276630763733 -0.06670863232513753 -0.37488372181656504 0.5970658314811926 -0.9092639411087966 0.1328977420757509 -0.4803695684300928 -0.6744715654757286 -0.5516517220358338 -0.6604979290035493 -0.047030304115975065 1.5325990325979835 0.07851153883886185 0.29041982395196975 -0.7459909287912847 -1.3461567087111284 -0.9308645801922457 2.7361456622270826 1.5977962800436072 -0.06388475394703325 0.4038670675535059 -0.6124873591448313 0.9596367546920909 -0.5988788446866805 -1.0149638409472383 0.72252889614189 -2.0775252229820222 1.6046798979709507 -1.2476151566538576 -0.38989023788018157 -0.1297041363676832 0.26994646564504116 0.6545967612092772 0.13631117187225314 -0.31996188745983895 0.27321759048162625 1.9106109084376308 1.88257144763241 0.08475155492454815 -0.4393890744919869 -0.2755620974206214 -0.7882948095736176 -1.0466088206507498 -0.24989479435800427 1.6770448070873012 
-0.5272622495444126 -1.5310046533635915 -2.00590139990791 0.4031375836437364 -0.3912483588849698 1.227356773704967 -1.1467765544844064 -0.23195484719551857 0.3578199193495566 -0.12695738808962703 0.48133077249256234 -1.486228305786447 0.3331558756728359 -0.03203486805181581 0.25352651039206364 0.32604880590384544 0.40824411392872706 0.5645002506108127 -0.3615821205118112 -0.4353603139049975 0.7747348750388672 -0.7060236733991715 0.2657630916286447 2.5962526079189256 0.09084369504447823 0.253885644412495 0.08861910516819499 -0.2837341879194901 -0.6526916801886543 -0.2031841216223205 0.4987210729724307 1.1609503853166252 1.0988164833443226 0.7299983768833136 0.6056094842263308 0.39763779877778593 -0.39088964760061395 0.0307592428465835 -0.9795089149747428 -0.29352249238266215 0.6130066002775509 -0.6130300268156826 -0.5139829924296065 0.5205996669785733 -2.0716293367016196 -0.23145984610361386 -0.5882694274071082 -0.5954820081376591 -0.8924758617087134 -0.17690796948784046 0.18712473769792315 -5.182393293746648 -0.49901383213518036 -0.16548116182217062 -0.47532671302629775 0.17501476497862123 -0.01773335031061005 0.01318549656947831 -0.0640127688095476 0.7608635479992317 0.8899821367147265 -2.28109987945522 -0.9458086219518484 -1.6212266587899518 
-0.369453616965666 -0.6019466225883879 0.15149193281982723 0.8174616694577087 1.229797406286516 0.03875298000823089 0.17670574889475785 -1.2231334643555856 -0.736371833895529 0.07624666528945159 -0.5124356392429065 -0.3600094822558312 -0.9901359466710671 1.7091263085216877 -1.1875863545180632 -0.5224052826499656 -1.098591797498971 -1.9747250205911402 0.29331931475047957 0.06552480842951548 -0.7650636763931196 -0.5987817516920714 -0.06191300631309168 0.6216972421415777 -0.26358651849020304 0.7398956746867932 0.5245470351842416 -0.8520358848689765 -0.07514479452130167 0.41385431881869206 -0.24055395582207412 -0.25269966659875115 -0.5009119196516861 1.1777554188289514 0.33170628625749665 0.9511557389763499 1.895052982938172 0.5629620042495916 1.0669675587948055 0.5849809883878704 -0.4458654274046687 0.10905363989886536 0.9932135069663346 -0.5379161893227593 0.27402951815993903 0.08631183069974806 -0.7821475750879691 -0.00650383951000408 -0.15330713637762042 0.4251657847412588 -0.6758917310102669 -0.24633734891011105 -0.655345541615716 -1.3425654117832928 -0.7246064496128359 -1.219516595949935 1.0195479066811481 -0.7502997243467974 0.6254402845997649 -0.5503860645290992 3.7522142370711142 -0.2978677986001837 -0.41922402423671246 -0.22264014953858186 
-0.2622944984880406 -1.010344199788126 -1.4620292080077408 -0.7783534298889521 1.0792295067602642 -0.20993812937322553 -0.45955489812527794 -0.8432239284559748 -1.6898061469657824 0.11565039515227758 0.4394640317017723 0.3220293049315355 1.1519400978252003 -0.0814071431786678 -0.9456480109746648 0.025011723807669115 5.593225063075393 0.08187543050088765 -0.13046491373301222 -0.5768182116702831 0.7384307566306189 2.058835623687972 0.556213820998267 1.253636865996817 0.047447283601166144 -1.2332810592665484 0.2302886278791697 -0.23561460247073637 1.6890973292572542 -1.8821223944488392 -0.8905311979792436 3.303618636298224 -0.5108931771992482 -1.291348727340664 -6.345517285011159 -0.7479131450449296 -0.05188703395009844 -2.4685205303769955 -0.7559598373014663 -0.5722476106497288 -0.21112717472185152 0.6738600567724119 0.5384871175370316 -3.253189630178519 0.38671632468862394 0.08662299128964922 -1.3456533146006076 0.07463984639544766 -0.09757843789210574 0.7308994383532371 0.8748860569362698 0.37833735197854806 -0.058390124057514994 -0.5649612268433404 0.06863160042637824 -0.10766691531770503 0.08750960399804368 -1.0028218839599214 -0.14283093876611183 -0.18030954341919236 3.2935842270757845 -0.45350735187186547 0.8727739367692101 -1.8493341475152287 
-0.8949146662009171 -0.8616957238299102 1.9548136924375248 4.397917011704796 -0.23095392678444637 0.5178694525034246 -0.5790293167812409 1.1030337737258937 -0.4128677197881012 0.22896927990329635 0.13828058018852804 0.2865129504902217 -0.27222765460420745 -1.8993054681880746 0.24468690594840115 -2.1189612677975638 1.494595290921812 1.151723517841863 -0.10120181309309102 -0.13554643521851945 -0.7217132173887971 0.2620322415740138 0.4571496837535579 -0.19222690661665945 0.42719921059857074 -0.1661047941574716 0.38235564326213356 1.9458774295976382 0.9832262472699173 2.90877521959771 0.041360241882474884 -0.6729281114663209 -0.6355495885371943 -0.1596323523612538 0.9236820695577006 -0.5544836864351349 -0.04864323031381843 0.5388494410988468 -0.7733334937549171 0.039396642132444745 0.7261701301223478 0.19207336961672206 -0.3027373882461798 -0.18470220407442037 -1.6983480230752284 -1.2292320508803039 -0.2591543640913165 1.0312285959637717 -0.3023637089464095 -0.4502192632500894 0.07047324900498107 -0.5288540666181278 -1.5679457467013673 -4.0465353262185655 1.8578396226863512 -0.06825477817019197 -0.03568526661027268 -0.32452009910031143 -1.1850547764342414 0.9833259010707879 0.46288067753165596 -0.7387643330716147 -0.08100432866656045 0.22836479342772992 
0.3798559636448558 1.527374665932018 -0.3870809492834241 -0.46600822628718797 0.19828604330527977 0.6863336351895134 -0.5219945355832488 1.9511921734428306 1.0111140625802781 -0.3008867045971934 0.9958976241917751 -0.6788411565732759 -0.18022329320626598 -0.2341529907916097 0.23046320902877462 -0.11661379732983873 -0.04565645692683008 0.26274392630315774 1.2619394120795404 -0.6432813549796306 0.8303261055399491 -0.8025831693872495 0.015496890722942351 0.0647039452461245 -0.8131586171686176 -1.3972982541295373 0.07008162360140954 0.2562516466672962 0.22603169961974998 0.9758634888057304 -0.1788797298134438 0.2540630612929773 0.4292271731173833 -0.23495554352886872 0.8600792942329865 1.6221929378061277 0.04646604179018651 0.2773224441198284 -3.0434347722827906 0.04425474734412987 0.5266996129384551 1.1848576834081745 -0.2576096767121869 0.22577824965465118 1.0570592113227666 0.3104606260206463 0.679746363400766 -0.09462937362123441 -1.0255111150896927 1.0006682861250213 -0.34574690299270544 -0.7223660335838012 -2.5299446239138628 -0.46059597204187663 -0.20739922608472758 2.1560539721442282 0.7348705896874393 0.32212902426908196 -1.14447131789071 1.9366704918387974 -0.114954422009381 0.4798486793166681 -0.12644154380602046 0.09755679516288357 
-0.3434814523302514 0.47554626976565467 -0.7622385088659445 0.12389998782644646 0.6808227370884576 0.8159557063182129 1.3434085962139672 -2.008567849077522 -0.529445989283007 -0.8649028793695783 -0.16489819784697404 -0.35381139931507605 -0.38476738739217703 0.6653549719098946 0.4494233600465273 0.46975263045246163 -0.33029763234555254 -1.9323584574248487 -0.5654977695574653 -0.5950643142173355 -0.2872574809486794 1.2818423078738614 0.9212848906030657 -2.3303949728489255 -0.41539413671642605 -0.3643935344121954 0.5373283333515525 -0.29948481046539566 1.418936962154463 0.6506136357691753 -0.553490295960296 3.9094763869353746 -0.43908609595352466 3.537990329410821 -0.5176548402576202 -0.8086164064559936 0.5670299937908818 0.515653339513807 1.1922133839140276 -1.236224657970055 -0.41845537534422034 -0.5842460775091398 -0.03847967685508725 1.6455642370846133 -0.026226955921130994 0.8170842791672831 -0.5499546152830749 -0.09491563681597133 -0.30534693636828597 -0.4326083481137291 -0.5749405078119104 0.5962636395902686 0.28530035508203644 0.8415953409111839 -0.15431970261169775 0.3001260783987383 0.8962187452043525 -0.9318636103132465 -0.8782028549155191 0.3853593859935893 0.4210475771358057 0.24716376106698482 0.18729283075270198 0.18126595962244232 
-1.448880307487633 -0.13196710037647044 1.95100483331241 1.7550898459746984 -0.904835535930196 -1.9434597271330483 -1.0763489763655614 0.012262056340621108 1.08102170244393 0.20945491256408527 -0.8389134922560909 3.6161671322013653 -0.06572141721694014 1.1617737302167142 -0.16640506664249585 0.19623679810371078 -0.36249428315503607 0.27685839811212304 -0.43104149458541563 -0.10397634210090927 0.5970179339544837 -0.019960017383220653 0.3981732238668079 -0.01685555485232134 1.3965680051723546 0.7138697749614747 -0.9968479485353717 -0.18092984986808064 0.913033240100979 0.2510214464046028 0.2223900213119946 0.13836542178793904 0.6792686167227261 -0.8666738660151988 1.7307455184869756 0.07335264143344404 -0.3316778614066064 0.7107959886608461 -0.8709201537548605 -1.0613344716560116 -0.9990731148478703 0.4006069645544898 -2.9805988749958514 -0.6051140529110717 -0.8490616457514257 0.7209881819422383 0.26133586744181786 0.6602987850568641 0.9960363782663257 -1.6850901592395549 -1.5343475752146187 -0.04562196084053268 0.05849867377715036 2.9186346929402185 -0.9113819914833639 0.029027277805182154 -2.30501275520018 -1.2364503353027696 1.6308802384803862 0.8673717915934296 0.5950398714067923 0.22444696709770964 1.3328810615329783 1.6996804376929213 
-1.049573371029649 -2.1415243444124124 -0.565921112781526 -0.06387373642803952 -0.05465246545578219 0.15797408552070252 1.7661854908639256 -0.5105882703722203 0.5495575010685916 0.9171918944461761 -0.19426884232124764 -0.38747779370721414 -6.80688580048957 -1.1224081312266005 0.24226483477700106 0.7289866454960338 -2.199372384829653 1.4886319292366004 -0.47937002338687745 0.00720081346107467 -1.7953006906459843 -0.20508529369176898 -0.28796974185057383 -0.7358879887875753 3.1432517202239807 0.9595897754380536 -1.2690251665474572 0.5620883678010232 0.24163043202754897 -0.8090673479266683 0.05422194839535233 -1.046222260147522 0.6619964417459716 0.5381278855432823 -1.2462949425946643 -0.006408960855633399 -0.41421922338030215 0.5701055516407435 -2.8189509782617606 0.45801944651353926 2.3051025376998613 -0.9199041198583814 0.9972320416069069 0.6237574492164923 0.06911678894700468 -1.1416000639699175 0.5722991504178312 -0.06169307147133247 0.19191149568112195 0.2774512379829316 -0.3648184505219218 -0.9977136895526221 2.040326372340517 2.2674468614712713 -1.1842359470902137 -0.9873465751127543 0.004271775911645591 0.37503879096975773 -2.697544521297146 -1.4241984403797177 0.8053015957080673 0.17557476631390345 0.34497805152915084 -1.5292712065262266 
1.520344917894236 0.7719409138019092 1.5753060588818144 -0.2778956989906389 -1.8095699256164397 1.129452070312133 -1.1567531508663729 -0.5010553114030135 -0.051009071436297265 -0.22901073007313438 -0.24843831883780165 -0.32147540049770806 0.3931564051843654 0.22081532869406068 0.9929783084376391 -0.45364877355315525 -0.07160016342908669 0.33740753055817757 0.3496023760479791 0.5711073865456324 0.6351813637833532 0.6363241819766725 -0.06833225556796377 0.520888672878526 -0.25387594324112156 -2.1226569352273352 0.3735147072383097 -0.7249325061860343 -2.4078005144108623 -0.4483625841343256 0.12776391406796786 -0.5887402812791908 -0.7285018723852656 1.380424622448846 1.021925383076077 -0.5611087655484718 0.9335845160894406 -0.35755500677776725 -0.18151015735636764 -1.1059678464124552 -2.438556405304543 1.2561852053374822 -0.026114192077823707 -0.2762204505582551 2.613966803446661 -0.29861419214058293 0.3511727829733137 -0.6437879151224264 -0.6987455772304852 -0.9933172855558512 1.002057706902662 -1.2292251636045448 0.18506041540838244 -0.8901063300093409 -1.7755925164917952 0.20723240167797513 -1.7994182150719675 1.3958146621220113 0.12535391845316182 -0.16203721298464063 -0.8585691468358111 -0.4521639573230036 -0.08386512750968769 2.6566338086533645 
0.019788705088025913 -0.3190734658893285 1.5624053749566351 -0.5736903164918955 -1.4573407597489245 -0.044160390856718724 -0.4874277038359742 -4.5354895313664585 -0.38052107785471856 -0.0611899344442359 -1.7331126108409427 0.389873101902929 -0.21759187638360986 0.49506948971298764 1.6764524827411806 0.8943878422564282 2.5721537030347825 0.4409463126369278 0.047626612819851984 -1.010311702016347 -1.7480557242211727 -0.2486365217681604 -0.22560434543726268 -0.6345357121034957 -1.1065744063503402 -0.026798732552627574 -0.4663926677725337 0.5942363895073506 -2.0601108705083826 -0.9925823001417583 0.1773079395961897 0.6355872511951867 -1.9331810635249713 1.0314092474241219 -0.04016841802420063 0.816107429207898 3.0284917707700973 0.4486983062183735 -0.03588229729455284 0.692823999636968 -1.332423824100669 -0.6002182279060025 -1.631537340899686 0.1506355449135668 0.2716355068862189 1.4553851787185736 0.8795719669532972 -0.3353968357974136 -0.6948352524508198 -1.644290430085853 -1.8051208777477081 -0.18087451695091153 0.18839278454368139 -0.6897789007072608 0.7155821103821421 -0.9400628127127592 0.7112296629794963 -0.22408306884691045 3.7013631108635043 1.3987850723690718 0.34129041549711014 0.8794114638023048 -0.7561055073561993 0.2632187125618799 
0.2779675755041426 -0.7227420460847896 -0.2660226272103222 0.7762740065041158 -0.046053386184602134 0.42561547782024445 0.025192773936466854 0.45624927860645503 0.6043022809160312 -0.15622650624137233 -3.3211397723976175 1.563986156290631 1.3657069740206789 0.44254179587477366 0.2754779385012064 0.301202698290155 -0.051038243978437155 -0.9862986814072748 -1.851208684400852 -0.7925599281024172 -0.4563887679811707 0.6746500325655213 -0.0060126304878224904 -0.17294767897497149 0.08451955071955429 0.8106382223349561 1.0415313814470601 2.482422817196904 0.601178865412038 0.18682200982544322 0.2754298208539214 1.2191761112402628 -0.4552536065829455 -0.12832657494673513 -1.1132180452217209 -0.20330197370866823 -0.28882855470019825 -0.9658210893921038 0.21115664015590746 -0.23759560531430124 0.16884701900690371 0.6535963246971156 -0.9018001279614817 1.1974966545182428 1.836443145110802 0.1546908617916669 -0.11900468675518583 0.9289990330848557 -0.7628739167728065 -0.5229479429805851 -0.19178467755039896 -0.45643188831142906 -0.264639804458487 -0.09448816417263671 0.17363997768488298 0.03127241361414753 -0.3075263987269458 -0.23239364885012354 0.3045286325610422 0.21099992328949296 -1.2135576810653637 -0.4750194874521006 1.9805795681364886 -0.7471783526743423 
-1.2683964554346034 1.1113655846303017 -0.27384500000283885 -2.6480275295974134 0.36497710470239547 1.0371982184256203 0.16497779167741902 -0.97462285836778 0.7378825235990106 -1.865220649718214 0.35337908580630545 0.05450339105384455 -0.07490462589950816 2.389227630245729 0.23246633849735326 -0.10370533673454971 0.3441522626358115 -0.8615480608398245 -0.969356312877325 -0.6268580508662913 -0.11298050261659821 -1.7402498455160897 -0.5816779903132386 0.8630354964708106 -0.03717697263542722 1.3005001926141464 -0.5874162397320992 -1.0894671323153327 -0.9365744735281487 0.598191287841867 -0.3667847030397116 0.013628368834472123 -1.8412494808738864 -0.3679086870619318 1.326949687741642 -1.0062869670282852 -0.7120843012556579 1.5543288946363012 0.09197371576971135 0.4752612554790713 -0.5436183003394368 -0.6227443843393237 -0.2843701823129585 0.41633192566638216 0.564480307887225 0.7260850017217654 -1.8399639807069206 0.7372652811514822 1.3492269355509439 -0.16739940372908715 0.4925723500045043 -0.8555979461576645 -0.4090979472500316 0.8138996344020091 0.46257068669252005 2.6007350371029574 0.10453459588410409 -0.4298999062599826 1.2513258963031584 1.7421447717259284 0.6841882344790954 -0.004295718252203461 -1.0649307687888303 -0.04408420842249773 
1.2175042014562871 2.7225034322600092 -0.12907821537707723 -1.4798154018082472 -0.41649010967493966 0.25073098348350803 -0.9045287449788083 1.4845220246268316 0.4531825167708984 -0.44847295300070533 -0.8122086233474254 -0.25401133268565573 0.8434060275346777 -0.20508731891682352 -0.9484020972864414 0.9114643181435467 0.05819270190748793 0.21293869777711233 0.2344829170516638 0.09329668321868019 -0.8126729502719027 2.2754226825811923 -0.6955026031719637 0.3272373276518879 0.23716605970867025 -0.6346142331699723 -0.4956529932204305 1.2764836358421074 -0.1187392667263977 0.4570853781567552 -1.736623120912017 -0.883537391234375 -0.09688904037769848 -1.9105711101857623 0.45227178557007314 -0.40971819293152084 -2.4115810063605956 2.4520070713081163 -0.5232247995183951 -0.07976788435367221 -0.4648099737443655 -0.10188878323594544 0.01987269163335116 0.5525095754937855 2.0962084095233267 1.9594385530928053 -0.5472675359023927 -0.9329004958117098 -0.45124635966866317 -0.4472708762994929 -1.8567541322979615 -0.2299938055886557 2.4689309529818986 -0.823040269763958 -0.2260842938609658 0.15579142406196206 -1.094017666773973 0.7661816030539464 -1.0601009562143284 -0.2705717206459157 0.04693911073615089 -0.4182088738234623 1.1895337282507925 1.3269376535445037 
2.204542530747452 -0.27816968647264506 0.4325565245531164 -1.1868549386897127 0.2802218627725118 -0.2639130038724156 -0.026348341729741476 0.2651393234212141 0.09026762873207782 3.539675959513723 0.27740987826895225 -0.0422175628913618 -0.7873424490593844 0.15013569081876585 2.876782532503275 -0.19036575690154584 2.5626429989190265 -1.0255160916730848 -0.46988693449698843 0.3498393131417954 -0.8739812148749997 -0.8578591667502353 0.188952970273975 0.28909038074831994 0.11117967756060168 0.7138610778940195 0.263934449655288 0.9288060922395869 0.18010942759684656 1.5400912537015636 -0.03234956516830591 3.3458421149613273 -0.4646991244407853 1.4407162489343694 -0.16908112730746433 0.5542283952349504 -0.4215285023664247 0.22158879399569073 0.22584544065540477 -0.40345834260574615 -0.711631428989604 0.6905550225559168 0.17283817781346322 -0.292936266414111 -0.2957326352888705 3.2624658072186365 0.34905432864822034 0.7380583782165023 -0.16240775941128247 -0.23273219984199556 -0.011172013018224247 -0.753023671477603 0.6955603492869532 -0.11421721250385375 1.3110691462943131 -0.8487881238950267 0.3263077006587502 -1.2608224474177425 2.4759576292255834 -1.922153096821124 1.762469482049048 0.3795600602713773 0.2987065439080327 0.48170968129438 
0.8252394808814434 0.6701302918422574 0.11375314942677406 -0.1505904035340481 -0.394154624995689 0.10676941100850716 -1.743859907904557 -0.13499216719945584 -0.6874325930416904 -0.957201709229321 -1.800221193350042 -2.3640862777630565 0.6767078763019616 0.444849036019632 0.8647065674622716 -0.1196143892734719 0.3982465662307316 -0.5115925623551663 2.9322741321528545 -0.520403105307465 -0.7750626856067572 -1.3577096316305028 0.4959835168120345 -0.11120697892027132 0.06640837572123717 0.46332548654264294 0.6126481732979789 -0.33921078805267724 0.47703297430341857 -0.6362737665818685 -1.1218845896007699 0.4002251660162076 0.34984026273397784 0.6168029063923881 -1.7159392115655179 0.24788778426006672 0.3293223866838099 -0.03995109790571436 0.13299910379942126 0.8814712220977626 -0.08626060115639915 -0.1827312215663573 0.07820497004115909 0.07261642161908591 0.19382816276470838 -1.1981850011891904 1.4842678679800942 -0.22357064737774032 2.1865785142458654 -1.0370951408034383 0.496365320619385 -0.08929707082855613 0.33956266064806745 0.1469048851583823 -0.5745135237134449 0.2556515918948295 0.7343912360949009 0.3141635560521918 -0.09374986513956922 -3.441523097822658 -0.28492212923915566 0.6492589680529661 0.9511580446278243 -2.5302327277109846 
-0.7930878158389576 -0.1467929456204545 1.1062358863045918 0.6904594431726979 1.1321444245735508 -0.7925511401242105 -0.704410136410829 2.1721054282297034 1.0878566456075998 0.012906015891827397 -0.910295507636734 2.4253144089411744 -0.549212599702125 -0.7491992161526771 0.24584974889539904 -1.1018590672562474 0.12427427386250217 -0.041723023923183285 0.3951660518191029 -0.004143563683315859 4.144741576755862 0.19340586704173052 -0.4420105760503238 1.0968805809983497 0.19716406897521677 -0.31536162079228336 -0.9429574966440163 -0.0574026715388079 -0.21649448524852585 0.1172807010650079 0.5034993527886948 -0.0021748603711303437 0.3147132278991129 2.138024066145161 -1.684424644824126 -0.5440175069385367 -0.245285398207872 -0.8881444472703404 -0.20090036902742509 0.7031771602158795 -1.2379387838836702 -2.46893940620294 -0.6487721954339543 -0.5051894598943824 -0.2118208577679891 0.617955334770756 -0.2867522816755336 -0.03442249093019999 1.151794036844169 -1.0979745358522157 0.6849656436599827 1.0222735411595425 0.14609007072302818 -0.6228796140912354 -0.4130298928835562 -0.7035513396565104 -5.080294351649836 0.231062220134574 -1.662913205957459 -0.8303483029750304 -0.00909970663096235 0.5027319314847307 -1.7450987193486254 -1.2353971455282047 
0.9698328430137398 0.175586248319998 -0.09522905814600183 -1.3879575058343487 0.20518343241294842 -0.22541311781175374 0.18543268262274787 0.4795770646945798 -0.0003437887668162184 -0.12013882604216056 -1.0765671975421989 1.309028761014835 -0.5645502475580257 -1.0920829464524264 -0.5017164468026902 1.0861017143018523 -0.6201871426785452 1.3269867185457744 -1.6879083049438712 -0.3694039955311909 1.2412781787966582 -0.6703837623265915 -0.5167288478796978 -0.05828394779162583 -0.6431969029916564 0.30235109450894937 -1.6335063393055964 -0.03180893515567369 -0.8076727118171029 0.1949573874863894 0.6673631336099084 1.0485036106226686 -0.44050411813069057 -0.9397733809682179 2.613873900940894 -0.2862669211407455 0.2066904093775522 0.8573950096300315 0.23935812278708166 -0.24993168027714874 1.1309936834711365 -1.549940367436475 -1.3713061638074242 -0.14008548323100115 -1.1651188635966647 0.5599122509139297 0.09814898479246206 -0.6826115218425716 0.11103351028584953 0.8125779034907569 0.30454457082656045 -1.0100220870094407 -0.9933839810329518 0.44592141202601465 0.07240870508336687 -0.7883714894443357 1.1481750292139412 -0.15799925245218674 -0.9416433241430985 0.24198962382957206 -0.8546760647663666 -0.8322563544297858 0.6014271935038107 0.13839612834866472 
-1.4650725067314134 -0.00527865968056551 1.7471041157855818 0.2433121484066987 -0.02990682856180611 3.06384724338937 0.08415528062868072 -0.0882147678329593 -0.5092994884068233 -1.8623048606238797 0.49872827925591157 0.16097403068062285 -0.14875727441801426 1.317069049243883 -0.399602858003722 -0.3344437094558421 -1.7656657737131878 -1.0128793887054717 3.6652434824248314 2.008651299058719 0.8032576561325537 0.29051697723583986 -0.00752563138180788 3.436902711779014 1.232062836388365 0.8168186477283973 -0.23220364081558872 -1.2074330744974981 1.0507719311407437 0.07417053383821431 -1.4256285458028775 -0.500446661603551 -0.3813521195442036 -0.10737985257762514 0.18036359265046428 0.4709677002410156 2.0636930130243756 2.1682798396317984 0.0706629379662383 0.1381322003469382 -0.3415371389617691 -2.5915009675147935 0.18690402382554452 0.5290427830598322 0.9850341616375835 0.5571266867256833 -0.9073264532064128 -0.08812294301314423 0.9819232619134565 -0.6208474874422962 0.5186268785208769 -0.08904424950258295 -1.3500189501582178 -0.5887414084965117 -1.2502577978015494 -0.0017173184214074623 -0.11179937172352854 4.090955544608077 -0.0296780454710771 -0.14783979291820276 1.2371803758277042 0.5321420435363049 0.7647090273044613 -0.8559063769395414 
-0.0072126807494936026 0.40693808736166154 0.2415084482470807 2.827630111302092 -3.298380846275362 0.7812166077005595 -1.3892105266302097 0.3070180304071312 -1.2143634015068747 0.09956298116572918 0.29449554997954014 -0.25790296778463956 -0.952082237847408 0.9736064450007094 0.9536673784081955 2.151618870925572 -0.48932428297105995 1.9244254459268588 0.3906173981183479 1.963333264404701 0.7449139088747879 -0.1024032162114875 -0.00491783930250076 -1.2227970023651842 0.8650668206966644 0.3940137894506484 -0.061945161307005114 -0.5693010408551072 1.2815617479289763 -0.535194824844539 0.38813436300066584 0.13331771866530706 -0.32177330448359986 -0.46680894558576846 0.9842290457021923 -0.867816503102031 -0.1481276639459811 -0.14819255140212148 0.035551099534294944 -0.30275820640999973 -0.09075149633765774 0.4976753470454227 0.6568644402873547 -0.1111607806678502 1.8917834528074742 0.48632324698579243 0.32471386447233025 -0.22342447850629446 -0.22359839108004254 -0.7935712786595572 0.30577076994337604 0.004614637458438525 1.4887510789311926 2.412088029553938 1.178655365898136 0.0718798316871382 -0.4564720957412034 -1.2643998798887883 0.021283764446029797 0.2660752651491226 2.0064522347353035 -0.41867664947227506 0.6265542847950825 0.15877920782502516 
1.3669900307030316 0.004506517937187134 2.016394565505741 -0.1871812662471663 2.9532194070307676 -0.07267527122911192 0.07780540728463566 0.7710345017149818 1.1155282780390592 -1.0843152186817961 0.3587366653836005 0.1848653972782517 0.10503800621663095 -0.2790190257759097 1.0102366792782516 1.4617219471004335 -2.107073277641435 0.48334636977299694 -0.20357658408209683 0.17922994536948073 -0.8102554162423237 3.079588025821259 0.6982717695042975 -0.04085324134765826 -2.52030839672169 -4.2450775374161145 0.6146214184861144 -0.07794792588385079 1.1263894012025333 1.2187966219666164 -0.2453160781152647 3.4573807696452366 -0.2725240232852779 -0.1080491113797765 -1.1073949768805662 3.2024457814726004 -3.1385226628948324 -0.23736972206389367 0.0041754698866818245 -0.06809301800302088 0.7443601035543694 2.6186244854225458 1.6133987300910018 -0.9855407570300986 -0.2605067608364669 -2.0058479554549806 0.25901988901072565 1.025835573889471 0.520479798824427 -0.8598141745401855 -0.44397282095522433 -0.46146471360306385 -1.0379723109103416 0.15898456240456713 -0.5530631066245367 1.9249035393996667 -0.7076562695089038 -0.5744299539149159 -0.008804175130485765 -0.22917529001049836 -1.4468848529156717 0.43513355643238005 1.2109060256411273 0.674674028301817 
0.08040022560722866 2.6697320665936126 -0.3668483249139827 -0.4684943124967851 0.19490774233117775 -0.13343920072286236 0.2992409312700012 -0.8185160706526504 -0.564185323910406 -1.5555627996184302 -0.9417821440126816 0.6022263086936234 0.0004255991928907971 -0.8922694259102305 -2.501340641287439 -0.2616284164741391 0.3047433656670797 -0.5598230718387314 -0.4301015348615831 0.4134176009368984 -0.15000908242724806 -0.24869909605740656 0.5556152427049186 0.3602423463233763 -2.1818390347423757 -1.7693906419678505 1.1362925204541259 -0.8706902299137453 0.6969307601252954 -0.068407899306924 -2.395371684073908 -0.8546276431339364 -0.26483135193323004 1.4972275552552616 -0.4638030220794589 1.8026744944250706 -1.1587337252192778 -0.5209818833662659 1.0390201559808834 -1.812491304283073 0.548332338327372 -0.901939501125747 -0.36386735900823763 -0.7152370405959351 0.6223356916055985 -1.1612066057113526 -0.43101647300697726 0.09039874311068068 0.9647547600465467 -1.6334699422321954 1.0628968307122164 -0.00932200433370945 -0.15126457753366243 -0.004359481198115522 -0.04261843761461152 -0.6873804189077235 0.5843786003797332 0.6606155332190393 -3.4639410113405886 -0.4858630115788917 -0.24877312390313902 0.36292437177606834 0.9342786807537939 -2.044474794831154 
-0.34149188259265284 -2.696287891703155 -0.8097812674912892 -1.4865442517599472 0.8323204694673664 0.3723148305484182 -0.622564220472908 -1.1298523719522282 0.4445197349571485 0.08707037716676264 0.0253269708847266 -0.25254494630196567 0.47810518277060277 -0.9253027635847073 -0.559547222483973 0.15896395807060681 -0.32752746470751376 0.8960942011458123 -1.4632784830281156 -0.5682033770654391 -0.672219788637477 0.3987372135858169 0.7022982511012542 1.166145793726577 -0.7728514093201616 0.9179017687012172 -0.1276144065285895 0.0327686394961877 0.027354185489352152 1.6353466262267953 0.981883390154766 3.88146081256139 -0.10186949562864259 0.5222724493240233 -1.3776757864097544 0.2608890875091418 0.22197723553771131 1.6756142540681735 1.7902638379658422 0.17559888432250287 -0.3747038456014058 -1.9714462882435342 0.35840972280163647 0.597207968929114 0.35908551902184915 2.1154603381287798 -0.3163111528485288 -0.5659730835086557 0.22495417199060144 0.04549265300236657 1.1997980433115614 0.6275974625032998 -1.0371135287393043 -0.6477644924680821 -0.4852017413474646 1.8375556125169517 0.596789344379578 0.17004803876832048 -0.6473531242364502 0.9394649138805209 -0.2842871124592989 -0.7078535701239745 -0.47987952375563075 -2.8518044067954778 
0.08745546541599342 -0.9333168891324922 1.3709653750084871 -1.143309785749344 -0.1957493976501012 -0.8244514240023749 1.1150642815280258 -0.16338281249505665 -2.106279549334482 0.6894819383037454 2.199621378926955 1.278986814405424 -1.0562457516395487 -0.20270570485862394 1.6615304649667593 0.7032204312345237 1.8669758407507602 0.1923140178466748 -1.1578365585091468 0.04816477235191854 1.0958293049424097 -3.037191561515104 0.5678419517364915 -0.6167362594861681 0.07424388699601081 -1.850556888809717 0.06767030122566421 -2.5758181516531193 1.4412467506628572 -0.17721467817243788 0.29359466929740063 0.3062614698284439 0.1622408284369037 -1.417210535623025 -0.7614222463924667 0.2514376295752019 -1.2445683108320158 1.061658239869995 -0.5165004705656535 1.388159570750439 -0.24051100093588829 -1.0567944164049146 -1.6239803234080112 -1.533881745487757 -0.8698273536697735 -0.36708404508338754 0.9961339089543959 -0.3965941346181012 0.6189544016209388 -1.7852598370606876 -0.7247622118159011 0.27279818761805535 -3.025367024132017 -0.551588668188965 1.4298461170028065 0.5602848022440775 -0.1589103259984345 0.06602482842910702 1.774190672822209 0.33871869887569744 0.4616296394883755 -1.3224798034701757 -0.25168785336312666 1.3285968263693901 
0.03274164237819504 0.15599807850350894 -2.9919779172923566 0.3826711030388096 -0.3824012127524527 1.7752345586927474 0.17036418291872027 -0.19340542228389024 0.18997455938904914 1.687157796829857 -1.0248021774409337 0.09702639574882965 -2.1481916563829153 -0.02035103426301444 1.6517680343033792 0.36018091437551875 0.5574745082613751 1.2518695825956507 -2.896420483082047 -1.238348243650004 0.8577561688724898 -0.06085534931471852 0.32248976872965673 -0.010227542044197334 1.050265260381801 -0.08182970926450187 -0.6496699041287118 -0.6055525946038417 -0.8709241438041042 0.08193375049023592 -0.11362806426911132 1.0273381653124283 -0.6132821264419145 -0.3686377913849018 0.7996897443222196 -1.0792875354984 -0.16531809764553887 -1.2453372426818605 0.027087680770195945 0.19791920701186322 0.5289660232427951 -1.1397226636036428 -0.318561109265438 -0.061697199229803004 -0.36774407874354464 0.03756884828326775 0.09047297590017483 0.8323793949828717 -1.3728585405099136 -0.019508130597299635 0.27446289669605034 0.6087315010631008 -0.4411870369389644 -0.46902123473831053 0.33298610138526147 0.6498099903433547 0.2202634899562897 -0.1079213094774157 5.103957531105855 0.36180529515565846 -0.07306751308453868 1.3444862674775326 -0.5051097662586688 0.3002338765482195 
0.3341009912217889 -0.7794697335964653 0.21253323659312998 -0.2597184131665573 0.9618921782733124 0.1358940090661078 0.9749483171958679 -2.91528607643489 -2.393018685714355 0.22615940757345887 -2.123507932199636 -0.0754795704680119 -0.11365057066997146 -0.30625181482558733 -1.8350223436196829 0.30240323568966176 1.4843645255548763 0.4263707397048323 -0.7088655896917816 -0.26335495309689694 0.34552696342783223 -1.6384448091718542 0.4456095130343014 1.705662749119438 -1.2371607517748764 1.6053861647669483 -0.10398071069307872 -0.7875553038335716 -0.4282826997597491 -0.42189441025141416 -0.3844702149798376 -0.7737326236577265 -0.7153063025918264 0.9356046033252025 -2.8389534292315353 -0.2994492725859315 -0.964157385639809 1.3510179661828035 0.31346637139277256 1.2119285631340087 -0.478512018748774 0.06025941773117981 0.27090969958285455 1.4832571132560692 -0.3122494007151527 1.2934158885868254 1.2214182954568766 1.5088076142046063 -0.19936625141791423 0.7184189429903655 2.3400520924190675 -0.5360358906953958 0.0005189894524164336 0.3934186241356965 0.19209782060515676 -0.5326029330157179 -0.4606865421507756 0.8845957864169375 -2.082135297464548 1.252317539261837 -0.10712832245568739 0.3331036264201691 0.09371772847435518 0.5001099234665488 
-0.28294619250122144 -0.07662694856608813 -1.1173541319978104 0.8462054441613556 -2.5839860326733626 -0.5965185483282742 -0.6382907918860847 0.5092746412473735 -1.4033165740408553 0.3628680201946657 -1.2783964891809703 -0.6010405492073414 3.1952665201191364 0.28250663926447384 -0.6618711083807853 0.6852302974908332 -0.06821959277748532 -0.11994640120028893 -3.510794365635569 0.49613822920672396 -0.4764211597368392 1.4369029997250553 0.36736686834962295 -0.2509135087038844 0.4512539824073283 1.3392074246096368 0.641509666165041 0.20489898358372152 0.2576332351712934 1.4152024013742472 -1.312246155522883 1.209329666464574 2.455855541382261 -5.7927961779161725 0.2666016870650799 0.862185097459211 0.7130743125105267 -0.8176237508166364 -0.010904994903869255 -1.12067704367132 -0.03302467376794438 0.7733214391845559 -0.9415784042542933 0.28416228930119236 -1.3217333020394724 0.46305606623369366 1.5854223131594736 -0.35761376416428436 0.11538125363074177 0.24626981988638266 0.20083240428416296 2.558360463861194 0.05782840052524927 1.468384414100283 -0.38297563414035596 -0.7070285416631145 -0.31500257986070235 0.438988615240249 -2.344597110924716 0.7893992921509232 -0.36574144465735337 0.559651149511686 -0.11705127240075272 -0.3184469023623722 
-1.2578057398071023 -0.2156979151707284 0.043629710411891065 0.4476684440031797 0.5162395119178645 -0.7098095345442684 -0.42447376268976966 0.7039195946688508 -0.48094304899986356 1.8759025983126987 1.4595803824447564 0.73592964880557 -0.5072367173151568 -0.23432670152990795 0.51158074359685 0.05643912786872924 0.4742920307218322 -1.5674041765024744 0.1875836194890626 0.14643355562659632 0.8342811037325197 0.4602993957191968 -0.9891776732601391 -0.35141433830152635 0.7540196412807534 -0.3131862836798744 -0.2738890165688261 -0.7790927625638386 0.06783296500193274 -0.5753645445569084 0.8367709075301861 0.4476063508966702 -0.9160345284914798 0.808546930736711 -0.38323803739307105 0.91355440924857 1.3589797454183465 0.34162904470150063 0.550710666095833 0.33210566649902384 -0.33193560852852105 -0.7685744522044237 0.22919997115709267 -0.9495783306318918 -0.4677673268537475 -1.1905340248947365 0.3661894297969415 -0.6839184236872008 1.1850648082312878 0.4354148295024669 -1.2239197926099645 1.2909174634965936 -0.3430693204743308 1.4313691698452187 -1.257941337523487 -2.1200410767408466 -0.28494273056362956 -0.0707738772610316 2.3177723622394417 -0.12178877081267843 1.8082768967336549 -0.20297493894933763 0.2618038920681277 0.7482501467080132 
-1.5064330820404115 -0.06871960183891118 1.1106950515326208 0.27747094238429415 0.9693034822049681 -0.03356383816227509 1.4632649976806003 1.1763818691550203 1.2571319341438725 -0.553506568609752 1.654520970353546 -0.2795627767386526 -0.7095511945346501 -0.564755034792488 0.3135716320503821 0.3100962644198209 -1.2988629700906096 0.39439584304513414 -1.1639878234882644 -2.651976755695543 1.69825662791675 2.1450569792132126 -0.4672677131626876 -0.8921264761503449 0.11976318684566846 -0.4068566452121731 0.08571385860199167 0.09858810518924911 -2.5008960164663456 0.9706614046648212 -0.17125908694359912 -0.24838774437913722 1.2560856168481824 -0.5931561278226124 -0.92440323131415 -1.646413094924559 1.4764833756514655 0.2426954901483951 -0.0930094662905799 0.946177140753942 -0.886107090696277 -0.9985119726411367 0.15143825024372737 -1.3236484899559204 0.7298863828612976 0.8870576973615505 -1.7926362337525759 -0.9004037161863495 -0.7666270828881401 -0.29940932394654796 0.34296546735484645 -0.2408087342575795 -0.78979053139707 -1.2293186025031717 -4.0301655972979225 -0.9454489951837344 0.22311659802081266 1.8496966133424133 -1.03293761697587 -1.2529052877206515 -0.10509625758777806 1.188022925063133 1.3464636100073029 -1.128892903241003 
-0.795921511664594 0.4292626852898041 1.82524264772393 0.9265772919787523 2.0609817988494106 0.36580676285424274 0.850046205939278 0.336286444965196 1.0710375821649563 0.07971375431835387 2.960155865456494 0.18610772965951863 -0.09164726165995929 0.10940024607394126 1.3046464627715981 -0.07269819796552864 -2.010135595595326 3.1173461520423347 -0.38924126088007627 0.5908199937656993 -0.6036316812570871 -0.5186424720921775 -2.905929061050488 -2.2745972283861984 -0.7245554477823914 1.1845461431291502 0.03172774270594382 -0.3312565736588071 -2.88128392453123 1.800852345601562 -1.399669475501907 0.5032083334969092 -0.561973859641304 -1.580761957527486 0.3639990658514104 -0.04190227995678196 -0.5748875389613979 0.0555481188363072 -0.058808288156119784 -2.6615781672019843 -0.21693392457462668 -0.028845940176404534 -0.6599504319698903 0.5635662007558346 1.7348624112098825 -1.8459506603014246 -0.03419606412676626 -0.2919983855534811 1.2395405294666932 -0.6804166659096594 1.3056200368194062 0.26638813331131794 -0.40040141836922477 -0.5686037393186983 0.13815052858061486 -0.21059949513627577 -2.367108283087602 -0.30321080409537665 -0.8913890433041355 0.90597311585004 -1.714356320436195 0.6802825293129281 -1.9486253031827854 -0.6570435190551746 
1.7146567541302355 -0.185711194517457 0.8108800288879342 0.0008556336776548894 -1.33982924843605 -0.01473866469982703 -0.11809073784488631 -0.5033218566239637 -1.4249481214115063 -0.06215934859689844 1.1714277912474078 -0.10738491514951878 -0.36566656646196105 0.05073622912991037 -0.4947459400839661 0.6730487615441724 -0.49669272651345947 1.6320558376259624 -0.13238634000802474 1.416595659684289 2.8272588393889637 0.8633183359931302 0.9615426229635499 -1.1963641199983075 0.2633908700169038 1.3737020113183849 -1.373213969124541 -0.3593754744032403 2.335343329615805 -1.663986676210097 0.3686489121278505 -0.7719319316600712 -0.11137728488262416 1.4669726743922842 0.3804024451886005 0.4749547597783632 -1.0747694959519314 1.0635798801729208 -0.38804052506682146 -2.6993388955850475 0.49592078345591417 0.3910086555487315 0.2578693974647119 0.6827263270143334 -0.7009413537097758 2.4990620302962934 -0.5779582397909757 -0.04966873132501296 0.17680318398075373 0.7295437924454418 1.0518375291370587 0.17220285031459215 0.1642577705703438 -0.9723431779979694 0.9547182098984685 -1.376743795305915 0.30251352237401785 1.0208275434114003 0.19083042818338616 -0.7988080184810006 0.41317768855135945 -0.40717681176669573 0.5314411463766364 0.4783967530000422 
-0.4755013701655862 0.05043006601009752 -0.707019256316619 -0.26980653087537293 -2.0015086487708547 0.23263586438834713 0.05948084546638159 -0.6743602673955855 0.6314986401368246 1.1864964512486236 0.3841370004288195 -1.0102480652869923 -1.697238549869564 -0.07249955711714559 -3.0086312974192095 -1.7910788114858323 -0.054624226609247185 0.5428168175445363 0.7646936178764099 -1.078814836817531 -0.9162993586454216 0.25536037281555807 0.29404451598806103 -0.6732080245495566 -0.5114986509329909 -0.2960757414042336 -0.10727799160698247 0.17085816004142484 0.6653022620759776 -0.08927607798415037 0.56748163331803 1.7238916354138105 0.4847817476619499 -1.6926267330754738 -0.7111436323816079 0.06819286254471703 -1.6451338822914428 -0.41922085700685985 -0.7312234292076866 0.5245401919079652 0.137477404238807 -0.28967671460405314 0.1266343679609455 -0.022713632038226076 -1.834615514328147 0.21679056473007477 0.2284746027220952 -0.8581133354966535 0.09801598874320776 -0.27670923391539537 3.52387272059546 0.9575299011028502 -0.4891799469496297 0.41714462245784967 2.0380591917415436 0.8539825289813574 -0.03600616512844267 1.4035441743077617 -0.12098898722058331 0.15119105800460966 0.731455086746877 1.3062600944131835 -3.9228856476502822 -0.8891201960399577 
-1.5061195789602868 0.12135448867105457 -0.13023806847530184 1.251825419307237 1.5561041982603465 -0.2215858608015217 0.14142924967393294 -0.33933892134539256 -0.6734975206279855 1.3335078318713711 -0.03357501688245277 -0.19567144445498308 1.1204874913006195 0.17836758063941305 -0.13012047789923922 0.39362899747169056 0.20256996238264216 0.85699265144956 0.9294887244410706 0.3159298394687735 0.19179547874884448 -0.27732729537598516 -0.4750400339894636 -0.24211369020482879 -0.321213386091036 0.4203081264721921 -0.5340809750905618 -1.129974050355176 -0.19112635427963096 0.0252000813832387 -0.32724454435041833 -0.6769686055291425 -0.2559582958943059 3.0000523174201716 -3.479912246746699 -0.5760569978340913 0.5270161916705558 1.0620921824726908 -0.1885160147984863 -1.5361745734171095 -0.5622896786745787 0.8471224965178662 0.33669206353410325 -0.3674351021677089 0.5732933717464422 -1.1304735095306848 2.3758310542024077 -1.3485020391129343 -0.3048026971855415 0.32647432755704914 0.05998005292173758 -0.7332766732467545 0.0835974650834618 -0.07579981815281978 1.1771927493218792 -1.0204531556093117 0.6775026549410395 0.2487512269008645 -1.0304220401343414 0.3186283622327462 -1.3567523401474708 1.2639191454525562 0.6666505943623325 0.9307566225142426 
-0.31849662247936544 -0.19157481389167055 0.2957841877637498 -0.43846453903993565 1.402651845337488 -0.06438922159257852 3.2702709226867275 -0.21640362136188893 0.6084405912006107 -1.2057792906431715 -0.19451384464068247 1.3133120286213247 -1.9981713323517556 -1.4343316999534261 1.1164328702787938 -0.07431441290436659 1.0899652335922574 0.27462135186466363 0.20884220141130574 -0.10494499741467989 -1.1075629728308243 -1.1655466469635904 0.13298013251315766 0.8374170506364403 -0.10084866216351754 -0.2511442677899839 -2.396441891200489 -0.5583762409959375 1.294346216103641 0.23179457792718808 0.45904284401316064 -0.24362829024506635 0.9957774903116737 0.5334495835729103 -0.4642360279567747 1.2364083573466538 -0.7648950158689695 -0.05957487821780211 -0.7244254482009883 2.2091533956861342 0.4191606887689018 -0.13926536464873876 -0.3370754202286143 1.8148328339929962 -0.9967389952053038 0.6498064249366533 -4.295509601517811 0.5826501257651656 -1.779991542637166 -0.03181034717948593 0.13639907232120993 -2.9616749950600036 -1.080564295088825 0.9301237532282395 0.6172357714781725 0.9896571992675532 1.8475186637283072 0.07292761940630611 0.018963316596065857 0.3477458032593451 0.049340891696780645 0.5485941382164818 -0.8989317603280109 1.0184247194463356 
-1.0736348149258461 1.2962585274491705 0.8632660373772605 0.456607006560149 0.8960185079631232 3.6657754131657376 -1.4138539012030351 -1.7388931567733585 -0.3118345348156667 -0.8266277198299271 -0.9775263673596988 0.6774232182643471 0.37169912918574904 0.7706224187388648 -1.2328153219625766 0.5824087978808437 0.17619901231173585 0.8106511942009466 0.2107908919768637 -1.4298605996028282 -0.07906971787187053 -0.2759444450381734 0.15195719031811947 -0.5783045560978385 0.15474413770104833 0.429620814233889 0.30442521061015565 -0.42530553466455406 0.6314709634203451 1.2878880247060933 -0.5904771183215995 0.6778078501588854 -0.25538860340169384 -0.16165044783475258 -0.6501771510309058 0.7838919111261945 0.6207266325792856 -0.017087701527701556 -0.33301440692767553 0.2533265181718026 -0.3976052183796106 -0.2812270224923399 0.8577115385086312 -0.029654417750569147 -0.5879673478786698 1.1052529553392816 -0.5390227071791251 0.4200347460656843 0.3216910421062348 -0.3928443467450722 0.46298412944172895 0.0792001408944964 0.7097657217908685 -0.5353072100941733 1.3962559282567724 0.7574879161781263 0.7766866444364429 2.4801942314044765 -0.554925652837145 0.3365489680586 2.647138652988805 -0.522774185311707 0.6145252895577746 0.29712871466539365 
1.3239550511221 0.1771591162885886 0.5823047015031778 -1.3560408592345083 1.245689037455302 1.2910399237128451 0.4130700332483829 -0.6204813635415879 -1.2806465090278847 -0.1703113988617533 1.247385858788782 0.7926229787399861 -3.0260457850254032 -0.4751853095918079 0.09211423514816643 -1.7295070605809006 0.10358816547261414 -1.5651044823901819 -0.649987365770039 0.09366967714120454 1.345285906975977 -1.6773364188843418 -0.15871197475390275 0.23035718387025816 -0.30043079397895267 1.4151036644618742 -0.032154065514734216 0.8737782304109544 -2.0481210331720536 -2.663786162333995 0.9624816148302996 -0.14546184197945128 0.11731824518285153 0.5293335234828279 -1.144795500129651 -0.27275602979985186 4.88590650274539 0.6512909306430801 -0.46669471541505086 -1.9142789873054067 -0.4321457061229677 0.9863036802746818 -0.456887446649409 0.4734141265811951 0.40251538956262467 0.7943797948782447 0.9463921517072035 0.14737896570328238 3.0800906876535614 0.31629875050113904 0.07519542287067806 0.6943201913226577 1.0105408419476334 0.09733782740345996 2.9708904589527956 -0.30714638166117003 -2.1658050706976097 0.15070097284437056 -0.8048438565807002 0.2796922438446803 -0.35788618220784146 1.6405070241454134 -2.755550136201241 -3.083839866403112 
-4.952362433463577 0.38794804309960873 0.7571571290865505 -0.016590450060741786 -0.44246536949220666 0.40030870768230437 -1.1731267077953023 0.12198706694732406 0.034181320508295164 -0.3484227969622278 -0.5237472913858413 0.23926844128782981 -0.9089248231550968 3.94584237905206 1.511922476442507 1.5823606139774633 3.3406253375142394 -0.03516968445413032 -1.1930380541423062 0.4229900447093742 0.047272693704406045 -0.8227793293547829 0.8171237332116654 -1.2532105529692512 2.849298170987891 -1.0942187075372498 1.0554178282570286 -0.24778888896500897 -0.016036926742848734 -1.0620624887036882 0.9438812261896159 1.6068434994429555 -0.555768995327011 1.608743450135205 0.23521255178503625 0.0677999862993457 -0.03137950430230077 -0.719875402040768 0.24848163955350036 0.4496882351045236 -0.29000675268257786 -0.5776119333792813 -0.49221188734543636 -1.399789617181018 -0.613857087831488 1.4667815731890048 1.697591476473176 -1.3777061946802975 -1.7411791706976658 -1.5543600392231893 -2.3608662046907103 -0.3451586879972249 0.3325756733749523 -1.1311366167709238 0.12698339468341613 0.6876521274916363 0.9392849738544723 -1.5569278555113057 -0.9054576801468486 -0.7874808957880995 -1.1165831767342607 0.8844252726446847 -0.07786453024576133 -1.1860627182074917 
-0.09101779880446943 -0.4670580940203739 -1.6866734548068918 -0.7473341567337219 -0.8207515426457542 -0.2652682484964496 0.3514302563984763 1.6521327575116544 -2.4575220530010373 0.03254099703269382 0.29419258350288846 1.0189004780972442 -0.37269027681527744 -1.3513405198642634 0.436638693238321 -0.6448237862102368 -2.0224729908953614 0.91450231294594 0.284528707804783 0.3953970699098749 -0.03508856096875963 -0.5614946533532583 0.0016062885328688656 0.2833548412564764 1.6300605201477965 0.38026266475012266 -0.0461149722792222 0.055942027699738134 -0.7056530570921844 0.4232491512334814 -0.14155836401656854 0.701426317119478 0.7119751052131419 -0.7423149894438892 1.2694693526935685 -1.4320414748114036 -0.9604078489876066 0.5990040875714798 1.5135332218140616 -0.40259519596887083 1.6073405835943146 0.882225753030187 0.15332633682326555 0.6260884009834393 0.4369762427275486 0.024925055214076397 0.5611081518860632 -0.6903244864522274 0.1629377458390865 -0.5322192787527126 0.1421243590623098 -0.06835864242751973 -0.4021169762601591 -0.9142963237938407 1.5590841662025237 0.8369591926988291 1.4424490970861392 -0.31452238342540123 0.8155487449883 1.7672010933325497 -0.16045842780038527 -0.23363978948735895 -0.7300716248745892 0.3134798501377391 
-0.988469126783002 -1.0324557856732266 -1.4562585414097835 1.4885772157604753 -0.3209388923834896 1.2076501884393984 0.10916439172211699 -0.5751887875118576 -0.2594490229242565 -0.23709863090165614 -0.8924232860315688 -1.3391330217950443 -0.4118083760205182 -0.20980388923945198 1.5549329370968903 -0.19783951435946232 -0.2595072029232451 0.8667028220844119 -2.816683996463405 0.4838360195058215 -3.924737454166239 0.8058702446149317 -0.8417082470997052 -0.10039517768630694 2.4387204254216432 1.0711895432536482 -0.04080060728844717 -0.6430245988651773 0.9086425789871964 1.6824175520586422 0.7766346172054474 1.5690907254157644 -0.2619916499389476 -0.43367123380103884 0.26554181245666064 -0.10945839530781994 -0.9591391475788893 -0.2937407990948256 -0.613745332995787 -0.7733540577860347 0.3888598244382611 0.3361675606995487 -1.6521119008916036 0.3624160565613821 1.085548031337693 1.273936814325948 1.0493990485416882 0.7566640148273356 0.31623263314177985 -1.0786778859323238 2.1256251300210947 -0.9388871359920621 -0.569020227845743 -0.5918814125522195 0.41207557799732797 -0.6207904679057747 -1.9126215298487854 1.2964976091643357 -1.2166104750199842 -1.9258404002014458 1.3409912374304127 -1.7503442170494952 -0.1220391600991011 -0.15540270980313978 
-0.045827593561350945 -0.7018773555187182 0.935016765237263 -0.02726802625739357 -0.17971921983755126 0.29068504492349745 0.35235035797963465 2.4412672474378776 -0.9294343481787165 0.15165782383100618 0.9078711413099696 -0.5692440466607336 -0.758010529643424 -0.008583899336549817 -0.8806428589607467 -1.3396013128326598 1.1744885502712894 0.44363451499764717 -0.0565188473866382 -1.6145645488618512 -0.4580061712481355 0.6616467563207497 0.5212417286401513 -0.9997313171171206 1.859496833515878 -0.22655066505383564 1.7383007051759645 2.5650230047513665 -0.5489222608789619 -0.7898125460642427 0.8243982055422694 0.012406232898954657 -1.5527053395001984 0.6247155190921219 0.3710308349764949 0.12054456675230601 -0.4283537761829351 1.8581395799878981 1.1707355614612671 1.1886901872871862 1.1166150455622967 -0.6966439172560638 1.185577068139819 0.9203353129752574 -1.7356367032064306 0.7471937967926847 0.5911308910737745 -0.7053558014618011 -1.4660949268146266 1.3372431283844688 -0.5669797229120889 -1.8598680052577612 -0.34424689325192226 -0.2232486961924695 -0.14207519155814619 0.3531809559386913 -0.09900088487165123 0.24441875346324304 -0.08808842108370767 0.09057061090985769 -0.06930003132187984 -0.04379376509195148 0.014593720302270899 -1.084069646112384 
-0.5670547154612097 0.6981940387268333 -0.7268418654262602 -0.0649448310926856 -0.30546043077370066 -1.114005408933359 0.8582750128475377 -0.15644318155087855 0.19687937175504358 -1.3551881598753464 -2.907783742453714 -0.01899446872766369 0.21275094723759871 -0.40383944569260544 -2.1572191861668557 -0.7518195754466025 3.316684080438909 -1.5249690702253949 0.4499576223410083 0.48011960985673124 -0.2991961995323296 0.10988444464096732 -2.829280769248806 -0.19096376867976741 -0.130283620664245 -0.050444454145192434 -0.43986848196008177 0.18065329877084788 -2.033546371072373 -0.39144113477015124 0.6218260376330613 1.384569102607492 -1.1294273620858448 0.13618153865640734 -0.9519663866191423 -3.395818919394776 0.49365569570756035 -1.1772368701096505 -0.937495751599678 -0.9581745765088215 1.7087194384941253 -2.016876601742678 1.7901164933265 -0.03900669728201267 1.0213435099865016 0.06185910508323341 0.35865844711622974 0.864391749625275 2.4016632697415043 -1.0528217974132514 0.8474571875134209 -0.0761640538279489 0.7671172875122392 -0.8997534669405556 -0.473261028795985 -0.645963350715491 0.25200737851269933 -0.19724273990045046 -0.2621565743876304 1.0879194361073385 -0.14161282965803224 -1.9891343914345845 0.11924059227771788 -0.5674531609928376 
3.216959685443407 0.5535569255122402 0.6092768524613391 -0.18591346862900443 -1.005113164134702 0.5007853183600566 -2.702333331757423 -0.04171029865169544 3.5829519523250024 -0.33138637333903354 -2.6227517958283513 -0.7125931611242937 1.3808478990409836 -0.08573094963925151 0.824993377978922 -0.9174522432958979 -0.9985510271720467 -2.1869642823933115 0.023110765770422405 -0.8402146946747212 -0.03481944196892896 0.3742044007518185 0.1788694649515121 0.0047363469608402075 -0.378656779618596 -0.4328551709069538 -2.4280646611761028 -1.5199608566908525 -0.7719245959733927 -0.9326670630801622 -1.0101805030337943 -1.1589998327434314 -0.9611894702269536 -0.39636660125754447 -0.38900167442027545 -0.3194537918285142 0.3145843265341055 -0.03645651513061771 -2.005258853714987 -1.4027479448514677 0.7142297801408327 1.0733620703009155 0.7491117732885023 0.14701390230159353 -0.8629144060646541 1.6182492534316397 -1.238528917115566 0.5103558379245188 -0.1770463925308576 0.09383633733568755 -0.4988108280026503 -0.3922362181111763 0.40083399260027613 -1.0806844085563498 0.9232580750754859 1.1788069444181195 0.5232158868205997 0.03503763558345372 0.6153463252784905 0.7671405795829314 0.683185098429644 0.17068107298721086 1.201085726008934 -0.24340990434128063 

0.008050308355081909 0.00868807751258918 -0.008328447641198252 -0.014409110509825608 
0.0066262674264699435 -0.014002243622574354 -0.0012379554216899716 -0.015304690239865902 
-0.019649202702425785 -0.0015494479434581677 0.02439362125477077 -0.03117194789233557 
0.0023259056459410234 -0.006482608839234369 0.009902535636388562 -0.012926085675752234 
0.00064659081489965 -0.004420517934232926 0.022605355069573063 0.027768867267972355 
-0.00859837725252242 -0.002700778284284139 0.0009973148551974463 0.00843813256258496 
0.004871298784550472 -0.014062436508346031 0.0010071862849701705 -0.003085645226620221 
0.014096065456763928 0.010250920129520015 -0.005428967131033396 -0.004001427455720547 
0.015496261308956129 -0.0005961851706025185 -0.004645430758757471 -0.004553230464628375 
-0.005240816973902119 -0.005384035803470921 -0.0129170673051208 -0.003762604562981291 
-3.907485434363522e-05 0.022846032871151854 -0.027023171468716214 -0.005496096132312263 
-0.02034203799035484 0.005961896373142129 0.0033579431246024715 -0.0031016835486326897 
-0.025794150745140916 0.0050044692648111904 -0.0074608590242044226 0.0013781355703330576 
-0.003958244787880901 -0.004536398166575484 0.029735087385916258 0.011789014647075081 
-0.008890142245599381 0.0006636698679101943 -0.016016560770045145 -0.00799386877711169 
0.002788204881543133 0.0035828078987877056 -0.0016004002311926263 -0.002221491010632173 
-0.0076895734159313995 -0.02087401004570345 0.0008066225753993321 -0.0017767544906363184 
-0.0043895018543976426 -0.003558507895967482 -0.028873981581204702 -0.00913885627097348 
-0.010621742587356164 -0.0035552507492769016 0.000828815673404526 0.01986975563180743 
-0.010081457807691173 -0.004424012470583046 -0.002663790257620892 -0.0015127577545941664 
-0.002547649140796933 0.006941758509937596 -0.005739154184934006 0.012619502690257857 
0.0034063273557332426 -0.010512139454285502 0.0003147187329164666 0.0022613326215346705 
0.00022244269315053688 0.0074031188983844165 -0.006649264010746916 0.007921605211570591 
0.00024402160204123666 -0.013785647758183224 -0.017750649877352982 -0.028988052963890055 
-0.0019707610480578005 0.004295333947599573 -0.008178905547730882 -0.0022414113552224404 
-0.01642976424803362 0.0041288649022468305 0.0048969077046758696 -0.006544370756600584 
-0.0017606390470219185 0.0024174925052801973 -0.004979078922967143 0.02060728825094094 
0.008871807264436636 0.015470871965462008 -0.001383621383626197 -0.002629436167641848 
-0.011537103915731171 0.020336569390008392 0.003065498126544876 0.011108344359602215 
0.0009721650153783251 -0.013947126081827993 0.005938483391158496 -0.012590870007431504 
0.0039881906768358885 0.006137251355497608 -0.0016178914697966792 0.0011486243495638679 
0.006695295673905395 0.012870709348009213 0.010567163031613203 -0.0281180034995541 
-0.00033795582585341194 -0.006784140925718704 0.003030899236660438 0.009292933097010157 
-0.0007094029209105298 0.0004073072236307861 -0.003926173531568937 -0.0007872032585507376 
-0.005032110383212816 0.021615055739012946 -0.008614073190086051 0.0015959037627594965 
-0.012714149325145092 -0.024745097906665847 -0.004854264161956783 -0.007976438509665342 
0.022429549787074003 -0.012044609054321573 -0.0010342850552629145 0.0024139197533557576 
-0.004269041155847406 0.005590732560314341 -0.002103256708000597 0.006457687610070007 
0.002332774876055834 0.030151709129877503 -0.002565632110825549 -0.0005269929341725931 
0.01210124920322077 0.010897189356573557 0.011557712020930007 -0.0014456422883399888 
-0.0012478443658720583 -0.018297968286832503 -0.0014941753045101998 -0.018428379204843005 
0.0010811326136059714 -0.009902157936257991 0.00044809661435469156 -0.003281083388391981 
-0.003215021335477379 -0.0027472345678060425 -0.005995932224119397 0.0015534494580525678 
0.003790015171093455 -0.002722927236530371 0.015908930497837148 -0.010164734665777008 
0.0019499851351334357 0.00524774779063266 0.0007650854702697292 0.00855191783422093 
0.003115403603832028 -0.012814201679413151 0.000759626701301452 0.001243655351534022 
0.008529297422965529 -0.021308980699218695 0.0008159999356705875 -0.00015986899667365883 
0.0038447489320447173 0.003769235008920373 -0.021383133264793765 -0.003790125734137585 
-0.003459094439538749 -0.0010957337378756033 -0.00800973478582755 0.0057257156231688535 
-0.0064398713295609495 -0.010454338866045944 0.007177339016264743 0.0009556061275087741 
0.008535079756189562 -0.00514652147624713 0.0018393699321347478 0.0024065941460814037 
0.001619701436971107 -0.01587934274037813 0.0033021006978641593 0.001065765720776235 
-0.0018325228197238013 -0.003673894872348962 -0.0006264504546058528 0.0036121732401165414 
-0.009071071703281225 0.007560406748058669 0.007826390326665647 -0.008314333672638246 
0.004283126914643679 -0.009196912959445106 -0.004912012018510991 0.016710916243377144 
0.0032417239973342536 -0.016746266814127587 0.001112314901136907 0.002592785714574326 
-0.003258315905012984 -0.00832786686519383 -0.013960469974129582 -0.02762890736825038 
-0.017626587328138012 0.004271203266375174 -0.009206987389675101 0.02853858057298344 
-0.003124522099338555 -0.0024286990080972814 -0.005396895779911579 -0.008635434057572985 
0.005593240278207389 0.003368024566034739 0.005982163416628186 -0.0006708367782251294 
-0.010503473676591572 0.0065795728368191475 -0.018299798081080034 0.004346995169753403 
0.002254619202848074 0.0006744150828060382 -0.005672458522786672 -0.020598906190770382 
0.007904456971541313 0.002565542042467927 0.012756920024548793 0.0061816970279499825 
-0.007703199716821414 0.029705867279076283 -0.0015837274306219492 0.005233816312357234 