6 64 4 

-0.6590816627083658 -0.3286958012907125 0.22496435155550187 0.6466802703514708 -0.930486193657661 -1.2808936605577355 -0.7998969964338972 0.5402850474026563 1.1279548250990976 0.5672582786625409 0.5049810830856513 0.6251650710997565 -0.5388790100608366 -0.5474994495640797 -0.2987468523769331 -0.18609944596285025 -0.27232354110208057 -0.9985457892350624 -1.5331850203688389 0.4467083787936017 0.9176352758422627 -0.08172217812506309 -0.2633454968288497 1.6126575808928794 -0.9549139089291873 1.7156703759595633 -0.2761546443487108 -0.4529476389249417 0.6674812004781054 -1.9565849926548222 -1.8486339580115883 1.3268980004659199 -0.3981953839519456 -2.8938356274211494 0.6212389741323626 0.7697364120788691 1.3264224165905805 0.07036982892186136 0.6877060807264105 -0.6371100805070959 -0.12526844041071994 0.3170794721889101 -1.6587567582214906 1.224374926295115 0.2863127333351928 -2.0970520780963833 -0.3547202488077074 1.019770703136629 1.2346712201634942 0.0007533640455051442 0.6055403468366631 0.06570784398829205 0.7764029924138 0.9446255303143806 0.3801820132230413 3.362456118656684 0.5156823207679987 1.0576701308690386 2.0783975388840408 -0.3852946454027157 0.5579968577741002 -0.9883793396638699 0.4858892203107271 0.9680823478580632 

-1.0039339424123348 1.2039547193118514 0.012390997204447111 0.6598186100229385 0.961382527210541 0.1496402484337814 1.5169752892032395 -0.25288127880750794 -1.2291305942489876 -1.6014936194064624 -0.1669294512898199 0.06976309438769768 -0.29697387168300254 -0.1413032380446319 -0.5450899158454593 0.3223392431687868 -2.0143188258034948 -0.13909518572952217 -1.201014990532552 -1.5646118755169294 0.9859046620989419 -0.3980787170484576 -1.2007493634080055 1.5842799604725473 -0.8229930921918238 -1.2045133067644906 -0.4355884711789682 -0.19201700081198306 -0.5536377225523428 0.543454044411602 3.766403050428392 -0.21349772902770148 -0.4136107688743992 -0.051322203327364695 0.7187856572436372 -0.03493077559368965 0.22084618049281035 0.5557237775746316 0.7774693865061681 -0.00948328108985375 0.49942115873136544 0.26787183557782496 0.07169977102968902 -0.2928188521505323 -0.06729796251685036 -2.0046259423385937 -0.06758211514464864 0.46565162402154786 -0.7732009188707084 0.691741376713563 -0.507269567601719 2.27394215834447 -0.6164907256647713 -0.35671761872096064 1.133726967277687 0.0916852402805203 1.8515046939455344 2.06576630750382 -1.2496595101206913 -1.2154798788150962 -1.8087908508917485 -0.07319288359054517 1.2793782365628499 0.5454255896809228 