6 64 4 

0.699493936067389 -0.6776925863369345 -0.20042997637731305 0.5409574319036984 0.7016841857608063 -0.27600229255461284 0.7330089051386109 -1.789593191760066 0.06159685135338243 0.0011072746162248224 -0.7234690480147076 0.36824935672792714 2.4222834698645093 -0.37489391866993804 -0.5788914577539616 -0.24114501658322401 -0.5958129819880275 1.0522237319910777 -1.8804912009911199 0.7684459755432445 -2.032067703921414 -1.173332426959707 0.3991287972587262 -0.4810496699595696 1.6720287206563167 -2.2235421527213286 -1.112246921556578 -1.4591001481141739 -0.10022616031259719 0.5678382333032154 0.6063059779800817 1.2224302119608725 2.1472849370679983 -0.2691293459609776 -1.0021885860661779 -1.8137535018360018 -0.7368663263498414 1.5464259044436328 -0.06482740776885297 -0.3897475790504325 -0.801196540636539 -0.20077421669689174 0.6205439103435587 -0.6247132217447595 0.47344778795212855 1.917463690237147 -0.03863955152871839 -0.04616722953956055 -0.7793754699051152 0.08968883881031042 -0.09217907853268947 -0.06704616847970735 0.8016728597569416 -0.08113907920230809 2.4195769327114554 -0.5788033205401671 -0.8836299988740652 0.16579191496776707 0.5892234163619874 0.4011578035798642 0.9946392852785987 0.29799752805614055 -0.4495979013728357 3.0521663343177794 
0.09436636100522641 0.6700472662189827 0.09238577856528417 2.4196229684534414 0.5495804370699565 0.2448258534007432 0.49688963199525094 -0.6628072593894616 0.3496218095903161 1.0361523435909712 0.03985970398508415 1.5930014013157798 -0.31473631763547394 -0.8391339372627272 0.6690554845527531 2.3532525757903957 -0.5898622978073278 -0.37812386161144945 -0.9173435485915126 1.3669676915252633 1.3141208041128085 1.041448180508089 0.5390847270504916 0.32360057655026886 -0.5294209799297829 0.35227929459484225 -0.5397391551066 1.007851413197017 0.5141063772470037 -0.4896999630402163 0.5800032257315441 0.3196004471869679 -1.9796006384885025 0.9545940690857041 0.09136318966616509 1.737791028497843 0.669727172843867 0.07079613454784262 -0.7323838189330061 0.9352870182966748 -0.5341222997875407 1.693254902222018 -1.3827558983651707 1.253569612675176 2.121708807563385 -0.02751316516920544 1.0099699436578649 1.7675625101037948 -0.4017516934618735 -1.0510548239469957 0.005072519043270464 -0.00706347661001023 1.2426547180393934 -0.43769340516003163 -0.5079575342580805 2.3667511780412482 0.6475533016231416 -0.11057403833404736 1.3562894535621093 0.5855413864866599 0.07049870133674292 -1.115831132943471 0.05790965463548944 -0.7068316920965318 
1.096387293904684 -0.505369192827201 0.1160010378289587 -1.2267975150315873 -1.1329823425024046 0.5788272204392856 -0.37469596042930814 0.5503137431933441 0.13825334076479331 2.154176433862058 -1.1668887294810113 0.2641857114616358 -0.0075302983443900325 -1.99228196573466 0.9842006737472132 -0.5995263904642149 0.8787607731140344 -0.8096475892746889 -0.1520504766745145 2.9437345404668953 -0.2545631395503467 0.6765187696598584 0.8473309006109475 -0.5513634049020966 -1.1936363222230912 2.0901584539677054 0.21498470649337137 -0.4671331251351984 -0.19817753444008226 -1.240741183550631 -0.05400961738778135 0.1909072202242235 1.2298017380147157 1.4858186999213918 0.8437669568581091 1.7097471893673912 0.20072612298915984 0.03799691267880574 0.858600970115688 -1.906590945273732 1.0472935272509247 -0.4442867089594012 0.7447279029591883 -0.9291651074933913 -1.0958476777205644 -0.32784881640988456 -1.690922977471748 -0.7598526827779151 -0.4858388038519193 1.6683249600362071 1.314301163285034 -0.1851011215125516 1.8933220182272128 1.1582883274261728 0.3205999015627516 -0.7434294392316837 1.0681667197374038 0.08052840177411365 -0.022733831551800827 0.8947419826744526 -0.9529427809949784 0.01884327836598498 0.5912013468407659 -0.6177319409386971 
0.5932256592932791 -0.1312931435748625 0.7067016768828864 0.2843765859449235 -0.11125063621259157 0.43963167412490023 -0.6055807052328496 -1.1838952441414772 -0.14972796658394735 -1.3165577002829831 1.2610916352530628 1.1339813005132127 0.1141721083562836 1.2648990297134726 0.6910972792823996 -1.383116407719788 0.9706103659058694 0.08602566009755394 0.2379107897304095 0.5015135423870924 0.2263562886767707 0.2233897110678111 0.3170987436176741 0.4911145153274536 -2.1269233052135705 -0.902484593301827 -0.17596223771698397 -1.1784422809729513 0.9083196610388928 0.0012517254017322922 0.35787306431580923 0.09431500464181093 0.4876604254520546 0.6281046948115596 0.5800086456307451 0.4361170255726333 -1.3011314886910088 -0.0776938726293293 -0.4953483917915807 0.8465871321300781 -0.26639303338406145 0.034089526735165396 -0.6146549290145531 -0.29832001209205633 -1.3624748563553593 -0.5330089477267012 1.6108771327063605 0.49902060702244 -0.41993624053089673 1.3006148766716645 0.5856939689122913 0.806551827367161 0.10150222740202165 -1.6000222804916078 -0.7486003230783836 0.03751188883118071 0.7491448991215592 0.31377873820134555 -0.3111113456145805 -1.0261209158583644 -0.12912506910310503 -1.473551641934255 0.8979141550024228 -0.6615370609220935 
2.3975212840264253 -0.3770584739873729 1.801738851575722 -0.541362637985872 -0.7798138621711286 0.006738089535393632 -0.22203871035037698 1.6057114902171106 1.7881174118798264 -1.205963222490437 -0.46010960237694914 2.809429847306376 -0.19491545681779487 0.7747780090920044 0.2005348236217023 1.6382841135890167 0.6722425620766193 1.3867370417366793 0.5863696908291584 -0.38804951655242 -1.842949322247451 -0.5823472402038058 0.6081920717935154 -0.5468641817259872 1.446127965776179 -0.3906095303239119 -1.2044930884050338 1.6301489228420665 -0.8562092042196372 1.4477815925702773 -0.2964367049091598 -0.29445326183979886 0.26326978693443587 -0.5427055268605352 -0.830045467175225 -0.889511248073001 0.020364073523295195 -0.060304461003298844 1.5060875186229876 0.12416334436912725 -1.4821446513849055 0.1311281259167757 1.5677740599323642 1.7609881702583294 -0.3458669724761187 -0.5748614876469895 -0.34713476613836164 -0.27156448747010936 -0.17925012212196353 -1.6262106884634142 -0.6126106828221247 0.006425375234721004 1.3787888533973813 -0.4701633461779213 -1.3964506212078245 0.49253849335034466 0.9143865797948256 -0.3091786871442046 -0.0042137272784106596 1.449075494418936 -0.8707345433142141 0.8940798668913073 0.4013845100363747 1.3962542005110927 
4.211161153223082 1.302375144177263 -0.9521976965645024 1.463166054957318 -1.5257737943562797 -0.02049694835220249 1.3697215523116952 1.7318547137766647 0.587015922024726 -0.7431685660452126 0.15265187761841534 0.3285054781849971 -0.4459125685310113 1.1362816863839358 0.7441109698738815 0.14687772426799503 0.20779353327059533 -0.6936429201964392 -1.1009728870640751 -2.1411163300432197 -0.3236465121902301 0.7295673449527733 -1.3237149157364483 -0.731126318457298 -1.7911190123683591 0.9228796522399774 -0.3080816473401044 0.9324078628985057 1.1120851035423949 -2.1922423664758948 1.6812382261629828 1.4625185372489153 1.331182062352544 0.2962609645737819 0.8748398359209633 1.166095580054089 -0.3624740371361413 0.31873544622301386 -0.9646497949822669 -0.3617862402180939 -0.07673079707578741 -0.7362888390116207 -0.9660933905208999 -0.06276650197634571 -0.3757466547174328 0.06648578105660302 0.35996292328323565 1.9030329797909311 0.10752339686018482 0.35392070574017104 0.15836883169823146 0.6270517740884544 -0.5623148148840796 -1.4074006686445564 -1.020258666380425 -0.12640572667115033 -1.1745777700273903 -0.6389816166492069 -1.7206949805263205 -0.9531216357517716 -0.4653280777408033 -0.7244802153736415 0.7025795069805898 -0.16666146093954223 

0.33256275583310735 -0.24962263140168178 -0.7027143836718386 0.5715669642686909 -1.8123172263508356 0.5227340856516349 0.1627969431378201 1.5708540134794355 0.7129694054480714 1.5389807917764677 2.867252989953457 -2.232659129304929 0.2383868297164323 0.2202639405554466 -0.4224553292053763 -0.6768452799065211 -0.39023435352917224 -1.8744067956321793 1.0503793995235498 0.10818755143365581 0.10511243448694407 -1.5194999630557737 1.2233190153746138 0.1531859775934175 -0.9808955154859929 -0.7072051569325005 -1.239946239497756 0.169849141268833 -0.6046510320864711 -0.010176454231903859 -1.2493090996654905 -0.19411660002329065 -2.5876832367301494 -0.48806463159029684 -0.2918800682194855 0.5810086543898311 0.06385930472281365 1.4442078137267316 -0.02710800927346925 -1.407092168946144 0.7639988817231937 0.2347440304371444 -1.517527823027284 1.3933517281262222 -0.666939442050996 0.07648582691718138 -0.6298767212472655 -0.342267333296237 -1.073991087602404 0.9549336813389815 0.8754814440838988 -1.2629710998573664 -0.29915776440714714 0.07359176315413941 -0.5467228581837673 0.9031492988024516 -1.5756698081729117 0.7594941319227465 0.4578475282271253 -0.7851843701914252 -0.0798282904197634 1.6451272668095598 -0.8490938562918091 -0.4269809402067305 
0.3339192962172015 0.7375465537526681 1.2683145764138062 0.9946388266171521 0.7667552433610224 0.06324607724490916 0.9079943569002663 -0.8196435745584326 1.5804406489068148 -0.3712398350105274 -0.6580893620419429 -1.3636481846819497 -0.43019593796840255 -0.4910607044836278 0.34590063913090285 -1.2841937588186072 0.3345969750567455 0.23736916396697033 0.19020645846008158 -0.6273257335834022 1.0388714917441753 1.539325341273576 -0.1956632609756174 -0.11930008887568441 0.1256555264221245 0.7851077878663649 -0.10019522378551379 -2.120746940625319 -0.1183288478648334 0.34204491145722493 -0.16093228491485242 -0.47006645451528384 0.9303115123089266 1.8997042791445415 -1.014689009136153 -3.188782105495089 1.1285080672230285 -0.7315098808087371 0.26363968321182224 0.48318125531156514 1.5973093996865189 1.331924624777597 0.11419431148993733 0.01588678862147667 -2.4537466616805705 0.17924547951269107 -0.8855642575036147 0.05447541058152816 0.43035093210304176 -0.21149095876309876 -0.4499026846557004 0.49169259017566797 -0.5684056718060135 0.4211191575826711 -1.857532022731249 0.52652943885831 0.7459282426923373 0.956480167102113 -1.3076196391161434 -1.0061332655070887 -0.8971133764397173 0.7200356587494678 -0.42254281276313876 0.629642549107907 
-1.7912849266657418 0.025061602321799513 -2.0785831471865364 -0.29559768795893804 1.485257912167458 1.0827757639926843 0.5751128701351442 0.23726134007918623 -1.2572669920819475 0.9459545813039483 2.0378351670778287 -1.6645889881143991 1.1416584573007635 -2.5960568820708825 0.026818183572711988 -0.6566814852468921 -0.4526722847586843 0.24343807954347055 -0.9639728345905552 -0.3877658471079998 0.07270629288359104 1.4029433663188717 0.49378333192526586 1.922462077642625 -0.14960264068532117 0.6354516269810576 1.5651555855560855 -0.33638012019198704 0.9274118035144652 1.2319866477057575 1.117173069176494 -0.4117891554459216 -1.1491125228023436 -1.2983817582461141 3.2983340667093706 -0.11980532701584914 1.395178031097612 -0.3650956942430793 -0.7241088240711694 -1.7170190493073836 -0.6544205522117964 -0.3136574695614339 0.5377160934567787 -1.0781776765977935 0.8356921165254827 -0.5517916409432082 1.0769192520819044 -0.22059694188395204 0.06059217230811892 0.6371418710465733 1.572713697822081 -0.5419945410595827 -0.6529059577714076 0.6488499231255164 -1.890751303009532 -1.027875768309163 -0.4056149330352278 0.8920942872043107 0.6128524297305947 -0.39217882023925005 -0.44434934015335126 0.6707735572801123 0.9158406926154141 0.34852439595346124 
-0.06652920035887333 -0.11658825014431987 -0.6819939001550152 1.4098184812734182 -0.7206636222564946 -0.4214638213452164 -0.7318320316778403 -0.03327126128528044 0.06628946035698831 -0.5541116587310742 -0.685942001574721 0.3943231106501427 -0.30088666712969125 1.4259100412062309 -0.69084198889694 -0.3650972311150625 -0.44008232961278076 0.5991883493813597 0.8012322982355845 -1.1961020213164923 0.10336577253148205 0.21438695439487193 -0.26010872823744896 -1.1097020880636572 0.31130549446117367 -0.6675031860526089 -1.0557296264724638 0.43673865675473084 -0.5749604766174481 -1.0963645033694485 -1.066796986768143 -0.7683523086490345 0.9455144349624991 0.33421936775956324 0.8323144360568423 0.7653936241681994 0.8496743300882612 1.0148705235977356 0.3491559339355467 -1.8247687600329625 0.8158531640440471 0.615974623726882 -0.5234984138372403 1.7710724863638594 -1.0105979273489978 -0.12094078048169404 1.0927204283459968 -0.35031235654042436 -0.9881846591919222 -1.481741332434885 -0.4232815227602098 -1.0232970051649715 -0.04905573595541457 -0.5402996816862101 -0.07342591025120535 -0.37247983497621084 0.8865339025419848 -1.4820793469081839 0.5149175956174178 -0.009520239105687446 0.07660516763058128 1.0310361951991163 0.4296366480932333 1.1102655222807187 
-1.3969339575139141 -0.8089446361934447 1.2773618355016982 0.35311736279791917 0.854016370155401 -2.1444974403127643 -0.9779346656354926 0.4184922932459668 -0.7289606272581511 2.4270016929856406 -1.108340439045835 -1.059328314073934 1.0402036049640435 0.8764856540766356 -0.5008395357025321 0.6297561691858603 -0.8537974691757896 1.4119859591315929 -1.5907980100879842 -1.1703974618240298 -0.9908967385304595 0.7896490462492509 -2.3710171308400425 1.622721059614194 -0.31470945921322546 1.181458515277477 0.5054499989536121 -1.4531008393544758 0.4523559981475356 -0.9236023244303045 -0.03244215736124196 0.38006523317154867 -0.8827302379830186 1.31531833699273 0.4336772497735567 -0.2858779523930344 0.6862997720652316 0.07878852860784398 -1.795922009165608 -0.4158390611399369 -0.8831065369365113 0.8480789452326992 0.27898936918224926 -0.8639451070344069 -1.2566930821615503 -0.30069260972196 -0.6170867735807415 1.1830800910793016 0.35381918736873424 -0.745448436596077 -0.19222169741258976 0.5553788620228972 -0.30415556271480226 0.17234905895057256 1.2373818200894766 -0.35215388375523077 0.7241703485357863 -0.32264396587146954 -0.1501786775642622 1.1583639587044614 1.3419916124093527 1.7980214129032044 0.8484542592742771 0.41073746964934554 
-1.5028873381464722 -1.4609478697175615 0.3146934245152991 0.8311614468364947 -0.3658987607739746 1.1115844266755055 -1.6929184982990704 -0.29300597270920303 0.6812910061086972 0.27495797944268957 2.288774555954738 -0.31355296007904687 0.5224761049108322 0.9963949682421314 -2.3416320509768513 -0.04143138991214907 -1.6452982547894923 0.39923782883620573 0.22688653469643358 1.0878000330842805 -1.3133084743718724 -2.0779282044178053 -0.08023344402615999 -0.28321365722324565 -1.706611511643308 -0.40626229697276633 -1.0715873684938242 1.486794077823985 1.2283727814476086 0.683538560210181 0.7639493925640456 0.8135726198475427 -0.31571820782339305 0.5921976112996791 -0.3325828003682441 0.26583362645210773 1.1021079204110515 -0.6520481949662004 -0.23867895382203322 -0.0461014784370574 -0.7139042109700063 1.0932561187900702 -0.6842945054558383 -0.8638811589577263 0.6333941136282925 -0.6247593631685254 0.11177441233583786 -2.0367623581487218 1.0247237070749606 -1.8097357143440351 -0.7708414016833929 -0.17344229756391988 -0.0645074426508404 1.6318925180006634 1.3670926767270732 0.5524921562238917 0.07060802202954893 -0.21009735092639487 -0.9605244042304686 -0.5197799261844128 -1.0470886917781603 -1.235161100347909 -0.6537193669257915 1.0971878314176182 
1.1390375274802427 0.8466000145114381 0.4323786653123626 0.2168930415136219 0.6303942933304545 0.3510537721202606 0.7764507778791183 -1.3348053486197546 0.934765902939345 -0.23252834950805842 -1.270662720704853 -0.4899612408274103 -2.057692407695229 -0.18911492840079147 -0.025077432006510463 -1.9252868703300692 1.3033580674950007 -0.21648839864635813 -0.49440591113684396 -0.796746147721042 -1.9736045729038376 0.24238577618387616 -0.21338878703708408 0.09198550266000244 1.185279646493634 -0.5182434312363768 0.9102264101283203 -0.14151311387468002 0.9975376990087123 1.2652642201830953 1.863837636465063 -0.015555260343624392 -1.545124672879922 0.2832451003880244 -0.9448952519607858 -1.0744766812461488 0.5554472961027501 -0.7314569749717136 -0.05110818336259835 -1.3346598940016974 -1.8562697846811675 -0.445426367547791 0.43597461192131637 1.485608865957439 1.93535501997818 -1.4252702256251883 2.6092688669328234 0.5706128227569253 -0.5301126259053295 -0.1934625213709205 1.3639446457009385 -1.6651757622093677 1.1890781606544654 0.6310263693213639 -0.11247625235090902 0.06339487115443389 -1.1539637649001573 0.872041921982085 -2.017077228058046 0.47358032017217294 -0.1777201318939325 1.5962965185885236 -0.9673993504542991 0.3679941592912281 
-0.6227983658297997 1.2843307139738251 -0.4668087409210295 -1.0075337928935055 0.8830835342409675 1.493093303735975 0.4876459396036236 -1.0685171887595595 0.39623235078284985 1.2236718982763382 -0.12643954813912764 0.6071357969368492 1.80497434174574 0.5363612653237948 3.14707656629817 -1.7388427324945293 -0.8679389846998788 0.9534288101435479 0.3407771827123295 -1.7152476205511438 0.05151140518023707 -1.3188605951993557 -0.6130682089539162 0.6992791818594839 2.3751721796658445 -0.19517542013521874 -0.7239981352513453 0.40787596196074716 0.7589286781187101 -0.17046253171132641 -1.226793024802586 -0.5146183368104096 -0.9279627292077619 0.09294292489517482 -2.923107821111637 0.5394086714112435 -0.21593190845573715 0.9641420486546047 0.41957072578136995 -0.1706981936588351 -1.0157675842276297 -0.20212905832805242 0.1692553949393051 -0.3806684375365599 -2.05338320084047 0.19473003217533486 0.4198160474403142 1.7342178430194697 0.07404933449347896 0.7151616319634798 -2.8203145307877664 0.6895937228557357 1.5333937325839515 0.07452811849888555 1.5102472228311388 -0.12454238575035582 -0.7534018119733819 0.20897297742879425 -0.7028607957054488 1.0370383113598933 0.8573082121514027 -0.6802952041710328 0.026069831316254153 0.9233999763968375 
-0.7683758439119492 2.583737729360795 1.0127176233914497 -0.09846343873070984 -1.5943141343196632 -0.3560240339010513 1.7303607371646352 1.084918321430464 1.051616312824429 -0.9433365879764763 0.7140809904522805 0.8942286467868956 0.06491099008586107 -1.5574221851389516 0.3011884007982385 -0.10746822377789464 -0.40624955964063303 0.009260757043108575 -1.215643901127862 -0.07629296752923902 0.3654380086739805 -1.890265380593799 0.3622435079785504 -0.0029199597863552307 -1.7007593925743931 0.6209946722188692 -1.1322740392230302 -0.9257057695964606 -0.3511184200948804 -0.7027436776282945 -0.7307113051979146 0.3487756670241695 0.3731325928650591 1.9541012213828115 0.6809886811351037 -0.7783822566515411 -0.5232435381253939 -1.099542051021738 1.0556264252452854 0.22580161997305473 0.014977835420985675 2.1119758494284726 0.42146215161546513 -1.075214837811047 1.2575383164654126 0.7142497416208796 -1.7904501278151874 -0.0008126651899995381 -0.07397586778822247 -0.8924674894133354 -0.3130711262436924 -1.1272714232094656 1.0329277047220204 0.15419532891823756 -0.9135776498050531 -0.7650612158579826 0.22559174506906224 -0.8347093816309481 -0.595064264549864 1.1843827414432295 0.1429538371179559 1.112481524864514 1.0882564134982842 1.6392750789789015 
0.11177634577412347 -0.9573948392432984 1.1346629282385445 -1.2568969519062017 -0.29598110596987537 -1.4412684514236622 1.2909251498117968 0.8512325310970473 -0.19733548304090584 -0.02208573688468188 -0.9508111098995186 0.1035313916947585 0.21548836272552113 -0.1411564879245027 0.42067055556545113 1.7729205448410605 0.6498935164991194 -0.8146848379524239 -1.5596298661764338 0.4398816156899555 -0.6601999788429203 3.217045602873579 0.8685015714391405 0.5050657709911159 -0.9863011638867536 -0.9129774278246708 1.3734320150957262 -0.18285791768504642 1.198191682471846 2.548432692380506 -4.214365688451783 0.5959113525845433 1.9800377344918048 0.2657648305247095 1.3262201240454143 0.5466375369903127 -0.41453657296916147 -0.3730831482974162 0.40022189360884247 -0.10087325627984413 0.2803089901728547 0.4491457553463791 1.143588187049416 -1.089118456895014 -0.35546995751528343 -0.31834192069387407 0.830195203599472 0.4361775891370196 -0.2645923784676339 -0.21764258814766185 0.2792511788015555 0.6341766383167537 -1.6899129071602792 -0.8729742542517545 -0.2598063399627527 -0.33361089298688523 -0.47234768781625874 2.3256360508885003 -0.02591731393392979 1.243645249432891 -1.3669001475774685 1.0583862883431578 2.159937572429203 -1.0248717818950692 
1.6883200020102522 -0.9437114683086901 -1.6356542960851725 3.004794719757937 1.7636218330016977 -0.5210357161933558 -0.9827396255175174 -1.687903642614337 0.6024904606951987 0.20435639740334322 -0.3770595980036171 0.8363427078366611 -0.8027541866887506 -2.404158752793285 -0.10564676102406934 -1.5012910901299015 0.5480268359875079 -0.8811922967668454 -1.173948951394875 0.606331157584299 0.12683447136344278 -1.5604315123834689 -0.5205343397114397 -1.0117380834574097 0.7751834035511713 0.09082765239151265 -2.009156386858112 0.0019964777593632728 -0.6768902374369501 0.18837415833983528 1.7210661963902445 1.3836099924783114 0.5954662447871851 1.5561885988940773 1.6482602160226723 0.2769317727806805 -0.6439091535272218 -0.6020297493494244 0.07868229440517646 0.5395436840073171 1.5853362889083502 -1.4111114233877604 1.0555767070520852 0.9413711574666161 -0.3564893148966057 -0.4712633820151715 1.592043461646303 -0.8546573905940744 -0.6162383389360436 -0.3928867963077012 -1.3963535504996087 -0.5313297596566828 0.270663367344013 -1.0830195054919807 0.4376831836718199 -0.8797264627113415 -0.3855926196022541 -0.08580835431422239 -0.5982475406226793 0.4096788617444731 0.0666088456455658 1.957172618588857 -1.3826091831003817 -0.28112981233702605 
-2.792842506628916 -0.4309493587119472 -0.3490890019377992 0.7421002775891952 1.7195612987234734 1.6002422223300918 0.6343438857253328 -0.17246111745163348 -0.6705015243695857 -0.7536982531532338 0.5895376161418749 -0.9697046735714178 0.15586305431209005 -0.047824941063923966 -0.7886170870790942 1.8674123384735755 1.9920678221957981 -0.9459779102186334 1.7653701161179953 -0.3614950328587895 -1.9127589663599274 1.3398793004260048 -0.05841470895865141 0.2553250964938995 -1.48379361551797 -0.023016508853491317 -1.4950877264837286 -0.379031134643092 -0.6355886734385763 0.7707963079106694 1.616343529093455 -0.4467826669149516 1.3344244954644535 0.10400208740045358 0.688425818842229 -1.5886364093917957 1.5299228357767682 0.23323815576718981 -0.4384767961016371 -1.603575744285916 -0.1366562995678833 -1.9931172044579666 -0.13016364228344376 -2.9617195334666717 -1.3104833445666624 2.0321181615772534 2.8687836801830007 -0.9700667156686252 3.1000079891648475 -0.744241538263625 -1.696556644360923 0.10910289315388731 0.1159003002409602 0.2662590202113966 0.6399257660019989 -0.6284468766647187 -0.4358173567421102 -1.0730891874844768 1.857123332987053 -0.05132850491828024 0.8501219444683641 -0.5842880542688337 0.31125912113002074 -1.1976906402567347 
-0.19447940761661894 0.8815015018796294 0.2692559275201954 -0.8391862566170958 2.6500661297012655 0.8505328794112752 0.7058938006083012 0.47838135905896234 0.30866049626093317 0.7705839369061455 0.7122917023708372 0.5427420541556198 0.7628196425255194 0.8274030866292816 -3.5124437385734515 0.1822101458712259 -2.043093315218671 1.2568046570343794 -1.8091200732772776 -2.361480022297013 1.4686823601363401 1.5075683370178337 -0.5258210862070797 0.029238776009626776 -0.22320557384710368 0.760741690160041 -1.515015107425282 0.31728188423800646 -0.3358836420691174 -0.07941937332714176 0.9482029206574499 2.438229068682919 -0.3745594358117763 0.7844881352501818 -0.4031998469118099 0.3283378285087521 0.08092569127531342 0.45250211089855397 -1.029571923016556 -0.09521265243623049 -1.6991911559013455 -0.4220707196684929 -0.04970225171808079 -1.8931445691754476 1.2694704668679029 -0.050961605515007224 -2.1018513061815822 -0.22244717167616448 0.566388503186816 0.5727961230429849 -0.3354775820103382 0.08718165055616052 0.8975722912754399 -0.207952423161366 1.6833004425948805 -0.33517011102713384 1.3168394910756018 1.8192598294493534 1.302756603763022 0.09712027492332226 0.014062698583938176 0.05803791327091582 -0.5175597775078545 0.679804897405987 
1.303630462174719 1.0047933117438839 0.383301081747077 -1.0054980621720389 0.28890257056795715 -1.3774644081578566 -0.45132564645468753 -0.39412858910279386 1.4929643809594515 1.8294269650919504 1.1184838051379011 1.010622982508882 -0.506467941434294 0.5469472050210967 0.1083498796841612 -1.059528237683835 0.06272571316211503 2.2107222580896995 -2.0009861771665576 -0.04540397785123468 1.9172626792216532 0.3634921873697724 -0.11881818820073677 -0.28999058921275767 -0.9485644719498959 0.022909597622499882 -0.47548809560155986 1.1224595504953394 1.3118297698720156 -2.250974191394155 -2.6788098476630537 0.9087167527551631 -1.6117005981244843 0.8394830309565974 1.3787089153312237 -0.17988475510301374 -0.765326947529158 1.015038772438281 0.3876944613363298 1.6861804461089902 0.79756153538312 0.4328785020779995 1.1391763251871354 1.6488796614356447 -0.6113306656794848 3.2350687955780653 -0.5752671244846502 0.9321672839714333 -0.603203544161283 0.4849128411816585 1.7398645336450838 -0.19494706264264955 2.1346959629794666 -0.7370917201224452 0.2429854432983317 -1.4986171593343849 0.6553685067437612 -0.18604769347234462 1.6005352143368277 1.9784993184876687 0.3032807542888748 -0.47136250880471703 1.3566858082880524 -0.09310378705151703 
-0.12236099103448617 1.2281247102745683 -1.485806024292879 0.902768655551746 0.050656046230998536 -0.9110587866079556 -0.011948218383332423 -0.6287791709959561 -1.437506984606784 1.396022029866539 -0.43268964641056207 1.2067676122598803 -1.0367276057898664 0.9476392977085593 -1.221827936859914 -0.7393495141166088 -1.031636849253111 -0.7448849564865531 -0.8225486880432122 -0.021900414755414807 0.6486728440561871 0.37298898012951087 0.3580936832061185 0.387606859041743 -0.8799621218810756 -0.24954621682809708 1.0226650933924972 1.7493864547624152 0.6392032819704465 1.6776951629063734 0.14848674417231636 1.0689927290304972 -1.5774400666946176 -0.16454019055267416 0.590395530142851 -0.9723816753268589 0.29110681257207827 1.0171420347117015 -0.36542618364661905 -1.1194072207456407 -0.36239428091745307 0.9611605095948947 0.10535316150565285 0.1889035273952366 -0.24473440381951816 1.0472150377924032 -0.9511861357195106 0.25505927676606754 0.06307573577611542 0.9280106572072336 -0.21377337032409768 1.305888782445412 1.5195333926452543 0.41323738320779346 0.6572707934666959 -0.5785005720578276 -1.6672526254176476 1.2725825515154905 -0.07257550365568508 -1.9636583537990155 1.4999926616012456 1.9819554526123755 -2.2544454342520193 -0.07393445198167715 
-0.6580871659337058 -0.9482739528523901 -0.3474349542140312 -0.4674293312368105 -0.42314416107430597 -0.01655645443844219 0.21650251777164545 -1.443186892441187 1.0860172961409067 0.24993686801686388 1.3519931417234867 1.0507561701228716 2.2700664088524527 -0.3578234904589104 0.2559450864222522 -1.1272896077443961 1.021515659489695 0.777147024987328 -2.097429540223787 1.6084808371226003 0.8004425647549013 -1.544446168793957 0.26218173696125807 1.5153692103256802 -1.2330737659348994 0.12745443865429282 -0.07973276398817965 -0.5600472643732505 0.5362219363018134 -0.13848158984320064 -0.5345086507619654 -0.28274212616548733 0.2966878989852385 0.06043386577568019 0.38300391212662094 -0.018478342827947226 0.41770214550345397 1.5603383995086977 1.2397666123624564 1.0558205745332228 0.17786354956780778 0.19828236500085383 -0.17539127078817401 -0.9990335155518846 -0.25275645557123255 -0.27367952707932636 0.1842485647504118 3.096270958982798 -0.5728969979108528 0.25504396896976606 -0.2772097923369581 -0.0947797150370224 -1.6313941401145622 0.07870205509026292 -2.1485976251579895 -1.220386796794039 4.619581737722935 1.5561984751184657 0.505979588242332 1.0187200210616063 -1.6183406285806365 0.3911599554863331 -1.286583734499057 1.3995569670026073 
-1.386985516374988 0.7713390130979509 0.13617620555266952 1.650210347793054 -1.5401002293305124 -1.628266641457981 -1.404999062037833 -0.2629413163175911 0.14268611056304653 0.6373181286037866 0.020615491472825057 1.8106851215972861 -0.2682528769328258 1.0134529220081308 -0.31333174004311054 -0.5389950377609121 0.3483415256958826 -0.25222353555526394 -3.8345530775180694 -0.46713449261909384 0.6035517794098096 0.10823094789901418 -0.2874234179094202 1.0153476673066777 0.3297591243925827 -2.9858215712599194 -2.2101619904414274 -0.3287734883362333 -0.9612877046454549 -2.3794386612765583 0.4747373777804789 0.44816856625692403 -0.3191110304570035 -1.3373894289380248 -0.7679120601848027 0.04893218511934466 -0.18514205851758941 1.4270050706181077 -0.4116740435445112 0.6376564652790893 -0.07828128027577298 0.9231391335730477 1.1211680970226443 -2.1812866122626744 1.1586394309622707 0.9035971006211175 -1.0116899697561372 -0.9238644055539992 -0.15535660899867296 -0.6148066440086326 -0.40612930169509526 0.5970027912288054 0.9180971099832328 0.5386510569493244 1.6285168880108944 -0.9518563145280667 0.42628371631594264 -1.2276906928132998 -0.18772660019085557 -1.6485417315897233 -1.637749528384202 -1.4204922586461184 -1.4083329025231655 -0.4086206085895253 
0.325227700124853 -2.5236184861143873 -0.21965574908460228 -0.12129481745194368 -0.0485044284687931 -0.04119685859839428 0.8803781391738217 0.22948269569822974 -0.6570354110232106 0.08624448685324015 0.5918007167249911 -0.2784501872160889 1.5116285048388776 -1.5992124354209079 0.1144339881463092 -0.17949832238326272 0.09710455901048201 -0.4220175356164029 -0.18720155983231904 -0.4428442234422937 0.9774724943888203 0.10867611472075701 0.8204002521218721 0.3685185363053352 -1.7434063326534293 -0.9617248931106233 -0.42180490873733767 0.7206114707891056 1.1248286784682553 -0.4537048545642135 -2.2722686937203997 -1.496902647577748 0.7007169704900703 -0.08839252661467935 -3.076660398151697 -0.11739671621020059 -0.7071983240147538 0.06840561240010783 0.38799021029081077 0.2074473574226158 0.98413304042588 1.742743493914502 -0.7604422646117193 -1.247823352364766 -0.8377355622963703 0.8077663233695966 0.6363863110692735 -0.7036533222009494 -0.2597535939105251 -1.538464278730537 -0.5342657542343037 0.1030888176977734 0.29628010741249405 -0.3400327874556416 1.3082741400101152 0.4282948793858359 -0.8415025407270202 0.39302556715624176 -1.0444762526754352 0.11744478191778103 0.0857965035918741 0.28535634164082074 0.10819941353807609 0.26814900622051235 
-0.30433004837148997 -1.3918077558614532 -0.5118644161505425 -1.3612605310726924 -1.080941587532453 1.6945583396050552 -2.155786376712161 -1.0460701821003788 -0.19308539864432397 0.28833748072001886 0.6187873921708107 -0.09124755840034993 -0.36160899316058104 0.17053729799495654 -1.28368340492345 1.6805634691886313 -1.9900421396592916 0.9448233088931262 0.7888688534095548 1.1458591536489786 0.09425324345691134 0.14964080162159918 -0.9102823367300543 -0.023186841334561174 -0.26872829009745935 -1.6364416667888393 1.6385271875189058 -0.09165236644433558 0.19444383469176277 0.25962169707143196 -0.3782934535937783 -1.441906886530181 0.1417318497470848 -1.8295917195903026 -0.6091814144149528 -0.5163893057027192 0.10359591599627013 0.7404950247480314 -0.485002830082998 0.4785240136458898 -0.06856751658392231 -0.3968987985997636 -1.0961159741924942 -1.0409617416396093 0.30083321250804246 -0.5087619178658142 -0.6181952822595147 0.2149462464497771 0.12333567811204996 1.1197749344588286 0.5550211268662194 0.597398892717684 0.4226738093619387 0.5756625584441294 -0.4706771059315242 -0.8565208992133206 0.5178516436455882 -1.0650668557736895 0.9907223067198581 -0.747773752486364 0.23781988644702828 -1.6178533933244708 -0.9702259730975761 -1.3303908334584074 
0.26791264541869625 2.212478501334595 -0.8154435099337409 0.7685721164192759 -0.49491122431322787 -0.5316255973396358 0.08802538557472096 -0.5083625990474444 -0.18754018293178215 -0.2876579694998003 0.8666064693932474 0.8853797481916601 0.23284057353391108 1.1917644460738919 1.2941830226636724 -0.8285180881445493 0.8803119055511219 -2.2124551701779156 0.10271223446661212 0.3239499105427891 -0.36963577156588584 -0.501163187795792 1.4262424394445734 1.9293740110245616 0.4872557760675306 0.338248533790891 0.573555016491822 1.4222474147686546 -1.5442603046707066 -0.5437022388576213 -1.1730600071428205 2.576802857579411 -0.6074691607667917 0.08587650042563649 -0.44630441803905135 -0.3965218228285037 1.6633240478462554 1.129663486319225 -0.6867534181927355 0.9159666677242507 1.7622299948812843 -1.277339759055046 -0.9757061165885467 -0.4942038523571257 1.5384909043437422 -0.43447499310566884 -1.0300049896515646 0.27732175555801786 0.16892113697089026 -2.450324257492787 -0.6919068968655309 -0.6231561954430036 1.630639977243374 0.6938852339429247 0.3926665514901997 0.24266956846394466 -0.22820167805305178 1.1680059874368993 1.3288506345697126 0.6605566754083058 1.1428358001392407 0.9114117785334998 -0.8628450202051752 -0.11779938187091855 
-0.0206570180927494 1.024199891144494 -0.047573966057258346 0.05024194181432694 -0.9633000598391361 0.36484989755283337 -0.06890840592604221 -1.8349181575306652 0.046832418668078024 -0.029955426689913706 0.4465192615629821 -0.27866000125335083 -1.041510143715453 1.1194532955563947 -0.41947802239019855 1.1137659693658164 1.0481289885001572 0.5857201898374882 -0.49285269227084405 -0.6359117955497218 -0.44672375079260734 0.05733314037535194 -1.0554145487228912 -2.083410583104408 1.0535630677663348 0.15932634049047767 -0.31707429441350854 0.24078792389353262 -0.13126038433490347 -1.5752617625005632 -0.8133154941514799 -0.17802884431423274 -1.2057539340650534 0.2056451024874329 0.1261718816600218 1.3061178701664815 -0.288410958977059 -0.6863362572396605 -0.022437448418839625 -0.7911475227396738 1.485349851107602 -1.4209159063933454 -0.8200150400426599 1.092419829349764 0.8271180451530301 -0.3589191683167191 -0.7674491839573789 0.7511891287116119 -0.7943014691971018 0.9565684620122823 1.8857182546502194 0.5811989048554413 1.0517594556552563 -0.45216852246744366 -0.6524230397170977 0.7362545748058936 -0.0341268340036305 -1.2284822220124465 -0.46877933040231085 -1.2051528630979609 0.4217183408140365 0.16592329795554003 0.7535042214293257 -1.0511364532603225 
-0.5490976317314282 0.6489703311484639 -0.5308379863178109 -0.07312454877968921 -0.39482296859657673 0.24431276783550962 1.377988553356549 0.301360102733989 0.4188010115454594 0.37234500396439646 -1.6037431870516412 1.3810123245271155 2.041160679600772 0.1076857088776861 0.32858975956402886 0.7098081954159569 0.35636110978394775 1.085066165147398 0.7325262278119089 -0.4725056702343623 0.5541925755149582 0.5526527688797161 1.1784033319710823 -1.4584225010435896 -0.9068840402135643 -0.3797136819997454 -0.49443338214208216 0.17431955395863924 -1.3992735127437643 1.5340489095400565 -0.4242580496451323 1.4595100943807928 0.8490938357736794 -0.4975977431154002 -2.7563215471410025 0.3798106710973753 1.892464709731959 0.00857429344629106 -0.6237713167046942 -0.7660842693184804 4.2652422186838965 0.6497856609238946 -1.2738507904720133 0.11639560888769102 -0.1734942042680416 -0.7996302869089733 -0.00438065262252711 0.9964962154373259 -0.9189797206377561 1.2387078113673193 0.3841720214608494 -0.3303094603318293 -0.8110953077546968 -0.11484379318566133 -0.1428792760178537 0.5412167034283696 -0.7648697518253472 1.0153763779143143 0.8483670935444321 -2.7356556760797033 -0.4165106855168366 -0.5569770333302408 0.041786511750179424 0.9410650625417879 
0.15399921255431037 -0.5314981830873248 -0.18176041081726643 0.3070209655415376 0.28082005488426537 0.31971528137919386 -1.049942874021911 0.5172764397509345 0.6069681189066669 -0.8274561617762333 -0.4253435032294147 -2.144059200066815 -0.3265985442152793 0.41657222295888835 0.573176946981101 0.9863127570631401 0.43071893862706984 0.3993264558485139 1.8171475732000362 -0.8228239239419946 -0.5629712769403356 0.2225598516144699 1.0996227296930956 0.4763684357327347 -0.5470999893040881 -1.8262682782346462 1.0645463873451795 0.5199403717101059 -1.0530834521466714 0.29626330926628847 1.128037896264543 -0.15083356510649862 2.8419142494449674 0.6153562923464212 1.6345539446793884 -0.16722234083749163 -0.16878698933315667 0.18782115026019933 -0.2790025902691576 -1.5118612243029599 0.9038648858402782 -0.6403328903625756 -0.7459298156442968 -2.781040372783918 0.5387752205336509 0.5500394124659764 -0.879036343473782 0.2964912045640655 0.6468723701373597 0.5542477866200818 -1.5124748431695798 -1.2930986564491396 0.7522391963749424 -0.7909436279928215 2.310614757333585 -2.194075163172274 0.1753648377315096 1.733774747721416 -1.420540484123416 -0.5567211545663973 0.528134296421862 0.6867204839649549 -1.2823894823439135 0.6995430541453339 
-0.5534531748330963 1.8933806350303282 -2.215902702859358 0.3281100986466797 0.32628650153067623 0.5066947798352743 0.8721447859833684 0.007128740108836407 -0.43496735778438494 0.0780115346636623 -0.6470070817356703 -2.1927718712736306 -0.4743947451363898 0.7298967490212187 -1.1837859674798492 1.4498759158521408 -0.09612486381243378 1.1362570891173516 -1.4985057612771553 0.22186865569311354 -0.3125052339201544 -0.13465753083401275 -0.6115873836436294 -0.17193311990534244 -1.4769235158674265 -0.17980208262522726 0.7599943130631105 -1.0086144801442092 0.5280994249628863 -1.3811130556074602 -0.21162690967523584 0.8195850219709909 -0.8726131003930316 -1.6500958686878553 0.7824722575236814 -0.6456333536027602 0.26549826771014623 0.6693657500542209 -2.2740674428054373 0.22941995537235887 -0.2992826854243261 0.8171269603764068 -0.7523880470632192 -1.3405217702033276 1.6194315283854384 -1.1385752089138195 0.8351281950132646 1.0429462644155305 -0.029907850981252423 0.026099936137083155 -1.9035098699456179 -0.06589641465231433 -3.229166410852572 0.15581963115873657 -1.066852739563328 -1.8636830956057366 1.366730785545539 0.7903390129689488 -0.37056288858284303 0.6593358366144696 1.4597673917429523 1.147862573838806 -0.31236063519035184 -0.20775410103822306 
-0.8792628418572807 2.0565506291836853 -0.33359944781285744 -0.6640436704812236 0.6564281480163977 -0.28631181950292806 2.1599995170954904 1.105346663500852 0.9868698009204959 1.1568459083487013 1.6750255018216018 -0.5043523863610362 -0.5014419764839732 -0.4646608183039899 -1.689367667811161 -1.310605921559787 -0.2876982105838748 0.5145689098508788 -0.09669028720998231 0.5153155151222154 0.27726145699485505 0.7328651182378939 0.4102078273935695 -1.8167367229487255 -0.2354128390967435 -1.0655954490273032 0.68305029990806 1.8771209871747523 -0.10460044941299025 0.2017987013583133 0.0644233170686076 0.22845929011787866 0.22799608955871906 -1.1206740675443965 0.9038116974025789 -0.5178304329080932 -1.1071778975193571 -0.3772066639612292 -0.45042156907761777 0.5565938920209187 -0.42718990268693935 -0.24207694867453647 0.4821033075161188 -0.10447349983005716 1.3792861698808858 -2.2286737156511904 -0.5002639883779997 0.934930271992469 0.9415983869530308 -1.112528296245727 1.7723692827079909 0.24545565469703418 -0.02214102016972108 -0.06756733418701122 0.8641921302340675 0.1233136410116636 1.4123143857895097 0.0960445583064962 0.8464234968508456 -0.36716307349295313 -1.4052656235498786 0.6933237405325503 -1.0576739234080696 -0.5823245962516225 
-1.1475627140274436 0.6115836275991762 -0.7926026446200398 0.9331186289547397 -0.9902955300795586 -0.456057873802471 -0.1435690818685792 -0.2838067927101252 0.24416281743117682 -0.9027098421393587 3.398586114137382 -2.25516795373302 -1.412918477169829 0.8219376597183409 -0.21890309102167596 1.460976476306533 0.14712801774696893 0.15233504071004142 0.5887024094651331 -1.2307108552553414 0.039654559992871354 1.4729534164248466 -0.12165830434271938 -0.6566724701879042 -0.10669726267929142 -0.14101034909962873 0.705630725320347 -1.766876952408766 3.1764051726184914 1.2121471211879482 -0.6898401873079537 0.3067369311144164 1.5633448992134207 -0.8142976399410804 0.9572082172838686 1.4095417764463167 -0.21385700063565008 0.8497010378607164 -0.403838151294862 -0.5496664438022972 0.15346480397626025 -0.13383607625153934 1.7825546001181565 -0.4393631442403314 -1.180879096304246 2.5901490082840577 -1.1489775740186345 0.04625658193824578 -0.6506726459481281 -0.6046023254663068 -1.451831365880956 -1.1919343920230874 -0.5220165468177956 -1.62129724375582 0.006580643731081448 1.1226681983684956 2.0436425236019207 1.6415258446266483 -2.707013499502051 -0.09040979970065986 0.4310535737217029 -0.7366447694118468 0.16743819544081173 1.601277022934653 
-0.26659366675428775 2.2882129554965895 1.1149399420797481 -0.28158331569690637 0.5440726178998738 -0.7468450917955434 -0.5269152874442427 0.9615174806250598 0.471404206553494 0.5962006810065865 0.06059373088213948 -1.5807839506507921 1.5903030167580603 0.8284135461397414 -0.9811255569213906 -0.35747109541516753 -0.3155367659916432 0.08523320658757635 -0.3691568962892539 1.747798287390857 -0.905918052678019 -0.6301295956195538 -1.6948975318423292 -0.027070692036994113 0.8078649459912447 0.08325789729959611 0.40490323667474754 0.06022393270953021 -0.03118586781566777 0.11814929462911979 0.7209313497894525 -0.8092581262547947 0.947054258120637 2.162647068324051 -1.0603490241768823 -0.7996479609531933 0.5124592842209423 0.4249286725749192 1.9625707817940174 -0.5303960229315237 0.9646305930894093 0.7314922581520981 -0.6638311184405055 -0.9052378055786738 0.358545344341363 -1.2902296951168193 0.56212403820937 0.7282669271185176 -1.1977465981425408 0.04285182476048291 0.15890017165498987 1.994931661665548 0.8535580850546185 -0.4891740369719318 0.010469093166588866 -2.3420869168396714 -0.1695057348662918 0.6433708772553827 1.9379375724695946 -2.5746601390432517 0.9717810298804742 1.0347465878133322 -0.3578018306236152 0.05607235226159693 
-0.6681815261205882 -0.7308503683146558 0.5741056074032801 0.13683863443415004 1.0266455277826587 0.3920522585884519 -0.9003496474848279 -1.0803022202669341 -0.02046636861652455 -2.646316266283833 0.5329425871106238 -0.49280638342196514 -0.5869411644665687 -0.5395458333990962 0.4086875607451284 0.05935886477261698 0.6261387406790982 -1.0342179727413932 -0.64257905175157 0.13636727575529553 -1.0206463873987173 0.9873369163047837 -0.07757609709152072 -1.2010690226942649 -0.8222289802802311 -0.220974715518644 -0.665634700314726 -0.5016019836685396 0.550163532985168 -0.3679943374877634 -0.7766044933959168 -1.474850305206539 0.5774037004486695 -0.3401445165157229 -0.9932974608362225 -0.8117142830450055 -0.2944332852337225 -1.8641282985025425 -0.6714682280395327 -0.9353035386407592 -0.3022188972503541 0.7304946348589381 0.43165627271383195 -2.2646870195670297 0.657420544008224 -0.7018899083795851 -0.2986049033495919 0.5548225644224827 -0.48603446464889216 0.6902184400394689 0.8295596112271374 -1.2601079774289217 -1.8621701690568844 0.3493126005499723 0.23808634006157728 -0.6949841082836334 -0.36174129218002593 -0.5808981032553645 -1.0658600564557086 0.4676751152169987 1.6172184548381385 -0.6977292488713185 0.45563161265102475 -1.5669990222399797 
-0.7055646947673112 1.6174431636842044 1.3860419561919763 -0.5376816271390968 -0.5999211251143216 0.0016299337047666824 -0.011823514561885497 0.2981182432297809 -0.7684952794563157 1.2963642663403832 0.6717451425295189 -0.9584618216965897 0.31409010362352024 0.13140487335754195 -0.8461030894157884 -0.23129276325807988 0.6344308632944159 -1.6931175759509138 0.9838780962596204 0.2300199459324244 0.26444800526352374 0.19320443279165056 0.1662976141531424 0.5581748543878708 -0.09344525718725012 2.2848232224712093 0.8623722274360827 -1.502764400290868 -1.2278486097099799 1.5536109239427893 0.6514115267808667 0.5700870853135074 0.7795040607507351 2.0887780739214823 0.389297630259175 -2.2375826939925583 0.9603883715560204 -0.3544308392016599 0.24920112111313922 -0.4628055315265251 -0.08588444645371754 0.1926627444503291 -1.3371195216824483 0.2649429455497621 0.1312160089430416 -0.05195501843669423 0.5612488659547131 2.3018866282531034 0.4895967998005101 -0.9137024494389321 0.8680687626586958 -0.11089065823212155 0.4935513125719501 -1.0160246124299077 -0.9584355892004025 0.44840540062931783 0.7253786580721205 0.5167157387350998 1.2405683225104815 -0.6850302878934361 0.6251865708034257 0.27742131875238024 2.531765097745482 -0.2794197240092851 
0.11984386505519842 0.15088442594236712 -0.5807409099680731 0.7041013860617945 2.1957372759512754 0.15667766697992944 -0.290887059583433 -1.5569576822195503 -0.11098693472543329 0.6532085522559955 -0.8321148161870862 -0.5991582486795863 0.24146991145813695 -0.29859420318689084 0.7244407718372564 -0.8615899963831497 0.40508716440530645 -0.22734865821209307 0.6726088763666495 1.1653537182741052 -0.2747702889179696 -0.9593904967993547 0.6138100439762293 0.20797877643472412 -0.1456277053663724 -1.776574626109136 -0.19294134082078362 0.7860663909383238 -1.3917224595951527 1.7758316088268244 1.3425892834416073 0.3436250363778382 0.0707082824213683 0.6821883785827655 1.5889961113622193 -2.0860371313230863 -0.12939741076464364 -0.9603781080052198 -0.8649856803169893 2.717458782905121 -1.8701955393409824 -1.1828999577448018 -0.3082743709641159 1.810881576057417 0.8984811149507965 -0.9972748260929839 0.13591254940032932 0.5146426120296536 0.897141330431382 0.3079233973464276 0.29096552009542703 0.2903069985744811 0.04642484370259479 0.14184613265444462 1.1529505773943225 -1.1228338933867767 0.011894286303602918 0.6213132947171759 -1.4923024138030154 1.148977748827565 0.5489801030319138 0.050977663563632536 0.33921941704835995 1.7928047445152342 
-2.085728931784992 1.8715890031125821 1.8884781277382783 0.8062261053333825 0.7557447279146241 -0.6681416452615178 -2.2825849194469288 1.2448449307884186 -0.40684814205783876 -0.6427966634954831 1.1003188119752685 -0.015185296952998051 -0.7461364788528893 3.994776400226432 2.354883863327843 -0.8068431977946166 -0.5857652070185992 0.046650023700056484 1.083206167121948 -0.2736752802097148 -0.007224216172117486 2.3929906212510987 1.046515011002554 -1.6578050225819365 -0.6517786402564966 1.1362619781783274 -0.13770959361673543 -2.37674814461245 0.330537831911256 0.7644863511949495 0.9868844720229859 0.03275407037824459 0.19498222109071617 -0.13519505460945105 -0.23474898388640272 -1.7577835263462802 -0.8395672968376766 -0.2304060899766977 -1.1470312751384975 0.958175541465468 0.15329900322566062 -0.40432384218551654 1.3064306852043324 1.299819038952022 1.0560411874513518 -1.6794921999080294 -0.08543897945428686 0.5354673222592381 -0.23956491584546583 1.7069811160357466 -2.8145986406762526 0.3921064016193464 -0.2596856766921863 -0.5686515856120845 -0.008109416665668695 -0.49878027820724624 0.4494496130100575 -0.564255924757769 -2.5566913515801355 -0.11628397693156019 -0.6986992625398815 0.435778117103195 -0.7557647157680621 -0.3973786154108759 
-0.3661447421043885 0.23848706620970334 -0.36402874667654206 -0.9377732476923496 -1.9243626704751862 -0.1661478308852874 0.41026958281197956 -2.04734769929289 -0.036462554260754454 -0.2730430827404624 0.7019507173829391 0.6100642365258391 1.5235309665551646 1.2442248963107294 -0.4483673673107537 0.23498542790342433 -0.7945718654465715 4.230049087122403 3.031411319062477 -0.9599621247048574 -0.3416789318725806 -0.27746434120010616 0.19445598510934173 -1.8609470595763866 -1.1745785211853141 0.29299049960603313 0.8120715468694285 -0.22512553380887051 -0.53285313015344 0.4225691788344698 0.21608454046153308 -0.909363560763951 -1.1312432107425208 0.23348352312149626 0.852349320360102 -0.003533303993265455 1.2485620926247587 1.2165458926173718 -1.3014167358522366 0.05892445653194681 -1.114037130435413 -0.27054643271796003 1.9122717247154755 0.24106765849101558 1.369264825132509 -0.1345757032213631 -0.8066301599194288 0.020488256017317324 1.0413077875959014 -0.1362348339830931 0.49889055318267855 -0.49244758242297726 -0.7363762353664782 0.8345791882111732 1.0892350605912675 0.6777334521587132 0.280195490991638 1.6876550016521934 -0.20854898761284352 -0.4152671871585583 0.10404039787378487 -0.9120304724262148 0.38582118715794345 -0.1503850432809512 
1.4583728913052498 1.6503701878795216 -0.19766407556282997 -0.656764805385858 0.566830442173445 -0.42421069146726803 0.09255149787991125 -0.36097591501626314 0.6250716597360894 -0.32302976021407204 0.014295734607044861 0.09138036663919753 0.05811392074097683 -0.032629252606566156 0.6371634806401003 0.006550321389543435 -0.056645112308221966 -0.381331392575098 -0.3126345828295355 0.9941850132122069 0.3255266919996778 2.8801503692579176 -0.9296284851190695 -1.6614820376624693 0.6534549736035544 -1.0673592361455402 0.5028780647076102 1.7130103129553105 0.37204505136029065 3.0167896955965463 1.2800841419505513 -1.4110511893520823 -1.599603855069813 -0.9661401538946615 -0.43876273337490196 0.1318364634983175 1.141177944293077 -0.20384819696061635 0.5650083859854291 -0.9434764497718346 -0.01330775737537777 0.2716293501885142 0.6704263982953256 -0.15775328841111408 1.1673779641316235 0.05542708160384057 -0.3574484529138409 -0.549899373726867 -0.7561401673957336 0.7708609210269273 -1.0054962796959581 0.17384637889104548 0.5579961350927795 -0.6418235119771057 0.5671057710438027 0.0401350589258032 -1.7587556903770203 -0.1791646417688767 -0.006252180637784651 -1.0532626349236918 -0.24713691252796147 1.5447539406101232 -1.8885992323175262 1.184875230481096 
-0.6500256216074817 0.577002574917282 0.6999544323636782 -1.253712870766224 -0.00021849155773589872 -0.03638535467743911 -2.1878662678994747 -2.41317969791415 -1.2768375614337424 0.45977546579147527 -1.942643540896393 -0.38826608298216214 -0.7707049765980296 1.2190957206901876 -0.9371349001900001 -0.19400539635929645 -1.0468696126404677 0.35815099757002516 0.3475096225244334 1.4915044647788462 -0.8896949056505957 -0.4608469231800525 0.7667190402216048 -0.19335845692195894 -1.923256279807847 1.7289085138995135 0.9080696887078951 -1.2201205972194404 -2.053639397553963 -0.8184589644239953 -1.013783983147599 -0.15087937062859735 0.024591490454765233 1.6756059359469189 0.12056565308091556 -0.058817557279421714 0.8944661749069495 -0.9373232001535623 -0.7551306222608624 0.12396150959547579 1.6241336667534636 0.0551067260464224 0.45859566857577 0.952334873082878 -2.1479188649580547 -0.6366539670813873 -0.35590912053187196 -1.5380576263799104 1.0535943449728309 -0.37522399236437015 -0.7355521336889272 1.7611021817292456 3.0150152657091 0.52773761377224 -0.824270272913187 2.468395653082592 0.6568030340044066 4.255633322495515 2.090096766787467 1.3480605828135492 -0.27954607002719606 0.1274206119906978 1.417732837385977 -0.938855935577889 
-1.3902445899771092 0.1558445920160015 0.757126415304467 -0.48061254989641217 -0.3610567039254765 -0.9384259681600311 1.3407854485914887 0.3001854360280694 0.3424438090670994 -0.1388204397023706 -0.8784730516633281 -3.060080683898281 0.0073976017075579265 0.010921627751614718 -0.9840160206069485 -1.6261821748058471 0.8809196229519205 0.8112793865842883 -0.4985019082734756 -0.08950242815757468 0.21598324162000881 -0.4096229968678863 -0.4019388220113335 0.04503502373129141 0.8981282913150169 -1.02530495079408 0.7729325205873212 0.7110215935547194 0.1639084962660436 -1.339604165595868 -1.5732193888193153 0.033258352962544556 -1.3012142035264875 0.5414903238125686 0.5891709992283997 -1.508910847820544 0.9937791734247737 0.8848678163935242 0.6523441224715723 -0.09613249699178884 0.6012797428372343 -0.6071039344864821 -1.1465042470911222 1.1505029384369578 -0.21427457251194695 1.095582783754762 -0.3658503134337444 4.130785166262253 0.9058267804967925 0.8567337972712199 0.46320549816807216 1.310979865869445 -0.00018858110921280945 -0.3497179113509638 -0.42386739771841575 -0.49852095053719975 -0.3263108288532365 -0.9378172684382089 0.7638983659076362 -0.2622809343742361 -1.0724535041616368 -0.7377597096945028 0.12018196842982244 0.29371513378233116 
1.6474948155091116 0.8542077751896079 1.3938740738385387 0.2681887540238501 -0.031867312914215955 1.4267797869852354 0.404873835813003 0.7118464585558616 0.6116552310046196 -1.6522977005431623 -1.3503018950293395 0.0792960728040788 0.9536945310069558 0.5833898740957889 0.2703508189357324 -1.0152849472866656 0.5214188579945925 1.694357850280645 -1.1141409541622915 0.0823015923009765 0.7992567343207171 -1.0160421573320213 1.1036291970709007 0.09939374688014141 1.5932874502948258 2.4781510912880544 -0.9613522963988328 -0.43352659972239027 -1.7775137012551687 -0.3608026981731731 1.3053878578641656 -0.1696892326910997 1.756424733769165 -0.09247998685937214 3.452658976708476 0.02734093126456611 0.26428465441670784 0.8995811776534031 0.06755756300513373 -1.1427456124406168 -0.8309889997795168 -0.1072507011385819 -1.526148757318372 -0.840937922181421 -0.9693869145358086 0.8422088176162055 0.9819513152980595 -0.6906917174975723 0.4281837312996035 0.9783334811397395 0.21511931104533857 -0.26501355973366225 -0.5467416468673044 -2.7758400154895995 -0.26758146080535766 0.40107951204667314 0.12210500344035469 -0.2606862084790089 2.4415900744867396 0.08151253909167222 2.7115116567353033 -2.062261971539873 0.12647311871288985 1.3169598730091336 
-0.23143759292641647 -0.13135856953220248 -0.6917801927324416 -2.3616585275815716 -0.33633591828126164 1.2887056574080695 -0.20050020648611058 0.38146403500008574 0.37676880847454947 0.2919522590805083 2.6737392633489816 0.4614546708384102 0.947581530941592 -1.148190570030366 0.6034549406494344 -0.3555813133938755 -0.4396139648243715 0.6421563353100163 1.554565621810119 -1.2615774569289395 -1.232707407164038 -1.4432426555540412 0.5584444214690919 3.014239436609144 -0.9297208637520992 -0.28542571446622567 -0.6482713818961717 1.3167272859480061 0.4421728106609629 -0.4220724652883986 1.105291741885639 0.8840790054313976 -0.1673936428137971 2.172696973082087 -1.140864366956062 0.9530850776877844 -0.19378104069238475 -1.0101082634893632 0.053376412307687866 -1.5724789757694744 1.467969196081742 0.9301128914002182 -1.566536438078655 -0.7702251688831486 0.6080843057439904 -0.35743913615980344 0.8979216090027707 0.6981947485036214 2.496315567068946 1.9640216054479442 0.4726084058104591 -0.200819124037328 -0.4499977851619316 0.8825027497841037 -0.3112745191940459 0.09822998172868483 0.2277580895036617 1.7369500551535815 0.19252959290513036 -0.23299771151978876 1.9089890443925854 -1.7365172458225997 1.4730525620711534 0.4938669199947737 
-0.004530607267563081 0.6979249458549873 -0.36437113443861835 1.4991292507517844 1.0400987450845351 -0.9942535040050978 -0.0015782187457533822 0.41260866741490726 -0.6776457703792261 0.6734056358654711 -0.06045714851202944 -0.33591578191059057 -0.2835665124383258 1.3812373563697773 0.26887118264841153 0.19839605365529384 -1.093412889562301 0.4929825327064953 -0.2121013842640039 -0.856498652569683 -0.12497849677754189 -3.8855905633753047 -0.011823118285718326 -0.8346477268713852 0.6176806647254423 -0.6396189493035512 0.5679779917735936 0.44517857702184677 0.08876951044998894 0.3207470969211438 -1.1122576391446495 -0.20140141159434716 0.11143346474234748 0.03523111874704055 0.42238454715280943 0.949347035484269 1.410245247954831 -0.16864786129790066 0.7863311434525868 -0.42142812120891554 -1.3522733794592754 -2.092690063579619 -1.2141355495457324 -0.6652805340402845 -1.5748825521692837 -1.2532882075676024 -0.7960668271744267 -0.315103536239714 0.09946001276056464 -0.9346518998160925 -0.886035750365875 0.5722901400143747 1.6370038772456572 1.2522405532359921 1.680583701883681 -0.6530341848816633 -0.422386466534868 -0.40891144221703957 -0.9811561771269772 0.045733529672475126 -1.6539407194726774 0.11346159614814177 1.3542410921560644 0.9652314928056206 
-1.5645278537558123 -0.8382601552688599 -1.0904983121230096 0.23858850703858753 0.4767161659155372 -0.24281453931956026 0.31880112253262954 -0.8070339951716806 -0.883770369613422 0.7466008983415093 -0.7932944953988309 -0.48098147667821295 -0.7014902002747232 -0.33542312890703546 -1.0956312071364769 -2.1212628905135658 0.33191514611362377 -1.228861550971003 1.1054326009074946 -0.6364657752038373 0.9566096836204151 0.6499355887477294 -1.2662174538910718 0.8821493882001699 -0.4242173196855689 -0.6406318518631824 -0.39271099226048944 2.1666161739142638 1.3695474106407797 1.4246755329447607 -0.8738034616092076 0.2429721651564905 0.6464697318774458 0.8006699951659507 -0.5970210207254009 0.5208643275668678 1.0413341964223175 0.030201128079703626 -0.43256849860766416 -1.33817734129142 0.8737812503678779 1.4642733030568513 -2.339911191445501 -0.5634770531581773 0.1978421254227025 -0.4708944027903424 1.5282409314124141 0.5280212945847162 -0.9407597664093267 2.4378818077031057 1.1764802115688064 -0.5513685326802569 -0.8559999124852353 1.5402438707671209 0.8054438896948368 -1.2793625217300406 0.14556687342019692 1.0543882771300919 0.8745869991004481 0.7006304678464037 0.7917980553937667 -0.48129780328889077 -0.6131437318514485 -0.07828657611904974 
0.7269416776239833 0.09508600648945775 1.5514809003500742 1.1827343552207896 -0.18050715734523554 1.276531869660619 -0.38029131980326975 1.9899018384987082 -0.44994578789061884 -0.0591323608742274 -1.0098912371941282 1.2404641554249332 0.5725515885573993 -2.1040746228864524 0.6675505843853963 -0.030986038517508092 0.48841618567308126 0.1956485977982773 0.6705695027420583 -0.49718708321141686 0.17415330117933778 -0.05346249005156942 0.0348504044534847 -0.978679430753655 -0.5162837298817927 1.691894869284904 0.3223933239742698 1.0260619130515665 1.9670259017329466 0.1028447258188393 -1.578486836449534 0.3556420274800222 0.9921475920711769 -0.3294656738034521 -1.5188811187990814 1.3106162501183016 -0.8840087413395843 0.8891571880002483 -1.5701576051622144 -1.7494853568979232 1.524458626715816 -0.7576290797270928 0.07044094609036194 -0.14436975175847053 -0.17488525674437083 1.074698836668135 -1.2105859271704142 -0.6207921532907765 -2.3604922418439775 1.0585829357286662 -0.9685340134546557 -0.8290272398438706 -1.1784200076657347 -0.7706454476495617 -1.4477773197678168 -0.01962497317425836 -0.5786536109709101 -0.1443083057873046 0.29569338008735785 -2.3700474382791143 -1.0903899915989197 -0.4284909331532786 -0.5903600376206098 -0.791477807877237 
0.8834341915973056 0.09964030356887406 0.526387499640085 1.4467465331244505 0.2046373078987482 -0.38596965168773073 0.8404549160942513 -0.4132768428492694 -0.5047713905960575 -0.07338657744597096 -0.3011615876891487 -0.35208876218669594 -0.7640086048622892 -0.01969164663365673 0.3292805300563117 0.19890954348885848 -0.25920466699632794 1.0587404667692446 -0.6081707385800686 -1.3627054721909302 -0.505051354065561 -1.0826084647280263 -1.0373656910567404 0.3665222146633662 0.6344188622045438 -0.27564987436681304 0.8291408199612245 -0.5314694802043448 -1.2839917259614 -1.7658000729774603 0.08571983596566175 0.7872343918171006 -0.7630887743583639 0.7613974437642166 0.0176062569444936 0.9457413509922707 0.027823559661005238 1.0674133859007156 0.7478970686134011 -0.9320897568970161 -0.07423343312367886 1.8431626620985937 -1.312047423223799 -1.9945377741305939 0.850817206243447 1.3784662729411408 0.640595431553901 -0.12268526601606115 -1.007866921675857 -0.430234196216099 -0.2924960925748974 1.3449259631163448 0.6913747676982318 -0.39091751593316393 -1.1684464354465407 -0.6252379129987933 0.06716225545954799 0.10764701411816828 -0.6662002667369464 0.6510618057756559 -0.4976493626522876 -0.6164586170661761 0.3713523232148204 0.08123903682734841 
-0.134588096639181 0.2929125338527762 -0.09119955359894968 -0.28768891481453657 -0.3969895431323726 -1.157461578953686 -0.5105433321612304 1.182675153924389 0.6668014026834693 2.6984904024300316 0.09624812515938068 1.6141187843733802 -1.0992217366578 -0.44853436030092475 0.2898289986336147 -0.4839228544745133 -0.36717834932470633 -0.6879401944738782 1.1775753597453222 0.5483937824982583 -0.5034936075162374 0.27816180156726755 -0.02508296832816524 -0.7601472059931479 0.4594029900003363 -2.35523020410721 1.5655606097634742 0.9266211087927304 -0.39986569931513355 -0.9396312755617446 0.4215061421323476 -0.7791661374087848 -0.2052400103689671 -0.03979339552223668 0.4266875350396886 -0.4995438370339981 0.9982815498538689 1.4740850693633376 -1.036514226156708 0.38200388256580503 1.3090466807217482 -0.9864462893637025 -1.5881375221982 -0.11847092728257208 -1.199151534384331 -0.23481955903241233 0.14202253705895568 0.38473264517367145 0.4159390978530509 0.6735822063419221 -1.3775373500715695 -0.787408667124425 0.9783939845070323 1.2035806727449805 0.08216697327087823 -1.847560624911006 -0.26031863551996465 -1.3605386855442139 -0.251873749861479 1.0347356316345935 1.3204740068243808 0.12648245549869316 -0.9804291083505623 -0.1223214754653159 
0.9475932075061372 -0.7479070046691864 -0.30724337791186873 -0.47207509455339186 -0.35691380737877204 -1.0543934728468085 -0.38235495030597366 -0.03022346524946041 -0.0581605187551784 1.7432323035372492 -0.3574523789006795 0.8017793046515284 -0.6358271200395313 1.9725729863389374 0.17349080633266833 0.22278243429503555 -1.5242550584606473 -0.4857494233909894 0.344258734659502 1.4019452972146131 1.1106294576381308 0.3945373774897969 -0.9925392817481626 0.5257258888362988 1.4247012674308757 0.04642320710900838 0.45189353670242405 -1.2919708375465873 0.7675933139552323 -1.1515733695928152 1.3675082628752095 0.8798370925502923 1.038424256113348 -0.2604872641559313 -0.5250397837496662 0.3582104654577114 -0.6727873338450091 -0.5562591234309061 -0.7277141053592336 0.36549872146462836 -0.009898246109877952 -1.3089493411491508 -2.830993740293794 -1.0989285137034528 0.7710448476442319 0.059655321584090475 0.4850474343010292 -0.35641282013873726 -0.09412403147380313 -1.2279045279104277 1.4618642749737663 -0.14207031309570345 0.7581708201615386 1.1741471659089604 -0.08717757030289283 -0.24534045186303463 1.8597233158431625 0.8967406675131592 -0.6940782700396625 -0.38123094527487705 -0.44070077045742445 1.2130342389216793 1.7636434378718626 1.033873292227143 
0.6453662755447759 1.3826920536809097 0.6175240763411792 0.2694891971603809 -0.455782939575855 1.304085481675742 -0.29423596621299297 0.2884917187731229 -0.6510045250780483 -1.0678329897468515 3.471809298035798 0.3027341620010442 1.6553404136347865 -2.803931263302844 -0.17249925851344453 1.467283390407651 0.815998925253777 0.2590476168755089 -1.2013162209503334 0.3830842297168025 -1.1378923273102475 0.7766889394619766 0.210598369697445 0.862408505655014 -0.1276359492016216 0.4963257304172865 0.5033214217179363 -1.2146057607816505 -0.05159621973836599 0.23975538680752023 0.8742942894713255 0.2102805879727398 1.2562380288709152 0.10960717855469503 -0.5167831960871201 0.7061782658822996 -0.18034878323949396 1.715591730410839 1.272332447538007 0.5608078947464455 0.08367131352481931 0.3211050714948161 -0.5746243965879988 0.19225494875372426 -1.0938759149950674 -0.3476300152474372 0.1741184553757932 0.3596972395128494 0.1600810800867863 1.119428983956337 1.4779398548300777 1.6033191627655317 0.7125844784229117 -0.9387276893341855 0.2473454113938988 -0.6035414673620515 -0.48770027409552014 -0.6584270875333752 0.5011890643647241 -0.7027463108465254 3.0003710363333456 1.7650982489139386 -0.5871082908410203 0.558303762905745 
0.26312270490169537 -1.7815987344455655 0.628673202355839 0.5267791577145255 0.45610569961473874 -0.4510573948184488 0.020770639385051224 2.509808846800768 0.2710203632868425 0.021008886660215158 -0.9546089941906599 -0.2715832752718795 -1.0861943906488274 -0.12066459119537493 1.942754449789272 0.32339998595958047 0.35611892790237104 0.018593266938452944 -0.30158079308437136 -1.1630359939556236 -0.18043415701168222 0.3192336914166255 -0.046876577453165875 1.2301061871485546 -0.2993040038818528 0.44186629059880306 -1.9603896435087074 -0.07918940024038351 -0.7862528348559259 -2.156953255053391 0.8055847897444146 1.1062381951526037 -0.7238988746676589 1.2785726803580062 -0.3352033218188892 -0.20113213773854136 -0.18688782029244264 -0.33036065360030664 -0.829622828940284 -0.3330279662702481 1.8016768485013726 0.6319683151044518 0.8424799840512797 -2.2806499304982197 0.7278066531825476 0.2130241790854997 -0.8775503395542799 1.5554298950710372 -0.5126200482722388 0.07284821101283173 -0.8909680892184106 2.0453256233556747 0.10508169967675579 0.34502200524200816 0.8775019253274877 0.49813565297900764 -1.3070371977445516 0.2953055120452924 0.785002312940084 -1.2005540488984743 0.43763206370226526 -0.5463851720940323 0.23855655778359228 0.05875673695782282 
0.33453158331257826 -0.03871333326075735 0.4461641849305531 1.6941155133269097 -0.2901629525810095 -1.4325236720281334 0.20120554677999575 0.7931170006163144 -2.028219858758284 -0.4935323993540407 -0.9281544103805829 0.8364553777580088 -0.43267160810002075 -0.2045700455812602 0.300303011916651 0.8969072816979289 -0.010120953070411515 -0.0034452346310509738 -2.537980596345411 -1.0042472006263068 -0.5316662398813171 -0.578005879162039 -0.7355882094633612 1.2663720747286642 -0.11216806789785208 0.4707523601571038 0.4691254357093346 1.9369756591841454 1.5356366706335598 -0.3306177239612686 0.2892103513302082 -0.38497705234276325 -1.4018160081931756 2.8881171661916833 -2.5091186133474896 1.1451465040987954 0.1550183721166241 1.24172516849917 -0.7829694721215431 1.1754125480922728 -1.1854270632705062 0.34490385058208084 0.4180805385341029 1.7592178325590613 0.34934997873356843 -0.4733709813835653 1.6155311555053284 -1.123035270700038 -0.16792777676538753 -1.0786317236594563 -0.3140494441970527 1.3179572995812285 0.2751273166265283 0.6661267463389158 -0.15596891565662122 0.2611642260959181 -1.648825889120555 -0.3035360828321978 1.9602582966777276 -0.327076742767348 -0.6559375106861696 -1.6482692637151999 -0.4058281705907622 -1.2512933908398045 
0.479355103728871 -0.9711890549728225 -1.8868952151477785 0.9818955516617911 0.0916981396303134 -1.313970243447551 0.5306919538535241 0.7381291186062449 0.22704881915515984 -0.22635078143098822 -1.2878446193521715 0.3488542026654249 -0.7669749656245415 0.9948817368751467 -0.15681848507184412 1.0547775033013276 -1.519071743625719 -0.5139329722750852 -0.5419437755003862 -0.41484707774747953 -1.2334012485488923 1.4264449090286673 0.945821062203372 0.9765068473661376 -0.2482473645096246 0.16638859299433278 -0.7133046700196078 -0.11910380413631799 0.7289829782947017 0.9977555499125802 -0.12872689456800615 -0.22422351059866338 1.0854368482442427 -1.0825567183625737 -0.8052031314028305 -0.4603882869381946 -0.205653953317616 -0.0017465411069352752 0.03054328243136039 0.7805247974250479 0.572353052083984 0.9087416267951637 -0.34222034215375785 -0.6509674070679389 0.42455179527091713 0.7138723040094418 -1.5693379342600173 0.48683399097629065 -0.5289313624915727 -1.0603946698004538 -0.6074858145371989 0.8060813731508842 0.6791920779899855 -1.7999558334457268 0.30975825690816183 0.18877209912529752 -0.76015914271135 0.43218621162516907 0.7792823565362632 1.139727664189005 0.014903338675224035 0.15587953583759281 -0.44970972750342086 0.5640358864670006 
-0.2713447364704077 -0.5466042443620368 -0.8895430180056494 -0.19472127513715312 1.5311382194999472 0.27272643024982696 0.061910044370971785 -1.3261386221157916 1.0379203808470197 -0.966032875878126 0.14099071746759953 -0.27067155889526634 -0.694877062798865 -1.0459514709665634 0.4077796418045026 -0.9022888163926671 -1.1314898068192702 1.3985475011602577 0.2417719399854731 -0.3917102277188963 0.022439113122041145 -2.1799345164583666 0.28077757527815345 -0.9646805574387489 0.46233360479388735 -2.034355726889733 1.2525348810595787 -0.06762392523460385 -1.5053906069365914 1.8675817502870073 -0.5147578277782671 0.167534969081732 0.36436857847428894 0.18436397078076455 -0.057186071186786855 -0.9135428751145573 1.6869486675167344 -0.8275764760807803 -0.25806718814743457 -0.9879546141687531 -0.7208147218546997 0.33439249998957116 1.040008453420902 -1.4318501766449723 -0.5659011779680979 0.04147670827073837 -0.4473665275372602 -0.366521260708066 -0.44693809474963575 -1.4744761824348727 0.6056626380455983 -0.1850124884897396 -0.18552713536826876 1.335293505055641 -0.0812051741547594 -0.034514058624456764 0.8543660146363284 -1.3324440538821283 1.7544860192069685 -1.5023459046112118 0.9806746610783776 -0.8474757803316284 0.5041269256636906 1.4495571782042291 
0.33584710557253 0.7264661669412894 -1.6085775899022137 -0.30218751496297214 1.1924987739552566 -1.4531721246602027 0.11801195484851022 -0.8242293569711843 -0.5679545532240674 -0.2764350664788296 -0.08315668746356299 0.8514998169817922 0.5018442061960263 -0.20753602577375976 0.2661916814335023 0.48399896820814 -1.124621333748094 0.6332945065866944 0.7927516196149402 -1.2146721005789944 -0.9163373524284193 0.6070782607980015 0.6538695657610559 0.7218575742567452 0.7366386309032448 -0.6061933823618015 0.43692965229242536 0.8926713539189475 1.1354173055853318 -0.21493885115651393 0.15084833218332935 -1.0430565717174247 0.16261338279624485 0.3767681499258826 1.8009569467638222 -0.5560166902439878 0.18151086739930153 -2.07659131674701 -0.14724350426829574 0.6984602895859313 0.3472849155745913 1.0905965783591713 0.12744941305096427 -0.32447894912171876 1.2661484576384998 0.1659772446733367 0.4132791469032152 0.04172089004596421 1.8647409650967401 0.1552013777285981 -0.24994165514430386 -0.20459949908882255 0.507004354666903 0.648056488304931 0.9759927037961775 -1.3832514812871468 -0.0659714581755297 0.606174476906264 -1.7510746353895854 -0.7937437939394815 -0.3990776782014626 0.5108335686997605 1.0314629473005066 -0.13400561885449747 
0.5133086754565042 -0.28198750997748384 0.05538898047956139 0.9815329784962513 -2.174311802780847 0.646848433959389 -1.7822496507757357 0.5552069109850487 0.7552984171743109 0.2676767405555125 0.07384964012327871 0.36892245852024697 -0.39581643526586435 -1.123619257901401 0.7412424042733448 1.135405529889566 -0.6253736997458033 0.17961052007899986 -0.49294305421789003 -1.6973740708091767 0.8748691766525318 0.0713173832523665 -0.9815268764225835 0.7384276028993727 -1.9908280624333305 -1.4647565093973436 -0.6677060246002094 -0.6515729047157478 0.9996725934306996 0.4802632113134949 0.7369677832890732 -0.39269849084049324 -0.0003082583588752011 -1.5953473911106502 0.212815211712921 -0.4834856859771412 0.5318604764265872 0.9944176400323494 0.7780326070563945 -0.7520738926524981 0.6669018582767429 -0.30658057519118115 -1.1440015400461216 0.3815309221985398 -0.8371132609432862 0.8831850137713828 -0.17137114290717587 -1.1954084491181862 1.7395220155697422 -0.8106736290911207 -1.4331079988042412 -0.5653955493730852 0.5863716225908817 0.28560948215475324 0.3066942288217053 -0.2816880654325184 -0.6842963269673383 0.20844163183232212 1.4564912653291806 0.7189116966319961 -0.956713698845745 0.10139093359402712 0.8083211747400879 0.9043908009935304 
-0.9710175699126535 -1.390998548443843 -1.0804112797350123 -1.7835284901721593 0.7840060603885803 -0.9956634383648619 -3.291119595720664 -0.3344368101116728 0.7867981659600345 -0.4268208551264014 -0.5337681360535061 -0.2018505555972192 -0.5102392573080916 0.13104891571431038 -0.9438531410447907 -0.2964002787090924 -0.015897640171312018 -2.2596553790161997 1.0550269571950648 0.9061671170390557 -1.638153077935801 0.4898167183976935 0.5404559502320001 0.2565474146828751 -0.8189040630172536 1.5249898800724746 0.5432448680908236 -1.4710610135689564 0.6162512959507984 0.8315356293801476 -0.19512927076450345 -0.7292649746385741 0.37342773753397007 -0.08507671145402562 1.0707340743798466 1.1947132708870771 -1.4446879186252848 -0.13227620421048555 1.4908309135732898 0.39345442688204 -0.9228582625463738 -0.4305100830474958 -0.35052670091938165 -5.462224318335087 2.0691987152306472 -0.12990919629249623 2.8149370509085134 -1.3048126922839278 0.8888607609842214 1.0338259531176952 -1.9158411006817289 -0.3592721804868418 0.1311414674620616 -1.1142028704655997 -3.306355383038782 1.5107278990404573 -0.6376318019436583 -0.905570045857181 -2.286654199063593 1.158339880761128 -0.14371611826129801 0.9237136831365844 0.31768698035974874 0.9482316656064114 
0.30198890732391853 0.01553159595693007 -0.1346216930295914 0.8313170526855457 1.4603501857367238 4.113065197377577 1.1791861399002341 0.585157367011798 3.1784239904634655 0.2224940435335288 -1.7450166434246133 -0.1475679700425619 -0.8066555884499765 3.098751828960784 -0.19972123766246405 -0.7299263931471397 0.29554191127025586 -3.13413304238641 -0.31137708252609 -0.6320574634486672 -0.7473438186454728 0.42174860340193865 -0.13482253060541444 -0.14005134274841852 0.19685375232944927 -0.5892890841887113 -0.17515780084463262 -1.467385057552691 -0.5588928250639409 -0.06273858304366395 0.5944059099635315 0.7261576203581985 -1.4749201984922717 0.5453149190488263 -0.800252262396812 -2.7145311012596056 -0.5520642418437771 0.6818036909490904 0.8854432160049673 1.005428293678961 -0.85839658703341 0.12269981568319045 -1.987487584521734 0.5504584002851394 0.10341374262104414 0.11796965930914521 0.30806684757499625 0.12889348993909247 0.9593734652130735 2.1279983011429215 -0.6094302204082128 -0.29114555964852307 0.7836658580444495 1.3396892862956602 0.4781256713129366 1.972296568684444 1.7169803212703494 -1.2673692363865319 0.28877345896729506 0.8248855003375419 0.30156687056366954 1.334140762942473 -2.3202687013100425 0.8340226010411226 
-2.139425021737814 -0.7252867701173118 1.852898543002731 0.9217568042967333 -1.1639170528279055 0.18929226161376805 -1.6087085155911676 -2.0839864221493984 0.43571611812442484 -0.6583785063646432 0.16444986217630206 0.8422027575335751 0.245675445452273 1.2686109555125198 -2.0840027259225766 -0.18954622554374953 -0.1960818941307941 1.602420261285932 -0.31259823683552396 -1.7815056775109113 0.9130778662965376 -0.12438021951377567 0.09391276918400696 -1.8956019860580298 1.368393417987923 -0.8409096786992702 0.4770150188936165 -1.0028114322821164 -1.2976293678974413 -1.752346960025225 1.2701285604750485 -0.6672098081766916 2.486361544762244 1.1277870357418636 -0.863022478428172 0.5792614677441591 -0.9019551448014353 0.6768837767555368 -0.0013530827915535317 1.7514630104934636 -1.3143582416958002 0.43270136925848157 1.0341904629747916 0.5984524463590654 1.718673101137391 -0.881361229012073 0.5435771660786929 0.24786890166394457 -1.0525854274235067 -1.5487581939677664 0.14291722841630417 0.2622163439062869 -1.442570787728204 1.9708076866715403 0.3364194581084967 1.0927241821066864 2.0385200166191835 1.2354437382013999 0.9240211820486177 0.05635503039335987 0.28616071907619633 0.20519352604759405 0.7445411675637863 -0.9161355064422168 
1.0037127231383045 -1.346655638067769 -0.6816534288336277 -0.9604836020705636 -0.11827331617453168 0.46609177788795403 -0.35798341773317116 -1.0775222550248231 1.0557975875124936 0.5151057156806329 -0.6856436633085642 -0.33472118453717636 -0.6085471000977116 0.27032983045356734 -0.10110869707796663 -1.6888756789842232 0.8297072043993504 0.2703205933848961 0.7473739186507284 0.6272253326387847 -0.8577270035696403 1.2045350940455446 -1.2330169985255162 -0.9389537516897392 0.5448024598425973 1.7157168519844028 -2.2499000067012065 -1.0176419784953055 -0.01391116886181932 -1.7503036493521487 -0.22527783091872727 -0.6584724785448025 -0.3557483343952909 -0.3812969480968109 -1.4423033269702377 0.8797031796569766 2.375609842061945 -0.13389134861895102 -0.5493178684986075 0.2357681081412588 -1.2390274129269498 1.9226792707506728 -0.08970684990888596 -1.4636964939803707 -0.9786041247490369 0.2301518564232962 -1.468941109652309 -0.32422555736213665 0.41156196361363445 0.670597662938196 -0.4965327494643532 0.2791259424473493 -0.2546082685175202 -1.4389416069022913 -0.4097551901293922 0.9794298728920601 0.3425280147475308 0.4566303465771046 -2.3958061341927874 -1.2633599365878474 0.17092439670730447 -0.7341742728038203 0.44657052536277364 -1.453226444641966 
0.8731569815679842 -0.6281972580261737 -0.8626895977416453 0.8671205536506429 1.1483994585540434 -0.28223810779335334 1.3866957113716707 -0.34393976973369444 1.3130758044210624 1.2948094760829885 -2.175318250534938 -0.03203197534751265 0.8871182996167946 2.075082879089465 -0.10148419155010124 1.558724275088459 0.47824422855165627 -0.27425036512686773 -2.7948434369612065 -0.011132487965399767 -0.6552041756882877 -1.3729182466594356 -1.2052518267042054 0.28291288609422277 -0.826423466020469 0.14429573389732994 1.1244324422041694 -0.4271806968873819 0.5489077542914885 0.6505970676755242 2.672583323251161 -0.36622813129020104 0.4856501211183858 -0.07978807161879543 1.4085839621390153 0.979607480034364 -0.5702407234237274 -0.6339282819464492 -0.16877529220621443 -0.2070290133091411 0.5821362647354589 -0.19390549384501948 1.3287733397125627 -0.6840704916639048 -1.4516544277031553 -0.30916248630598125 1.12289310571309 0.7877787543673841 0.4385665571808737 0.864606519293646 -0.7663326984805078 0.2535892075877782 0.5274847197132131 0.6416883943923734 -0.426397260944243 -0.40291003109042023 1.4855638037821075 0.29232273656299945 1.209121937132246 -2.3301907804167494 0.09706412503943866 -1.5699222299519595 1.2538816146644305 0.6329205506370018 
0.7453179458133566 0.19216943763568178 -0.7275484121285283 -0.5562907085847879 -0.8888855689723001 0.6096278331468705 -0.45825165729279566 -1.407418692628287 -0.22560775118721782 1.1814494654066328 0.26353612348248506 -1.0540917882913798 0.13904810563208087 -0.632842847845929 -0.525990244999381 -0.1378212775327075 -0.8084563865319718 0.082663128370538 -0.7434411992704555 1.6171610129594816 -0.6023920690933167 1.4175229056116605 0.6123238136470924 -0.49693870014491864 -2.3883647749521795 -0.7279489121454298 -1.7509499270985216 -1.5460502422535045 1.3248960959117952 -1.6161615837239989 0.7524716170925673 1.4527612465121653 -0.15983035355688474 -1.0090320880022798 0.4673708764222592 -0.5804980371166422 -0.46516270565735 0.1545478809123381 0.7094232542047407 1.4006483510027108 -0.19113293409866833 0.6910608969339044 -0.127212074083118 0.041737369201083084 -0.29931196005465344 -0.538227176514146 -1.8228589434509685 -0.5372428913612759 1.2990129066186522 0.12846160603159523 0.867771498476885 4.487800708348057 -1.0128004888946787 -0.1301366085637282 0.15271992999673806 -0.00907425092373952 -0.87528343455546 -0.19490759749471823 -1.4692046577780056 -1.2373512403609321 -0.3240385371435677 -0.8723170654092378 1.985204202727447 -0.2558732809688627 
0.14161517650751415 1.5960123677788367 -0.0034323896628859407 -0.07454939958327957 1.055377691366022 0.6870718839894127 -0.2744183855833381 1.3085437266245379 -0.2629711979414351 0.750764088064589 -1.1121733549050965 0.05571121897087013 0.9099140753089582 -1.3898919733042268 -0.21631077862686773 -2.6981713256115327 1.0812639110211135 1.523259590598037 -0.8757855829392795 0.0560604019908302 -0.5587424031346132 -0.376045346656976 -0.7387009645777501 -0.5472777179409997 1.8578047982731531 -0.28924514126187756 -1.307500950937138 -0.4205541162493586 -0.07548888429550375 0.016522775050039164 -0.7171092004637454 0.23771770163393324 -0.2799213458640719 -0.4674112966787147 0.03719544705985787 -1.5948917043578674 -0.5282854171421522 0.7556466372989887 1.570092468220788 -0.10540881394324997 -0.19071916773227734 2.0546756759629536 -0.5012169182131709 -0.6835111776873792 -1.6025931978151506 -1.6242860587066135 0.11019633452962103 -0.3963894077882576 -1.0594539676533066 2.45958239154551 0.0310642205740547 1.056951733892409 -0.3618953476428272 0.19582821487130544 -0.1618002157818377 -0.7627011444334277 1.043830300480814 0.286018484897645 0.8220212437335292 -1.472774424451626 -0.10479566266622446 0.04348957163347522 -1.6078140941949373 -0.005296756473956464 
0.9626488587915925 0.08163887828856041 -0.8255524417481773 0.2832182633918528 -0.5677023219006389 2.3431649469084785 -0.8941076648307077 -0.7701720428859483 -0.04124078044391536 1.3462337780017555 0.007250721007414271 0.26243214362329675 -0.0010266482790238052 0.9852384665379299 0.791501984402844 -0.3823087465505195 0.30978190038833747 -0.7315741555100161 0.22547443999607053 -1.0482783567414253 -2.0099151486484628 -2.386422821824084 1.1414064183848551 -1.2464029396114336 -2.343464863917725 -0.1966748030079009 0.44925646552455145 0.06276823942381811 0.17985817516682798 -1.2465836228039333 -0.5597764472560423 1.2920752624527485 -0.9238716573436427 -0.7785962399721148 1.000776988962032 -0.0009384516190056054 -0.1794089684465287 -0.11364952613034336 0.11422737323782496 -1.0984765841508688 -0.04857356521888312 0.7557502253047588 -0.6443788867151019 0.10862292738612238 1.4011953254123097 1.2876993271740373 0.9301608662385012 0.9945884600966205 -0.08710549086166296 -0.06405834204768988 -1.3101274449438713 -0.29275643505527177 0.5854943551465622 1.6024963050409244 -1.2673299888104606 0.2106570723363531 -1.6286589331415569 -0.1653386725221617 -2.1571140630628522 -1.2725251552161183 0.7351066928751105 0.9574400396236428 -0.35737378214065907 1.2209711266294505 
-0.37069663505097616 -0.03821904508985945 -0.4061784144453431 -2.0565211467212 0.22384728425823164 0.16013922208886813 0.13811700550563483 0.33803794937460774 0.3869815940534872 0.879474975984601 0.30799290969199866 -0.41088473097180117 -1.6871110576490218 1.1172674676194898 -0.448468304336639 -0.23088456857114714 1.773009454885241 -0.762696204897293 -1.5258698833799627 0.6717906858693699 -1.3529191667022478 -0.5822433874755637 1.4862834574783232 -0.8046351489854499 1.6665911255013204 -0.904788694069901 -0.17795362646297574 -1.8500438423701695 -0.8325212926921964 -5.217952400121941 0.12053949877763158 -1.4469912070118114 1.144635965165368 -0.42112389908123626 1.233404206766639 0.7814499602727627 -0.5957197018024903 -0.2439977386209536 -1.1461278066169638 -1.2102637503574374 0.9521936411175852 -1.9600620729955474 -1.218023466610453 2.9382027333019822 0.2089250306767856 0.22169721813715837 -0.0162450261726714 -1.3183032365600214 0.1845152807201441 1.6697471112781483 0.373348356111309 0.5937336150651727 0.4761625218316009 -0.24276985572030657 -0.9112224066304218 -0.596671578754947 -0.5338347802315003 1.0611535716504437 -0.44607717491787835 -0.9354391170794935 0.6222980337698495 0.7693550443362316 -0.5796215171737433 0.27072242134756597 
-0.14224232442024606 1.6800011134857307 1.2980833984371847 0.1819013454848816 0.6437224536155602 -0.12032876292167677 -0.912747356149514 -1.3728862102631108 -2.48905066287588 0.8650438055135831 -0.7051543118365843 -1.4027877245997165 -1.6051335547012051 0.1476947971996163 1.4197352363055282 0.48292971957430797 -0.5285993100376185 -0.42364860747961547 0.22801676839050916 2.450461322655391 1.1860874601560383 -0.9938352746934513 -1.956003838790289 -0.030839303730319043 -0.9164223856226115 0.34720339557080465 0.7580421386941266 0.11877800821245466 0.3098426715752868 -0.6031488327241786 -0.6511900338197597 0.22978071903828612 2.253554371070874 0.011817683754952533 1.137085645849942 -0.13653643963129555 0.822614561423156 -0.9367048694282112 -0.5271815169158502 1.9189984116829217 -0.5835386769594606 -0.11031300227694579 1.1531339530534654 -0.5478095847129375 0.38512548117380807 -1.153393279587605 1.0526174175140912 0.3191146523435665 0.861683328011378 -0.7849909150110904 0.32784157756623405 -0.016774678424585316 -0.8251545587430124 0.2829846185934671 0.6204221288763924 -0.29693000598971864 0.9239615789504314 1.360709993028318 -1.8081371246114044 -0.7200418891279767 -0.05058342733637366 0.3140883808826674 -0.6556858611297176 0.920292169558162 
1.0660553549570415 -0.08794980017517845 -0.4916306340091651 -1.238983887370937 -1.1938996862043085 -0.35983674092849066 -1.4354788113009715 -1.2913171310361433 0.5325243614627073 -0.5636190853928377 -1.3216671215845732 0.1387911419612454 1.950410612583413 1.130838028411562 1.6950452264091698 0.41643462660913294 0.2721446928174913 0.5218154399113427 -1.042781898688462 -0.4721208355638353 -0.6925148060579641 0.1050929539847381 -1.744940034300132 1.0341028983335092 -0.44707638577835573 0.2913041521997833 -1.1544517787977906 -1.326807112003755 -0.6233752842013992 0.19427726351310357 0.8579396318150843 0.5052115264987288 0.8186849391746583 -0.5224785908741194 1.4525396364914895 -1.7048116336928612 -0.11289275104153014 1.799320905943943 1.2975689725400597 1.7445853937584028 2.02049811905364 1.2792845860645417 0.2405588922551021 -0.24519514548499616 0.014215479516172547 -0.5168378422554009 -0.4489332114781191 1.6820749582498227 1.1220058319606017 1.8099498568840722 -1.0377527408396459 1.2631161756159128 0.22706604413105802 0.2975453099420499 0.07008584252667736 0.08465555213934 -0.8020394252465718 1.2329947074971164 -0.3607422867525959 1.4583569779725667 2.4811900477103617 -2.72467295286485 2.742418814963645 2.0513989447352863 
0.13783520137224403 1.248865725685716 0.7564540023949257 -0.8408695789232157 -1.619621608148224 1.170751263573804 -1.2325244018699548 -0.3474618731636484 -1.5230875867075941 2.7093380142264203 0.08987621057626129 1.4325944803270607 0.44803786460864053 1.5414332464415155 -1.0175224703805255 2.381238101100318 -0.6094603749987257 0.7856839413937367 0.26565454404495176 -0.25046740015886715 0.773943247215288 0.07477097438957754 1.1193796845866788 0.6612466620810412 0.1353275474810487 -1.8402140346930864 1.304857647818262 -2.5600795801187735 -0.7183894730158891 -1.1867222444526966 -1.5605535800161694 -0.4513635708816352 0.5156181436490195 0.2469362227217255 0.4480551343537809 -0.3362553554391801 0.7005205036294269 -4.102993354418197 0.26220357472919964 1.5949787050905282 0.37182087857846996 -1.1916948720032197 -0.3025341203127819 0.8835887005916754 -0.45044272986057154 0.25084913836380307 0.6593363172047517 -2.3778316219401536 0.04668542954938698 0.23676369342946682 0.9363577809703056 -0.39785716888432426 -0.13218779369955239 -3.108733248389061 3.8299254365068007 0.2053584662866847 1.1804439656838186 0.081474571979304 0.059964109357594025 0.10507885437946973 0.4072377121721239 -0.09412425738025992 1.001063442822665 0.4172637115090353 
0.0576153798999143 0.0015229400861117284 -0.34723676219349714 1.230241171543617 0.7824826118354138 0.3725184654464778 1.8209968434066643 1.485599993509497 0.8659047097992106 1.5417577842264139 0.4117052825051933 0.953773122676015 0.0056501054084091345 0.4485970907725885 -0.09215723950508652 0.8236332692812304 0.9094093081793889 -1.649355862343484 0.25027919326994574 -1.0464111692859046 0.28020993014587264 0.663882993429727 1.1749612944865249 -0.9764579827155726 -0.21519351934123343 -0.774806331780154 -0.32218890010423135 1.1490929803579661 -0.42246122735381547 0.538501838602613 -0.20681056799294756 -0.4075284884264868 0.19090438524832734 -4.162292217292473 -1.12070720298976 0.478978911227855 0.9450321574740238 1.3224314343121741 -0.12995575411476445 -0.8903402710348169 1.0279713506762067 2.9087615034102785 -0.7878797557016275 4.260009728407838 0.08260821901290773 0.9354964664400388 0.9361155015264493 -0.08676795076629286 0.30424939413850327 0.10335578384320553 0.9316934621956977 0.74572188226053 0.3892503638106409 0.9703633178789707 -0.2663538638234969 0.38105333732510344 -0.6784255337193635 0.5661645310248081 -1.892424132275196 -0.2935603411507623 -0.10085974680351903 -0.05343063634873537 2.0780257612948505 -0.051240696677612656 
1.1856357684271268 1.7851923028708887 1.0964904329594534 -1.412052253934744 1.121786588817766 1.8280102722510914 0.2545536289379576 0.628670622284353 -0.5526545767408293 -0.5195591467503818 0.4979360132455734 0.29141269674505915 0.5584477132580962 -1.824062065248887 1.655640943800229 -0.4778790269454161 0.3331366283310096 0.08933203475242169 1.6502988826411447 1.153545511120093 -0.11053407611556779 -1.3657795979024945 -0.57505215106347 -0.5364807572217847 -0.40749836131927475 -0.10915979081615855 0.4202255421320996 1.3899746708947862 1.6326612212880165 1.4613481869856266 -1.341986949277456 -1.0437220939309617 -0.15764631503280532 0.740751500603866 -1.063305085234411 1.1208884461770856 2.2739925114703086 -0.8755846851750331 -2.1965798883213403 0.6691285526302428 1.1821815588002027 1.1186786340188886 -2.035246088213644 -0.3421062373526647 0.47018085754719074 -0.4692064369856035 1.885014657270417 -2.0554833977021505 1.7324163054627855 -0.17620678618399008 -0.24280075261504194 0.6663050425125946 -1.0345854377204957 0.25467093902524834 -0.6382280060305031 -0.3402607208932341 0.16762283219363447 -0.8679366862840405 -0.28492493157044546 -0.1345206756474937 1.501956491285024 -0.36527451742072237 0.9489411696685305 -1.2941758609840466 

-0.0022498682551797913 -0.012022718918151319 5.040280909830188e-05 0.0008379270033835662 
-0.004037628747364301 0.01278119814881316 0.00536114274786996 0.00101624115453373 
0.004683024408021855 -0.0014925900053685698 -0.0013436418534692554 0.018497458237818808 
-0.0070353955109901025 -0.006552094176427681 0.0077782853640440104 -0.005636006086226569 
-0.0036195891651469186 0.0033488845917377563 0.0011618450666341332 0.00590947419492226 
-0.0019402692918564584 0.0037077570579377053 0.01162681658375882 0.01384966985919302 
0.0038567574905137244 0.015196731292847772 0.012940670501875322 -0.013863916979434586 
0.009960224670069075 0.006364070706388577 0.010305797980125733 -0.0020315942197949586 
0.029495303979837125 -0.002716607926224041 -0.004545677902175627 0.008961481213465267 
-0.0024693483078763127 -0.005572255131165337 -0.0027809923159152726 0.012203822391870253 
-0.029838584010537322 -0.01411445748142529 -0.004358803206757242 -0.0035064377105277597 
0.00933405167315647 0.007286425906960528 -0.005575751451517451 -0.00726860806432534 
-0.012588004703806579 0.00278196538137399 -0.005287317446364115 0.012999500429605439 
-0.00019592562643752352 0.003949228234648255 -0.012138438794190519 0.006370098342993753 
-0.00016673083911367237 0.010408833147105893 -0.008001185772534846 -0.008742291171699107 
-0.01097936303853825 -0.012737272150963387 0.007583322808565384 0.0026120264104715686 
0.00015504713180920286 0.011664501900875581 0.001616552698760463 -0.001607794152861037 
0.02303033524254 -0.012171308869126944 -0.011120516224431122 0.012967173559239849 
0.01579850050819821 -0.020948428487371017 -0.010165869072439215 -0.0027191092392762368 
0.01636152640975601 0.0032704584328857853 -0.013551278604679015 0.0036989333797766612 
0.002338851083706424 -0.03105592838194718 0.007031033187185327 0.008288346724438454 
0.0014186246132603607 -0.01198151847791041 0.007214508235711289 -0.008371325813549968 
0.00831206489896677 -0.0014789735221832775 -0.0033542467359559567 -0.022075792248346247 
0.003751042683553632 0.0009502620167689657 -0.00234729316749915 -0.008000066385907525 
0.0037163708127843976 0.00301537508519154 0.0074548164155260385 0.0031946133161796352 
-6.386322571494494e-05 0.0057770167083828 0.014330948174897497 -0.01382850631686304 
-0.009701188582469081 0.0007244195644091092 0.00022901042867213393 0.004064032742750195 
0.007091651994817684 -0.010527629851797837 0.00980421997969161 -0.01116477392914187 
-0.0025346064901535844 0.013592952033728338 -0.0002109027048579913 -0.00779611621009126 
-0.0010228302152159312 0.009326815500918979 -0.0036890405511084447 0.025251822191567845 
-0.007134252971958742 0.018906007842135125 -0.025698474274817546 0.004528568387407129 
0.0142547493503201 0.002749766213455653 -0.008863827712170542 0.0024521406666571537 
0.003633570686766904 0.010361517997977679 0.005481866784005603 0.004130210173355174 
-0.023022783910732456 0.002341705543512232 0.00029723634559732266 -0.007207850709009732 
-0.014542554376110243 0.0038497723107702385 0.002941971332974617 0.0005798882230860858 
0.0202570385291847 -0.004203481446703396 -0.010650814505170095 -0.0005309989131491539 
0.0046799820569804656 -0.013707971983350721 -0.004265799901646984 -0.021434604323793658 
-1.106909563427745e-05 0.004778432863648002 0.010347645027550095 0.005941474801118812 
0.009529345790545637 -0.010977876836095427 -0.013998949967181618 0.0004116856878069897 
0.0032274525356264776 0.0052946337950067835 0.009920280202000281 0.0021712312417680063 
-0.008411643005916812 -0.004088252576424893 0.002489019376937204 -0.013398145641886513 
0.008393920281354123 0.011555759331746355 0.010056764513202643 -0.008689280170122663 
-0.022417994973124508 -0.0037923654014976496 0.006328599500432892 -0.00035010298235437295 
0.004395196975417356 0.007734295661923411 -0.011207165799702783 0.004543354078696966 
-0.009504326461382774 -0.0036922196874961274 0.0008250059049410099 0.005286247017930361 
0.010902968411007916 -0.0025326103924814833 0.005087365409935821 0.0014585098126562183 
0.001797605362780025 0.015848980829408534 -0.0013701385291539736 -0.0024331259863887827 
0.014594062574064415 -0.013105304947731631 0.00043800854523429677 -0.01798697964932675 
-0.0033872445367946077 -0.011682619267474595 -0.0005581348712570672 -0.015572629312263681 
0.008187601621703046 -0.005042137133319639 0.005526347723415215 0.019155524362974442 
0.014212830665649845 0.013562617786251206 -0.022568464034807015 0.018151340071326266 
-0.00464041485653352 -0.0032855586710208292 0.0021300665564529487 0.003488074073886577 
0.007437242984496296 0.0027915050772750424 0.003587837212846475 0.0028662853409347645 
0.0010624152153032667 0.0015152592431396104 0.0015204164601248715 0.020678837795627125 
0.0034519169551190973 -0.007789762072336011 -0.009134401633919308 -0.010336967929612034 
-0.0017444146570467294 -0.011337470014815505 -6.295722911388792e-05 -0.012991785138175093 
0.01175484186345846 0.012549199564830976 0.002999897274668776 0.011985649166297232 
0.0005859298005521546 0.013693159276097669 -0.002096918688977284 -0.007789739591697281 
-0.010900555871708358 0.0031251331522240875 -0.007233952759750443 0.009396537825823484 
-0.003561730736136677 -0.0003949312285923216 0.020644061670931146 0.01130025060631573 
-0.0017687171594668544 0.011469508082189321 0.016423886473952095 -0.0011652577393791955 
0.0013208181519689063 -0.003063319020537366 0.00134549378636616 0.0007669401553932614 
-0.009059060508007208 0.00012242921108879492 -0.009940210047874005 -0.011757171702007671 
0.026882634672696765 0.0068120636930429765 -0.013753447498908774 -0.012304432036063481 