6 64 4 

-0.16779752730075626 0.1550951359403945 0.35520010349618636 -1.4628929629096044 -0.0272287759409535 -0.3734447123671711 -0.2877237765633212 1.3568458485512354 -0.43594774966959576 1.419761119953234 0.4031915130192915 -1.8166922067465612 0.5289504670083538 -0.3489051566399437 0.7988884682336961 -1.2825401164788859 0.3916831309096481 0.36217003785611934 0.1152472978504687 -0.7487112888586279 -0.4990107824092285 -0.3585161398573008 -0.6727947466305969 0.10916673546947163 1.626096373747521 -0.8479959242837949 -0.3020410890627164 -0.13435218257689024 0.03532572070631825 -3.725538120928375 -0.8656903845061344 0.05978406833322193 -0.016629965525073703 -0.5937095823862579 -0.24902552914241552 -0.145054546110553 -1.6826628105016959 0.592629938660637 1.117922167337525 0.14503497135029386 1.2611546385616657 -0.5946033589448128 -0.34818276293914324 0.46207311624049724 0.6137879349339933 0.32194569019737856 0.10422683470721632 -0.003692566685501473 -0.3017038066209176 0.04402182463195576 -0.3805984769733406 0.051353755496188626 2.9239341167040256 -0.07755644290929989 -0.2994837010601899 -0.037615632371341814 0.2754534625790684 0.20629851012377426 0.7199636507423111 0.3131255539430278 -1.3569226561262475 -1.4375302733770117 -0.08004872553710983 -0.34559436828553336 
-0.6083040235615619 1.0280086388755583 0.3992680874795093 0.18967611440038432 1.027621796385112 -1.817945469397416 -0.926368692941863 2.832309063595661 -3.210168888202363 -0.06416699772592444 0.07760054950996442 0.01398925060073642 0.2627261531263153 0.15834814508110764 0.16214803538030603 -0.13574940251857073 1.611299807692186 2.500189011239558 -0.09795459238154178 -1.404300316335765 -1.1205687009788396 -0.9332689071044793 0.09407505260885754 -2.8661889538390004 0.0763752095180144 0.262383245378596 0.12496839791556531 2.2784166403693624 0.0488506038860444 0.33542203876414206 0.5080570505058171 -0.25696054448181416 -0.9666149532013925 0.11181478190495968 0.06718609489580174 0.14606793034155147 0.1842380755196013 0.1365265356558737 2.512836867650718 0.47642322851356506 -0.35650487002426773 -2.531528425763115 0.23706092471622675 -2.359799007220604 -0.1570204647762529 4.27834031651729 -0.18591174343372027 -0.004841815617641917 0.21998138638401304 0.7850950284194986 -0.02381139998169984 -0.10411351182415168 -0.42804219117901393 0.26406895111883666 -0.18630418138566776 0.918237592536216 0.12886826100177995 0.16654064664972468 0.02716645187783985 -0.07663709613553156 0.35214483538074903 -0.044403717201194695 -0.23935295067232862 -1.193846129430074 
0.5922762505582198 0.15525334428051926 -0.49780096033014726 -1.091800772419154 0.0823362055358211 0.3371683292676808 0.32779841449951436 0.09529374722159355 -0.09727291613277496 -1.2726516385527151 0.12415496800846307 -0.43558016255770526 -0.8454087985964637 0.04242013462273215 -0.1370886694653392 -0.2634502938717385 -0.009016471712283607 0.4646129408954802 0.5291165301476767 -0.002712094888859997 -6.351800113363681 3.4611397190753483 0.9900311955144713 0.7266626307681106 -0.7995054835677207 -0.04028140858037324 -0.34831412336562456 1.0797956840364502 0.5004084503659907 -0.3165319792735507 -0.8107937389257966 0.11559330682485948 -0.8437853109742324 1.6098543338298739 -0.25181659444018817 0.3542817072288487 -0.8928184432497349 1.66918238732955 4.2580673414798795 -0.5919649423116357 -0.8498961239618531 0.29205117562412397 0.47229980814244144 2.5767388255204606 -0.29555697766752953 -1.0640700794054567 -0.365048402491843 -1.5521907829231638 0.47728712831933906 -0.017986384244346364 -4.814020238512926 -0.21502469812554312 0.301191835811392 -1.7067588344495648 -1.1609236139224162 -0.8038417948764287 -1.1768498261072342 -0.04397380366870615 -0.21731437767357398 -0.009299731939256858 0.04232572737831076 0.011131282861392528 -0.17884657049982408 -0.867967091316216 
0.32223635047024407 -0.6437901996414414 0.026916593072877 0.004881383706808899 -0.13634902075138355 0.8784971821211319 -0.3558074300770536 0.12716549906287553 0.5980948691026051 -0.1836000417565283 0.6730551205602082 0.2647221485473908 -1.8593305980704182 0.2511357294555964 -5.230856212427881 -0.5745503175625943 -0.23765466214904768 -0.5056171632791813 0.5897816519296946 -0.4154314866721031 0.26407013150327063 1.0109163423015115 -0.26321037104340655 0.5145669576231665 0.3098623318814693 -0.197121845028096 -0.16103039244132497 0.3302210785792692 0.019921380834686902 2.3552813902877894 -1.239591366464822 -0.9013586335023784 0.06609924392548702 -0.3378972055607396 -0.01463447301890352 -0.36914381499875204 -0.8870160128274674 0.7494796191942815 -1.5530953731376016 -0.24512728146058466 -0.5721849711600876 0.27847648780380363 -0.10969976745048284 0.11577915422290554 -0.09342623601440764 -0.0719749967099212 0.4440570417160801 -0.07870316596164767 -0.2709226220619568 -0.0014459960748023787 -0.6891271558178115 -0.09665545870662863 0.48335447928244735 -0.3482064890701446 10.000825161293182 -1.0794663164641598 -7.2062251501691295 0.5508222071775285 -6.521440111850622 0.23782934113322302 -1.4391973333692287 -0.8065891537825777 -0.018484689964034875 -0.3229888960532759 
-2.1271069860357112 -0.3745676825483258 -0.03685487924337116 -1.7413935679958334 0.28897859066965836 -0.742072570025739 -0.10364543127187482 -0.5946258042006075 0.4046479347310684 0.5454127069728021 6.313216620628827 -0.09436846343282486 -0.46070874522876915 0.5695440294283 -0.16208093734801446 0.5548747823820868 -0.09791462445817067 -0.02045308089606416 0.1335819673867202 -0.7547957691406811 0.3962561632432639 -0.34204330148038314 -0.2935411538824897 0.13003318298855612 -0.04959076550725229 -0.09549468685472741 -0.1475457287725865 0.0027731927334431203 -2.9167044720596875 -0.05396034236130855 -0.8105483197076498 -0.10501903568210218 0.5915837910710872 -0.38385009197516184 -1.2348052034316293 0.07046984875422119 -1.416593744467313 1.0925426489040617 14.199990457575518 -1.0559468268105516 -0.5518955205012648 0.3171653292605175 -0.5033051687566594 0.27438221397695317 -3.413434992252316 -0.1854309904514246 -1.2676969304925327 -1.6218549890233074 0.016641443322784128 -0.7639573095449033 0.3086331276043366 -0.4079295821436803 0.014860205312844803 0.3106971426393651 -2.877058965334019 0.1950328748563277 1.412604748770232 0.09377441750221288 0.6152807670852654 -2.9829464309271203 -0.11440712570816426 1.7499845705561425 0.2200844562840935 0.5891075726134983 
-0.10414019762134952 1.2925716387921278 0.03261702748547502 -0.33249439637982897 1.1591840083731846 0.20106763602533026 -0.11827072860370683 0.561055580743954 -4.2560921514808445 0.190309247761923 0.9922463188388211 0.05088377998620901 -1.2204788110593168 0.1942719980805921 -2.484552803853518 0.1795572252120977 -0.25862815730463434 1.4601322495107467 -0.1238517309780468 -0.1704051173918259 -0.06899978818676847 0.28126538961278347 -0.5700199559321059 0.22040104964600168 1.136133336973857 -0.6940857525850826 0.3335963088024809 -0.09107456256280365 -1.7879787226369166 -0.3605016113161394 0.05229521780813329 -0.008732929418998834 -1.4147891907870433 -0.21817162856917244 0.3360502068734691 -3.232465011727478 -0.06981086420487984 0.9162892941763012 -0.7728081537492301 -1.047927199547748 -0.22654325458281463 -0.015900289408748578 -0.2281077740562322 1.3686377261445044 0.3411616109969044 0.012352282225164126 -0.48828641999454925 -0.6822832941073278 -0.31038201648710284 3.0208360409268007 -0.16148056620707063 -0.6875730119452571 -2.582662144786092 -0.00803855664342611 2.541335894626835 0.2088160762084664 0.03194863268089846 -0.4551147261749958 2.396687447086914 0.2945869922004017 1.1738897075063515 0.38404153457962115 0.6836016450968526 0.1543492112420863 

-0.033399596548407344 0.04927041417231569 0.15197785858811436 0.16097354719465523 -0.44578192940694694 0.5559803094289295 -0.44473292402264625 3.8800805296247534 0.7953594881998185 -0.1425601628054512 0.3773357854575315 0.07980092791311207 3.7597708800811347 -0.4470481996079961 -0.19385015962591745 -1.3114730855150079 -0.0960575870796951 -1.1071173197100148 0.14009359529692508 -1.0751921044389101 -1.3892776914619844 0.17383741930249683 -1.3634685979033376 -1.1802620819227516 0.3473706926347207 0.8433177764219096 0.0657510325250865 -1.0709161228380415 -0.8923015162778392 -1.1851302884833814 1.7996586408192232 0.4409329686903019 -0.9736794603009662 -0.6030573046148043 -1.4630553113349953 2.397108889492137 0.13371097596962678 -0.3580285257791778 -0.3517283551836433 -1.5375016155775574 -0.025957515806753113 0.52629289257003 0.08347474417167237 -0.2559005635362342 -0.1709623800632025 -0.1022404836652225 0.009589916320102664 -2.2606327313043764 -0.4473607191621258 -0.09487399607843314 -0.21352982839565185 -0.2889562765240747 -0.15921079043975786 1.5442702254950365 -0.2979193551519506 -0.3921020856622385 1.20505766063085 -0.9710290375534435 -0.05190214340389606 1.5902371918644078 0.5225723318105328 -0.6658401024014559 0.07811279329095835 0.0901763171429576 
0.2522297508059031 -0.23990189339370233 0.7506657464145196 -0.1010705765251147 0.03786887049819291 0.020000754672004097 -0.28525172442122093 0.23430779744957383 -0.7675244620894683 -0.821859426907311 -0.6983130247841437 0.8430894717063134 -0.9215677281450644 -0.014386955148306834 -0.5788054550473689 2.491637720859513 -0.36580723210250915 0.34334683051124526 0.034205787089691915 2.286985742339143 -0.10319761442838062 0.4381585508106144 0.7587776046732009 -0.009110926871457608 -0.6971806667075918 -0.4422594152337864 0.0056553715752721044 0.3646598156067414 0.5478139131955863 0.48835564029150935 -0.09750710330309037 -0.3258052613476409 -1.2326497288055631 0.07874969886508602 -1.7477919821854337 0.5827652671320304 0.4289858328433325 -0.04989689752847036 0.6893846137113062 0.3794665001577899 -1.803028739705316 0.3873198409489157 0.024260421268254548 0.21574993048090027 5.543684279980063 -0.036135405219340284 0.5340235845245311 0.2630767544673204 2.042142312242633 0.19317532274233198 -0.24871156089819335 -0.4299064277600387 0.37519888205533114 0.03345752085315286 0.9354610775109672 -2.096466591730745 -0.26750754284815825 -2.0437603359558905 0.0859111856769881 0.2069423165234862 0.29926791203441677 -0.07917541277550123 0.06773153502426518 -2.096312379050518 
-0.058617801829262024 0.3685221154351039 0.1664964751405962 0.3865762542755973 -1.5969632566147958 1.290888240320306 -0.5675393358907165 0.016486308423703303 -0.8328753198455346 -0.021165712275225474 -0.9830543148567104 -0.06187822678237001 -0.656539786776078 0.1573101411143142 -0.12059460199034612 -0.7170071149366117 -0.9245397688145053 -0.1500197460158041 0.4907268558660545 -0.5011459673218569 0.267455526439596 -0.43467374156102656 -1.5745499058249963 1.4686845561842379 0.30298891015611895 0.5517711023967842 0.07081450860481624 -0.3625168890152252 2.3185610805801176 0.2611083714899912 -1.0858447366480224 0.45749260095364636 -1.4356597176463097 -0.015199151905894505 -2.394506751414081 -0.38068099333649086 0.8170816964216302 -0.08458139208703318 0.6033536630747347 0.13690355074309898 -0.19700609542431305 1.6633189334971588 -0.4182542235585378 -0.6801906199948503 0.2043736258551458 0.46749740392338274 -0.3575516230378717 0.46706974630595205 1.7256890592488288 0.12344420519406676 -0.004149885227821865 0.03740954339053386 -0.2716943594116388 -0.01057591650307391 -0.03146320520599212 0.762117362275634 0.48756299601502584 0.09443299661101763 0.4614390905136799 0.9296952040958316 0.27948134596375024 -0.2328209088580369 -20.83650638353134 -0.09090949553497743 
-0.09530012976715962 -0.12975048968313188 -0.14512968150738226 1.3246848507372082 0.460516379942587 -0.37048727870442894 0.3265485671021892 -0.17040403409152646 1.780927466488747 -2.9804139770470477 -0.051141962831485026 0.24206690172641615 -0.2150665216687566 0.4508178423589631 -0.16145028543653026 1.0179822734827169 4.495497322292385 0.22745318611922077 -0.3207685247194289 0.0377683866064571 -0.09082100758878557 0.4806373431161898 -0.3420483258450903 0.3441052240674597 -2.3172341172129354 -0.5330887776717418 -0.2493387592418876 -0.18083805237382444 -0.19404905765041613 -2.9861485930325067 0.021523939369735696 -1.5626074326553157 0.03563161518545142 0.6729490601918913 7.812109660222823 -1.161000023436256 1.1682174642646879 -0.4152880633693751 -0.17765983047827552 -0.16557825102347082 -0.17029881446773978 0.3583087618713734 0.3183787036867822 0.05612208678878703 0.15587611953709132 0.343652104770198 0.3320650982490437 0.28820806808595323 -0.8412349188081005 1.7963236004403742 0.47289225360842024 0.06494093625408927 0.34948498097035136 -0.8264284942710252 -0.25694398295641935 0.1185580260307584 -0.1926145653895176 1.9508765463319604 0.288550992124606 -10.097686784694625 -0.01874931427771795 -0.8698923258007226 -0.2841704370910039 -0.042451481576145714 
-0.057891203133958284 -0.48828896649315 -0.08917923042195339 -0.019883589675070385 0.5984302540539813 -0.14783676830059597 0.09093619804375326 -1.6698776094485366 0.8750613090393826 2.158498645548081 0.27626730976350955 -0.995194291858621 -1.7796405107670756 0.1161123249123133 -0.013746486461174006 0.09644372794652624 -0.12671845770996804 -0.057318829451727706 1.2751774281805899 0.3754321583425229 -0.17183886006788665 -5.648921271476198 -0.017691741418519973 -0.4960599239578834 -1.0061171536585172 -0.028538963803769274 -0.3758381921637912 -0.7843125574148238 0.04510617251649836 1.5941721534603457 -1.6670858509149187 0.848655641487963 -0.0034323163079724075 0.1425978279279088 -0.3880746227072069 -0.43601543838988893 2.195806730436408 1.67208390339589 -2.474699140640423 -0.09806916543698715 -1.1777049958494303 0.32896645316531287 -2.0322118380901864 1.602004263228904 0.43900376060895535 0.4204901721450612 0.006638391748304368 -0.14516556964384703 1.7025107857741462 -2.371306708164966 -1.6395001515955674 -1.3314272688002038 -1.2234102859939235 0.6847218059077065 -0.041552914137621674 -0.04604011183558338 0.4498620869860379 -0.09757243990304335 0.7512031821789092 -0.4742763021884878 -0.03332043190725076 -2.2022585058436825 -0.6092530591344943 0.2857895316416851 
-0.681240619030269 -0.13393005693717233 -0.8199354015166803 0.19060841847868476 -0.4371634503176755 0.16451649606901642 -1.5016253649768034 -0.44071749866220494 -0.24979097215715215 0.1932605433169703 -0.23654846492406523 0.39140024710818855 -0.764431090642854 0.020321492706364883 -0.14653148206107414 -0.03000002038807817 0.811767668624662 0.00667092682692632 0.6578611507959192 0.08203599398576833 -0.36701594965097184 0.8639985736394166 -0.1769573936885383 -1.8168556844071773 -0.48762058169774136 -0.1717616620302816 -0.17899658381291542 0.6142031379074907 2.7212529341005767 0.5314259477033255 1.616225055214062 -0.7315678746140869 -0.13452500285984756 -0.9635823096684535 0.16584275811157173 0.3862545216429603 -0.6366714318239346 0.37498075059599423 0.15111320115389118 0.9957391736083838 0.0746003353270918 1.2877052767762611 -0.1796464456669221 -0.19782607343091876 0.07312657168747792 0.4639548193447841 1.6665475439408535 0.23071392186073997 -0.9320866068535486 -0.298908438365639 -0.197842511620371 -1.0568142800807998 1.222674739226434 -1.317276974438331 0.5443127771045222 -0.057572426881297954 1.885699468566447 2.538499083018811 -2.474299107247058 0.38888065839609204 -4.283908084893077 0.22735785850813933 0.047672175551135273 -0.18372509179214783 
-1.3140438816509867 0.05283526182331609 0.4010843839326441 2.782492199470007 -0.7633620302065595 -0.3380702925662097 -0.15688447927784482 0.8943566317010817 -0.3994783079605163 -1.4363699072509637 -0.12974244920815156 0.12834649634963613 -0.16725377308882633 0.01681357682885932 -0.1660488232960841 -2.7957237707016636 0.13659372007235598 -0.31100171772179735 -0.7673837945113559 -2.2693451242581855 0.18093327877977325 0.7140173950394101 0.4830636473556057 1.070292231733843 1.4737520493930287 -0.006335399876539648 -0.5108626526220369 1.7321987594803083 0.16355459002424536 -0.04649236678652168 0.1773200614510408 0.19204133097201861 3.838028222008687 -1.2938907120255994 0.24420424606584903 0.34746363723989127 0.46604513064205777 -0.11854097561289133 -0.0927531244740119 0.17007167016197675 3.2963496864758275 0.02563159486049982 -0.43184351551599254 -0.7976364746320158 -0.46145464777373935 0.10277368002712675 1.2303657942209067 1.2621350240836462 1.1994246646672175 0.16706579714544403 -0.3749768109487533 0.8628990285382739 -0.05771679747102805 2.497807205227896 1.1295618064178479 0.027679997695360403 -0.5812870219349253 0.24657316720607422 0.154788136456248 0.040207068820849144 -0.2836236025535745 -0.15176118757127718 0.6118844519479831 0.18213742581411405 
-0.2936609261358731 -3.1225670913761983 0.3268216798072849 -0.18480515757307575 -0.47404681597313575 0.3535474774215934 -0.34517488043294925 0.6041915688139462 -0.8996359242013185 -1.463923879688391 -0.11308868313290903 1.3182075722480073 -5.594071413534388 -0.007064552261365434 -0.31884743016361816 1.1763262214963717 -0.051193540169569625 -0.8372554881730306 0.953439176794787 -0.5299563780151553 0.6015349959408021 2.575620868473056 2.6689971009799254 -0.03709760940893178 0.557051178936764 -0.6181317899467429 -0.09784562166083219 -0.5090206427842897 1.5147865382967551 -1.832901686885096 0.07420116787678928 2.454250667845959 -0.17744927968074606 1.6878766028263956 0.7872493476924002 -1.0443279364582845 -0.4826496334056527 -0.5381878861841793 -0.5503565088785829 -0.02422514789645071 -0.10357385358317779 -0.35349074721392454 0.303902786380683 -0.8469196880239049 -4.1567998344715384 0.3361255139765952 1.1658525273223614 0.12448173985200872 -0.7735255754508322 -2.263886398811866 0.03923104821375917 0.19948586873967694 0.06031245068197838 0.9364456487592047 0.19254811316485745 0.08020998561333757 -1.659700641776102 1.5708859697837065 0.8148703479844822 -0.2829050292722356 0.39846308956262894 0.1690359420940148 1.1864676801274783 -0.08619300336220842 
0.6566470399398279 0.3878814627211463 0.989110514073613 1.3051805843130397 0.6028533985120479 1.2222837290901951 -0.7790188015306574 0.43763848630745966 -0.04874115043954101 3.279364383679612 0.616316907590612 -0.050505314068064515 0.8469986300081991 -0.6080743188247005 -0.2658704251696003 0.5486856310237234 -0.8331467592210345 0.41924630722104694 -0.0326860299243845 -0.030257107538800104 -1.687566218481412 1.0771314407517594 0.943495825130165 0.5544698644490784 2.0084756833298365 1.854929250098775 0.34765973915453496 0.049459206105125185 -0.33559914120369744 -0.9493757752044631 3.0420339662467453 0.3291598355991768 0.4018826177248046 0.5059138096880144 -1.2044489461499461 -0.076240746820724 0.5922505592976695 0.37173637604703635 0.06149495391882082 -0.7961398199924089 -0.9256230025239014 -0.10239059321567372 -1.2566311168701705 -0.6679443969461628 -1.5334751081254312 -0.6784045237082739 0.29762449892930626 0.14909346197040155 0.5094174377481968 -1.0637801476008293 0.3726767311343641 0.37243004658876383 0.06309385331789916 1.7843317265518812 -0.41312483208935924 0.695295776918878 0.06475955001512336 -0.074332905846158 1.163288941341518 0.12055259335514003 -4.4071634325039915 1.5911921581178854 -0.3561645696527499 1.2166506517752196 
0.1690462496090639 1.320802192451425 -0.5847708920385574 0.4709510025032293 0.028035713585308757 0.41455524888629575 0.5283237799380565 9.61414720308454 -0.1888547164259723 1.2616404161282153 0.06316237630211374 0.07037227004196508 -1.2690570657805513 1.5127422326985416 1.5698376929487494 0.1286377773887067 0.07064818461473997 -0.07978767617650098 -0.23122431023774445 -0.4519501705782168 -1.4606476867278673 -0.13082863507222972 -0.36647435221610475 -4.302173129533301 -0.60900759420086 0.07959225172795653 -1.632007202606896 0.08152961474129651 0.0669569834183693 0.17931279723542126 1.3493353456310697 -0.5794299122078677 0.1592239372012327 2.833983735236916 -1.2331088347187602 2.243968425629186 0.4609484955272587 3.234938251310873 -0.5946889678404758 -5.723424982260163 -0.23082583877517102 -0.6405552892005801 0.3910744721104354 0.2304473702822979 -0.5645061384292971 -0.09689642518005985 0.28448650881907234 -0.20807068970465803 0.09389062844520722 1.335335787636907 2.4838670096240363 0.16842755113428978 1.2534738599515423 0.32155759001615286 -0.13643113924645808 -0.040833425515606266 9.54421191960209 0.12305821611062703 -0.7290820242750476 -0.7233544649664041 0.13882900537079024 -0.8575892452029289 -0.11405932739392778 -1.791752159013422 
-0.14309485808866115 -0.5318399035597067 0.1865658510673248 -0.753960917311728 -2.6446739608023884 0.17609213120533787 -0.5276189595032326 -0.13429593790542727 -0.8704629456413587 -1.3230815793380093 -0.15283321730096683 -0.147127945409942 -0.3128605900877708 0.29225819412097226 0.09192325779693583 -0.060188371604080824 -0.08986584697626485 -0.07283712790345186 1.9605258329541349 -0.31489760032396064 -0.5937884673534289 0.018067188465694065 0.39034387381037916 2.4392668031976474 0.05305104885361865 0.6962327308926256 -0.006786550842340236 -0.9946926089438358 1.1960880958240896 -0.07122564642026122 0.10658499509936895 -0.8487121604295307 -0.47276381809401585 0.1870282393075051 -0.17857900176102046 -0.5933642577576314 -0.5935614633083928 1.1939096854736109 -0.010913626411750777 -13.97174655759058 1.4118309126398707 0.8270745103022673 1.0545648661121272 -0.11440165422645056 0.06673821243605765 0.313186037776011 -0.008042928230730778 0.11180032672862075 -0.24722548905368005 -0.5406265997353953 0.6063949270125234 -0.2645655712405333 -0.20362450508514507 0.2532105864961308 0.12610783058812253 0.036096593123879646 1.4639844060000373 1.0870164934679902 0.6677958639465608 -0.2603088243372622 -0.9453825456878647 -0.8169812278515286 0.10316128407255207 -0.23121387099974297 
3.153662799952707 0.9378137506103815 0.1090499017236658 -0.9228039587954546 -0.16270638219123523 0.40356016062263017 4.736776909593829 0.007156884224325717 -0.3044629857230551 0.23552828721506072 0.29991276766458913 0.134496031394806 -1.094641112363143 -0.1363364472376196 -0.033902001479667945 -1.0204979581919509 0.2738276291536965 0.5770896361640246 -1.7003107391626042 0.38683248709298956 -1.1418779485813815 -0.2719979836211507 -0.4996407485775689 -0.041965765427659375 -0.02365450931883693 0.8799022541104986 0.2685158402656037 0.22313395180041015 -1.0184294019368605 0.10744293385319229 0.8920916462439379 -0.4847032969500891 0.24082054573504766 -0.27753172319973396 -0.11008538858679925 -0.6202504703669633 2.263502622198355 0.9930939204659609 -0.3993253138959657 -1.0445388100046147 0.4934660708777247 0.3567120151511776 -1.8553678674682774 -0.24750752604021145 -2.2075787597225647 0.5482636602935792 -0.10710895343534683 1.1475758537912375 -0.14594415123898324 2.522679585908084 1.1501105776076357 0.29096791303437036 -0.5440299447811922 0.4111806111695395 -0.8165027086891667 0.6264153847534337 -0.3812918956546559 0.9310232164081887 -0.926500377810957 -0.018848404402279424 -0.010175547321631456 -0.11629553666746419 -1.080336889760803 -0.08936182379187685 
-0.30844571115238606 0.3579283972231065 -3.146269201632823 -1.8568259780103442 0.12141664550907032 0.03821057491440675 -0.057678425658507206 0.2983975620069167 -1.7061372256993856 0.5070031953422924 0.1716558847800464 -2.964687399819622 0.11657769936421285 -0.42636504631308264 -0.1627699112557486 -0.09870125151338155 -0.07561721638832042 -0.16134969974701424 -0.38054499760140426 -0.15883614435239274 -0.37159767305257224 -0.4636557300023813 -0.8852321728720618 -0.1199470174978061 0.3037263589833127 -0.21446313337184636 0.7165153787591629 1.0661422481684535 -0.07848956783677262 -0.1475529849842596 0.9427425396982078 -0.47317571223081606 -0.5739435721620337 -0.10470464334794335 -0.05420731054189321 1.8786026430714031 -1.3606285072679125 -0.5960285934201827 0.40070019949596664 -0.8570392703216981 0.05220552883625685 0.04572794421159081 -0.462840184811182 -0.3440561885143717 0.19590989953025284 0.15357038356728417 -0.8203826785721536 1.048187512583132 1.2675691574317192 0.0004594238412289606 -0.030103888325912636 -0.45075912700250204 -0.1541462046693553 5.304637259584054 -0.10450141393673787 2.2532944226061766 0.1907076016244552 3.668692614074062 0.18425867617508895 0.035187320902016136 -0.0315221228266465 0.8110890875826808 -0.43408568440690104 0.0288098490782999 
-0.03634290440733617 -0.042530307579697425 0.07858726660249758 -0.6700635530103572 -0.9358019729878663 -0.09454031092439379 -0.8421073583931044 0.12085813306095099 -0.40911205235482295 3.309102742230416 -0.8674675960469537 1.7923270301081484 1.1203858991292701 -0.038835957834067944 0.10127594135420456 0.7417090362722871 0.12250829463695434 -0.16570731562217847 0.24080837575400665 1.0414544023593975 0.4228177446799301 0.7862244670051597 -1.7080350506309991 -2.7111438063283724 0.5647672933681642 0.11511403517284113 -3.0788994760943953 0.16011312642775533 -3.0464904778398645 -1.1105430366570725 -0.6909749766699554 0.1488969316916775 1.051977197674913 -0.32961575325473 -0.7075538145154958 0.12835242035480002 -1.0531468346759993 0.4187800720387821 -0.2175934174538466 -0.0119069946209328 0.04243344244957768 0.016881301170519662 0.2498854274870812 -0.3232602312610196 0.3210994330611779 0.5302597733270157 -1.769767969441236 -0.06561971767487497 -2.917424689310078 0.12180915499606867 0.29229972294412054 -0.32122910027532203 0.1156521328736195 -1.5134353274701062 3.061681813242716 0.9528324160712954 -0.2165952193858528 -1.3982938951461632 -0.2466904620730034 0.028655802803865607 -0.6258390054487369 1.8539024369009283 -1.1040548601308642 -0.2858056484244022 
0.13885174626966612 0.817496937707477 -0.308489851244176 0.06773639082344356 0.13418912764354454 -0.07290019985242333 -1.4365645174876418 -0.23798883750633035 0.44138974560841976 -0.25326333197582396 0.05672497140613505 -1.1867784225738098 0.02276358652635716 0.153200308292857 -0.4809489857958128 -0.7644970576192515 -0.40379741720358164 -0.014449482865778908 0.25779557711397644 2.326724583866458 -0.5396089640509943 -0.3472444809751789 -0.05185559432120537 -0.06265910409163218 -0.42978348751153284 0.40948873930396934 0.3600754991084513 0.6032296486502149 0.3295983123288483 0.2356120995821469 -0.34410916254353835 -0.9414529388916434 -0.4068316717185451 -0.12439332155447187 -0.18003094165850342 -0.6573043181204536 5.474702509135115 4.609949488013558 2.6202503622834636 0.02361683113883864 0.7400429844490733 -0.02243363906983622 -0.32880271660670785 -0.5201438698932552 0.11776484238447267 -0.45604026849380713 0.1865371012060095 0.7487411592749752 0.3025700572956293 0.13792467380837192 1.1641162292955025 -0.6039854141888743 2.196241866540443 0.8359523547034555 0.38510348293273944 -0.18393941780054351 0.35398172232711705 0.38202467304113574 -0.17765038722379448 -2.5679751181799357 -1.0910125437107316 0.5693176913796459 -0.009517084498510575 0.06716266578467375 
-0.8484373429934255 0.10056575940661817 -0.141422802427009 0.18375607605619948 6.789650547671602 -2.3820434870958223 -0.21909081480032555 -0.3327553049718269 -1.1143751520167615 1.224040367184776 -0.5894885978492977 0.36608407980692526 -13.723372723862346 0.4527007764340734 -0.010384756575834533 0.20864074268090765 0.21417592882057765 0.5612605332739157 0.03885774172884949 0.7039311425068081 -0.08558455364331707 0.39053578546616247 1.6414324979289265 -1.3709065116022463 1.090642908276618 0.297450511951055 -0.30072657903719485 0.15898972272530476 -0.37692745409981254 -1.392686665370082 -2.946389375568196 0.2642388440574948 -1.1948207393436971 -0.3730577641933958 -1.0564423136214829 -0.054028644136327623 0.5142227427103883 0.21176292255317136 -0.12581994632585014 0.7390735081002643 -0.7547632786593254 -1.1711505417376935 -0.397623832283796 0.24348566073498773 0.10732668067836683 -1.2140641423751088 -0.35682683021284545 -3.5305488927819564 -0.8582672752340191 -0.2753511900576433 0.4718413570640988 0.0658516202557266 -0.14260020572992574 -0.2861809871407998 -0.4678859379702182 -0.6236602060887505 1.6282145081180375 -0.6293070574542852 1.5496883650105702 -0.09974982866982864 -0.11456048462345224 -0.5208727845834505 -0.37819167803656395 1.7342070772277016 
0.5301834992206306 -0.2998645092089337 0.5669901664869896 -0.35390164210122504 -2.6586079775169114 0.01854473487830738 1.5401761739384543 0.8456505269601975 1.247341580566459 0.337261107391043 0.47384862510300013 -0.2547794939417615 -0.9622331889558674 0.06077089963432169 -0.5997302504869507 0.08661853285413823 0.7518351427289311 0.9372856411684072 0.12439488011161069 -0.059456177298288206 0.6961955383053747 -0.7259290946522726 -0.2736499372263096 0.02503128854136998 -1.093259624930345 -3.6293060128505896 -0.257073030012773 4.198337303541525 -0.04980275759943721 2.5020778119255147 -1.6450940058333015 0.09688955542596764 -0.14821079987289792 0.37626636856195644 1.197084108659708 -0.2560812180774059 -0.17590645956142145 -0.14439469198302388 -0.38108132030694997 0.1347200304272827 -0.29750975014116077 -1.2647357183404362 -0.6052469455462144 -0.3283107251129665 -0.15639874617404595 -0.1332955663069498 0.5087980349473399 2.005677164829546 0.5488507060340918 -3.2950951757675067 3.7988411536196147 -0.1167982581890171 -0.7380123840327995 0.010744086880404912 1.292851898684385 0.5331391341375876 0.13822572527182622 0.2106330482833951 0.02378303855997958 -0.035735727637122 0.47939774793311213 0.6879398666523909 2.4503430074466217 -0.15659141676607868 
-0.5501930993027442 -1.3484855348274598 -0.1659540844990821 0.7695803329674789 0.39955495959239234 0.27127860425154526 0.5296359371220002 -1.1052047006880543 -0.440729276058265 2.5655198274829982 2.2483608267304063 -0.06603149017857134 1.3871687508449428 -0.16049382577020008 0.6222112646651977 -0.5646460121228918 0.23073212816156768 -0.8420222013910997 0.018069361166798626 -0.020223426463931972 0.17155105261870368 -0.7972614058314014 -0.17494065030445174 -0.026110581950352426 -0.33320362434739886 0.29382615308826826 -0.3361033232365367 -0.12121299416625009 0.28389824929996316 0.28655692982823405 0.7427834806242347 19.565895311184306 -0.1344373534336212 -0.47578261769164215 -4.433489558966571 -0.5325252415383651 -0.2666619440544739 1.1748223148334562 -0.20763995689746284 0.08674314990678965 0.07942386145255555 0.4565677862239522 11.285203410658594 -0.2905061039015129 0.003178182680151397 1.2167262797213507 -1.1086404237824365 -0.38821554226916233 -2.009916674578149 -0.5381906156987192 -0.4990014778961261 -0.32010747909660875 0.8291222341951165 -3.861851241679824 0.2014499878721071 0.7785579825234383 1.791362464956756 0.17862465773458133 0.24682953316487613 1.9424914339857824 0.11649868077027911 0.3385716408388402 0.7645678088425305 -1.2843575918777241 
-0.11669779848394186 -1.0697101931597777 -2.198929997040973 -0.11465871526725151 -0.06263023543292612 0.5756186933202633 0.2759699319346727 0.4378092899995256 0.0002519144809584269 0.004480720222652519 0.671916905101562 0.3395211892591559 -0.14281250703274828 -0.3561199960456852 12.900989147913531 0.17495201010073286 -1.9356721492435982 -0.1361652861566749 -0.050314650855705814 -0.8101164853378698 0.043626991147302494 0.1035859345405815 0.23079528906306584 0.5910671961813351 -0.3085925140086732 -1.0928665817798267 0.7991804963075273 0.23690618757350493 0.33294277965446367 -0.23434288958917196 -0.04392921229684261 -0.6454324591102998 -0.31330714213910976 -4.126633818712535 -0.9253669266394453 -1.2836842552852088 -0.3603830793972824 0.35131158182346506 0.46121213302618874 0.44855133249401613 0.03078411558019926 0.21706760779709952 -0.1700832809654461 0.1791752788221147 -0.08055150319906959 -1.3525332850442386 -0.5434508599328105 1.8896606350266676 0.9630958218559045 0.9009850260506416 -0.5823094637428876 -1.2120078523050335 -0.3302609897848518 -0.09677617860516717 0.32263113038841074 -0.42618309866934934 -0.3513815878292836 0.14967945781110453 0.1942274594443932 0.17884514982818325 0.22701646139726742 0.8086001123466428 0.8893205887799548 0.8178619915696524 
-0.4218083147164595 -0.06496451476190558 0.9000138158502753 0.38531412474526755 3.167282401847704 0.532545773532075 0.042347658852129086 -0.3958640684153518 4.523661082294647 -3.882300365829448 -0.9511364906203619 0.04924694756245844 0.8370855347449512 2.9275669282384706 0.17943281016607782 0.0704250132495616 0.1115994696162045 -1.0717910181703212 -0.08808108278471273 0.4175681014071228 -1.277060051953289 -0.3104617892048139 5.815769565104333 0.5376438512369971 -0.27206719492111103 -2.46053031154778 -1.043488133613046 2.2137673315421442 2.8326661831501867 -0.4949276652272558 0.5871303374602734 0.33122716500103005 -0.13836225908996863 0.7376936297919321 0.05263056408617295 0.17977472493669985 0.03828659141298856 -0.10918831087493615 0.7743844349527272 0.2294386807131919 0.46745269970392705 1.3446640142277304 0.3725652896079475 0.01687574049874561 -0.28636244125107907 0.48334290256974083 -0.19412457778020903 0.9169430957646113 0.28501282627047125 -0.4346529404080124 -0.9806042258841856 -0.2568910988212421 0.010896599677146967 0.6338058739480429 5.7352428534326885 -0.24278196166891916 -0.25225421632801875 12.370462586692128 -0.7110722598668149 1.7950242726696692 0.16239234251625642 -0.025331223485411676 0.041798767440678175 0.08085866434349129 
-0.3976241749678131 3.3011326275484016 -0.04563209486890913 1.1302693160332953 -2.7851203074629707 -0.5427513585127942 -0.25419358829400057 0.1300807892233487 -0.1528041818981682 -5.590080877889368 -1.062883596438597 0.29554033162114224 0.052929485221351394 -0.040542033037409164 -0.43780135148014404 0.6580931069478051 -0.07153508951096835 0.12894100144022944 -0.09696909478654488 -0.37613091740394455 2.042163472422741 0.03298465198651107 0.04848222274545268 0.8870149641364953 -0.7128296686454104 0.4312836212223162 0.58240858543051 -2.6747824569333956 0.12307778197591283 0.14396575181378007 -0.14707633320513722 -0.004115973639684984 0.3757527525923777 -0.5631724033829915 -0.6492128348810946 0.2733557198286759 -0.39961502934581733 -0.3904962430806784 0.5205509792523377 -0.25744273210826235 -0.28840606050072076 0.14897455874780316 -0.06677451041467397 0.596419395777159 -0.7911604486379732 0.6308980250384294 -2.858708330450579 0.6198278128540561 -0.11369818966227319 0.9083404792621456 0.973832064399762 0.16738804392075604 0.33057562930411744 0.611501419213261 -0.25999548567184494 -1.9531440563507065 0.15552020405609943 -0.09700562359425437 -0.36691602685787167 -0.024266230323376724 -0.511876105796318 -0.431384055618127 0.06169198098030994 -0.43595311347874444 
0.690849534659852 -0.06865476537724394 -0.7370143466403792 1.9410089788733602 0.48821325115877995 -0.9478464451215926 -0.44571226313153794 -0.39798972923910914 -0.14595097001084328 -0.2950119272458289 -0.04832124602494145 0.17304671381442638 -4.213474714355372 0.43276377379777126 0.9070419619876027 -1.3515927301540267 0.5738043256414754 0.024434896670296087 0.03251955323140606 0.26447719812626463 -0.7839102965932447 -0.15731681607709955 0.7933248636748631 0.6121878534876506 -0.6072859062896014 0.41923312185393724 -0.18380695462289007 0.554976484070945 -0.14055807879705345 -0.09068902390527363 0.054073142128779464 0.2729321577713716 0.03694140177623732 -0.32433704623466963 2.7410310886497715 0.5088439338696191 0.44042997089425 3.407476104112153 0.6600318231345632 -0.06054525365977112 -0.37307782154181524 0.5300831019543476 0.36902348679227115 0.5915688053882975 6.530009544144075 1.497512698421647 0.058850062000451495 0.2600979908486538 0.17997727584867235 0.07405536939129462 -1.542778543463545 0.035915160090656435 0.6827031620924716 1.9554211634622443 -0.44007461837257544 -0.22892858613418748 0.22381329755695137 1.777730386547954 -0.034797780470983974 -0.5224517762881006 0.21615902025364706 0.251508926299631 1.1289442849009172 -0.04350333881907915 
0.12533048159693816 -1.7127682368059602 0.17984215505180565 -0.12417893319304042 -0.5911480457936757 -0.9803816024467754 -0.0953219500939568 1.189210371496854 0.19511339821920823 -0.9872377602698401 1.1793766526828038 -1.0013510755443413 0.0650569689993089 0.02780384834409227 -0.8504237868770537 -0.0319922367541691 0.06313622172937472 1.0746519888084758 -2.239900064600808 0.5134777762010272 0.14697144727581699 0.18090266869746066 1.4520897911028294 -0.05874318212258486 0.1601252785726524 -0.6943769119180677 1.3079249338785222 1.0413568255288665 -0.7620175979168236 -0.48728783238254947 -0.64075163143321 0.5201786884489052 -0.07093356583109235 0.5245950962964807 0.060976446641857834 -3.305810752576468 -2.443586236428717 0.7837040529564437 -1.0703434611322182 -0.638986990064051 -0.2470260203358963 -0.9263998123799181 0.40734642921588204 0.00964156922694182 -0.1823355074691402 -0.3137796820230116 0.011722574962284911 0.17585767368655272 -0.7267004508315661 2.1262037669807428 -0.19580204602766368 -0.0692475414471542 -0.18335274611530739 0.14942014335604456 0.8294723736067345 -0.247651914057151 0.14017451266706382 -0.09104948151809235 -0.905927290917426 1.2166255747562005 0.5249962847332494 -0.13370653570017765 -0.026929101024628446 -0.04662021044827603 
-1.3325021599317761 -0.08069879133111298 -0.6448054014932657 0.4298339233727083 0.01854206341178564 -0.4421076132573485 -0.10027841157873253 0.17381246466722425 0.22489910061660207 0.4225537469407831 0.7996966944805651 -0.020201525739047765 3.525561707535808 -0.12389807639648882 0.16792901918348865 0.5230025783719828 -0.33513210992103515 0.2049913979528109 -1.4700771919998235 0.2722618641388575 0.02800410844690176 -1.5843798881561184 2.462751135310804 -0.23285432765620315 0.12045460795808088 -0.012274037336807125 0.8080060053602987 -0.5571255937824887 -0.3562777666949744 -0.32712340710889337 -0.03720062747367725 0.31132754312693717 -6.130510625712829 -1.8654633583368578 -0.5533129184033946 -0.3376646623245479 0.7718857755753006 -0.00955646399789374 0.08781825100212508 0.19651720078656296 0.10265887526649789 -1.4441932590471034 0.047080658650324424 1.169133792516779 -0.4454067074862267 0.08287135071780098 -0.6532236312502899 -0.9624885350211739 -0.1519415099661834 0.26127369089452757 -0.007187831526675029 1.1975420861725925 -2.264438882247738 -0.22106854874621712 0.06282909365015803 -0.2579152724414106 -0.5632453897083108 -0.11762204615732708 -0.48850359231892065 0.8158599030371549 -0.07667459582233692 0.21913993322013547 -0.48385482597255486 -0.028569842757776315 
0.30358019692789723 1.7595399527895275 -1.2311038273149033 0.6389704084239272 1.384393977344256 0.13120155063755695 0.2994193197864716 1.5062275890408903 -4.580947624182525 -6.681397165215886 -0.2380331980984729 0.9307472539227369 -0.660310218211243 -1.1571643422905546 -3.071555549747517 0.07543911248238937 0.2698389341404315 0.3047618033290059 -1.1196301009409462 3.1427905173991975 -0.7359612872500969 -1.3532697462803396 0.6074082087727791 0.1094765999342896 2.466454466798492 -0.07554463692788212 0.24222188145557633 0.04176823632491719 -4.788738159273802 0.4959170207117261 -0.03941211420916736 -0.9266196660162846 -1.8612825307312741 0.00031577952700449704 0.014868368046342721 0.31114752146719804 0.756559917360862 1.164001765997365 0.5133426788492507 -0.4755893919321576 0.3512155920865476 0.30194698501872874 0.07587708130233595 -0.47153519294421004 -0.79206957896753 -2.382715683820283 -0.26747708905955825 0.08498690737068995 -1.477749886318519 0.07940523131820344 -0.18905140653442173 0.23347101821432673 0.2750209927705598 -0.4574188933498053 3.4786351532523896 -0.08066797273639639 -0.32206153623347417 -2.5634793561829556 -1.2277438037061956 0.15357500480408207 0.29122608071002176 -1.573716669277019 -2.7387368247941506 1.0273030105437517 
-0.0686929171289406 0.13925258242523736 -0.4129670199253297 0.7439679027501065 -3.2462666210516393 0.32076242077912126 0.3748394446647847 -0.02520414056193643 -0.8491197343394085 -2.4007938939314224 -0.6692746856937523 0.9329980486062538 -2.172583116029699 -1.448225027142541 -0.42798968879386 -0.7055826003784459 -0.16894388863453644 -2.3644983028002695 1.6248385231772293 0.27240970387619085 1.174603146935417 -0.4446633618920544 0.00954252657209311 0.2307908072403382 -0.18639921896643533 0.012994048661970114 -0.929517305150564 1.017197246813797 0.14084003905278683 -0.015059808505140673 0.017877105370273445 -0.48900872090251046 -0.755161174834967 0.49221841097465685 1.2849980296026073 -0.6496991259224228 -0.5576854299235289 1.4254818317416342 -0.43239943615524545 -0.5704814200926687 1.0144037883266401 0.04095468327937473 0.2967947713630593 -0.5212159925745738 1.6995166958612096 -0.09152063162910941 0.7584842344693613 0.34892425208194644 -1.2327517733719862 1.2737969216127905 -0.5757430384006325 0.1350721800308726 -0.044095671002197 0.30075433289684683 -0.7402436981695436 -1.338643959823019 -0.2750982417421356 0.9297432745368452 0.7014023772407971 -0.04347038211439694 0.29058439843801115 -0.7240702358892672 -0.9800367811061431 0.03870913970977023 
-0.4881970968482911 -0.34211277528951 0.7552511369070292 -1.6109053418017005 0.36605825530143576 -0.38708792625365634 -0.14119472759378268 -0.08772551184971837 -0.24231242395052177 -9.86691186120302 -1.6101682331672114 -0.258099924585507 0.2854167647724895 0.5827726734796929 0.004277228333094903 -0.45606784156959795 0.3056535677315258 0.32627074022434155 -0.012151151149564835 2.259517994439971 -0.297221844887985 -0.3359097174534984 1.216128628655236 0.15667670147544116 0.5791021362148417 0.4924616003827651 0.008364907584136752 -2.487595132255801 -0.554767991738708 0.07265324345457005 -2.0910751873485554 0.002230137690095247 -0.24444893439156698 -0.28113671284595154 0.2105340757800353 0.14322583173062475 0.2678001667292976 -0.25946676455453194 -2.66881995027909 1.9474207330126965 0.3148949607015083 -1.2058207382691366 -0.6820056096939091 -0.1391956942577993 -0.43588095412814565 0.24264878579482307 -0.3102787674873139 0.19989604231700403 -0.8117359526518411 1.4914111745624636 0.07455593339339954 0.7522857145872489 -2.4186987151003136 -0.5786625197097326 -0.6243779199359621 -0.7820883368506806 0.1140795534784292 -0.9262622689564606 -0.2722805271972051 -0.07439633681486715 -1.0336035444105656 0.05827517044347234 0.46314578904311915 -0.07183720917360154 
1.1113854736789264 0.19739867279379664 -0.4618694341674758 0.5019072251162114 -1.0944245605002687 -4.433486969707641 0.8658359655035709 -0.9900572192142612 -0.2083295288707366 1.0085074015406668 -0.3467756201167715 -0.019740444090334458 0.26439232191592893 0.2209848073295225 1.3194502883181158 0.30457100062962944 0.2342416163167266 0.12579520425287305 -0.22827871793433202 -0.17077571729542163 0.08084720179469361 0.45960139472820455 0.2589241870569243 -0.46186937151233215 0.46780784558883265 -0.12218007257180365 -0.09579077399751465 -0.028452604832982304 -0.11436927382914643 1.2715828514521466 1.1599959022062376 -0.06634342345106238 0.017882287579846223 1.382842028494752 0.15394167769166192 0.14521723252798227 0.10215563948574875 -0.7668659529847462 -0.15780873138847593 0.0007808091469382824 1.2387897007577653 -0.5817246569924202 -0.6274211328761634 0.15798175992448893 0.39713379371330654 -0.06009384899453855 0.11379857775973638 0.7661995658387832 -0.04172575797544503 -0.4534765048667615 -0.1244717939821391 -2.336948807304835 0.5409980946885913 0.17305887963058555 -1.193007505625083 0.24899556840236287 0.20459027277434672 1.1016867347208665 -0.10694082130028118 -4.246157486514366 -3.924934870172135 0.39735641781168873 0.48060363741789863 -1.5321933644738195 
0.47891766541894243 3.2342180110397662 0.5515732967964088 0.09804201415663184 0.018401259442989856 -0.5362052502421254 -0.005081836436940413 0.8346155094284702 -0.6149849488132462 -0.19803792058362651 -0.0341594986334171 -0.5997541028048178 0.22622841028067062 -0.8163979174736864 8.935714898353769 -1.544765647446928 1.1186577585874529 0.13271902294903487 -0.4408015031245203 0.6667255105715649 -7.797344306832445 -0.6773215361417515 0.5096703853801781 -0.10310563329541297 -0.1721785922580386 0.12323962470732704 -0.3588236936612744 -0.337944328452226 -2.9751831689125146 0.21362742905060175 1.0327881468811795 -0.22809015441622185 -0.16301523990568753 0.3699643914831259 -0.5919493391597763 -0.5567480260707732 0.047210646464204344 -0.5411103514688812 1.274425976130779 -0.6902488367055274 0.48967549154192763 6.694190436245551 0.3086839336551332 0.6301704078387302 0.14617033754128106 -1.2939085795722638 0.14295160587556566 -1.723752964913168 1.1250729256195864 -8.250130119350706 -3.598808120623075 -0.9840658085881479 -0.08301950925256364 -0.9125697540617594 -0.35916257250577777 -0.7130278874740374 0.1298841264628036 3.0656109299597585 0.39029036440131376 -5.731378986504803 -0.15371786100697873 0.9584580918563157 0.0869780953530996 -0.112057220002433 
0.49449159865982933 0.08882050869755093 0.8773400413919826 0.9082796218853537 2.301120717733829 -0.6884176934031411 -0.10204213123696626 -0.6645223184084699 -0.23066800725633688 0.8110510720765389 0.6440086538357167 -0.17784046191696554 -0.12726863240472452 -1.181990650119732 -0.3984484685256709 2.4625242888492878 -0.009635008620432631 -0.3191337685730114 0.4206493098162469 -0.16925498422884233 1.3347202100386348 -0.3787992330505228 0.9225236853555466 -0.0055104822701637045 -0.013788739916248372 0.28252274714211784 0.27126623007417194 -2.2847037394194314 -0.044672918774693954 -0.33206864712137485 0.2183348797364579 0.1582945718648289 -0.4147433779265156 -1.025408381781827 -0.08365414424958685 1.044428439554122 -0.42809952459544115 -0.6466021256434953 0.6447732334012899 -0.02139772666383492 -0.007890287708508787 -0.01282318515201116 -1.6583935302907407 -0.4323854169493423 -0.7684591861886207 0.2050972283184994 -0.13867270987076302 -0.05369623102813073 -0.7032465343281247 1.6509521147093114 0.04879904660157107 -3.1219974169133384 -0.0024050572357912038 0.07846495010238495 -0.7360182255226001 0.3713257415357466 -0.3880626573535728 2.453004817257307 0.45037417982547623 -0.186320999460745 -0.7980764314962903 0.3348557829967898 0.06425586703323863 0.2383096983571754 
-1.6706960858021083 0.46139531772567927 -1.3839826161137545 0.8055584808296262 -2.7682771181811825 -3.5755902280593954 -0.34765245755188917 -0.8033313745371505 0.0928661156699857 -0.11724838373685087 1.6808256404149815 -0.3142685941241873 1.3238095006249697 -0.17727730734477085 -0.09277910047672024 0.5964366863518001 -0.202813805252818 0.47773971338778976 0.23800057199604727 1.5377213467497193 -0.10506290476199401 -0.08481969918974518 -0.6564430777407292 0.6416786255436555 -0.04840099320618487 -0.5790500297346056 1.011238562155175 0.49390142162406225 0.17411168591986265 0.40254403734650746 0.4269246393075672 3.3993433547772662 0.6597508405019761 -3.263783756097872 0.03382584254856826 -0.14833148940828847 -6.215926966870008 0.0745825565310809 -0.38618931081796404 4.273995819838636 -0.07129969222897935 1.3891354972256613 -0.024182315806149286 0.1882327654801694 0.38100763681173416 -0.8629891415682832 0.2114457682743032 -0.7511002753723537 -0.10488373850440524 -0.3516429202939442 -0.018426768939316447 -0.3293084545986165 -1.0942924660580635 -1.0678332528669816 0.336366896780772 -0.32884796108251174 3.3609720491643227 -0.0033754890324957675 1.2145608899267226 0.10254014690945971 -0.20669972781290324 0.16224632030691372 -1.23270760266391 -0.10872484573583732 
0.09201864189522592 1.4600153775375824 -0.22043501062635473 -0.28418699185889956 1.7358310139282571 8.355271212502178 -0.03876284426912145 0.621906552027999 0.28505590157257693 1.0703942840974674 0.17155494900781845 -0.8333419924736626 -0.14964256604273382 1.681855103902935 0.1218258982063544 0.0914341512828661 0.10283474652703845 -0.3763680012935904 0.8753663870108377 -2.243417762787425 -1.87813953193319 0.45708666967927253 0.4813342376929173 0.769430775712561 1.6736656325683579 0.09359314950262705 -0.19143742383664986 0.11376271723618957 0.12369847657344712 -0.21754850268696954 -0.22819408237980596 -0.4516473697838462 0.774583112735114 0.780553042225379 1.3768365903022495 0.30411383739543335 0.42205243610868537 1.1101999234474402 0.4190586281243296 0.7001304460081675 0.47482897129866275 -0.21977550685211622 -0.3168486535642263 -0.5262513250619395 0.3421204814774239 0.1711282249511795 -1.3033837732392075 -2.3984292549202646 -0.3620482279401098 0.22179309662587782 -0.1296121841521951 -0.36445757607830187 -0.3160753739384309 0.7650802967983441 2.5134137270188743 1.617865036400541 -0.25455377936068746 0.23429030037976584 0.8204089815772555 -0.11216950422702189 2.3340004192770207 0.3048091226048048 0.42626803774814087 -0.12952599515612162 
0.09725919541555832 0.4129013811140818 0.12391897515281884 -0.7410061494159935 -0.49016207497815695 -0.08550577935325614 0.07803719276189038 1.332050686028479 -0.7033488559911429 -0.5281076408968759 0.11363279462044669 0.01997885629466776 0.07428573028347302 -1.1558190787519431 -1.3853688600390106 -0.049765395868326665 0.0211301565370655 -0.1385923289118629 -0.0650891062552471 0.028353453686456767 -0.1325646850016954 -0.49123370342254785 0.8806923046067783 1.1768910601521236 2.565626974605819 0.2224873639490146 1.604879156324581 -0.8413783262918312 -1.1221745796795175 3.10900731789387 -0.12035404679682903 -0.6197843965334457 0.062154040387187935 -0.25782289949026455 1.3321497296229767 -0.39596641360421087 -0.08182254777637371 0.045337358221535846 -0.05081920536919538 0.050688968902878204 0.10686925005531435 -1.3136490284387201 -0.7889820848315385 0.01953008925674785 -0.19091585902845534 -0.040469825985591776 -0.055521513010022956 -1.1276874248407769 0.09789447676713271 0.31781749880627475 -2.707508584346445 0.5580860449258204 4.121970889183895 0.3334960289134574 -0.057893997746859605 -0.059723556206904865 -4.176034742740358 -0.5284570625933244 0.3280675564599858 -0.47629491484891445 2.0761081516922424 -0.07118479159101805 -0.67746911605446 -0.07736860939775173 
-0.9731285246025375 -2.973303615401469 0.5372037445037066 13.500610880388919 -0.8049396609859522 -4.440309356766057 0.3385133151526073 0.10381658573506895 -0.5692410374907627 0.05172652691942827 -4.745067469046708 -0.006954869812590169 0.36113510011190375 -0.9215050132914333 1.292266359563128 -7.4018310240707565 -1.7100829259178605 1.114178346578745 1.3781888226168224 0.1591923023647607 -0.9304014941054068 0.006352228592008231 -0.09493237303237283 0.5200038127394071 3.516920476530386 -0.1051765857873578 -0.04368184076036324 0.4153888739422121 -1.7160844959857837 0.4389566914126104 0.356920282390562 -10.88666454414353 -0.0987044761184659 1.1563000735755653 -0.5055337404532114 1.8834239955882655 0.4811893173227523 0.2529382515592414 -1.2064980005252894 -0.15986224163424215 -0.109962063385566 0.06850785530929297 0.5445302243430914 0.15575164406835282 -0.11842274071389193 0.10342499761757461 -0.10237236923040789 0.15696211308859287 1.5039551544204275 -1.014130255809749 -0.013156170646390849 -1.285318004369136 -0.5110459937822779 -2.1511683971082047 5.735764456732025 -1.7699133293147704 -0.46742765138429776 -0.10178046220282512 0.38942491037637267 -1.7215664923745417 0.44038181211315064 0.39818332489268105 -1.2551062878729438 0.4130686777024439 
1.3864413156468112 -0.9034744137311781 -0.04940341276749791 0.03427637221347694 -0.37017195576155154 0.24992843580842525 -0.10959870745381627 0.2086259932140847 0.2099209091132272 1.121705380781689 0.3242315206669621 1.4675169197557667 -0.6681532940649534 0.2135608834105528 0.4710964199516257 0.16812134966398753 -0.31315026384889433 0.4033044377229812 3.4557612779527567 0.011154878248756958 0.7658486271915736 -0.1437479002119221 0.8309188327972752 -1.531757739474331 -0.04304357796063722 -0.3096357510460661 -0.028244146632810847 0.43147120588317533 -0.18994875250274754 1.162139578439902 0.3648017359542436 1.7662010228088725 -0.08547704192960864 0.6957002760953069 0.7846880852807279 0.23434436816344184 1.164749302343485 0.03972866450679598 0.02472638242642574 0.018431523133141454 0.30871758179573316 0.41002028877730307 -0.38907865822128235 -0.940108640907659 -0.7951162184556112 1.2381803649594372 0.08207691448747526 0.15788149943347202 -1.4903906448260287 -2.4335462113426702 -0.3120172679833591 0.5864212806495044 1.7405349179257612 0.30102954221518585 0.7457147134491249 -1.41432052542923 0.3100596983635492 -0.10829692494921807 -0.5325427839570269 0.08949563882031702 1.6227506450781937 -0.71577445004943 -0.43415085574256296 -0.2647575508864956 
-0.020456943361208672 0.29363138296680824 0.08589829176083255 -0.0810788611482627 1.1072113796090859 -0.05766929065837849 -0.28976117608925034 -0.1812531462763928 0.3490250905480262 -0.15634658036333923 -0.34570450916365364 0.5784190830326167 0.41671598449519154 0.046584906988190615 -0.5738705345736548 -11.365333004428193 -0.5099259128411765 0.5471285737454016 -0.11069398543447548 -1.0215698165532814 -0.5179564693697694 0.10882356118384647 2.43474904419416 0.10697359610676818 -1.7231150741064512 0.8598823045433525 -0.38491943548884705 -0.3598167585853027 -0.17432883612250466 0.016491819820229712 -1.096792043823415 -0.08058414481886152 -2.942107932982906 0.20945305618665175 0.666282784480659 -0.7960546853229724 0.6656500977020683 -1.5765880828580119 2.6421614741732875 0.2721160414889051 0.016093148598038037 0.49469888513678584 -0.5122603756783514 1.6942010663929306 0.03805630436282808 -0.110350741024741 0.5926390821639628 -0.09617049865329926 0.19650501490263245 0.19607659550527498 0.8621079771311186 -7.2274503043948615 0.1292039503844877 -0.09492944489006615 0.05024903240260292 -0.875702742022327 0.18783658592371644 1.1761398520958317 1.6549154814470093 -0.22170635734631075 -0.026464171956640314 -0.4195318405924611 0.4008758185504214 0.3557662604239734 
-2.1765228545863002 -0.761627285791127 -0.5138117512698694 -0.11452619441849646 0.12887738886045638 0.4528859763872899 -0.014855873793028888 -0.04463279932398534 0.31253681922573157 0.37385335223918664 -0.049568766870073847 0.052230099663155866 -1.1014971147078063 -0.47811235750961234 -0.6540710597806692 0.5299792712478384 -0.5535398771609928 0.5363462530246405 0.040133902813745785 -1.247628678576743 -0.2513590018438354 -1.5425805921432845 -0.10338853545651147 -0.8116308715756527 -0.6394205695989066 0.028977102736353347 -1.9938199614898422 -0.11928986551479083 -0.23062714243955362 -0.5783548174085809 0.8647777373344221 0.7060482425680517 -0.07043264821618891 -2.0465150298341546 -0.5135736939066745 1.4096205399371322 1.2921101445045886 -0.9549766155476683 -0.8873666628642926 -1.5679885056329539 0.027374115388566076 -1.5847196907125143 0.9949472985420045 -0.0658968479067339 2.1344423446688827 -0.03622378245834295 -2.6775887108616856 -0.17449190683216514 -0.0002753174997030131 -0.4581405680620836 -0.3992330312021027 -2.72794161021531 0.31300140868849874 -0.12976408986113272 2.001137784564634 -0.848991523712681 0.0769094025329623 -2.5965229915539374 -0.06484629017164667 -2.9449204448689805 -0.4163858739934804 0.10789418572931608 -1.101005273036224 -0.4704079113003142 
-0.6403332469496944 2.270195714702578 -0.15925719971211527 0.4815017483711091 -0.6752210833624199 -1.4736418701049414 -0.005274144049146843 -0.30740572486087764 2.0931187712922004 0.08113570488112544 -1.426643998024569 0.020479822250349902 -0.06168994004657823 0.6836985876992158 -0.3160474633114797 -0.5068984597105016 -0.782414468872911 -1.1539270968498112 -0.8598979945207798 -0.5593353934680858 -0.04252165838618716 0.04617684613254606 0.13116178702282474 0.12234875903199773 3.013054884423204 -0.02871292076723429 -0.019758377173717624 -0.14058507556583041 -0.31901018678457255 -0.3116655145082143 -0.029362002826295336 -0.033919515271076936 -0.9511948369345956 -0.10235860036983487 -0.008049856613531768 0.047705893806779386 -0.5009630986601036 -0.24722246492465175 -1.1580761535351012 1.4007108024542587 -0.5499673217426281 -0.5346266045754929 -0.19994928269220621 -0.4044484754397822 2.8100755660853363 2.268911087689694 0.06809954281386989 0.13657279191150942 1.1705339072850462 -0.004036910256802997 2.6549235149351897 -0.1800138625576922 -0.2723548158429844 6.430379139054747 -0.015488868401305972 -0.038760339580392406 0.691495961045676 -0.0007914466562815883 0.46680903390794937 2.834156928888363 -4.884081570848911 -0.02184920542240938 -0.0006078813066369924 0.4840732907060889 
-1.5495306859633982 -5.183584135171055 -0.001558089659321642 -1.1660232798800534 0.22770473067651104 -0.5068260793299526 -4.658250412212515 -0.4623533477234366 -0.7467884280026156 -0.31884105567381243 -4.733051902238693 0.09147638093115601 -0.8766621953385791 -0.2657879069047924 -0.7304522419524933 0.2956217047134397 -0.09081881234710441 0.18435141641963637 1.508931871899246 -3.902097786389797 0.10397363353084906 0.6230498340459525 -1.6775155338861 0.5890954481709193 0.29483953221367803 0.08681133241435245 0.013905259472195555 -0.013561510718338752 0.07365441013020507 0.13977091824909715 -0.47678668459798224 0.4967207547029945 0.05917865535856729 -0.6453056314638929 -0.3718578888961654 0.2933828600356263 -0.3209011960654431 -0.193014158028731 0.19552402874835517 -0.21987949007503396 1.6530439258501042 1.7423287877780922 0.9748380904342324 0.37849011547497496 0.4484065587682141 -0.02986823410783982 -0.8403839971110544 1.3922360599445214 0.19310213177367472 0.1807136204777817 0.07351428011954551 -0.2548108363343923 0.07392823709971533 0.20966457562544544 0.00950556922025187 0.2925128219869623 1.037951557686891 1.1031137017448354 -3.2383500430897487 0.01427336134904322 -4.5573357412405455 -0.23924453130357437 0.6184176977387299 0.061581070007347735 
0.5769171405262878 -6.60424155538197 0.44592980986971503 -0.25649547159544633 0.7676411949895532 -0.41707172368470674 -2.0638672348441194 0.7974883554183447 -1.332086937501158 -0.3459223442839245 -0.6538690085353267 0.3876714511310418 -2.4966757339511982 0.24425575614942283 1.075483758133366 0.17217021675303296 0.04207630418866688 0.7064962681242345 0.5595108583985189 0.18443830829106916 0.3200874451377999 -0.5553002674274411 0.14084412521199446 1.3687485459621285 0.08501683547689994 -0.06880694697014834 -0.4842017876366886 0.13968056720513292 -1.0540276093714531 1.7951297776146067 -0.17355869211594915 -6.614565967146213 2.151622185900169 1.3873843951685114 -0.3253578943660637 0.36537516223663014 0.15390857947809689 0.07127753519251093 -0.4577282931884149 -0.0034735112791231364 0.6769734104215327 -0.19254900642686032 -0.616871653851892 -0.3143395140929163 0.023208727573404427 2.398371837559819 4.11371923314256 6.424895289984413 -0.413920110237996 -0.20715899541785357 0.15466407013317757 0.3537746614087548 4.857168253539168 -0.34421062154406257 2.1059800920983003 -0.5157794338598667 -0.06281102345112113 0.9147028923019074 -0.6368589225528182 0.2421149349527245 0.10546284993225079 0.48966179943829274 -0.2984482653327735 0.13247283361398127 
-2.2621413071850194 -0.8240071874035366 0.9810384777824556 0.3052396478819869 -0.45289884568299665 2.1202926087164427 0.6055836384054015 -1.188444629098684 -0.09302725215729837 0.35583852883015804 2.6379709298112965 -0.8347381047193848 0.1888770988996709 -1.5049914827870734 0.54701736541116 0.6333403698161163 -0.21799890863988072 -0.6480436559331979 1.0991275988658238 0.24237329334314653 1.6316641026658498 -1.6645605847241631 0.26739228568881157 -1.8035129754522585 -1.0305264680464825 -0.24733616166967098 -2.0150703894560595 0.332939305290546 -0.9474141176434127 4.967567952046307 0.6108729874491483 -1.9743177639123377 -0.6234853354124686 0.9469046869585699 0.11753734516171994 -0.520257244203679 -0.27469970123568804 -0.5397643032698743 -0.14136029899236965 0.17220817726408436 -0.7259058739277194 -0.04978720359827842 -0.5417290039735616 -0.008683510790831003 -0.4200375826872561 -0.3519683715645105 0.4019818110678005 -0.2099360136055213 -0.7133068505231418 0.022970262018734245 -0.17525878936502923 10.163779994016613 -2.2088632371596435 0.24631233565790822 0.1783963659553477 0.4682804305908955 -1.1224119803826487 -0.02908935208800629 -0.6445342409696139 0.5935387340202313 0.4455006309880032 -0.34659089663436066 -0.09084445180709141 0.2848266049076014 
0.5310251744663717 -0.5015880417797753 0.9031648211896462 -1.3872296568961962 -0.029798117893032848 -0.3710582626888713 0.3095294253612973 0.35700410580970315 0.04248850161117441 0.2376184138826597 -0.3054503517379605 0.076979757000743 -0.10708418226459344 0.43030451563772354 -1.5180466710979768 -0.3072292034741398 0.6282174818882308 -0.03594269585130942 0.4977593008842405 0.16893470459264115 -2.854926212159157 -0.6621509440108363 0.06574534278686023 0.3439231311152409 0.498853821481167 0.014262645217530939 1.1907530565499498 -2.3103470421033 0.3585775409105203 -0.6034758923599989 0.6416612815947706 0.031833891468480924 -0.16012076166795805 0.5018230999460801 0.292979001771714 -1.575167966653314 -0.05657701262110721 0.402870068568452 -0.5323235205166462 0.9271794829845585 -0.14010991976189188 0.15079380650360544 -0.27411638293689644 -0.601096544078076 -0.3930779995781849 2.6008662212270535 -0.1696573672096828 -0.9160708875898745 -1.3239509833553729 -0.9514842680875223 -3.362183461555897 2.291609112963067 -4.196168517767139 -0.4384099362507876 1.6322823901771766 -0.23243001856939782 1.904152171743914 -0.2503408334059012 0.47386681723415264 0.27380292434021514 0.1980675013731198 -0.7620317021102375 -0.32795818642960967 0.341872059168174 
-1.151378379054153 -0.24911654609939185 -0.8523339138077657 0.0007305839124436663 -0.5499810490840025 0.04679527865332159 -2.2110749885191954 -0.8273253673586728 -0.7822403351044329 0.1125339975344483 -1.3033733490971655 0.5349173483287263 -0.07362096488053757 -0.3795207693159459 0.7967133572921327 -1.0834326549342683 -1.8774224702933682 -2.9094747162058185 0.016538829920604372 -0.09956226978801236 -0.30062432306238934 1.158200282850891 1.359342027158376 -0.07631100448843642 0.9366822312016545 0.6023277861417627 -0.1614611999399327 -2.040366246702855 0.2348572601159714 -0.5219189752017024 -1.0628164347787283 -0.40567211879653364 0.2284169248122081 0.5593725870025331 2.3525434661115985 -0.3496666564421423 -0.4183587977806699 -0.10207562813897736 0.046862719594070935 0.2434065242291972 -0.20557046913166416 -0.2941031228650324 -0.42422988156483 -1.1328966383092722 -0.7386493689127789 -8.193934545819824 0.059483378278205226 0.6836153294768282 2.6777187860369973 0.27527683732749353 -1.6014945004160699 -0.0038772293157183974 -0.48500021883223204 -0.0670888609463941 -0.4335620845998872 0.3108544444027704 -0.42344843046634184 0.194274285788966 0.002512740196341971 0.9748318764352472 0.3549869864327387 -0.22988895029381387 0.7597724666533259 0.1475594148432271 
0.2056998320190226 0.6282634870874807 0.9243577243914721 0.097547798957547 -0.8983624949831662 0.1489846553346212 5.902215942330294 0.03150623523234957 0.06898680135384383 -0.27880580513947084 -0.5187204822219823 0.013069910790697026 -0.057103270271949974 -0.015215497123508101 0.015229252521800534 0.13362301041985225 0.28705846410350416 -0.8130482010450749 -5.626879046267577 -0.27539619124700343 0.041441526342170895 0.34746692921437805 0.2556929111855162 -1.0669210902835298 0.8365376523531993 -6.5509567343895005 0.5981816408448095 0.25008730017498915 0.22210803952178268 -0.05507105883060226 -0.6001861965471774 -0.5029100221079082 0.634265239518085 -0.4899610102772878 0.09056979321944407 0.5201463399198982 -0.16555399689830153 -1.8797175456767468 1.1102336609773096 -0.1868356106244701 -0.09434187655584776 -0.065482654382219 0.12576381037212853 -4.229056830653452 -0.11125660862827383 -0.4129588461121742 0.9920474697275276 0.5529270219812753 -0.3357692798289906 -2.228808233573623 -0.412147978054 -1.312747728697088 0.4834982056315339 1.9898891023234517 0.9093880382481346 -0.14363605935757784 0.15186198790068053 -1.7948891399661038 0.14842204556215755 -0.2784619054521244 -0.24503526083141602 0.021711037951008986 -0.1270415821189949 -0.04601757162023132 
-0.32345845558081876 0.34771035087788543 -1.9421666049823674 -0.06632470085154867 -1.389181260814419 0.6735584616764512 -2.1558555064554885 -0.08909785051981561 0.032370538021321726 0.0091538180198452 -0.10399485082928613 0.16447882461545935 -0.2952873572341558 0.06901878064698111 -0.9832337641743001 -0.7649557227589754 -0.5529581010389369 0.3674844840368822 0.546667425923902 0.9861788228620286 0.28007604035998185 0.4396146506229021 -0.9335416735234975 -0.6819926006458985 -0.5326574256563946 -0.14812395539969528 0.8618313524730947 -1.491017480168573 0.33497175890675635 0.10963604052886677 -2.091582037983877 1.3624147932193396 1.2646826599980738 -1.001060534321327 -1.1108489729508726 0.2490216567967537 -0.7502477843389747 0.08668617284293428 -0.3451711856657335 -2.588640046103659 0.01817953479232202 0.0898971969742257 -0.4543720194571821 -0.19771168684044133 -1.6273012249673566 -0.473670022390354 -1.11731345108216 -0.32300868956619655 -1.648192004209217 -0.7082300622429876 -0.13491995306004317 -0.02163938064442154 -1.2184373329114087 0.02555523101541864 0.0806696366578499 -0.07170982504406735 0.027832272251051057 0.5111202419076046 0.05671801744434417 0.228612572322237 0.43856199842482174 -6.2941649601113205 0.06260994799982741 0.15718822699717885 
0.12041632018399429 0.11427396240211378 0.5117022033002027 0.1514423504736829 -0.07828957934711993 -0.41669738525644384 1.5592034406847513 -0.5704255319890105 1.4430259070486329 -0.2740932081916537 0.030718987027972492 0.5718675866374323 0.38510119493250117 1.7091272593829085 0.5971172462056676 -0.2730199704281213 -0.6461591650220155 0.22155827828948715 -0.5078693580533501 1.738264505808782 -0.07080606198148873 1.298619598117001 0.3482274781225909 0.08916432497404103 0.7734084864253485 0.3191246496533874 0.19577443316397755 0.2624242013616417 -0.27417183504694087 -0.9407679888939304 -0.6086771391706518 0.10641657812005009 -0.2467481910067136 2.2605230342316642 -0.43411893640966237 -0.06936976025332356 0.5311668016234884 0.6095525411811917 -0.8521284463765673 -0.016597815728025093 -0.02357519251023001 -0.6280368726523106 -0.2091659891294287 0.25040493718067164 0.20742642029884528 0.19955150353742113 -0.25308724216359324 0.8871564704157008 -1.9245304797294116 -0.36369567849299195 -0.5987497438955256 1.1787831982071753 0.8537770428239169 0.09761847581502235 -1.9834978981051754 0.39290949719268664 -0.1940052633246948 0.6042009816133398 1.2076890834922247 0.1437261168354993 1.2711251336699476 0.809872472829336 -1.038379288061228 -0.15145875203816261 
-0.013944043040350015 0.4631894687942778 0.20034482190479136 0.2251972471252271 1.2617130098740599 0.35093454652821815 4.464604637331017 -0.9564543927241118 1.1574665204834471 0.3287933568935745 -1.335316216201392 -0.027058500858816403 -0.3776204549533884 0.24821004382871692 1.0899924517469852 1.6228238280650793 -3.3717146270988443 -0.15729543822620046 0.8870713696162107 -0.13519847646455546 -0.13056281119949456 -0.25000303743895996 -0.0696571278674781 0.7157509078984403 0.8482697952206549 -0.021987486443942925 0.951529595063649 0.19551687339120105 -0.7022201840202767 -0.23025838069640958 -0.2220261433947034 -0.3789805155302819 0.2642024389503678 -0.5696593006258271 0.4609859631721773 -0.6216973536235284 1.3666686842433047 -0.06256990639048418 0.12618462707275505 -0.1682030683930143 0.5290315107182065 -0.014077733949339583 -0.030614340715046196 -1.1289978787021047 4.59267095074798 -0.24400498133376192 0.3780017279933515 -0.20820493994128256 0.06439276524694725 0.11654608510837261 -13.537082926154648 0.05776779152147976 -0.3763128223925788 -0.15999138366535012 -3.9217172486779486 -0.040292599014124617 0.1800133896057127 0.7348284238436772 -0.6854088348925611 -0.31350910200062404 3.8143723197730584 0.2597490943481784 -0.02236327561788797 0.05428103466655551 
-0.09672398327444139 0.14517064098725235 -0.35617144619697216 4.613766045586908 -0.9500834131718332 -1.3906097313253303 0.2646916517521701 -1.2191267814502462 -0.4114083638942052 -0.20062347046930426 -0.5365728782579706 -0.507313131116359 -0.31221416807303626 0.6656490283296209 0.07411669387523724 0.4498380790184166 -0.7126990461019108 0.048177285037828484 0.9505074346081432 1.24020512725792 -0.7036669544621522 0.033485499828529094 4.646501983998484 -0.33781715811012586 -0.028908741762776174 0.07155078885768158 0.06546853578533611 -0.24240148954443802 -1.2876978385701738 -1.5557113045484736 1.1801467883740036 -0.2977052147268816 0.264208215246632 0.1301802817251935 1.83853025104659 0.012936597372421978 -0.08445768547018018 -0.8650310215037178 2.5331263805855646 0.17333724547509735 0.3560625936059321 -0.030279556948364122 -1.4411992256741548 0.6292812734881152 0.8496832630383357 -1.5069044087488865 -0.0011914931604639703 0.667895031759419 -0.15455966269771962 -1.760853477874493 0.5114831167951108 0.35185688508642265 0.7234559897679335 -0.4589249300306226 0.29616477637098165 0.990383956787374 -0.030873923703239214 0.03206486643074543 -0.035161831786600505 -0.09423025532019302 -0.5732019112921022 0.23087000844530467 -0.6091410588685825 -5.317734089187486 
-1.1959533893957568 0.5824959818997121 0.9152670674607235 0.4177516829893473 0.09900702372756054 -0.1852318026221757 -0.609444028961008 0.059490717191734765 0.030071107449151434 -1.4501638877345324 -0.03762638643256219 -0.3250840850501199 0.01739077554755248 0.8108174896025673 0.7355249477744499 0.25950211591607975 0.9962599555533346 -2.0112226637612864 -0.5077519291007473 -0.583082519797017 -0.07596123679672988 -0.4885199673478611 -0.5062028203308027 -1.4341859562259347 0.2852718286156112 -0.9446568392871798 -0.49714618785548587 -0.13213322935697994 0.20515155234735752 -0.8493439205525032 0.40944448651905 -0.9084641592387767 0.9752061040151742 0.021128042765862706 1.2410412917535238 -0.30883096219712297 0.48686100116250125 0.010580809650331644 -0.023794534834129567 7.281947976777865 -0.29011772974911276 -1.1576583847605664 0.2262727828853235 -1.3100038932522649 -1.2392868603776797 0.5366763166010045 0.6912099868066274 0.426702833391848 -2.265870145363306 0.6040544740844647 0.2245866488877953 -1.8256754726783342 0.6143671844554915 -1.3957231485913404 -0.7258380522032638 -0.05081717147374625 0.5724624043467638 -0.5501345895979322 4.01926741988515 0.4238374778060274 0.6952065121727418 -0.15599758575006498 0.11167661369872194 -1.5590534324690453 
0.09550585156374311 0.17787090962408955 -0.2056198243521067 -0.14883077657808266 -5.042129453769113 -1.7919607155978294 -1.8006044280132865 0.21565680670460236 -0.6927270128647921 0.5962681320741899 -1.4977847627356387 -0.36181465293449866 0.0010443149818994922 0.48357842730970496 -0.2668473129647711 -0.735656886443987 0.6944844352427716 -1.139369409638337 0.9256701427416525 0.2520754180568691 -0.20692007575287433 0.6447890947831294 0.0017511290487529372 -0.014496752431973837 -0.23196562949985464 -1.7951314599804622 0.2337271680248734 0.3930152814098236 0.025787093136958993 0.04605972851360999 0.07144680546959377 -1.291746736620955 -0.11892731847502827 0.6862829780481767 -1.4920045171265393 1.475615699712967 -0.7446750944705153 -0.3959407326183735 0.7042389681764191 -1.1581906092468868 0.05726201278513542 0.3359813223951201 -0.3760205550825673 0.06031097149191711 0.24524063959509615 -0.15717036249620972 -0.14308379571645294 0.05887646059831064 0.008522401011507507 0.41741024960580386 -0.2949974902633996 1.2723637995347183 -2.9341181635023417 -0.22146255811993665 0.1390870853105454 0.03108845104104454 -0.5899414257496438 -2.9967395049809906 0.3478446574622307 7.674552821152227 0.5695197164407999 0.32322434148767376 -0.30431021719744555 -0.4169532008180164 
-0.45686755087340225 0.161699064024604 0.4513030262585738 1.0102363696155188 -0.049449681153635114 0.39655487913867105 -0.6844644739358653 -0.538212509757702 -0.2627296200605133 -0.6705198830892102 -0.04185022308339927 -0.3236779912885757 0.07113811507093555 -0.08284457689845047 0.38207558086506355 -0.9876975319672603 3.2275966407895735 -0.1611520355503328 0.3448293148221618 0.4330796195305149 0.2486693689361335 5.500955731164986 -0.2087435113561624 0.1403614765180505 0.34248952913750447 0.8138248920279797 0.4085608510762968 0.10257167181831836 -0.37803887335177244 0.08914505391400039 1.3037315724054186 1.4824823096525404 -0.6410112818775758 0.18062476843977882 2.457817043995621 0.18363552757505253 -8.381110088159879 -1.1445234662971224 0.0993123550386677 -1.2524257552233715 1.4163471570135298 -0.2671937402283996 -0.10222470183322707 1.3949126680439483 0.13900662939128766 -0.06515863962357905 0.6874368835557955 -1.236381002608658 -0.12295426436550898 0.5497890531581939 1.0497041609915219 0.7095286683822438 0.7244212954422496 -14.200078788984872 0.5696258301713869 -1.1422128665881657 -0.9948516591043189 0.4135913900126667 -0.10201605952208445 0.1287014982830263 -0.12385965540839274 -0.1263338026915076 0.13907244206198385 -2.1233972773091767 
-0.024376256422452287 0.5923990514134264 0.2508940946288128 1.0229040413124735 -0.23010367436245785 0.18295627839642647 -0.28446039544590085 0.9935038557650633 0.8606089486818975 -0.5702255231162108 -0.7854899357869718 -1.0682333721151098 0.11859165346811656 -0.08257912600791051 -1.2254623143122243 1.2590125698522823 -0.6211144914624911 0.09296988959801315 -0.7792047318538217 -1.3335988546818798 0.7353021131823692 1.9093986586376397 0.06277741050338786 0.038702812457450636 0.6631803388470219 -0.2798725107133838 -7.19099129278148 1.2490482743903428 0.05983643998005417 -1.3937991498329594 -0.1307062615588683 -0.28699124091267736 0.5072442865453174 -0.8242004909269427 0.1292767813482793 0.11876071570174547 -0.06077910821587632 -0.3523345861609951 -0.08368711314782991 -0.16398724125746944 0.9494324218294264 1.726391268944208 -0.26386620645148656 0.6927708870495923 0.01615377305788387 0.062420574004453784 0.20708650686090987 -0.6639911467777874 0.4360425808287222 -1.264984193572025 1.0587823420077587 0.1709657973682325 0.029183643280300424 0.10044280796729554 0.25259811136094507 0.5845222386446313 0.7643495950798616 -2.7484084855405344 -0.4059836451542266 0.2956492760977175 -0.7314751885257693 -0.09567733757130288 0.22902978968059462 0.06777039351759445 
0.6552297955719353 -1.0920289996800596 0.7977057116231577 -4.629755155663194 0.05004460508796053 1.0764564257472697 -0.1085756152920874 -0.0075502184681756805 0.02793260976596611 -0.19222335310782837 1.4146468293575463 0.6762533550099019 -0.04962615695032544 0.3730087837459751 -0.5840905841180708 -0.12756345104301797 -0.2679331939875122 0.07159601983512849 0.30905492682450003 0.19672936079762246 -0.43930614903788545 0.4823964810009024 -0.8157121448714488 -2.602338974917844 -0.43227710366058414 0.9087991421909893 0.397990877518807 0.5914371626680444 0.21897728141633546 0.04466677780285754 -0.18923412589192046 -0.15269141288516042 0.922504123040944 -0.2819925547515921 0.6377865796462197 -0.4733762897616341 -5.014574149902265 -0.05598115008580473 1.038391254883085 0.004971535813293634 1.7036755739081137 0.5095086355375268 -0.12657716858259546 -0.18127433408461774 0.1706050426805669 -1.2721936214883858 0.17966367887544196 5.338986075433657 -0.608198465199704 -0.2235511712688258 0.5565246512381604 -1.6266195363058862 2.0266728242389664 -2.0019146528271023 1.1092734875851746 -0.34153144284605635 -0.3917584936662861 1.5264917111504146 -0.004834312509471864 -0.10583487727638266 0.7807292981795698 -0.051399134493375916 0.1123468292013666 0.45132163190215124 
-0.8098827582055508 0.09601658237742045 -0.1052906106766029 0.955645297170704 0.5031009716715537 -0.056010532559656455 -0.7512028770589301 -5.614410671384509 1.5811433453773294 -0.3844390149692883 0.39456936039828594 -1.4864034877783077 -0.05675039267030217 0.311580418242174 0.1282598175597476 0.10154600902058587 -0.09178074802873534 0.4879343787338187 0.3913795794543081 -0.11468029871983756 -0.21015020421770453 0.0853903022085448 -0.0507813083978687 0.32258690526865136 -0.20292104375311593 0.3396049762869979 -5.012782425792169 0.42553933660232357 0.5225748695638621 -0.8420857235810857 0.053235718584913626 0.14260775089705252 -0.11378614763922074 0.778287693024154 0.1083180593294677 1.8511489970958228 0.20025930308066853 -1.5748328281167463 0.131649517295191 0.0815915188612353 2.0485850573171707 -0.3376835160359392 -0.3628827564713101 0.12828889346876807 0.058405170477264845 -5.8734936658540065 0.5951642817918643 0.012357618946732457 -0.7618079201623089 -0.27788891162059676 0.17947363601194916 0.18594253131847846 -0.24711741075229282 -0.13164199072875085 3.2190142168628952 -0.14613205360420156 -0.42085166971567967 -0.25359370420404653 -0.5646579882736842 0.1473514909147911 -0.06558045410510555 -1.4702896114439465 -0.9725008389835573 -0.11602750277920484 
-0.1986601825322552 -0.07491057865028652 -3.3390570753656217 0.044528113561297766 1.4221436631236188 0.17181421417539297 0.5039839329968002 -0.00677608295245084 0.04184157046811188 0.0767022603254271 0.6288397156311776 0.45605691183247976 -0.044086369288503915 0.9683854123685508 0.29988723005316814 0.09149173022997924 0.7331759616625148 -1.8501092833350774 -0.1427652821957929 -1.9045050517860374 0.30485280172527324 -0.5107173418922255 0.46784673730516074 -4.32865156674423 -0.4050876213934981 -0.14848777096750182 -0.3001079144944642 0.7204539709642724 0.9180317498491719 0.16326013481826865 -1.812991366006954 0.12367497994615487 1.6497153818707895 -2.6106454192676947 -0.6985127877655117 0.08309023183409872 0.18012892572268205 -0.11892117585284091 3.3648359398121093 0.08139532575318591 -0.3906361143172909 -2.191823042862491 0.7552693680393695 0.25254509114280815 -0.8265224057623651 0.9341288603271438 0.1406735160905552 0.6072569120481942 -0.6258299663655711 -1.2322250113272972 -0.19970743672967 -1.4608485347917206 -0.14683169180021047 -0.16273433420938696 0.3865705014903867 0.2747834197196791 -1.135344881120568 -3.570659106380858 0.5210079903535428 -0.4699410982171205 -0.21440108846099967 0.2767313315031466 -0.22062697924422023 0.476804442936588 
-0.49158005106070046 -3.875566972688384 0.10680835180465843 -0.574806378553375 -0.22103624279372208 -1.1740400796194956 -1.3963159705168617 -0.10790617562278122 -0.19214352219943548 0.43622223866625737 -0.6159914390779538 -0.3645712661243104 -0.8517102073887964 1.1498444544214999 0.18450562060265271 0.06637592210634577 -0.19322719119122392 -0.007071622651586622 -0.2631894249812094 -1.2040919172076507 0.2391901764902505 0.06007579944634662 1.3737372559807046 0.027718912990811077 0.9778979760759595 0.05321824736213984 -1.5332942979865123 0.0009527872142477224 -0.040590963271802144 -1.6253227511198676 -0.375353536232204 -1.1329194504907982 -0.09004357440473239 -0.21388800289290863 0.15143930802372685 -0.7742073509118196 -3.718840090810493 0.11834136996782842 0.4988951444389912 -0.1083704139457587 0.07570203804160747 -0.9376093996577347 0.33579823370353434 2.6767850673746016 -0.7175207111185666 0.11384117444445403 -1.5231888052273186 0.6198799437310082 -0.3334499562724823 -0.08914794402458923 1.6980673904931232 0.30811170748154165 -6.409362401663497 -2.93828553369337 -0.0836794876442171 -0.027230432607391927 -0.016819626943682227 -6.709697386236042 0.5212428931784273 2.541597772638717 0.11824304355650275 -0.8717726159408927 5.562789395316849 -1.8417939436315467 
1.8227336656016118 -0.011067863045201501 0.08459736670888349 -0.6110292971014354 -0.14239350406223386 0.5715304336146224 0.08423092577523952 -2.4651242845287804 7.17264266394641 -0.3739663283018693 -0.31366021249042003 0.13933811804764107 0.2557971079226629 -2.309236975186941 0.5331121806655996 -0.5033414767377813 -0.12031727817614088 0.2683927645195307 1.0591334109104609 0.3806349173457296 -0.5308900545588877 0.12232182846104876 -0.026655651115348743 0.35994166442282344 0.18754143847214172 1.8716916236736507 -3.43634290170244 -1.212943076518531 -1.9084423006281812 0.39745159938551267 -0.8283410290413572 -3.2850687415772777 -0.46360967134525044 -4.667985731019029 -0.32671570219681806 -0.20709296279876224 -0.12097681178327457 0.8850621423887419 0.32857537618058125 -0.3980842833518835 0.2245646890497985 0.5769226613285493 -0.1684690742950037 4.908883649126836 -0.1431717513064476 0.6481111210248738 0.10428933592526325 0.33616354823082584 1.0991110287550616 -0.7488683061136259 -0.0783262750183496 -0.19367978667171823 1.5563259416849273 0.2987654285490726 -2.691640123110325 -0.05263457887898203 1.1301029989816564 0.038243321206914996 -0.5144156692665028 0.055090571224087816 0.044142780964796735 0.9895453296793661 0.0739007855183538 -3.7840734728026755 
0.0505220095764255 6.173772472669051 -10.883592063453797 0.023352610160380434 -0.8068243142752182 7.637007875122275 -0.5002781450147527 -0.4521583175070873 -0.5150180968432712 4.66100318470039 -1.1901531402666163 0.15161861732514803 0.3882915030196328 0.5389306133571171 0.17258022590903457 -0.5008992655906762 2.1230575399415623 -0.006849690995477796 -0.9410307067453331 0.07530565129074793 -2.8031203862118517 -0.23840534827806367 0.8528959717758149 1.5438093178144763 -0.5738068335213526 1.1638459517579338 -0.6993956453134523 -0.05228204788294535 0.7252351945281997 -1.477223758784803 0.8876538195025935 0.2576147835188895 -0.009868890066111776 0.06106869558358227 -0.14188842762448295 0.05326201844517442 1.0244719302773093 0.061348630818248547 -0.11952239814090458 -0.12911723980623235 -4.192248694533768 0.22612645508595364 0.42357464722154126 -0.0772960494323118 0.07996818938495982 0.37995388192724433 0.2141712014117863 -0.5941808831297236 -0.03708072875298319 -0.3628718405977331 0.7607284012248474 0.8561555738211086 1.8129061146001073 0.062053633421433704 0.4199087059619143 0.017842910709342002 0.4368965439647058 0.16076615995276367 2.848258269725438 -0.41425158927931444 0.11860570595522044 0.08670202534242341 -0.11631218918429126 0.19758051315046943 
-0.33786203383030877 -0.17641534956478092 -0.12348380575553576 -0.03045557545608382 2.0360797066177123 0.09358230609531026 0.01251082629817209 0.571653766690749 -0.05521537186846011 -0.14582995397797463 0.22774696499627728 0.06920658560565744 -0.15584539133333977 0.16306357200080066 0.1928090736067844 -2.652895896508247 1.8417174919172583 -1.8190189073206362 0.6557159171248376 -0.02572489184564642 -1.6158945463117076 0.1259539627659061 -0.5675985505419406 0.41891763767221174 -0.1951742892156653 0.3948231144963464 -0.701056268362656 -0.9026930647249265 -4.841192778368431 0.10757503982526677 0.10205059307549459 -0.3392297716057065 -0.43344719376298046 -0.5529560185351691 -1.0474931093659905 -0.6479141324436815 -0.13694166969504928 -1.7993443872903014 0.8278728465724163 -0.1437449244900908 7.686916577746947 1.2317812799701315 0.002778829831662078 0.17446822939974763 -1.5537253376967421 -1.310810227325622 0.713340443697181 -2.048992724123699 -0.15596958422260312 -0.14768122141471318 0.1168540380176061 0.1885501158822992 0.04944152706819007 0.8450849691196818 0.038185347230234284 -0.331163246528709 -0.9837446229861769 1.2069926050385191 0.8064216504042877 0.023090170301603534 -0.16455739959929314 -0.14932574896636627 0.08174064880562447 0.581263158330619 
0.46426922024017264 -0.4368987737876042 -0.6159284856315489 -0.07543793737992872 2.783210037618143 -0.6113578610979686 0.32409294947824857 -0.586704133138533 0.3291451234753262 0.48625052960934395 0.6153547239342935 -0.280170800715869 -0.04000885490336472 -0.15005282242868048 0.10521283239841323 -0.03587730368116284 -2.1660799294456075 2.4635453819812114 -0.0901199044508774 -0.16671108176217606 -0.6324289407647026 -0.18415233195616718 0.24995450252698342 -0.19477550035374455 0.1579711287289351 -0.6122507210783082 0.2647665002568335 0.2985041923556619 0.8669236605221207 0.14629660874403744 -0.20995946988772385 -0.14835690401158255 0.08361218483300245 -0.00397369085179632 0.24384070234500535 1.2507322090734507 -3.657687140427056 0.25452278311823584 1.3995007952839131 1.6378736366058075 -0.6450656653469026 -0.390840701142076 1.3522361896320396 0.02413048662618544 1.4911868204872238 -0.3844723532188176 0.3894202745746645 -0.12161297216347156 2.036658490891059 0.15928675634150438 0.6464955023220729 -0.12051039713252801 -1.5150911729649847 -0.09795203514011958 1.559870176685087 0.254221996941959 0.39843293377753425 -0.07736578533776256 -0.09815059871396829 -0.06882799050727523 -1.2515639632694313 3.210871980080096 -0.10802438301646812 -0.18673892570174663 
-0.09931508770017133 -1.257874470065529 -2.0731394575583546 -0.40801926317536785 -2.9364509751932477 0.6139894321123183 3.9951192037965004 -0.24080490234763696 1.7363324431713143 -0.3976667612912517 0.6500328406101487 0.016298265897173855 -1.6620211674704697 -0.13342043055078545 -1.4648477859075681 0.3688241625962335 0.2491803032815008 0.08293712405756115 2.086326173975438 0.3071928143395948 0.1385770547493679 -0.1462779933576856 0.8650231782864934 3.6265603547373715 -0.22229241678725464 0.2550445025034841 -0.0837480229394744 0.25812182074238554 0.2557461532089893 0.6262884515888751 0.3401617749404865 -0.9314858740357913 2.36400430725774 -0.9629889195190656 -0.7288388453762539 -0.3111902999071809 -3.93792591796357 0.2798211038434337 -0.06159621343823862 0.03699267912846902 0.15673775540336896 1.2371651897358624 0.09319354530635005 -0.31477725589310873 0.48334648932290347 2.4512537217316135 -1.1299680206822627 0.5276215798833284 0.5400807006503915 -4.605800729508364 0.31969101971245256 0.7795732111417973 0.2378890438865638 -0.06882639342619752 0.516323196463081 -1.393507667198277 0.1927984447416939 -0.12734810737295382 0.08608174820594329 -0.28145300633521847 -0.2700612953300799 -0.73345208854433 0.25785568873875825 0.6582215766083176 
-3.7037830962751563 0.5750685266128339 0.41374255400977483 -0.2957510074335664 -0.3709708959374462 0.17927832717232436 -0.23739821744616058 -1.321069591205471 -0.758785441163102 -0.056401304681560724 0.2215674884974571 0.04481081911584619 -0.7602542125721795 -0.9088566406411231 0.22515893090360412 -0.477835020285816 -0.08166354570942942 -0.03823098367753554 -0.09970295337714032 0.8947593744352759 -0.7031647356576746 0.2441245467675045 0.41461705132571164 0.15380964445560716 -0.8106827847055594 0.6745761378002861 -0.15154530684312792 -0.08599445432658763 1.0329760949475475 -0.02711473637814273 -0.3468421699681186 -0.508860926818731 1.4983659196761294 -0.35134336253210635 0.09384071837499952 -3.354914752504129 0.13626473214163481 -0.23542952587513882 -1.714129548605646 0.7361334080279052 0.24510733288994888 0.05544442771210858 2.093455200889121 -0.36125138303286364 -0.51454835081143 -0.044808917386886096 0.014863192986173791 -2.9578490330277702 -0.7956051750662524 -0.2857387757193416 -0.6644153233257512 -0.13186233206672737 -0.6354925908345982 -0.6127452444819997 -0.272138160820641 0.8395545752945797 1.7020378105016132 0.6321884473143758 0.05692470760630012 -0.22196848775803601 -1.0431842720176645 5.338369211161712 -0.31599658430594896 1.1206750810514217 
-0.45537392602226046 -0.1377230259815733 -0.17422537404062796 -0.8015777480955538 1.7224445872709864 0.06685000941861471 0.16788726430883608 0.2029286483385522 1.4718227524391703 -1.4511147814546428 1.5279523887383515 -0.0772942669030751 -0.04187323758487326 0.32029915157007177 -0.6992821916773452 -0.2779644982308347 -0.9840523766736262 0.416111210164288 0.3730493324974349 -0.45903941620158717 -0.08821161350669716 -0.7458937274607169 0.5782132282754485 -1.0708778476463043 -3.1830881984204398 -0.6736299167035161 0.23633620333560632 0.027618073590115692 0.8454867559965965 -1.695340124029317 0.10072504834504864 -4.004682089037169 0.09708477646186957 0.19989581787622449 1.152270865691231 -0.9854712896933149 0.46196731597911417 0.07705919624628378 -1.231991115614108 0.5794876073859282 0.5482102294576041 -0.5673488577070216 -0.009825595041695626 -0.7717645312756843 -0.03253460073935773 -0.28195859020779984 1.0837429036413793 -1.9783981283325933 0.7501970470832895 0.5466421058070515 -3.4555712681764184 0.3305142350356494 -0.440071777685851 -1.2482318194963338 -0.0733187583187462 0.5787460402374616 0.13579014837727219 0.08462071310479083 0.0003850731534407365 0.5475100944962308 -0.2687847309580095 2.370393681755711 1.1853126045709672 -0.4216718254461883 
0.11370687997088233 -0.38058043323809604 -0.29884704038128257 -0.25925290025395104 -0.21101738558657143 -0.03602439482355407 0.3200990393203585 4.945440558749812 -0.5459460999653236 0.5052229890658019 -0.5355391213129781 1.3494645830754444 0.17281355910169915 -0.00952803812831907 -0.42314412766764553 0.5472571631048448 -0.5573289580856431 0.5359355848702847 -0.033943756636396455 0.04552308663921265 1.3923988832201064 0.08376532109291818 0.1281326812350671 0.5719991937785233 -0.11922339613869616 0.09620346912034548 0.012599668109657656 -0.3280979490286754 -1.0328819327396366 -11.137987496967284 1.2192634641725584 -0.28370039181754486 -0.520982201310211 -0.49804510183274303 -0.9220674298200922 0.35733581888471766 -1.1397905253214164 -0.031130240507860313 -1.1308069107454939 -0.4549266352571337 0.19110572947617474 0.08563791247846586 0.4708613085440535 0.1721142785865789 0.5018122675986821 -3.1810493571789533 0.11608537753403583 -0.16437099297714963 -1.2692797263142126 2.1563066598814835 -0.34672034181694267 0.1667952517092352 -0.4795654738980307 -0.030100492547958498 0.7147345312602411 0.0402889035051365 0.4775008603197855 -0.12711183594834616 0.21069600111879416 -0.20874001993413183 0.16197722427723563 0.020089405199028267 3.8069452705873355 0.3828795099743416 

0.025386371487567342 0.00913185002959101 0.0014301801868918996 -0.013108517013951871 
-0.001846048921612684 -0.0009661574578892086 0.005084188438564867 0.012463631440174365 
0.006875278199901149 -0.0019063141956908096 0.0011796237707014743 0.0011041704833901717 
0.0039418134411596 -0.0025946789812646455 -0.006674652880051767 0.0009168351849090502 
0.0018562031169192992 -0.0023694520819206475 0.0015459441614429446 0.0008255973971108064 
0.0020665292318230847 -0.007372044069015948 -0.0008433752395881632 -0.0012558912344549972 
-0.0024487738121081295 0.0008156300500025151 0.0036144899400085595 -0.000462852808952202 
-0.009426250788012102 -0.04488290690029608 -0.0003885963600683335 0.0017669796630867562 
-0.001353648347127378 -0.0053518267591012225 0.03156794876287219 -0.0020295693503221746 
0.004297644154796433 -0.005289908883287537 0.011329647634739187 -0.0024862862472954375 
-0.0020117890395395907 0.00017008385230193854 -0.003945572156204564 0.009736920536066227 
0.0018659548789989398 0.027601814704162887 -0.0009569123242175376 -0.0014839755424058813 
0.004227646083364821 0.00045118211410946586 -0.006248660639464547 -0.008400972600141386 
-0.003698444224620354 -0.01860913137414366 -0.0017648246825194495 -0.0010032543342319796 
0.005791553892662574 0.0057788974263031645 -0.006791309839793528 0.00401857093374426 
-0.019060695981214952 0.017461256919343335 -0.012640422829722792 0.003832710197196234 
-0.0022054277696661544 -0.008903796777644286 -0.016338102473000382 0.00674809761836705 
0.004243293480250568 -0.019051629730553278 -0.008740974754575671 -0.011418677617158226 
-0.002976145109856528 0.009162638350515478 0.032561670059947596 0.006385883659342853 
0.005161994037667999 0.009604509197933903 -0.004789501785117775 0.0016518040921617407 
-0.0023655589642714854 0.000203713639044248 0.0016561821695461737 -0.00461129341460594 
0.014025407488568866 -0.004828224235711823 0.0027846729852531397 -0.018254592287220123 
0.0016817193424021417 0.007384986386524241 0.00799834722383989 -0.00037778472184694755 
-0.017908442831159853 -0.0012846254662382372 0.0018161100762237794 0.002292999232120624 
0.0039844772183196915 0.003621938928032946 0.0018895659201946238 -0.006144737857190792 
-0.013007349699206715 -0.03940459671995444 -0.003946476576387654 0.022647138473804257 
0.0003808541685397668 0.0011987571957898225 0.00642865329113681 -0.0011073036466428309 
-0.0038422953933655453 0.05397269003459621 -0.003318904443006973 0.04764605614337862 
-0.009324237075819282 -0.006045992916108083 0.01037241785748324 0.001425248407855287 
0.010659724326090421 -0.001933223285545348 -0.012768567204501492 -0.0026070524148749303 
-0.0019154078081712533 -0.004781536319838761 -0.020229535747495846 -0.026759632428441857 
-0.0642163184774393 0.011407474201824957 -0.008309959500947185 -0.005766728922946613 
-0.005424596743235878 0.017189575694669064 0.00035421790921096535 -0.016241674103425315 
-0.0016198804935568462 0.02421576075101993 0.00411439573257119 -0.01438613697906015 
0.003947193963481597 -0.0019737568782542225 -0.013898850825482771 -0.005355352661433375 
-0.009029244617668568 0.012368241339017533 0.0004168895006252792 -0.0028748066027776895 
0.00599344043247586 0.008543086036518271 0.0014225702146132872 -0.001341135385542236 
0.009468930645999069 0.01370706003036306 -0.00781798476583375 -0.012482643756172047 
-0.005971547347163926 -0.000566807460598221 0.00024194505932694622 0.001747309339387622 
0.008764608138556331 -0.0019489903549602815 0.0029210467544238303 0.010048346294731817 
0.0004180829538678227 -0.06044072497572385 0.004171766684225392 0.009015001499620721 
-0.0004070896137144401 0.007126216339009616 -0.008906206371553862 -0.0017383676759765074 
0.002069752120418685 0.0025109185217890425 0.022210749230034018 0.0031810800779591454 
-0.009939853411265681 -0.006440795451254591 -0.00476578733372393 0.0016038380238623119 
0.02850931279164312 -0.0021412630989107936 -0.006304213314298018 -0.0035880783408312328 
0.0024670231525268727 0.0005373454709009019 0.0011646972736731234 -0.01027461736903643 
0.029926907074341914 -0.0016956762566363965 0.0036473769077348564 -1.1994011945983064e-05 
-0.009156640653576279 0.023652688179511865 0.003681062002139792 0.0013914340725892187 
-0.010468091500737287 0.010429907548420774 -0.008633149931812602 -0.013769082932068475 
0.006602137313227275 0.005323871660813942 -0.0021151588182272162 0.008462361148529638 
-0.002557599538097305 -0.0009028796281190377 -0.0021690175607219095 -0.0010043875293062944 
-0.001190720813752136 -0.008725863236079195 -0.0021468600822850225 -0.0014733641458296338 
0.004493178485731143 -0.002948249523094667 0.013350133146080773 0.0012967452126426916 
0.008795016625021308 0.012126844443521228 -0.002950230943916297 0.027543145497705614 
0.008066942797838553 -9.267089422797157e-05 0.0013302333859228595 0.012759083883139647 
0.014364753719214142 -0.012724526534929307 0.007028003044260839 -0.001136162351848944 
0.00367428385573714 -0.005742416982118106 0.0002747812659672717 -0.006672322678429732 
-0.004930688459782504 -0.007636484408804788 0.002958539790213466 -0.0022899770405679833 
-0.0017656573235890441 0.006548215313441654 0.005225116620675579 -0.0034015786291523376 
0.0060286428786720464 -0.008293856145298106 -0.04010051676416616 0.006724293850601412 
0.04026802720739006 -0.0020381443354542355 0.01188376862484642 0.007356313761402167 
0.003262751991152463 -0.0028711382917096127 0.009305357248839819 -0.0005003276660844216 
0.01930367946109061 0.0004374328458288376 0.00939975012682588 -0.013805400576564856 
-0.0013188336404006426 -0.00168378029478521 -0.01591439637882656 -0.030975568760266633 