6 64 4 

1.2001416662758082 0.01129637041075388 0.011476115938130062 -2.0602642166434144 -1.011032583648733 -0.8322220068858448 0.6800310539957918 0.7603581662926433 0.87161315066149 -7.907610164445233 -0.4790052760512361 1.1997583820946587 -0.541584304411686 -0.04486548370414038 -0.6585475351632072 -0.16690304435414818 0.8492534251549292 0.13531766222952754 0.12862078317210107 0.023610970098327716 -0.21004814954664078 -0.3228204296252227 1.1369620280611124 -1.028427463409132 1.8671181509550083 0.41348056791412935 0.6870598603180936 0.5780914616144165 -1.1969012303770765 -0.7237312606765818 0.1699957410229657 1.7012222423671222 -2.120393778555409 -0.45811712824999745 -0.10436293145982349 1.7268440656987258 0.06720571090794808 0.2764937976605768 0.3459594327041736 -1.8263930410094709 0.14409755799334917 -1.0333328749670048 -6.335264734673212 0.6660341230275074 0.1506981767152656 -0.16559693853841362 -0.4582473029339574 0.131631083041477 -1.0081040206049816 0.1347382600609391 1.4310552689817349 0.38744936160833066 -0.11670458956093181 0.09825364425150539 -0.8394210046994196 -0.4111172037323412 0.794085209998923 0.18772806986544466 -0.232869531279318 -0.2364618790735425 -0.09053875052578392 -0.07992184514114828 0.7050310883691197 0.1795076610284887 

-0.4522149848235327 0.8261600421436638 1.0824786344720878 -0.18594374848377795 -0.12445563309177544 0.317173000417999 -0.5749999342530256 -0.8373622918922836 -0.2302211487909977 2.3429466377648547 -0.4534896346276722 -0.12497026952735737 0.09979950058342159 -0.4182593131396239 0.17448229239770907 1.9154921842263513 7.5594833552019445 -0.0043726531454233945 0.2937571405995863 -0.018492341468813758 0.5016723045472404 -0.7380687480530362 -1.2177810299267062 0.31158035816202373 -1.5894437819771072 0.008721045986948565 -0.11232602258840896 0.585447563218244 -0.886644522855655 0.6432388593556866 1.0194889313831292 -0.09460929377799653 0.8415303308162206 -0.26453491809642765 0.025594368547601498 0.9045277059519938 0.011760236065494747 1.0195264901018244 1.0173877110495622 0.30798635233508187 0.01166696099149506 3.3426515570314286 0.5021305197718969 -0.28958105533882156 -0.2417683370182004 0.21591365201485993 0.29695645132292653 -0.2122391109714296 0.6550853003141356 -2.427573036063915 3.424752883519795 -0.23047365472884077 -0.03170080672570247 -1.4196136314998673 -0.10814550023724137 -0.06523023185290708 -0.7323215781771178 -0.3649867413794445 -2.6268312410876073 0.028026225865004632 -0.6746242544346499 -0.22443931354661392 0.20249555539016575 0.021746653370086955 