6 64 4 

0.501907873105658 0.2665483619692999 0.9349120935023263 -0.2672103546609236 -0.7917904680428748 0.07454541267862214 0.6755683913671038 -0.17979285933818498 -0.015378012044289558 -0.018627297720099804 -0.6273840397479815 -0.9111351966295106 -2.7300730919337917 -0.286304724367683 0.033954707749907075 1.1396147968991086 -0.9546191908873154 0.6204781277211862 0.9820652208367542 0.1960225301181493 -0.04682634116662856 1.1351142444879228 2.2607074540130054 0.460901406545328 -0.16628445070163564 0.26552581869213926 -0.03213409446802867 1.1425257739301538 -4.005759608346518 -0.10685057736944491 0.2814720086104975 -0.4040946163112184 -0.3631198757459318 -0.7781077591151293 -0.041933456014931404 0.11158589469606538 -0.4416971191095341 -0.028246458357316633 -0.018292602951044075 1.0850452920909974 -4.96642611983648 0.17702414515044076 0.4549025529516017 -4.981049072773612 -0.23899559697960968 0.011878951009289363 1.2314656384753306 0.5985822027244327 3.388731012171353 -1.8487513755186529 0.9895106430661278 0.1746896086205904 0.14798661393388945 -0.599545602595575 -0.5894395476500597 1.5169280442441346 1.2382480080332496 -1.9337334852318713 -0.16580098408297894 -0.40104534919501583 -0.259365852337609 0.3595008749381014 0.23297837490746745 0.8277014212577697 
-0.3954188738648498 -0.29749686961769206 -0.24522292796286868 -0.04286845155358489 1.0365739991475482 0.4269506718877042 0.6848952474295091 0.38780579956138667 -0.035303026597788445 -0.11130128582758583 -2.0659373840402133 -0.2092399761413851 1.154933348418464 -0.1526118967738799 -0.9679510590276726 -0.42505354662637423 0.3436564374521424 -1.4147415577038815 0.6624969915038985 -1.1562050117803273 -0.03778098187817186 -1.099088526791064 0.10703487955815316 3.5544861858700667 0.2205850421110627 0.279417090646035 -0.39649530535729155 0.3378545597933678 0.7054570955604021 0.5400637189613923 -0.14402616473692242 -0.33967288304867216 -0.9504379635266222 0.6832899461603782 -0.17035552642819127 -0.7723808709197724 0.013422294619541957 -0.6803240729737732 -0.48789230950203477 0.4793151966203477 -0.642605224252536 1.1167101300927669 2.2902527853821493 0.7779066290228847 -2.383436140026878 -0.022641040215038245 -0.24400028370430757 -0.9530053702212555 0.8941581548654621 0.17982608028729166 1.443602803420521 -0.19657000569390817 -0.9769572875100871 -1.9352346214057816 0.28815809418899435 0.5626233610818556 -0.3375442846116258 1.5260386176449856 -1.8989798787055636 0.28140349585350194 -1.0327887367606392 0.6011151065542968 1.0375468626557733 -0.12276437181799853 
-0.0009994148486754933 0.6570685528209287 -0.531181868973379 -0.19681037624133094 -0.9439003792333567 -3.0616866801208724 -0.914105549109103 0.8646970918602601 1.2622258210478399 -0.041435863355290065 0.5457700280066959 -1.105596096213844 0.5778670998681669 -1.897299682857475 -0.9861340453641864 0.1561567011161133 -1.0143663118510333 0.11363982749275965 0.6045378843504147 -0.012326052057793725 0.39204802313188203 1.6711576585014885 0.31754669155638293 -0.0067256166406563156 0.33240919109135364 0.6671393479595632 1.6926988735448438 -3.390156429087333 -2.5381648872137137 0.0758221753080343 -1.305443849320587 -1.3958246375338712 1.7074373714865756 -0.5379488704223039 0.05584005676646959 0.06494353452120284 -0.9976785233572032 0.9350249108290951 1.4202939382371171 2.1695286705976913 0.32017366058288477 -0.10565962965426744 -0.012648332259751448 -0.651035758528755 0.13845021514846018 0.07419775846687066 0.3269304691181533 2.443144265793324 0.1176217932031843 -0.16202620588041078 1.0118059315928565 -1.8758971995136864 0.74942029054714 -0.24247101409101052 1.1603009394421986 -0.40046397826731733 0.07268510811769621 -0.46297194094007427 -5.345250844416867 0.11131755838854145 -0.5546242006125177 0.8172838146942949 0.5020583584971314 -1.058041407534402 
-0.26037755521790035 3.3445911051410353 1.0268194916614775 1.945016266854669 0.6069681957821794 1.5790468588880624 -0.9968925358989599 0.16947745403243158 0.5440959014889412 -0.6745709794668538 -1.5867642033011384 0.7242728826859302 0.15288777333012069 0.7667429460226077 0.4781261471324315 -0.37798146401210797 1.2452927877635382 -0.016910434236058175 0.6287949239613787 0.7949033667200063 0.14971829683882415 0.5736110078782609 1.3308832510346138 -5.738864429973928 -0.417310284641913 5.367219661471982 -0.45016646605344013 0.13190574961314916 -1.120801162291746 0.3026996530861601 -1.7204214824422035 -0.6652682800001595 -1.8822116190285492 0.016608828856137646 1.1785021794571244 0.21245677346176883 -0.1938310223045464 5.311969945604028 -0.28625581263998856 0.0393078445525182 -0.19202740356126116 -0.7106805914848667 0.02428184279202913 0.8602341886819733 -0.017402585905913898 -0.20288723439038905 -0.4663499425975817 0.629111851434625 0.271222223026798 3.7382398563269357 -0.43119679744684236 1.1084907324469693 0.05744096556470991 -0.5536184331658289 -1.3573639440590153 -2.7723563527545037 -0.1329677390319467 -0.19254907204022367 -2.249203569898004 -0.18463344557719813 0.4836874243042717 0.02108746544403956 0.5739022576772538 -0.28149630840005546 
-0.7951327626645978 0.03018064088825828 0.9385655604438712 -0.34787073850541617 -1.8813015523478818 -1.3624366936756334 -1.2526138739776305 -1.35133077307103 -1.266906741034895 -0.5962300207989821 0.5606553199122896 2.0766362164679966 -0.6775382897500675 -0.3357412112538395 0.2903790016321324 -0.16825588674271755 -0.19110443750110942 -0.10944949753414425 0.5826941686626492 -0.5419454039769667 -0.4857026485174859 -0.14904044240889713 -1.2310123425164408 0.9358814627767467 0.7379582979610599 0.3196906678796851 5.205409446086944 0.33177452746500496 0.496635703637107 0.04089382474296336 0.8130032782964947 0.020871625913046185 0.1422734683142091 1.097686845175223 2.061997439286073 -0.8856330110501512 -0.7381301576717174 0.21434007435958352 -0.19464348838906037 -0.4873084026844599 1.1244808405732793 -0.8379950778145693 -0.30599199058973053 2.286979455632358 0.25300755098133443 1.944142071035802 1.5234034478381502 0.14806296284582246 0.6308692618385149 -0.5251500190636288 0.21994262024066055 -0.22283692087168683 0.6593321566401112 0.3185864269281476 0.06650567646313982 0.27180411400613386 -0.10261862396763151 0.4359406313223468 -0.0482451012351448 0.10907381291245549 0.40101006022850244 -0.1307042361280932 0.027173376823486108 -0.5097561127928448 
-0.30225955039245034 -0.03908989054138063 0.27761212880280317 -0.09566733386837206 0.24818831824377474 -1.1909287840452465 -0.07614049646598518 -0.22749851109527433 -0.44676509061382835 0.9759852489218893 5.329738828680952 -0.6297516019027155 -0.055199698852326284 -0.9735938950606349 -0.36824299988109627 0.502428227538057 0.5944888949495502 0.2095364833976866 -0.24795401031256584 -1.786592117144398 1.093056764262225 -2.2710594623108444 -0.04568858836453238 -0.6097496361089813 -1.3653818828314777 -0.08807433022766148 -0.22992745703990822 0.49515578382492614 -1.2927022355405158 -0.19106471227036445 -0.2311807461081489 -0.14994598381927632 -0.004696649143968621 -1.5054547904361812 0.44727989216977715 -0.8253141560819701 -0.46295226858166055 -0.6606184077366476 -0.6730155619147099 1.8994663459776908 0.9933237970733092 0.0834708274646155 -0.1573471482150591 0.18326476558364915 0.8872474848996104 0.8661602079083095 -0.2768138149596427 -0.30869490493590457 5.3320743407539855 0.34733798680825956 -0.2635990208441201 -0.08923621382774051 0.8839427785123156 0.8071347233378299 -0.42202353357716627 -0.5328700777715781 0.1703783966521921 -0.4532260808501665 -0.5528693742790405 0.0793436073690684 0.9230504503807972 -1.8208908291452643 -0.24994146136381498 -0.3558566818157563 

-0.07168926282731916 0.39537310659454855 -2.772451599802326 0.7945756441741996 1.6976197509731659 0.7429495302294588 -0.11664234704537507 0.5427238638064311 0.7730848261994593 0.5710600866630019 0.062119622480442824 1.8526458169600954 -1.4684837086923983 0.04282953528903894 0.2688664055829013 -3.1146227955280743 0.0901560924897073 -0.5929468874806239 0.35567318791133307 -0.23441630644195877 -3.981849147985153 0.06624716898454458 -0.9238093066995365 -0.43662517010425084 -1.9709788288973664 0.2648327320252406 -0.49233184521452933 0.5071366889129297 -0.2753540626009609 -0.48595953131532865 -1.805312459972046 6.141080393831707 -1.0281336889285966 0.43007570151314556 -4.938145398794444 0.45623496140482195 0.4980474416856577 -1.12543299069412 0.015762151656123793 -2.5170074855174356 1.0322496127325886 -0.9573658129601519 0.6420606989847226 0.07994235031320646 1.033001554609284 0.8056645774571638 0.40292163380098855 -0.04858027779993263 -1.0919673086517523 -0.6902242068835978 -0.4458634977125935 1.0330598879780735 -0.08891537490480063 0.23039551443165457 -0.1707538588840653 -0.23792251472072384 -0.18729149890422958 -0.32013177618074645 -0.10580080942053574 -0.2722018468676929 0.9326473094902757 -0.15372156495649344 -2.1896279215903154 0.251795931727518 
-0.6688587280952651 -0.6588225523991149 -0.7746413807301392 1.7502358995742366 -2.200028268971809 0.14397086347197785 -0.8406606273039373 -1.2315160435390335 0.8398719019851155 -0.8992938374741417 0.24293802897645764 0.8626857656840448 0.007551491870194365 0.808375235980829 0.06061518052096782 -1.613329366268698 -1.066871437113267 0.567597271122947 0.0861531774699231 -1.8077180668913888 -0.30849248948224073 -0.1817286160046126 -0.24312799635943969 0.09894220202202965 2.233498618251497 -0.14999937824527523 -0.4620981534766758 -0.2695604827054908 -0.5167327518669974 -1.345033824886888 0.18088064006880533 0.7755201752482935 -3.185862423102411 2.028141843378342 -0.24336597058069318 -0.10548278552925618 0.3698540498542579 0.7361691488432377 -0.6324649449159365 0.5437697991694721 -1.375192594551296 -0.48831406982735565 -0.03273447894074149 -0.19504383186091523 -0.23526911127684358 -0.12368611102305405 -0.2867306859848451 -0.43116212672526677 0.20498662829240705 -0.121009242902152 -0.18664087455879813 -2.0726699861428215 0.3793920300152261 0.48261662992589854 -0.46214651383970445 0.1475363565797201 -0.05822062332304757 -1.1813891876015996 0.3851529908228231 0.08003486429632997 -2.4389646964938168 -0.22476152019620294 -1.0057601832524081 -0.4817167850896786 
0.32023762079423657 -0.01637249183756943 -0.13676726484660345 0.46254268344142524 -0.2866605118416573 -0.2724657208584299 -1.4395757861761809 0.8255984185679052 0.7385584902497997 -0.017396948625650704 0.05461721831213621 0.7058510985997646 0.489320412554932 1.7317865982253426 1.0036639895807027 -0.4474134698021574 1.045426381877475 -0.14974907905316112 -0.8768721322303852 -0.8704596412220034 0.5348694450355527 -0.08744961964232588 0.4075475823529966 1.757512029959681 0.9482676151736229 -0.9034285898010073 -0.0970691211712829 -0.338288635684642 -0.04973088030618516 0.3688840365734538 0.3755329864691999 -0.1089326516787963 -0.32924075856136564 0.2744204472279894 -0.4763703682855359 -0.9836153327509043 1.3481804005959852 0.08238622734362756 -0.2896479239108071 -0.49038617527687944 -0.22700058045045146 0.8942911646231988 0.6310371594773725 0.8383999909398172 -0.12569941080140265 1.7523782498142442 1.1048576172530942 0.6516415180100286 0.03222089544587915 -0.5482233596007421 -0.16014351802381208 1.9074876567459575 0.7484577006975351 -0.16218470794592088 -0.7222617003324748 -1.2185276416744213 0.6497144777732627 -1.866737515800509 1.541216879090304 -0.4742229084324601 2.316936441617851 -0.4353544187882676 0.5041086184925918 0.06673539078192299 
-1.883450558179971 0.5431577053973842 0.9195198799279815 0.1291352780242005 -0.9512324404000132 0.11821310861817186 -0.8430129618126245 0.2030965094244095 -0.30030083166615473 0.07112687998096416 -0.15655543632708216 -1.4686914261682031 2.1973155442574503 0.7033610562912547 -0.1734566575351354 0.4240173590235848 0.3698003142665668 0.7804663295421446 0.48068013059709597 -0.8039697393588724 0.809758897134924 -0.6245615093573893 -2.3068831478773513 0.8244870179302137 -1.3993555936709217 -0.850364935924018 0.3732385488267761 -0.34339048152136026 1.6568014630356958 -0.8470672714829323 -0.1467200915736583 -3.2621209651506136 -0.565593789435798 -0.41782093322821884 0.35405624218191495 0.11645026209949222 0.45511770515877153 -0.14506669973289388 1.0812498915792543 -0.41063777399979845 -2.987131069778811 -0.10173920905998673 -0.26143015871885317 0.0592390288240178 1.5484914331289679 -0.15929198920197268 -0.7125194311904387 0.4628673496886114 1.7984990833315535 -4.486818532813111 0.7161858938170558 0.2165860072941655 1.6873250418314323 0.9719674869989875 0.27174744375342397 -0.11447869127290031 -0.17087182137354112 -1.1170590744344304 0.31829358114283396 -1.1708273544816565 2.8032223191684187 -0.2776769981023921 -1.0738024110512105 -0.49358677595521333 
0.10572387465108343 0.24049229966971705 -0.6179246460203139 0.3501583322833949 2.2409547328900894 4.112937805479477 -1.5146943315730075 -0.032094148636031335 -0.37842148671422465 -0.5990367571326359 -0.6398185343621139 0.3696682269655373 0.560550478574971 0.6557665442801086 -0.46115375512479967 -0.39937090629749533 -0.15466976730649373 -0.5838406015965053 -0.5350474727727654 0.050389404008353275 -1.3190408630023807 -3.5614062604937655 0.07906203148976411 0.569790055140523 0.49721140645458795 0.24805373101998848 0.00365187741007314 -1.9010708195284978 -0.4578700722267242 -0.03128772864500746 0.28742829700179695 0.6189862003689612 -0.21297967002394297 0.2828406483771874 0.7564293402776942 -0.5010259710194872 0.19523338194466117 0.09808021607037581 0.05970316071785365 -0.11511440045622652 2.1908559184104037 0.22320828869330483 -0.8405827847949255 -1.0700957004854645 -0.18052829653659264 0.07763991340302034 -0.0435661125858508 -3.853128914506382 0.49989552695142836 2.213808978070291 -0.21979591984686223 -0.6797097384551144 0.6675582599826756 0.7577035569419407 -0.36194584530996804 0.25070278057109874 -0.19796707627393212 0.10046292302103188 -1.0322741024407607 -2.2570940859673154 -0.18816290745412395 0.296562905032645 0.26514842833098845 0.5713207459726627 
-0.3846955187706672 0.41142229756871124 -0.22377789044554494 0.7470348050840053 -0.6495600324750319 0.15177671853464786 0.14099730618136216 -2.7350238873602093 0.59525409652845 0.2642769973072351 -0.2620595797616602 -1.7060370099987106 -1.105864800504096 -2.141234495296044 0.8198661169440611 -0.19712093223131524 1.569442722598669 0.5358038950695077 0.1381008838982846 0.10581706331548646 0.07862852339697127 -1.7976760415743114 -1.1469690437256526 0.22263317297122276 0.28336730072623306 -0.6314308162320575 -0.6370182445237975 0.11635625245437063 0.5124551614557795 0.8611970597361416 -0.1284052893548619 -0.14987801579799104 2.074553452355812 1.7661707821610033 -4.268206536825423 -1.1997967010791644 0.039710913409256754 -0.8081778022639267 0.9374162097370352 1.4565118662681555 -2.445324240315016 0.4055835974867382 -1.2654226997455467 -0.24760774191942542 1.5966137286218782 -0.25511184058676445 -0.3326105891081855 0.009543260429574344 -1.6559970438075509 0.10348199104351716 1.6092388957357726 1.3859763256762567 -0.21851446844373076 0.6528381274057857 -0.06849385782313322 -0.5982783089453221 -0.027993683095697015 -0.531204192327092 -0.1735045864473015 1.4101952284016643 0.10155352149140365 -3.0082036668318968 1.7125155394825462 -0.34669861468877894 
-0.7679439140239521 -6.292004571297046 1.1626936414966675 1.4716147176684404 1.716336597977227 0.21174205055258194 -5.728328917814618 4.012780996464882 -0.018101764290174877 1.046883684900564 -0.4940139024790425 -0.07199399921717714 -0.14565589629616077 -1.1946425809228507 -0.08012238743805661 -2.028273007814116 -1.2854967016815202 -0.20746064999787228 -0.18202577733536482 -1.1362158456559714 -0.4389726069234925 -1.3288070413773334 -0.3443007755128643 0.8936490188507875 -0.9451208789785509 -2.62682196820946 -0.39507260296786767 0.5853528676811737 -1.9248483071481546 1.7012845040454336 -0.48852701229745005 -2.2412344035330185 -0.056055805274420875 -0.6198057772402008 -0.19851823342042468 0.37578416926156344 -0.24988863813849718 0.20726749336999947 -1.0406545775880889 0.04409458894399501 -0.30998126113229346 0.37121802971226026 0.4581229927200699 -4.166372806044665 0.10351320834237214 0.29817131440195727 -0.06519263064418214 -0.5677512021563268 -3.2145690519737005 -0.16205365261506408 0.1827638324223815 1.021713405653951 1.7836230742206367 0.6581280446838643 0.20149913101873168 -1.0760563442418234 1.7439827440638451 -1.5139001498868772 7.057956450656646 -0.19001675601632065 1.0309325484167693 -1.8482587272457167 0.03378411500267923 0.5223958519734975 
0.5114703490972488 0.2750990830043166 -0.054797281802195105 0.28411366239253794 1.1588262290844353 -0.46925385519324014 -0.15601869025090578 0.4965647027316449 0.33618835031021405 1.047832271532547 0.20567775547966666 -0.41550888784185425 0.10157768120331034 -0.9671487693764172 -2.194108182787171 0.6469878500443109 0.5014009952224832 0.1577422909726796 -1.1268848613400138 4.397600564645398 -0.8460792021223799 0.10244976779152848 -0.4643387123523247 0.12998824508593354 1.3381224677516983 0.2861598957201073 0.42844575236435467 -1.9014862949773885 0.41741879474941335 -1.9084925268300497 -2.499198807802251 -0.6914985631333144 -2.5530280099303866 -0.40705594068296375 3.308940241575634 0.23404979490099476 -1.050098468019846 1.0868159294917448 1.075269782925786 0.46547556090025105 -1.039292450401902 0.35660524453349624 -0.3900915753762882 -0.025031748502575408 0.030465738750655613 -1.0001311276280687 -0.03982915148643306 0.2545205504763442 -0.8062251659211251 0.4545957320562406 -0.9961586792205366 -0.015606560601248532 -0.07691840976958256 0.6498341216840853 0.3073822677862342 0.19976479472584754 2.554491808317507 -0.4094544666112661 0.1891900308289289 -0.05287874924249714 0.005736542292947602 0.1859473862912379 0.311004918982404 0.1395580501955907 
0.16244536267016066 0.08401247045911643 -0.3244030796761878 0.4023009171115971 0.4662448826085342 -0.7937180706601363 -0.38931353997214996 -2.2901210617735708 -0.04176406535953788 0.1623837571066378 0.1546816368810183 0.3264361888517943 0.5777132854343601 1.4534831689512184 0.17278719967831008 0.20996891776962917 -0.20792960816176634 0.39002842626775 -0.40406182515814254 0.04164127670619545 0.42959625606122726 -0.45951147710432605 -0.8029370842810807 -0.1131034480631662 -0.15470986215314464 0.30056032182700665 0.23449950242074785 0.5020207622543471 2.8691556092186596 -0.020357195302018127 -0.030866529191357326 -0.013049756644097339 -0.8282441993171589 0.7658685286848912 -0.32114373808060814 -0.7137880194154284 2.7571398251030375 -0.1151923189165661 -0.5787261795116286 -1.0899621165613578 -0.6559119808890356 -0.4761256796194322 1.1627077244502872 -0.06250421872310195 -0.7080721576693237 0.21264453159440497 3.6279316941182125 -0.19031864679937516 0.14675137597379243 -0.05641572838259182 0.03691833841875746 0.01335438060468436 -6.1281296926330775 -0.3023048044881262 -0.17720547875034856 -0.03552021052656476 0.2538834169860105 -0.32510672664618173 0.11680317733620355 0.36726968738077986 0.3418469203863707 -0.8464451211345859 -0.07060123366428578 0.07224046416549643 
-0.19050358536373757 -0.15021992942188714 -0.9154362093706659 -1.0049175326886777 0.11368441136360431 -1.1943411799366928 0.14563462259038248 -0.5409167327011372 -2.7485016439981385 0.34704273426355847 -0.057614709485916786 3.5359801274582816 -1.2518128455150057 0.39642135990894223 0.40899049626923356 -0.9933670817931382 -0.15568047725952666 -0.3928488037074581 0.5053161264394189 -0.3821898657156659 -1.087347841063896 -0.14303856580738214 0.7241115634460142 0.49488500546942465 -0.5401929062616861 0.25903562797620455 -0.3499427052373604 -0.1043611159012416 -0.04136920615474688 -1.0625636896291657 -0.03545277242251416 3.013630800302087 -0.16590235289017594 1.0826166286254435 -0.5398968651787803 4.685944828811611 -0.6191143627806126 0.18047066467070905 -0.5435836117548953 -0.12217755851476857 -0.22506711521680295 -0.5958416520566191 0.11186979554890088 -1.552188546685307 -0.432721959111951 -0.06583181456069961 0.49818038818002136 0.22652371900622145 0.9494164051347342 1.6179466981561585 -0.8722627527576162 0.7596686633588599 0.09487460943882842 -0.20232335174926944 1.5344280120968918 0.10124671995755223 1.5061295538258115 -0.11745987541257072 1.0723400494010589 -0.34205119081126256 2.296002664244665 0.14355252398701207 -1.5052879708180984 0.774586962202899 
0.0581906519119167 0.5095655781230316 1.3504684433957956 3.0633183342066785 -1.4946581517671331 -0.15800535390385592 -0.3591413326875675 -0.5954875444395683 0.9618828463583895 0.5316189908273578 -0.17098725282569202 -0.7681644993461318 0.48835696203016216 0.25373211027801035 0.20686805814633977 0.27225627555435955 0.1858876685051199 0.29655247233296544 0.042374531236212334 -2.720934774555307 0.1776465791810399 1.1794516123753018 -1.2229563285284129 -0.026800736860471547 -0.365313429173911 0.49317235770571666 0.566178304069291 0.30425881853230824 -0.36843312757132896 0.04677648486525917 0.03402163367928604 1.5296340568482236 1.124232844664532 0.42244407786061716 -0.5241220621746109 -0.21513370320171799 -1.6875801205770509 -0.16762977671797194 -0.963094442118533 0.10438892099426224 0.07093456211054157 -0.42528585260621254 0.4194566012593153 0.05440651963810028 -0.547716345210755 -0.8747010312807246 0.16669159895607524 1.0744286947274262 0.3996396125394067 2.9979010677844986 1.2288965092868678 2.207284690492985 -0.23151111959498683 3.287154445941772 1.4577322805862025 1.848473280287226 -0.10652506986150112 0.25249026236273947 0.8765732274353087 -0.8588406206861037 0.012036549085278387 -0.9742881010525369 -1.431629473407424 -1.53027468627521 
0.4218881617453563 -0.25496209617773474 -0.5957671451331096 -0.02996308547035693 -0.10542751399599648 -0.4650561605982238 -0.28610477834090586 0.6449690108462285 1.1359246239887957 0.16991958661274809 -0.6735173059729392 0.4250973325718345 -0.0631107594180575 0.02801737357834477 -0.8422953523430362 0.8327241564724805 -3.015177300518226 -0.4623728404449056 0.5845440530067645 -0.06626941250817153 -0.3677969332334089 0.30485084493821296 -0.9367342434820543 -2.439215997594034 -2.2711017710830665 -1.22065432628735 -0.14511488779321147 1.1116005348968057 -0.038662889864245216 0.06860905931661868 -0.20031463353689932 0.34873470267923995 0.14713298871028738 0.5727762234427491 -0.01132190357318037 -0.038280664460664394 2.1132115080295075 -0.2910539285091324 0.40744063931158014 -0.17463658745306865 -0.1349189646820722 0.02947415005098037 0.35373661893702674 0.40686124943761753 1.641611110067539 -0.5796246657566064 0.2489990977492291 0.10383531252619994 -1.9926438472738264 0.26592035104751643 -0.6980846840467942 0.18528802147572193 0.4191305302801509 -0.1520966786292844 1.2454276017464256 -0.25617177323626605 -0.6786315664491033 1.6718328596877683 0.19464717066879098 3.0178041791352963 -4.373897245666582 -1.2627161498501966 -0.009901948920956501 -0.3138152245892923 
0.35403100316727387 -0.3075919701773823 -0.14551363821329785 -0.3039395798315585 -0.0454827360957203 0.14739977026494308 -0.18266878998255087 0.07874063178394197 0.9055371675994657 -0.40179308450394297 -0.40689157549175 2.1046452472645707 0.6078756013759399 -0.4688844865819143 0.9636942854303087 0.48095990698492286 2.4610776956901135 -0.1042085481639391 -1.165766705234926 3.9301449785535585 -0.043753142787947515 -1.0334040156695228 0.21853237888032734 0.3814849335807434 -0.5853247335367955 1.3732311708087852 -1.0547540163544762 1.0666654959299944 1.87076077574961 -0.847539626324992 -0.8303398183773801 0.05955365458336902 -0.02204828343791036 -0.19366787493211893 0.5679108046243497 0.7473513100286232 0.14535681216575702 1.149694083113278 0.8436202153993377 0.16039399676075097 0.5280580190007325 0.09672622507130156 -0.4149305422826441 -1.1862397130528197 -0.06651333300598228 0.4615000990268246 -0.5890802614863141 -1.6704983180903004 -0.05563148607703628 -0.3755558097218016 -3.7392832516528074 0.03546798551323637 -1.0523925781235661 -0.41442580883751584 -0.2270314447487639 -0.10801294084372917 1.5451094066922353 -2.0974680054388486 1.8608257797789913 0.2428419751090072 -0.19857020534890732 -0.22061084679411846 4.242258848574674 -0.006049524015351722 
-0.16977722967811332 0.9485567834475609 0.10535835101420622 -0.0061813358340430885 0.3284728693431315 0.19812822135746275 1.001543444391652 -0.5161273414577268 -0.27254639574875084 0.32930757887686013 -0.1089554055243966 -0.9943888438527715 -0.9627418959306554 -0.02697583194654285 -0.3703016914133646 0.757758258111951 -0.5295140208095285 -0.2753486690438205 3.2070062343332713 0.39378166940067805 0.8604710099232781 1.4101919099084101 -5.534827562261264 0.7221893065457201 -0.02982993104605091 -0.13245301732880524 -0.6040105761018755 0.062297062713502806 -10.435892135876825 -0.06191169006453779 0.020899067533347512 1.9135631435110985 -0.2826317172583182 0.8426556254829517 0.9129890471703682 -0.13979667095101586 -0.1634659229818075 -0.712438360299857 0.03717905039250811 -0.7567829583086431 -0.9505857768802457 0.4789452869846756 0.441371662459191 -1.0123977884440887 0.4869190832642499 0.28567122635144504 -0.18755430361797873 -0.23622100626704165 -0.7302072402135016 -1.5120083558564996 -0.03752703173809126 -1.080915647181053 -0.47171576510947577 -0.33039505584744755 0.18738918568142826 0.6592547566721375 1.167575005385625 1.4413719470617807 -0.21020588664791406 0.2821828873380427 0.11853152423498911 0.3639823869233372 -0.4229848779934029 -0.17346917886072336 
2.3949081247705113 0.3036224725001699 0.7851969924813402 -0.6583423705873716 -1.018623231407235 0.29888823323708447 0.053172133936487585 -1.0573033159432104 0.2452935585249099 0.9422962877355604 0.4569354465632082 -0.20320709345154897 -1.6699297154892285 0.4883350688428738 -0.09498623356463567 -0.15045583895766176 0.574400232302046 0.32958689631945737 -0.4412371398963163 2.527770782601392 -0.19743131109831819 -0.11610518529178632 -0.03321742297882043 -0.8693893638481562 -1.8598043924138021 1.8338003055178254 -0.36543262536363363 0.2468755972902996 0.5132630384298436 -0.04623721377904313 1.5632740578051028 0.6726953284505339 -0.3987718800518876 1.3248494691950239 0.6090296875148712 0.6872186578697531 -0.041119258467909627 -1.112917923633664 -2.244279068001248 0.7411814459714613 3.549611147104518 -0.7610501055248865 0.5150351566645329 1.2927152666575488 0.3885355762601631 -0.04832475775546539 0.07537536509366002 -0.26636846352740845 -0.619733541155591 -0.24229746441909106 1.3013938618432024 -0.23139954728762555 2.853003569399703 0.23611722759992398 0.7425822304531944 2.0795440398999245 -0.13739009291848397 -0.1281733833902929 -1.8618305321631698 -0.4962591689005201 0.28217223668023084 -0.36151054928754994 -0.8338017508940109 0.43396667403083705 
-0.19172218125154797 -2.861592839118812 -0.7605953732708159 -0.8622739673252316 0.25296766546094474 -0.6654920865323095 -0.1214995944076735 -1.1168831470800884 -1.0195002002564346 -1.6696303301777378 -0.7301026331703002 0.30035622357482844 0.31634517470425483 -0.478892012711423 -1.9216761048315218 -0.7077200082133394 0.0094455549684225 0.01508250947462974 0.10921831011163109 0.13125507450191523 0.606811335491647 -1.110425645110883 0.5651079725357339 0.05620603277098342 -0.15455942250427224 1.103647924168068 -1.9685518394720727 0.16753371258245295 -0.16033036199662878 -1.5008000745155199 0.6362441416825033 -0.16222390603458806 0.21463010447810485 -0.5874789080065955 -0.12937662618310353 -0.8290062261208075 1.2421286221384447 -0.49661487692234363 0.20339333815214963 2.9802367800889855 -0.9974995668343289 -0.2462505923078413 -1.5959462548335526 -0.0635725443792494 -1.2087789484037352 -0.47426776809838556 0.5087679039399049 -0.9506581488711154 -2.508786430640357 -0.13598363622877627 -0.24009120636722014 -1.8311477546110726 -0.5530894179532987 -0.8163052386893308 -4.92076315098653 -0.1990123631978944 -0.11570836360826428 0.27599620418632426 -0.8479088819739731 0.641463542685451 -0.21426754001059106 0.19014967318954593 -0.04089463340435962 0.07034290861991171 
0.5612998865945121 0.04933748225195191 -1.0363731492470143 0.058658952900249896 -0.33646553408156105 1.2718118637687374 0.5519232829111591 -0.017676582478218638 -0.052286655969256045 -0.4433569216021315 -1.380801483333624 -0.0765811488236402 -1.5919752850113968 0.3757923612564158 0.3203597178840561 -0.3636701569797047 -0.23547130431173413 0.608318761263833 -0.6445709248209756 -0.4929819042954817 0.045424119940665336 1.3244504258011855 0.3980908504975542 -0.23489015323206888 -0.05549458878683838 0.4648860726481198 -0.31692562010161884 -1.5223384062681256 0.11235559779613465 0.25023320582326064 1.2755211003259748 -0.45882274517493643 -0.24336348688406287 -0.2127085201983861 -0.15637945739556194 0.2487758255328888 -0.5034663231071979 0.6444549719544863 -1.64394044215087 -0.3776336723614782 0.10062980013560642 8.113807379546339 1.3709674244768537 -8.69797114171946 0.16946484066259773 -1.0623572049231294 -1.848036732342529 -0.05389061375767587 -1.7869410599538675 1.1976253086638695 -1.172019247766328 0.375597821387221 -0.33025861067975876 -2.165871128409072 -1.496828012661111 0.15963340105947568 -0.1690874053084582 -0.27767327405881886 0.22671183998199604 -1.3219351590803246 -0.7417475001408629 -4.841323332817065 -0.8036590729049727 -0.19656718496191422 
-0.6210919630947552 -1.433528787763296 -0.19273360282827195 -1.0044669930374441 0.049200793744262346 -0.0025247201514748486 -1.7078548903583906 -0.17537906225034763 -0.2851810581721622 -0.35376580204661506 -1.3772505691044679 -0.11809409514255557 -0.6342133160019873 -1.3202766813196303 0.4622195960888498 -0.4009043718600312 0.25210319212867666 -0.04295415398932411 0.06818478011563822 1.2409901160225614 -2.6092517518861236 -1.957159259623991 0.4931888920498328 -0.0633625789988797 -0.11164934073366159 1.6423011615711691 -0.6850975543936976 -0.18423438807926523 1.6523687134630056 0.10999424748338868 -0.14665490041981766 1.8387554875921435 0.9505354097735909 -0.20234766679361393 0.3370929650419466 -0.22300429060324836 0.25989737011140135 0.09270733735328346 -1.9857338104011517 -0.2522813562006092 -0.5877484078353138 -0.10102357573175681 0.9107704113369142 1.184505099316622 0.6991301423564507 -0.8304343970487187 -0.29398125541238346 0.7247736502219948 -0.5240865135231966 -1.323945984886105 0.4695798062230031 1.17518112210553 -1.0441907523201985 1.2528779201459088 -0.3485473567550135 -1.0542358957340536 1.2686614274828512 0.12636098301116377 -2.291612589395073 -0.9601717082442967 -0.7394650332970795 4.997009484658217 -0.9620245225767945 0.23842944114837192 
1.2876692275904247 -0.715825216768086 -0.3871126254502388 1.4410706769999602 0.39356943889929646 -0.9633212837130029 -0.8000153405804896 0.15615633156161204 -2.6472481214239223 -0.22077912483648138 2.130438162335961 -0.8170406597124293 -0.26506180450389605 0.6664345012299991 -0.039518014127025464 0.4378342160635513 3.4676819984622553 1.2860681602430806 0.48444801167798285 -1.0623321389468992 1.7534404820449119 -0.14666099289827608 0.6163087020138712 0.21572874415781657 0.9890669810030256 1.0709779006504998 -0.3766442006932106 0.10236258806190723 -4.750282899719989 0.1802926973648217 0.35092868284705286 -0.15067493406339819 0.1688277411186515 0.8718867194406696 0.023493431513761445 -0.14595862243134336 -3.1580566658921834 1.2006700386510964 -0.46202505012614575 0.08221293704446397 0.463953741147636 0.2088852746448005 -0.6033577362399104 1.3480297126971197 -0.39211724680808646 0.16447366069471642 -4.343373373660852 1.635792204916123 -0.7432614347806908 -0.2193653488561433 -0.5564200474277768 0.2742384625721843 -0.3299333057550445 0.12293097742111894 0.1068968289087392 -0.16982189570882134 -0.35448168084644216 1.5587542464277298 0.06491607915218846 0.3864649970022147 -0.8738382852969864 0.8650737646579502 0.028427721746289623 3.7740549925189235 
-0.3344097416896002 0.9772566783558082 0.6456848990030587 -6.241474710538471 -0.14654173807925397 -0.9802143927019384 -0.2905063003597604 -0.10395922131239538 -0.046024281148733165 1.3169492325496548 -0.02488832074737596 1.0632099184626091 -0.575828224539301 -0.6602083090864417 1.1083824573586278 -0.22269332478905082 -2.424384707770278 0.6077946276674647 0.40214564867201513 0.7752769668365721 0.012535547482873836 -0.38171267554933797 0.3153493382242199 1.4984864458592753 1.1984066475310342 0.6917281385674823 -0.4608964936426865 -0.48030113643414496 0.2155817413603174 -0.7761297537061808 0.15273987776660727 0.2475800704932312 2.237518748120957 0.8154695024781259 -0.4487947441499713 -0.7215124048296416 0.09650035096258294 0.5959924487326016 -0.25296829150977806 0.3269035512860552 -0.5200104891554717 0.211786993673581 0.3225701863831794 1.4046858492735463 -0.0566048069934534 0.3882044564194033 0.20135290811416107 0.4327476617019922 -0.13720852420281984 0.1280328729880314 0.34462061115763837 0.19282960663050974 -0.33612382843941624 -2.231311703311355 -0.003322053748146881 0.05103230665405903 0.5472472310608005 -4.565048992852473 -2.2407871578887666 1.0757874719672815 -1.6356755836387449 3.111372125923125 0.3349935665531127 -0.24944510242378595 
1.7139396331703154 -0.07114225314889566 -0.160846060488169 -0.14715029329323256 -1.8268670732884862 -0.6064196603312806 -0.7041552713550169 -0.9994878134341925 -0.11475604388506991 -0.8652289965729376 -0.3323516980550733 -0.8588456611896853 -0.4965200312419452 -0.21791107945927277 -0.08245870415404796 0.616326648057339 1.097878058429213 -0.2656055402118284 0.04047111288486844 0.4165511363587638 1.1558792901814239 -0.9947756593043743 0.6232409434091267 0.36846616371749497 -0.12190142555364454 -1.563414229079737 0.30210656716156103 -0.13766351496449164 -0.046260500784769974 -0.5634076963297678 0.9424117296256908 1.4217595955436746 0.8289733550467999 0.06819069700879875 -1.3757987358465495 0.6431113554305729 -1.4755821089316854 -0.36733215767392885 -0.4420127717744187 0.46084433646964174 -0.2787147417062516 1.152468296293654 -0.11037490035820158 0.1103128294561017 1.3536770949252996 0.027045116551936206 -0.19001258094189324 -0.7567639551857099 0.42592583875101697 0.23518934027480098 -3.1483412478275645 0.303131447594463 2.04761996628937 -0.0881186317325292 0.023118516571012777 -0.1820448434818833 -1.0704204270412592 0.5612781236346716 -0.04858038973793512 -0.04635394676223158 -1.6072238211935332 2.55835234388329 -0.35912888706255963 -0.030236471637086218 
-1.1350404793002387 -0.30775338325640456 0.09630608015688764 -1.0623784529805416 0.1534077938019122 -0.01308525653594756 0.11202138857553352 -0.6853017373902478 -0.3565994047249556 -0.34211121602665034 -0.6257804883872203 0.1275312445715063 -0.19200829299697328 -0.38234269515205827 1.2097172732406258 0.024811149924661154 2.0823322483076283 -0.09515087668737925 -0.46644131796442706 -0.02308834391967575 -0.7190683315876217 -0.20085003444468683 -0.28168947549325346 -0.11165579205389389 0.5230962521358089 -0.9421728904729634 0.22751657190984956 0.6722588921874696 -0.3871749325852452 -1.6431968551441114 1.329582044395479 -0.06682199064860024 0.13871936683305905 0.26988043971232756 0.9358011014861009 0.31726990528259297 -0.3167279860543394 0.7530660939902416 0.7957363365415884 -0.22659716422853027 -0.173570072466614 -0.09678160783308395 -1.2124284218822141 0.28028380373561385 -0.9616456670608976 -0.2507572378147287 -1.0596953610353559 0.2718670272023088 -0.47418063897148005 0.8925633604154933 0.009165386901063567 -2.589169088267226 1.3305765986318159 0.35940046785393376 -0.28670449738431497 -0.15347344636857652 -0.1868055996713146 -0.25090849719832065 -0.2448676215869394 -0.19520027692981962 0.7947887423289086 -0.35553634138643153 0.286563993318796 -0.5151188254313095 
0.429000758877954 -1.3165780398555742 0.03431812620872296 -1.3145609612589841 -0.69994067278768 -0.35826236606174483 1.8351271959874813 -0.2549639394664819 -1.2291862035977985 -3.5002144949995713 -0.10959582743464345 -0.17979099604420676 -0.4879186103540314 1.158215292609832 -0.230513402953868 -0.09717697864808725 0.4738188723643958 -0.2733317831287483 -0.20745667784597052 -0.5444805947072227 -1.0313762549699734 0.1951748895729847 0.5468446714370696 0.2531307338748156 -0.08676459215379895 0.157826670701929 0.22626997669067175 1.69010730461284 -0.024187342142961775 0.7325208115464205 -0.45570540221068717 -0.0024650450573148663 0.209826040765122 0.05148663538345699 1.6093465098657445 0.01114774969610888 -1.2162737664602514 -0.19033703029446508 -0.3719649844942457 0.8034481436354688 -0.7175699267960683 -2.5083173567611787 0.5921184039433488 0.14177355715925327 0.3765560794773813 0.5415263669969953 -2.386090181306444 -0.45515220115107113 -0.05811447401820269 0.13978899850913173 -0.07141084653103029 0.7314777327920886 1.0490362150238122 0.1481945072117808 -0.7909820337721958 -0.9640723158930801 1.0240189650341305 0.7525384255095805 0.18811788240272292 -0.25346206586006026 0.4097948728569808 -0.35530526330801715 -1.0396086568349705 0.03514310149099552 
0.2226518164806703 -0.4486643860410268 1.0094683713700745 1.0336562128531523 -0.6130522831279133 -0.15073917780987886 -0.8576443058704292 -0.35215765390652304 -0.2877489807207976 0.8891629728840547 -0.9419608734136607 3.3950153852194727 -0.34383008879931626 -0.7291350816607001 -5.097695752689996 0.27332809139961456 -0.16788201749820442 0.0715252606106059 -0.2750313089927213 0.10532326795588347 0.1233387299152587 -0.18498571788559773 -2.0626133090955503 -0.6278889240306231 0.7142419711203376 -2.4198188563862533 0.01999568203714646 0.18354561822912674 -0.17006793688385285 0.4346138154438461 2.27248288579686 -1.366999075112589 -0.03847776853291418 0.09039249280813048 1.9179991068322153 0.3171503811491589 -0.16345354196862963 0.6810463862922294 1.7090380314900289 0.7221815775466616 0.64839937987043 -0.13165162406211572 0.19514515319358697 3.6153657579472096 -0.730658748895681 0.21706309142443636 -1.6720164772906578 0.07196693493632823 -0.7806038446280222 0.9648319703695845 -0.5987889145825831 -0.6013627579088469 -1.0087793648742707 2.8583762716328773 -0.3191377016866903 0.26661425962589214 -0.11914978526221728 -3.019828714835857 -0.9032781654139532 0.38801856503161086 0.2773705928984585 0.2628957973942981 -0.42191079385961017 -1.1212589742912848 
-0.09787852754685046 -0.7868481567898806 0.19005711404395823 0.009955849885412212 -1.0509385053420428 -2.2005169950987993 -0.3456256901808309 -0.14005167539984545 0.05544640185392989 2.158081510090237 1.3916546864657826 0.9177455201091601 -0.045360138986089454 0.06913424001442176 -0.36172603536077946 -0.7902061715256994 0.16011764154835673 -0.011892633778767451 -0.36426723781639475 0.5613743089457963 -0.276010870031299 -0.000975373180503793 -0.0024445625129075332 -0.3104631203407112 0.9326278872485164 -0.06639502283309393 -0.3688310675433125 -3.067421751700698 -1.3996134049406561 -0.18686544273133995 -1.2690355089794352 -0.9066372797090749 -0.5816702008918578 0.540007754169737 -1.9910510072780592 -0.5435665851820691 1.475853295086455 0.7532702533265077 0.2922326125597837 -0.3240406033111483 -0.48332324164667506 -0.44119117779643374 0.017596136221665313 0.1181634439970859 -2.5033556030678645 0.0053424619660647965 0.7674502465432307 -2.1033449980852272 -0.9031707644797694 0.049560849480998356 -2.786230548512191 0.08766928077617772 -0.48212824580190133 -0.3252027599580388 0.776622337410689 0.36512114535697426 0.9613970450285533 0.11724580758078648 0.00027165111627095866 -0.7791318326299012 0.9267407559230997 -2.26248555803714 -0.5213275076773631 -1.2380411405253282 
-1.2457350904401503 -0.06433536387047349 -0.31370432894561834 -0.11730026424786605 -0.05268497474630323 -0.20815651745304833 0.030815232102982835 -1.9175237126709461 0.7299526764728844 0.25863579190772695 2.470386724753363 0.03154195135173489 1.121319243456253 0.08508694843700398 1.6934593965305766 -0.79993474422731 -0.2044778616203194 -0.37308967143585503 -0.19908884310612304 0.6082585658935183 -0.6384052062812658 0.06476562466018843 -0.7068354242806262 -0.21736475888667864 -0.48167406674662655 -0.9546261261356268 0.3262869397525998 -1.305959687200571 0.25289754176421936 1.6759112417843711 -0.5970357712831945 -0.6105250279211698 0.0022980523263464877 -0.175732145886653 -0.10937412844246726 -0.562279548051622 0.031340765137250294 -0.6755935483279951 0.30617381985277803 0.3450056029884994 0.009480484578431184 -0.8863911079780721 0.8008427492141194 -0.4319814549188308 -5.429230185805264 0.10717810656835142 0.48757858843535434 -1.1122852803688221 1.0121320266806326 -0.006141720292770876 1.6074519725989107 -0.6783541723861107 -0.6101982688147778 0.9303649858937 0.5497132071654771 -0.6568146027149848 0.971669440421207 0.30465395781402976 -0.003991830501827584 1.244891885186639 -0.4922406958868392 0.1871723241122663 1.5010757903033722 -0.41910698249653944 
0.053479100516192576 1.3852423621191656 -0.06805229434617512 -0.1112541431053091 -0.4444310093724877 0.7557524957887839 -0.35406412447302643 0.1339365468178619 0.061401009817701885 4.08255806415921 -0.17073300051411816 -0.9747072791421455 -0.10161989888416513 1.2286977602433802 0.13471451287869843 0.5618168215232079 -1.2665498599898097 -0.912647761936326 0.4260406906104902 -0.22629063821509643 -1.093503473860297 0.3003370008755336 1.3147142530928877 0.5986325615408448 0.10405639610900509 3.150693336497215 -0.5076844168918555 -0.20039457013974507 -0.933386443743786 0.006554398200132431 0.9350498247557615 -0.04530602439490372 0.18238254083316643 2.136143582345339 1.6699245824460727 0.7685356509834925 -2.566769736773105 0.7917164478246734 0.31301205834143014 0.21600928717483583 -0.19892465742343995 -1.0080333743818943 -0.35981106795379625 0.7177280104717986 3.0199042892916657 1.0131863790032718 -0.7239113694021564 -0.13200131388839798 0.6990681047030197 -0.5314766353639176 0.3355609495380118 -1.4280365446162384 0.5781266247933923 -0.06668618300672009 0.6783982155816172 2.102031507159577 -0.24830804495485925 0.11195432790892389 -0.5766546227394053 1.2280920418756536 -0.2019585712680121 0.04640883484389793 -0.45750268751685597 -1.609205655299656 
0.1690026472751378 -0.6365577223359523 0.3309845476005506 -2.9777527210699035 -0.35788649873831035 -0.6960777609351383 0.49725771156842496 -0.6425189743634637 -2.311977666848773 -0.6026988757521227 -0.7679112474410167 0.1783631074947985 -1.0631331282440313 -0.4058772543435834 -0.8619362054961994 0.8121707756336026 1.1278349391297764 0.5934540591984026 -0.4687777935674624 3.1933932130840397 1.06320659816826 1.9234523664846095 0.2778709179448665 0.7957407413346611 1.88379934079327 -0.7007361902844587 0.5364801649764036 0.7780239843299733 1.6855806253498806 0.6573031156573107 0.02988613583695462 -3.041839998596855 -0.9422978932036346 -0.0713380654245348 0.5709051038434616 -1.1648206226393514 0.4337275162366386 0.2043533807774863 0.0010043788142773088 0.041835906500396265 1.4212975625954063 0.06708401667802492 -0.005058910693716226 0.11254764891474682 -0.6642679368581103 -0.01872543489991625 2.3865595076127386 0.7709223305300561 0.39271709882232264 0.8811125757095605 1.6366188333464016 1.157051385502249 1.8912822202138697 -0.23719573170539862 -0.05225266444775608 -0.3162473693969251 -5.728961210340966 0.5490645033458885 0.8636072252690751 -1.9863499319787725 -1.3289265753786066 0.3095211878829056 0.04686566519055515 0.20777461265307912 
4.198732944018786 0.2065458523094368 1.22615219994808 -0.3136674116474655 -1.0124917192828502 -1.01362819220879 -0.09674093004536194 -0.9455174773525815 0.6381114858599978 -1.2989163861144095 -0.7257284436511509 0.6335473540912941 0.5256393229696616 0.23011388024433882 0.09114665846442088 -0.8293557996491596 -0.16718754479345652 -4.880964431650171 -0.1147495943727382 0.3904255972209341 -0.8300535217616775 -0.16423912254602208 0.1673385555151176 0.12797267551997496 -0.6409403342068845 0.26576146331565065 -1.253732189700314 0.2132325170167993 -0.5961716444455473 -0.03013166133594408 0.3848172026496598 0.2893567922516159 -1.6611310323966384 0.6305919101462912 -0.051699834573703106 -1.60456066049397 0.8132637659240961 -2.9153414138069462 -2.1076764027354606 1.164892114429641 0.5703796381577971 1.1832458544953277 0.20866282478367013 0.19282771339561444 -0.7310202632559433 0.16633166052842746 -1.2898113054797082 -0.9991614642686166 0.006577354664787364 -0.4024328234552623 -0.3211500896371253 -0.19402335017001993 -0.2604735273483335 -1.896086383398391 0.7352735507445842 0.1820267122898299 -0.5012602583502184 -0.5031425804922351 0.27508776911781324 0.6050273438857465 -0.03827821598268169 0.291387617297132 -3.0195039926793124 0.1774699672643049 
0.04600783854420509 -0.09104988065469126 -0.5946843616663084 0.11960190449919397 0.02562105583284188 -0.2241643315973595 -0.9279546420557042 0.27158474687150613 0.6836331646625555 0.754334420766913 -0.6106010186699158 -1.1334298838978343 1.500949507924736 -0.057186780964510846 0.7065204962896072 -0.8473858053883425 1.2953965880854044 -1.153792955259631 -1.4689769191867188 0.1842463076039061 0.7310441265738091 -1.9498485342793068 -0.1340354469179302 0.38223352930270077 -2.637561324149173 0.14309858886672175 2.507039021452261 0.46151142224736774 0.3861206445673791 0.06890714321360827 0.3189343682468482 0.5250324991539846 -0.8225913637707446 -1.390451352871407 2.359424312478412 0.24820301376092813 2.3573021986652334 0.2716418303038132 -0.05041963893138623 0.4646255326056064 2.149373380305411 -0.05617694763962997 -0.596963985126662 0.6419168731501835 -0.6280194750289368 0.9715587301433355 -0.039111972890962896 0.3490758748814029 0.048703161866555114 0.7586811377772509 3.7991920427285057 0.28770784863570104 0.4990295459403541 -2.7359871345620093 -0.7313271980301895 -0.40269245323653635 -0.09155189819499773 1.0031798067260504 -0.687824469526891 -1.3059618988430073 0.24101848412530488 -8.486392588880864 0.11490044136421236 0.420052639302352 
-3.290936817257456 0.3740382520362309 -0.8659493897003697 0.33183646777484693 -0.3548503550710537 0.09875740984051264 -0.7749792505865372 0.05743744498030685 -0.5339776396964231 -0.03286856686249306 -0.5443982818289327 1.609710687433617 -0.9386787929127036 2.5147748236074903 0.45295666599186724 0.15698312799708006 0.1692569150394734 -0.11092430085716727 0.07434763032785074 -0.022872474673881437 1.5449449465299596 0.11574448821449475 -0.18393979100189778 3.1308665021031152 2.626804501387406 0.5021748091457361 -1.7744122206750048 -0.09842332969080529 -1.9087728475725583 2.59215539425971 1.0419648540306423 0.528656655389212 -0.2806285353097339 -1.6398628182308126 1.6812901317075766 -0.27086313430886494 0.2722508283387592 -0.5671510493759918 0.13664486196581796 0.10413119603790676 -1.3282099241873437 -0.24387126827123173 -1.178952609979219 0.9033902896487739 2.3510922461404333 -2.5375474574017858 4.462163999266443 0.7372581295043479 0.34795716783607883 -0.9287029270232412 -0.14442609150047112 1.0380962520949062 0.15693946759641006 1.1157947302699414 0.2505357298248016 -3.1091870300242506 -0.560386461529424 -0.35271164192389554 0.2374160968837484 -0.3129970439184109 -0.1579440199671381 -0.9731459103530488 0.5236319273513322 -0.23650306528696802 
1.5348071441609379 0.6695974089362517 -0.15556321582052376 -0.061493224493412706 0.13208169610378656 -0.6710782588244948 -0.41261270216177637 -0.2501601445606867 -0.0482333012237971 0.25697796376468907 0.12269072841350533 0.09479551947041767 0.7925142242894012 0.6054720925696437 -2.596604949024248 -3.857164045228407 1.0208931651339492 -0.6080959259566724 0.6079932960092461 1.8978753492697293 -1.384292506459528 -0.1716270566758077 -0.23056339581599328 0.34479546192334815 0.5061742226533157 -0.12211545344824734 -0.3891437025912216 -1.9076270102639779 -0.8427276621616085 0.9919006327555935 0.9715726321933019 -0.9375246833990941 -1.6851193333134526 -0.5539660182088246 0.030526109389258288 -0.15748214347583986 0.9431876598674287 0.6252459763154204 2.1304492779984554 -0.3787541132721627 -0.5438181057050705 -4.098166636364499 0.17054669919520427 -0.03391734507385434 1.1226058247728186 0.35958029761106663 0.046947126850773485 -1.0813353793919969 0.4267165748640186 0.07091669158293258 0.11116310679617755 0.4995370663677674 -0.5549405174602368 -1.0405469125475784 -0.5191084057735668 1.4583083628608795 -1.442519136282874 0.6310301668221354 0.5740799080235608 0.07553901967165624 0.1828876953469189 0.24928839433806013 1.8319040281917578 0.07976020286908722 
0.024184862333813888 -0.35496762452265074 -0.11586040614777915 0.4673586323404579 0.8873144616834077 0.33708848382462936 -0.7418309081889893 -0.20381980886893947 0.25399036035679856 0.5017854200072551 0.2159403424595111 0.7442608741673606 -0.568267180669302 0.1743991188299568 1.2949804738599733 -1.0051762861441647 0.011550803788473533 -3.5480509430824068 -0.5502549823647296 0.7686014448519087 -0.40009000374641923 0.005940078707692697 -0.856312340660074 -0.32286709640156414 0.12520046650457697 -1.4294773740152988 -0.002937336873687739 1.2993394613267806 -1.5329175301677977 -0.054694235478548216 0.4280951067043882 0.7454879413778522 0.16332185322918155 0.2642286139481496 -0.13122995778282834 0.913473548018813 -0.013647566512592265 0.33082150187566356 0.0933971648809089 -0.45133362754852047 -0.8334374103201627 -0.62669975887733 -1.970786171261042 -0.372340092642462 -0.09453609521598767 0.1947072368146697 -0.8911255292442564 0.021363228054096368 -0.6742976689882872 0.17025770840378798 -0.7158633888632445 -0.35922149319243574 0.9866774137466218 0.3432607467943035 1.925471841360879 -1.5129518034014868 -0.023030436328996692 1.7549670571594436 0.4040816846680386 -0.02043144123746827 1.256424691375592 -0.1868139680239373 0.14121449932895128 0.3552596849901706 
1.5306099817456627 1.1785142014902488 0.002144901026588744 0.8043814099683867 0.40272114430939754 -0.42451490520832824 -0.9623677850965268 0.7872386244037274 1.1429271499194718 -0.9194339287255997 -0.03811599517034549 2.231644037323174 -0.10994958815123385 -0.4882185482792854 0.4391476043223266 1.2968108782024765 -1.9659400301526562 1.5887499100647489 -0.7616766394973629 0.07374000542365747 -0.15564673170698717 1.5139055379994242 -1.553693971721588 -0.23920789138568388 -0.8384831291573877 0.5482672324945418 -0.5985851956928325 -1.766470931839452 0.5298375849950921 0.8125655462979496 -1.863808523380879 1.8498843955051982 0.12715802883008107 1.0614960060248184 -0.15256660446028308 0.022321845375542177 -0.2795419277976679 -0.2813706402575654 -0.5562237475071624 0.26360057664956754 -0.5916576081055223 -0.4812828381666531 -1.175719819062861 0.9970441445199167 0.2732193653602243 1.8042536732795404 -0.534544512820795 -0.566377990570113 -0.23106383282593473 0.30088747484716505 0.03020377137159486 -4.328039529061497 0.19150737632964485 -1.096776556461063 -0.7433674624173929 1.4196971669626028 1.556387920391873 -2.0035429096565434 -4.57423923028681 -1.948142687826866 0.8474614564111722 0.9470265140380503 -1.6145397389842553 -0.9220200829020083 
-0.15201650115728485 -1.1898498294733568 -0.9406800791195716 0.03539325925645459 0.6730441946646817 1.3430319419312406 -0.02610856364289992 -0.28029175487641017 0.03046039256154001 1.0619075644444649 0.20340213714932645 -1.0130434250915317 -0.0406880345990326 0.2939963985339144 0.1275511863237088 0.3843992069825963 0.0729735088196757 -0.7321149810369039 0.8823226807051084 -0.20067655933210388 -1.6225085284663867 0.18767576031446367 0.038113340728948064 -2.840511563559813 0.906165767267071 1.2234392588259277 -2.6487225327453343 0.6910946066241096 -1.9952653814092423 -0.8027562648407041 1.274696086707483 0.5536200733652427 -2.15307511946813 0.4191521491573604 0.12598559371336499 0.7541095838405781 1.4809646497679747 -0.3332196096212157 0.11682155738643574 0.7766770590532128 0.1734267180900311 -0.21006616061048594 0.11983899591380738 -0.08214785422561346 -1.9754535033931202 0.2060999506783971 -0.23560113596961998 6.487082155363359 1.9880308314364512 -0.32507384815520973 -0.12451386870735491 -0.2585207655415686 -0.9284063391725693 0.5399942739037676 -1.1733729292606268 2.068757203123766 -3.414091868030935 -1.3240645762619765 -0.12066389336932382 -0.19227673498142264 0.0802610764194298 -0.004614075543862276 1.5385375432490602 -0.08374110070613187 
-0.3396393808576549 -0.28197875682679563 -0.4723808811415622 -0.5810995102929707 0.3448781952059436 -0.36507330884140365 0.396991572653841 0.7887412246232647 0.9511438097397426 0.03753441840252507 0.4516205798331007 0.27347204244856826 -0.012774628419824983 0.10337528390356 -0.9287945437389021 0.4647667985784312 0.8845747086735076 -0.15635869583101314 1.0401743593677188 0.8151113826964478 -0.5006162482805987 0.14493786963525118 -0.1502208441086746 -0.1080945878215602 -0.7338918896232601 0.3887783072655241 -2.047243780958654 -0.43541743255895843 0.2381002979561989 -0.6783191678752154 1.0404994802702539 1.4145110471411109 5.070124129197099 0.27410396164443496 1.4526174492375825 0.17438107641471248 -1.0368293492878384 0.2750419405215691 -0.4334535966286273 -1.7113279206591034 1.2119129617886695 -1.0186061646266145 0.052390909964158454 0.08901110561001131 -0.17188618877349315 0.22206811797449136 -0.9657103906776805 -0.5856842216680688 -2.710500641703467 -0.5736435034859941 0.4198887946003216 6.80310886685048 0.13480631849188532 1.4250410724740041 -1.3466870041427326 0.34676827144444355 2.4266295457858367 -0.17220890500136962 0.11640564085468294 1.0064391759047675 0.015257676661045967 -0.14016289925391814 0.7169393554793316 -0.6568226945184257 
0.5097972894335197 0.7685167339609844 -6.413916948595459 0.6946480892276725 -2.062410321599987 0.1282357553762095 -1.7717048426315027 0.6908978244744481 0.9094686792819405 1.709878170325503 -0.5618471967498828 -0.2865812725816013 0.5522286908520002 0.3591456254633976 -0.646826533470649 -0.5575536771584924 -0.13454098912891296 0.03498758342801591 -0.4818942983649734 -0.843512997874713 -0.5097644961981241 -0.06574616988450277 1.9293015891346923 0.2581988142269762 0.2792945685437083 0.3263367326614526 -0.27425221351562085 0.033824826693812066 0.6567148396377056 -5.019953925581298 0.5706570262323309 0.8866633065618182 0.10746188717703267 0.8136345892162182 -0.2683705814238535 0.0728915939715573 -0.018714743258894363 2.2725827965767325 -0.17160718162028868 0.19118518722777766 0.10373462440586931 2.01783020543297 -0.685484686029666 -1.904753941717822 1.1414820416705183 -0.04348551917735405 0.41006616317127037 0.7093380506877331 0.6809958961413546 0.0033398802929789522 0.7656601105135751 -1.2994390607634012 -0.16690954945228845 1.1255254963811652 -1.245420905715336 0.13587246244492218 -0.1855552582516861 -1.6606715110817099 -0.820932545357859 0.24719839790848197 0.4154396181754873 0.2682017633758885 0.40111226011028683 1.3642365469748243 
-1.0658841319344692 0.03265282635976605 -0.3504741282007323 0.3486071303217462 -0.4985552854380086 -3.1282586179595038 -1.174830421248213 0.8635154767382043 4.169704426715248 0.19506040260384017 0.8074842620069996 0.37512822896380527 2.183809188151739 0.7563827414609773 -0.32238730400835924 -0.2286716005668489 -1.4027167514911245 0.36805748813742784 0.3629092902464513 2.3159171133208827 1.0066974583685844 0.3692866680944852 0.05700889738956042 0.24065258021880556 -0.2260723372694103 -0.7021261704637517 0.5174572821901658 1.6053915340322338 -0.04130524857205365 0.5612851999492391 5.184919248282005 -1.5642751622082398 0.2745463610002888 -0.32377760986915544 0.45583666919152704 1.0164851061206355 0.14922322232263105 -0.07272631224544447 -0.6038651517419459 -0.35240616592608287 -0.5463063331208148 -0.6222991695772482 -2.1870312117435535 0.5028476574850486 0.10959615934872963 1.9628475456587202 0.19592819403716216 -0.3471162842145902 -0.6038402040777119 0.8803146631184801 1.2176242815702187 -0.3006915196448861 1.7930555143707874 -2.906532806706168 1.1339277917502317 1.01314066710171 -4.1384615619777945 0.3711232870938593 -0.32723900702527825 0.9856005200715882 -1.1159491779120332 0.2337971060387173 -0.3258538263900135 0.40009017365130023 
-1.1727672955212596 -0.9177850300939701 -0.7583123992727256 0.49249697850955954 -0.033397344911930936 0.12407915555887006 0.17783103898455924 0.11457703002668682 -0.04854094822522854 -0.328935741697106 0.18178940663197785 2.191160634128195 -0.15944446361194906 -0.7785780770520857 0.45472568051610474 -0.10605225193075005 0.9786864054163319 -0.5779638234671254 0.09463719966557041 0.9004047133934173 -0.1718527105200004 0.30173349085798506 -0.0557789606584228 0.9125975220793986 12.267829884477354 0.15110821912073694 -0.8726005814242144 0.8115325787968485 0.2898345063005683 -0.6169331273529304 -0.7198622460962517 0.45478894011126547 -1.7550235902009808 0.9220430602335155 -1.0538764160420564 0.36494072363057733 0.22380100514062565 0.187472869002124 -0.5525610748081455 -0.630764766305031 -0.3734671461922815 0.2001626639283687 -0.29879450355450754 0.0324756152070906 -0.34121229466281416 -0.21422261441458929 -0.06342488183633382 0.925574101055332 0.4745919657787795 -0.1673130303599476 -0.1854291511902362 -0.329385466246164 -0.036837890669691946 -1.420514685427512 0.2621363268559218 0.5907403404078272 3.812256585182102 -1.475484690842187 -0.9573805971553603 -0.5092401706064144 -0.6302155875168042 0.3174569830305469 0.8596960026839454 -1.4516028851299676 
0.3779015843125615 0.16280091766986124 -0.3611323011095775 -0.31686837412663593 0.08540612389378803 1.8524430365244884 -0.30826280544719586 0.4737997481846766 0.34956519513788775 -0.17385215850766653 0.3315769014891054 -0.059621124721577656 -1.1703123285952084 0.2793954913134358 0.36164682318092206 0.22604227899799031 0.7047620148654462 -0.6720455829040072 -0.0768595705460228 0.051982217541344106 -1.0352816360558974 -0.8348064273433875 -0.09407313452006308 -2.1935072795529864 0.47798436659190235 -0.5662097240417504 -1.3673734858308004 -0.22777609319039183 0.8373178827391741 1.016225746221679 -0.10307206906575317 0.19899209931248843 0.00557937177519972 -0.0027168611787444976 -1.473952838547159 -0.3199107199222878 1.226583214657548 -0.7523826407681433 -0.4976878235968439 -0.512834840942986 -0.16696700765788666 -0.809159083065707 0.829648374177522 -0.11963891243602923 -1.1986103032254736 -0.4984710257268887 0.1204610131464369 -0.12837220284594647 -0.5565504489130411 -0.3619374761215627 3.727488775839282 1.5109863638293919 0.3681933738789392 -0.1701450880760571 -0.2751155349187813 1.3596627835644743 -1.5658395225938142 0.4536198601702146 -0.3407009420673643 -1.1535984171521563 0.1367312965704675 0.8122524362230973 0.6592775454402191 -0.5780521747214742 
-0.6373735592307146 -1.4903324419198083 3.4053557862226653 -1.2182286580064436 0.05992203300389804 -0.08036108910352031 -0.4248622477714863 -0.22923095586687897 -1.8146609511834089 -0.6179059590216256 0.052763272182089954 0.1929240935901428 0.7427962710780684 -0.17069991617784278 0.22871877547031022 0.5255405288607305 -0.9207532212562612 -0.8360521232553711 -0.10192689190397898 0.25319490893917007 -0.6262797823389209 -2.316808946819928 -0.16414273053250972 -0.8099328848093054 -0.08326421576807594 0.06282002837180423 0.00431109087784032 0.5008192475263922 -1.321928850527823 -1.8566107399088743 -0.3986510312377273 -0.2172433192688419 1.0468309234954376 0.16621050722985103 0.35074239346027786 -1.9006649547507721 0.03582269473877933 1.185111204112627 1.3123797163346644 -0.39149791425579017 0.11942291504759883 -1.1837227324989739 -0.0013214595266999888 -0.9566460903164884 -0.2602040832342302 -0.03677306999702393 0.4312456384392867 0.306778615194816 2.3526526558181016 -0.8115527744207739 0.2492804773935012 -0.8179068217016421 0.36333261517561705 0.3465853707464574 0.19286094055796604 0.4643591110663606 -0.061015889993256564 0.7745878578451418 -0.1562769684796807 -0.7988413772821819 0.7018628772309634 0.34208121370970795 -0.1161105009608521 -0.16996480591466503 
0.9887973017768984 -1.0758570243046774 -0.5318223071527379 -0.6173502919841615 0.8108702118892961 -0.3033044770922737 -2.871197694616941 0.08806890172268121 1.5695223487707477 -0.5768707577654609 0.2781439364612078 -3.6774922211837526 -0.4614388916495942 -0.043927931307285235 0.04053103681943379 -0.215706371028432 -0.08898078623069608 -0.05715407448836033 -0.18805651706320822 -1.3844952479433783 -0.3528928980186245 2.503409158481968 1.8554128818514426 -0.018781533946911493 4.0973673874024845 -1.4862458121265532 1.0293689083534896 0.5166331682412838 0.8054015835156595 -1.275996857961233 -0.7849181396337822 -0.5001907398352173 -1.0032943891057589 -0.004406730442747285 -0.473930568608048 -0.09735952189989568 0.3266081477881256 2.039766985904449 -0.5431639181080778 -0.9323200280341377 0.11828499704479344 -0.7891024075514859 -0.01082826499919227 -1.1807939035197794 -1.0070194889076056 -0.47278031530895553 -0.9789895975450477 -0.024353934642025732 0.15386052160243285 -0.2826864031906022 -0.6795371214218894 0.0992726152944684 -0.9163792934285715 0.9237301890721581 0.24603794616179164 0.10623609942307086 0.9453981882941865 -0.253616489313882 -1.1160208295182579 -0.18305246816333617 0.16910684200126236 -2.9316319632295946 -0.650023290132129 0.26326320130114544 
-0.04125277512664341 0.32999734744249837 0.06498551367615536 0.6305232130642525 0.5660503497487352 -0.8050674375182951 0.0007329922350374337 -0.44819136489526035 0.2783952684521452 1.2304059363770823 -1.610368252338078 -0.49672657928021485 -1.1821822123483021 0.2573534398598009 0.4777841246918102 -0.5769255852826918 -0.5636800436241092 -0.6610146710981276 0.1496254371267302 -0.05758449796571902 -0.5765979592124024 -0.1573343010233356 0.1925748819285675 1.4032539885112811 -0.0948032359155713 0.22176458647082045 -0.5050353681807649 0.29591297706151976 0.14928103332011483 -0.4487723488498454 -0.13236998729616054 0.29941436391098214 0.05414524943440821 0.035984522650577506 -2.3822174571301438 -0.8245923161550875 0.9852561617942778 -1.0712867427223836 -0.46992408447208395 0.6707708621197798 -1.010807780084767 -0.7990394596003064 -0.008587886242330658 -0.5759231937965951 -0.15193223711431345 0.6225428880431955 -0.36945374743426135 0.6155188621860281 0.2874738034791924 -0.15041832146471237 -0.22293220099365207 -0.41494905680960126 0.029750957554044895 0.154268122632946 0.5037616292924252 -0.22809659643796323 -0.17809217364842833 0.3964764885996113 1.9287695179286026 -0.19446647889411955 0.9939318203106656 -0.3414760955038971 -0.6873557081402603 0.3176223673664969 
0.3801914123791126 0.07736016798149849 0.702553339834171 -0.4770905646062706 -0.4290831660285978 -0.7715847973997165 -0.676857814276892 -0.08893699017642448 0.4910225953105066 0.1728039346980745 -1.0828394438549618 0.2542845440722474 0.7510705343357397 0.0510593039103899 1.226856888846602 -0.09117150559453685 -1.0100155559241182 0.5846151404535355 -0.06946652890071682 0.6808671371798237 1.2668336907904194 0.10974826884031182 1.171383718450403 -0.6018777964295098 -3.0160208867368805 -0.7248938362472441 -0.3812752626999133 0.4958459918894131 0.32897569362046775 -0.20140367736033762 -0.09381102362718145 0.036264116171107724 -0.005614477121057861 1.0318223763262178 -0.44022842586370614 1.4279056219842468 1.0835289857522021 0.21452173970338348 -0.87714434942447 0.5364441756836413 0.2423358770488532 -0.16874699592852818 0.05026140875855034 -0.430021008069059 0.8379443567110056 0.09017901066130667 -0.12837518618838914 0.18125394877889622 0.009327955174917272 0.9281132334349397 -0.3462786933360499 -1.2073494699408496 -1.927874104362678 -0.07953127847333845 0.4118610147028853 -6.688657664288925 0.05478394724688249 -0.7157455045597744 -0.24589981559867338 -0.1674494338714065 0.5104628545662816 2.1788002090545975 0.5494256414664254 0.8377751559989424 
-0.20301308124968986 -2.4185012540449864 5.1762355453298765 0.5710227645559943 -0.22112100510963312 -0.5151100946051591 0.948820927756656 -0.0074486567257718 3.324556803780836 1.4796887759638984 -2.891187869272681 1.0061845976974186 -2.8627157488170334 0.4678053907505787 0.2608459126713404 -0.9863922067002184 -0.07848569070177587 -0.48873967314757555 1.7592815237063173 -0.32180127881862797 1.4440831311880977 0.25035363584300696 1.5954051742626967 0.5472081240649712 -0.3560525680769336 0.23402202973491024 0.4095647510447238 0.608231134654635 0.7603733310479455 -0.15203372468881288 -0.4880343269272183 -0.574046828284856 -0.2762796649004702 2.374756099838335 0.20687693497455367 -0.10218192344446325 -2.988756167237148 -0.6396306530864139 0.6898369577196923 0.3271253187370663 -0.24831598912906094 -0.3478239933543179 0.2716097357749505 0.07157581579564756 1.3527898878069782 0.024695683150949794 0.44833015971710377 0.3640300381213653 1.5830658966431974 0.30403085861571416 1.175073141835031 0.1021614290827915 -0.2261388024083102 0.4125019418792938 -1.0959238394469446 0.33839460400680627 2.080434864952394 -0.6894355845940175 2.8430081631109028 0.09207895402879379 0.03781183989305862 -0.5414963857170506 0.3066414459859008 -0.9635267176346892 
-1.743864743534409 0.1090830685247522 -0.17270489303410588 -0.3857097967085079 -0.3394446244175058 -1.1384868007862161 -0.338335508531102 0.413512858631569 -0.029543864863892492 -3.265807878411204 -0.23365712961011972 0.9365893962814859 -1.6324887572908047 -0.6543654240614606 -0.6760767510942451 -1.2915784685540992 -0.7836939574624078 0.07069152301980595 2.2126085358586196 -1.047330550310352 -0.5353370251823721 -0.3186251832211537 0.590877264754268 0.33232469154696703 -0.3292159416968912 1.907030008744724 0.6879825064315012 -1.0511772320012707 0.5891267861059307 -1.5367305023508633 -0.03904727168801157 -0.09257054718725022 -0.24987560355695387 -0.14370567884699015 -0.21054126923260447 0.21393802040655854 1.54035133052479 -1.3498320431489497 0.43820847728231443 -0.07270200665486 -2.009688818475883 0.7888289135612645 -0.16135950267191645 -0.5867437995089306 -0.8241722433074812 -0.24588589601698108 -0.03867666413671865 -0.1743010230572678 -0.14538236848467728 -0.5362556509236371 1.545239924701627 1.5717065126910021 -0.9314008507307544 1.4749125433066896 0.23969102162816439 -1.0559473167265392 -0.045708241443635264 -0.5527582284278764 -3.1649486358367667 -0.08813136996016405 -0.08325920097524575 0.045692067544400264 1.208794850337192 4.15731165944784 
-4.970532042260706 1.1549795135669003 -0.5930035643741784 2.6839004312120665 -0.2913445401459767 -0.06424766832495767 -0.05489944700055139 2.0500233955502787 0.656223088145286 0.7789817341090808 -3.6024217921828683 -0.2999709732859198 -1.0626237194186547 -0.0032165001757089944 0.6707151189111147 1.3723591242495956 -0.7390141411974924 2.062750979857308 1.4774547589673774 0.28360224244689786 1.0832332478729996 1.2653176989087291 -0.221338881842942 -0.5110429165447233 0.1872859100186091 2.109895561170279 -0.3854223782929769 -0.39329988559208984 1.584304976356749 1.0395755160675593 -0.16368834008293623 -0.16689767476186518 -0.3542349799115822 0.11066853412119904 -0.22665191913472527 0.013692447687408479 -0.057066468726164415 0.3563325610043678 0.18187964520156202 -1.6675938565382455 -2.5949213912004976 1.754933156571512 -0.8189655933745358 1.1337841641516082 0.14802849065887866 -1.846114784745689 0.4192024425677431 0.3798265455405414 -0.00993511342457436 1.0012340041975594 -0.5107204015016432 -0.1306003747501076 -0.18352334133022952 -0.25492552062286206 -0.15628323762858368 1.2905616339300208 0.5196027036852944 3.0052963977536473 -3.3682379950870125 0.7798399141288154 1.3813869023230534 -0.8214541863013419 -0.9123331745447502 -0.16948017793435488 
-0.30791556508440054 1.2971681390097611 0.6014447746494687 -0.24877646984322443 -0.8934611360947294 0.35596548815864737 0.8787869723001432 0.23426644443121675 0.05945543639248441 0.6145238957206852 -0.3114504746397446 -0.7967598529069243 0.2959780197432653 -0.1796844546792764 2.5148724740315025 -0.16694124257196485 -2.8065111187040754 0.5938165603229507 -0.322243428201881 0.8629234752909786 -0.10886328065281192 -1.252447686036219 0.9269914713416763 -0.14525727649531495 -0.6376641490010669 0.028640472620754705 -3.2155943544167975 6.715040533072037 0.08041606997419481 0.7912120541410547 0.7959974095140204 -0.5026531294030678 -0.14041351456940226 1.1435003174019713 3.215208947884329 0.7805424868726873 -0.1429580259597558 0.23635093209446925 0.13049696100394903 -0.18368711446056238 1.2694666996962278 0.3033742869879642 0.5672336711046404 -0.15686144031380295 -0.7083219290868927 0.6552072009329384 -0.58664816464211 -0.30939011321287685 0.6418837381088817 -1.0030135114759748 -0.6000819724074973 0.23750778073235282 0.10187641822993887 -1.1565350891857311 2.226341974259549 0.05611484390279448 0.28767126375604213 0.8199741621855031 -0.37234467203682897 -0.12922755814399425 0.3613855645109065 0.27247790117024734 0.04873706469109964 0.47826833779932015 
0.2650348960285601 -0.9203220043237886 0.3124463331198793 2.0297874119402346 -0.5554947072835769 -0.5479202541748246 0.41184738634223234 -0.4531347193384412 -0.19941739216716745 0.9142331669490071 0.2532749505824259 -0.12921668981764137 0.060723292432910254 0.9514832218775161 2.609150713257729 0.44164309911442917 -0.3365936325720754 -0.48290761280474886 0.07862430617450959 -0.2090730340678562 0.6640069010909995 1.765551055051374 -0.5376909963230515 4.531409559435252 -1.2368083797181628 -0.4992723592575732 -1.6298805370542324 -0.763334448393149 3.702542959271076 -4.790129213672473 -0.2991986042522732 -0.03204966054508598 -0.30433584122661866 -0.38241821259911646 0.5226270350156285 -0.12670826289282022 0.0842508697483776 -0.0723268804241841 0.3345912059021037 -0.7902616662188724 0.2582734070827587 -1.139297045040596 0.2391670428991922 -0.022638970604138345 0.4145505167121339 0.016823947784261956 -0.0023397618641636734 -1.1566424306542682 0.5071764868465786 0.6609263388266571 0.03161646665512583 -0.48726200522913127 -0.46571100949678645 -0.9073915631840305 0.5965948720004653 0.36733461285691 0.6287638360861222 -1.7148470456356906 0.3775563040077305 -0.5368790832478813 0.46396250338074096 -0.3594250115526197 -1.3963015424017893 -0.90116322844702 
1.0755204440310628 0.6933157505821428 -0.7399678311171008 -0.08471497040247612 0.5789124815649496 -0.6911037645408383 -0.5436266706428999 0.6953699958636798 -0.375445095165746 0.9105792115079593 0.724700065271435 -0.5369262048959781 -0.8978602342826123 -1.0549539556280902 -1.16426450222362 0.34599892036906477 1.2832975547773606 0.47579335205976103 -0.9547602816403206 -0.004905542383652357 2.6956606622111403 -1.648365056781349 0.03419598986335716 0.4299635558265563 0.031985779890435696 2.297764939747872 -0.1868480524027496 0.17229691856447713 -0.9691555353725407 0.7461123551061751 -0.26682701811103837 0.6464097159408588 -0.09157633089419945 0.9547761632384124 -0.7099483507033415 0.3483384687638171 -0.18880205243175582 -0.39841705742340505 -1.5902490725689873 -0.7281626098022769 0.39071360336649164 -1.3498046808950277 1.4689921203422123 1.1541219103208302 -0.08103880483430181 0.4223189112874311 -2.9999554909312374 0.05938756848297314 1.5168160035406961 0.174266080753883 0.3267171463492868 -0.014561155969805584 0.1177603914371691 -1.061801689601401 0.6133441010477645 0.12671497678713967 -0.012528395031355341 0.10763242199983533 2.9962444287389 -1.2316200516485243 -0.5659966809103041 1.1344073775522343 -0.6402773250173336 0.8894469852958576 
-0.055121587116396586 0.04861750821624487 2.5966550024971884 0.21594833926137813 0.41698955248876945 -3.508248416811668 1.485597320557146 2.5505509247183316 -0.10306582461414285 0.37572138420884404 -0.018337417200022018 -1.1115609994233708 -0.18034730058313778 3.6129276807980575 -1.3582742704646198 0.7393076681662023 0.10725393326390197 -0.06672012712273392 0.39701983824459247 -0.5643696316616389 -3.555672704792678 2.4905316193027582 -0.5273394343683969 0.48900328938297366 0.44526127920350983 0.5127245770464031 1.0998746467279834 1.044474096450824 0.8617440632857362 -1.8642892755481515 1.0427012320290037 -0.05092418107357021 0.6059172552323044 0.13697499404619323 -0.3348030510771209 -0.47664109820394074 -0.2375878036848707 -3.2511473066577223 0.547176164378511 1.6481467112170471 -0.06379812009027604 0.23212183838857547 0.39965900226476403 0.2125608367204977 -0.25638210272914774 -0.19145110547938307 0.7675258206370672 -1.4327768296796992 0.3362117057365343 0.18379955161882935 0.20503947060124725 -0.13478088902522437 -0.40335058463486545 -0.12584246787056036 -0.1909854644890599 -0.4343235213925322 -0.07539774821622335 0.019860446330491062 1.2260872349797427 -0.15924679772620115 0.14349729814983356 2.4350249179712358 -0.8776026428551308 -0.3998195290118791 
-1.680977953735381 -0.6887196814696351 0.4071646045340776 0.5340350843858267 -0.5696297112396554 -0.4252821807189927 0.45040679590418065 -0.1189313491492953 0.012400256212059384 0.6385432093863479 -6.794847440731758 -2.0278314629699503 0.9427160488215529 -0.036346407150600224 -0.14279389859369304 -0.8431782044822509 -0.1855301851849912 1.3758668982653663 -2.4255395125717505 -0.2755494038589717 1.3640563676422102 3.4149142850072356 -0.275290341226461 -0.9650819002056725 0.006531873463204196 1.9398136024861168 0.243014901581012 1.2891773391967054 -0.941129216731719 -0.23335171205715832 1.3337078742288937 0.9183073769021778 -1.0640784360539113 -0.3175931152075481 0.15496619188688956 1.4049005644255297 -0.5060420514576904 -0.9175867915374329 0.12109358900006238 1.6941834529100694 -0.1805963795586839 -0.8497647451315852 -1.3065364491289329 3.0332084661204615 0.3381831390960954 -0.6867168375724086 -0.1755458198876471 -0.04036993845737011 -0.44082547872446615 -0.34312562434484173 0.299950106203977 1.8712881900085179 -0.040787044448104604 0.6391533329130169 1.25755523809543 0.05940277525883937 -0.45686877500528955 -0.5893840373162786 0.5046485522470039 0.32877877633016034 2.818460144207204 -0.5515005378221216 -0.4583955318360749 0.35510496660490304 
0.7345743453501837 -0.4556880474882551 -0.1931831382140493 0.20538943910465263 1.6594984708727112 0.7497612845908608 -0.8064592985360753 0.3179914924481752 1.4515716727044685 0.08805795330002048 0.3548286071494487 -2.0562305056990935 1.047817401111 0.8766794393450404 0.17304287640429156 -0.7178934688068074 0.2799089454094756 -0.46014134669103623 0.9306907450940427 0.19040804628282454 0.019186298167830875 -1.404473455408869 -0.4610784215174142 -0.19256978826409266 0.24780902259308868 -0.2072355284065129 0.28986337696562353 0.21959984084483514 -0.6535496861010235 0.09079223370418782 -0.05887792466267244 -0.018692881937225625 1.521640895050362 1.6359664522177153 -0.7756757666768748 0.579975410196161 -5.486268160655953 -0.629945195359499 -0.7281754722917473 0.4545297915375146 -0.1157950701328827 -0.26745047535664185 -0.7482260883633598 1.4174504089512843 0.033514431836323307 -2.3145327725128135 0.046422293821354835 -0.03927543935550841 0.12205031728015138 -0.4522502356320342 -2.5074536668822005 -0.08286823630071154 -1.5724736328852404 0.24350512465877422 0.1363552277467246 0.2794282613212626 -0.4294936307176073 -0.11828163091094505 -0.3429302803264923 2.7416469897256817 -0.17859458186973556 -0.23329339395293452 -0.10114134194544794 -0.4507840769128053 
-0.5394005527932445 0.7568681981896264 -0.11291134851738902 1.9850814438319377 0.054166525518302346 -0.2085096766655826 0.34561206339226724 1.9581769051157643 -1.8137115836921829 0.11756425777460915 -1.8094912531287897 0.7549923782401068 -0.6765097930738484 -0.7319087904529163 -0.8726226959356421 0.45748021722126203 2.0063963797396025 2.1491014889931797 -0.5185825741136574 0.13037601927233197 -0.11033349035415821 -0.6376242160138713 -0.6260534995041049 -0.30207897483006224 -0.9822832385309422 -0.42905203386802154 5.4893682033103754 2.6371576288066794 -0.28662563617359377 -0.7245765309971047 -0.04116852644310081 -0.2600069866702617 1.2426383607815197 1.295689563773013 -0.5096115549694694 -1.471571467616693 0.08880511589587414 0.09691221644627104 0.4881567773338653 -0.25501297939464046 0.04399887726257248 0.08755248288880246 -1.2487108045318736 -2.3315705385422243 0.37217999219074915 0.7263089897192565 1.2593812570180352 1.6056178267608936 -0.4164347921595841 -0.7449854741558332 0.24694450551968286 -0.5415760905299274 -0.18621543810553282 0.12569592844565203 0.517306773383626 -0.180384345320716 -0.7468311037213029 -1.058238701452902 0.6713392882204623 0.10073872022830148 0.34200978735032384 0.1495631671424275 1.7511589056778571 0.26722289605810895 
-0.12110722043303522 -0.21221890562119228 2.884968983348867 -1.2447225696852058 -0.14768112694809904 -1.3791258675771942 -0.24517240392421277 0.8154866465920252 1.297758353514141 0.6266422027334828 0.5294903137612275 -0.5464037781681252 -1.2185060880576921 0.423904501552235 1.323289978320534 -0.0585666658737045 -0.529104018222433 -0.9057472637840877 1.9374984237357753 0.21185234321737484 0.48900107800515763 0.020460930300042087 0.155349047950538 -0.7423673544254995 -0.5807937650915146 -1.4275671877986809 -0.7637707461238086 1.4473296766231325 -0.6466205403141819 -0.3354109846056513 0.23698728736269736 0.8951426305877774 -1.1474055782615358 0.5201554499938249 -0.2545677092354633 0.009947587563743062 -0.31098904256990806 -0.3020572022279619 -1.123270985292266 -1.6221000372985994 0.6701215200294446 1.100751466760285 -0.228460874436585 -0.6977587262456979 -0.27926821417680503 0.1793340308614921 -1.6220089685415402 -0.18557762196108643 1.1189813601386576 -0.5411629156050444 0.4144760701044785 0.3224413088759185 1.1628058003660584 1.812287715534186 -1.9894752181144029 0.0603454070930133 -0.23310718227475602 0.3395903843035503 1.4557839879835974 1.425128378502509 0.6739753849294988 -0.717063773985048 0.08285402497372955 -0.023923291310493883 
-1.1891919089356842 -0.11191130370353589 0.09414079974043259 -1.9256360331340943 -0.6034207031261748 -0.48090688011201815 -0.6197072069825915 0.40558506700334074 -0.7902646888864303 -0.9300350225768964 -0.01862020716561034 -0.13216122108532774 -0.21146663710064229 0.15139772476055918 -1.7976641942120581 0.009997318682476301 -0.367263101948346 0.040001045175252985 -0.14756197760301643 0.31787713335341444 -0.21074406402861195 1.4880756898627052 -0.2690475569985709 0.02799393828106188 0.16193152866708996 0.023326178722339348 -1.6583961751381002 1.5010852302378597 0.8012698695030076 0.0648238245220092 -0.22687910676962206 0.1455336685363142 -0.10258711042490966 0.3991177517440459 -0.6716715883228201 -0.014227417845935356 -0.5722249024589687 -2.582052374835189 0.22310671919730274 0.32667325534456887 0.01705000807467942 0.21130418596261719 -0.1209890608208034 -0.32472340571922126 0.15333279878369965 0.8919243667832434 -0.31234075038717174 0.2883699035345911 -3.1552534253352347 0.6659723544326888 0.11630171238135638 -1.8154087219357715 0.032771810355553016 -0.014679797343298688 -1.5842688388544748 -0.1810397479303686 1.6256570208915309 -0.10835401353583335 -0.8798104803690029 0.013383298362659715 0.582916891588267 1.083951520419551 0.5279828148054441 -0.7948778472662857 
0.38225497504748285 -0.9425724505534951 2.7975475029426917 -1.0488824448660852 -0.23826708094178672 0.2897467731583619 0.5895437349816579 0.027674270521101694 0.07178364686870274 -0.6372334199778954 -1.2476011501919935 -0.021801194923577703 -0.5344254705378438 -0.0999119245358841 -0.9136018379380118 -0.4780827127605328 -0.049354934794510544 -2.13168914298074 0.07808547026340071 -0.4627625295115605 0.2758875551598084 -1.5311601358243399 0.1840932282597722 -0.3551346356012011 0.07033970810178726 0.024423850725319437 -0.8360606492121916 -0.37438259508692684 0.5014817039091518 -1.0486291982939753 -0.42194107675521564 -0.24657308526392385 0.27188839267363113 -1.8112356151616436 -0.2866400108258898 1.206505376573321 0.2270012112097006 -1.0974163797896894 -0.30476540924062673 0.04936120646253245 -0.12911739593974042 -0.1457807781476095 -1.1730998275587803 2.959311608992628 -0.32060756962169995 0.3620123910326153 0.7174369745401225 -0.9310278764623354 -0.5025565068207509 1.545238024638811 -1.2668446568694802 -0.33644668162887487 1.569514724631369 1.219044162666347 -0.24214989725715544 0.8064782354183002 -0.10486281593781094 1.3390891219874992 0.5037006777652296 -0.06551801749348983 -0.20391043108645068 -1.2645639552890482 1.9053201454976558 -0.7807286060738514 
0.5880491409515024 -0.3793175402028261 0.04196055141340655 0.18735814073302273 4.994577986806686 -0.32280272338565735 -1.5874299951819335 0.28509313923417434 -1.189048966036357 1.6227762632700955 0.08663934742380947 -0.013153529579504426 0.30710560009718 0.18980719722887804 0.7654285157231328 0.464942462807248 -0.16851152159515592 -0.42851792596545446 -0.7136379375176775 -0.5494062011314924 1.3813295485409098 0.084199451979733 -1.164414032781932 0.7408107726503661 -0.10734251299612191 -0.056038784101326886 -0.2994333728123467 0.3188314239550365 0.7063153641388789 -0.8798851155449113 1.0348884334718178 -1.2416986593292567 -0.4012443439787382 -0.05374377998676774 0.35398196530578585 -1.8295698193535839 -0.9984805896166331 0.49147807015549455 0.1500498389715986 0.21857280412153254 -0.25692380833514367 0.07353403823888463 -1.4156773408701542 1.4986061136623055 -0.33633563385556836 -0.2036447807186137 0.08980787967665552 2.1266171591259804 0.5327301201590545 -4.35911837181282 -0.604011983003342 -0.46720214670714977 -0.13459749680010968 0.22260413600410386 -0.868950645673845 -0.12023694652835507 -2.2253938088526235 -0.27268490130575523 -0.08775974649453255 -0.5381735150699298 1.2151454227636735 -0.7840347995027065 -0.11875823075390754 -1.1564858020145579 
1.7338813059054543 0.4624778281535825 -0.041688195357730905 1.4245767977049413 0.22720424287237972 0.14837318517981724 0.28345733504301107 2.3069274629896044 -0.357050027257697 3.356117965891298 0.9899537090930443 1.1232680806264526 0.06816035745029699 -1.6387793994959399 0.4200507776269653 -0.3566849825498483 0.17774723540537554 1.0026851885106203 -2.575620292201497 -0.637550967117851 -1.3091572965367742 -0.13373661173279847 0.7051594353350629 0.23067325308276435 -0.5463543095722502 0.008707302876212256 -1.6226425215321043 0.4018614242122254 -0.3325052114334232 -0.3937471048924878 -0.07115208544391555 0.011494933298299185 0.6523925931544557 0.5417174258045726 0.8630037361876897 -0.4752024870548607 -0.023686563686276006 -1.2780023088079007 0.36375993759695124 -0.28064417948006976 -3.420731458886083 2.553256117576654 -0.3402367188548064 -0.23689823194790538 1.9440395337962466 1.4767421666509366 -0.5727664633816247 -0.6572242495056559 -1.8118705982790908 0.48978361067821724 -0.5774261980311296 -0.9125489893778724 1.4413454641813024 -0.29927688001257663 4.135436769433132 -1.0539162700469062 -0.5234105300770131 -0.19084075019576824 -0.10927589536946089 0.17000850181640725 -2.6623097691050597 -0.7753478404975697 2.528211808980546 0.5160785436716098 
-0.32770916999619315 0.103067871812913 0.31151377376597383 0.3894806124561463 -0.6451722617218085 -0.13421220210879337 -2.5536819976522196 0.005758784094595635 -1.0690905219497788 0.19835463644215692 0.019435185270504696 -0.23571109899768794 0.23857333955081594 1.039648424261068 0.15926039718234494 -0.27277984391702814 -0.8121015096178663 0.06026477883475861 0.2503129934456163 2.5817782329443184 -0.4262515343507275 -0.9324034374888187 -0.865532831810302 1.0353613593878712 -0.1759027972693301 0.4764135056080206 0.034860221827870984 0.5128450289684837 0.19777827131612535 0.206972438190943 -0.2364147320213791 3.285198951294614 -0.12852238350703232 -0.5426313819069751 -0.16922774061997023 0.26773126511152195 0.08424999509456786 0.06916811073892447 1.2395093757113915 0.34913040549667085 -0.0998721611667133 -1.147190356032576 -0.09796345836361178 1.4400283917878456 -0.3372360187296374 0.29983573656700996 0.09605354493428714 -0.3325009966829299 -0.19386170794827187 0.8159997456804129 0.0638338121253179 1.053235355590078 -0.5517144681111199 -3.3481076971973334 1.3116343542789008 0.0409636704232818 0.0002696932041289268 -0.3936021098829625 0.3322764458974858 0.04008636790919602 -0.49430826206128675 0.04011337074922984 2.605752283672708 4.6903178070253055 
-0.3035519736276856 1.5167214188931393 0.49241037624466777 0.22276498541684497 -0.6380373927988431 2.0060902532566893 0.4067343971626952 0.45979178080914596 -1.3166882129986879 0.5417449535094753 0.07206156648586505 0.8546540855154457 -0.4646946456879919 -2.1632088184209417 2.0116495271874824 -0.6632045582250531 -0.43406213809693445 0.7080293262866171 -0.225370542253284 0.644250346721588 -0.5768728711165798 1.1167417966105402 -1.136569772360704 -0.38292134593851607 -1.4671857816383473 -1.3701987143074759 0.17261850902171286 -0.8461085696953765 0.15515471124423472 0.5604047279228976 0.98876183385707 1.3617844169174818 0.14407627863556227 -0.030253736875619826 0.22508699174182553 -0.8358950304583522 -1.0750284224730355 -1.052398397917092 0.7264544334360037 0.05525636081566323 -0.13604019904263578 -0.6197961358343914 -0.9873565532865315 0.7754217127279559 -0.6156574668728171 -4.612882212111868 1.9465188293832 0.33896089292630993 -1.1389032883130268 0.026538306695661127 0.5359831134452409 0.5425784802388214 -1.222229777161871 -0.075123008394547 -1.7331873675979415 0.2458226673229073 -2.0803102747679434 -0.10501633728427955 0.6959901164960424 -0.6056442169160419 -0.3500922064880848 0.7570737533250607 -0.7731175256439392 -0.21333518258530465 
-0.14779557377699604 1.9539540072285835 -0.595738918443694 -0.5263400085957365 -0.042978677577442066 -0.03322373701250971 0.7230721691443105 0.4949126075640652 -1.203474966681858 -0.1165108291295096 -0.2054280976003799 -0.15745223656712048 -0.6046647446274316 -1.8575635849619148 2.1580991266530525 -0.4914159432393352 -1.6026256414512698 0.20854974558779127 0.9305802216771363 -0.09890745418086587 0.4932698887834356 -0.6568926338395968 0.684979019531358 1.4763260049968032 0.20810827428267614 0.22285878029760295 0.1322677589191437 0.01826443895897432 1.6874909373725113 -0.22228212098069247 -0.42062588826964814 -0.626566683306854 -0.5918330148783743 0.08497747947727843 0.10321477023023959 -0.7005906228777643 -0.017847447043989127 -1.3435651764048624 -0.21408470588611467 0.8406578785343795 -0.2549331011165643 -0.9440130914925996 -0.9106556771706715 -1.534067964239099 0.10112693226987075 -1.8689034271990936 0.05839082198546951 2.2472466200712384 -0.4921415126460582 -0.8625714104611688 0.5663704443974867 -0.8912801817773449 -2.0028927453748593 -0.31416300957564286 -0.9143998990883907 -0.0269462517851933 -0.814990816002839 0.5885285211359865 0.3451906023854061 4.367256366758607 0.4464039464634841 1.634566094287713 -1.0892844894504126 0.14764729685978958 
-0.17292318959859262 0.6253189326074456 -0.6269264709077249 -1.1881555389549199 0.5725371526275249 0.12664576349852275 -0.17104950076890613 1.320060972958776 0.13549300791120888 -1.5026285739715848 3.1397604130829517 0.2889222898456865 -0.10031479623748314 -0.3414390980396316 1.2837170137867782 0.35256800154197315 1.9160291223093127 -0.5830531267389267 0.12459440098587424 -1.5028586879867563 0.4642192404069712 -1.4168260037886806 -1.4583910833735507 -0.09766786733945024 -0.19867553947805933 -0.3913312355276371 -0.02777529242049623 0.6664628611288337 -1.0836430213809183 0.1649415407461006 -0.24967198903155144 -0.03819726619104182 2.1233110806105833 0.3737997896818636 -1.085446220012353 0.5996192137345201 0.20658343926026418 0.5166714656193955 -0.3480712436705343 -0.014861400806668859 0.3171056326932214 -0.008975166775198698 -0.24450113263481976 0.05282545952567309 -0.25271943041059214 -2.068920023249029 0.08276771037477716 -0.5611752825412051 -0.22713300353971044 1.2421012335861028 -1.0033979149427685 1.4214714584289403 0.4313500543151759 -0.22134860437201875 2.473051275021728 0.8257365313802939 -0.01181271159510459 1.5122510781521084 -0.18402224423775826 0.31721962460012665 0.27787284924635236 0.09123526673067471 -0.5848361335437974 1.808674135724584 
-1.0907236492319252 -0.1000685797607337 -0.37956882145503046 -0.1766392015248885 0.33641495475604666 -0.08508484098050999 0.19101029501267586 0.12727086016394484 0.9732051947120772 0.9129816029382865 0.7433875432999718 -0.09904020564386153 -0.48358084559025255 0.1163889487046105 0.1078405504418396 -0.614805100647012 -0.3421469608649152 0.6934687640189364 2.1901192133660934 1.3897642330200584 0.22673345402741027 0.5311994803978735 0.5445427267724473 -0.4771739438857581 -0.6369037694829054 -3.3302292613078937 -0.026467888485564722 0.229177823394683 0.7497504303771476 -0.5783243477815091 -0.10220188233065623 -0.33883113409064247 0.09883252014338872 -0.2430991493770629 1.2067229544229239 -0.9142099405581394 -0.529311512760971 0.47631583161839364 0.3471688544326917 0.1785327098743737 0.07335916891343279 0.11122301278858408 -3.3268354046370923 -0.42833774911374217 -0.46874102118531935 0.1819263875909588 -4.935760162996926 -0.1475276172030885 -0.3900735528284235 -0.2784278377329395 -0.06424621933225935 -0.8267171484200789 0.11446387532233859 -0.8788318494714425 0.7571363225485654 0.09039951209325248 -0.02363856873075121 1.6829789171322798 -0.7577820115178621 1.0216014381732599 0.27240619266693034 -0.12276028948595999 -0.28493062326713664 -2.366381004632195 

-0.0012939186909176263 -0.0020539894878363126 0.0037972902707515224 -0.0628588374071651 
0.0020237439941922382 0.0018260068931730765 -0.0006600290743810645 0.001715811817043051 
0.00528105453795262 -0.005455969637608303 0.000272585193773241 -0.014861098379389474 
-0.006617630954194614 -0.00681113015742493 0.0006078102953980034 -0.0016259667864038515 
0.005754687390621681 0.005906784901384419 0.003379415914106957 -0.0019665118253102644 
-0.0008261549893037447 0.0031268506418739104 0.02290335259090422 0.025995820210099985 
0.0022531611390106962 -0.00020139283697335155 -0.0012498425719387985 0.0013252589005842723 
-0.03182882724715517 -0.039764112831527254 0.0017094685335556036 0.005415495453948239 
0.004671073781191739 0.01305525577568409 -0.012495762027637856 0.005307992025849079 
0.0020980938383915394 0.0058007574691322445 0.014651880735534088 -0.0032383069261679017 
0.000410073885748687 -0.0006231990835230503 0.000750768040761057 0.002767626946413672 
-0.03212344870173412 0.003310155525420856 0.0005795906487094924 -0.015667762920634768 
0.004469434763406965 0.046890353916992776 0.005965413696932606 -0.00858651566477568 
0.0008717658569235432 0.0021080447525167493 -0.026946511831302745 0.00819124341089407 
0.0003953742216080905 0.00734075717279257 0.0020472545211905617 0.017472245762942564 
-0.006941928430209689 0.008525546766009322 0.004325928080158669 -0.001980269971257885 
0.006641286899306959 -0.0037585623507965164 -0.0019840130354447294 0.01435545252326638 
0.007777412740435107 0.020660078822390873 0.008798355892649538 -0.015547312859422619 
-0.006819686579748241 -0.0018296476700215265 0.03242252479701654 -0.004075519507459849 
-0.005150571041066542 -0.0009554358267229458 -0.006513671884134546 -0.00046763193125415293 
0.00028803259249834127 0.0026256178433564843 -0.0021870558989618883 -0.005861225999945142 
-0.006823442419304056 -0.0010189129681105109 -0.004612828103499505 0.025875764380796962 
-0.0069247777961281304 0.017928284927898556 0.013236424655203964 -0.0002964617731293268 
-0.03573722991851923 0.0027108482269465268 0.0013503239209645404 0.005500325052527314 
0.010994428609346131 0.0007040239247856981 0.0035293187052102526 -0.005687605964893275 
-0.019887570821336808 -0.0029087905440071424 -0.010920931775106862 -0.02043654855232852 
-0.0018713004690357037 0.0019565531549733638 -0.004026898430104554 0.0013895348558075845 
0.0009409189862517177 -0.004974540136476778 -0.03878584695926099 -0.023809619169455502 
0.0011855678353041403 -0.002180864440683108 -0.023255630585299406 0.008045888397120003 
0.0018886872584734796 -0.0030916704012918335 -0.012687509318269948 0.000926710788325815 
0.00908059027782325 0.006865550753034673 -0.007042214356657586 0.00067322504217747 
-0.0052625974423798644 -0.01142436178931896 -0.00039739874027040946 0.006784475115849288 
-0.00611283681717567 0.0017335465066308782 -0.0010503951229064122 -0.004296753339128872 
-0.0006899569584743923 -0.02451788296806625 0.005070877475607491 0.004332700036262749 
0.0012902788162958362 -0.016497587875759258 0.002893846855237516 -0.05961824858923986 
0.0016064819386627978 0.0005885760741947329 -0.004813561455571254 -0.0037789981505388305 
0.01645882985174252 -0.023519780563065366 -0.005632965650643164 -0.010068495418895186 
0.008130218973517627 -0.004518539571174061 0.003935115390636406 -0.0019413488017452898 
-8.40788913034429e-05 0.006121669642378107 -0.017798755904219452 0.016489386309191927 
0.0028331158961653466 -0.009782402264067309 -0.005777534639369257 -0.02564944414437455 
-0.013523474287601476 0.03351182090082113 0.0007877564233412065 -0.002317101378122804 
0.01722135101154603 -0.006296175865773379 -0.0009454274228900958 0.008930766638969105 
0.015754287661171103 -0.0004082895703774562 -0.004828541733772625 0.010948861683648956 
0.01017847149762384 -0.015047291994033922 -0.010990894424787715 -0.0004838902087131287 
0.003037039977431014 0.003865685575761257 -0.015049986228596086 -0.0033892233296165036 
-0.0018203003655691715 0.0014552179361387659 0.004358515563994828 0.006978083568749077 
0.0012251907778733256 0.01348841092114206 0.002776732889760846 -0.01996557609500456 
-0.04317267305969808 0.002731624816706481 -0.002551114890702509 -0.02181393807776035 
-0.0017588381635875298 0.001321306098848347 0.010758041967348902 0.0030985803958523076 
-0.0020983895954571974 -0.007680717318428345 -0.003231707657526175 -0.0005417616971882797 
-0.0017949513084352493 -0.007821532181522385 -0.010045329595704859 0.0064522914726835275 
0.011060696390213237 -0.0027200775596010114 -0.008340690345877193 0.0023195081664961342 
-0.016890094732195233 0.0014339196135109867 -5.994280848621489e-05 -0.0028296283037211674 
-0.0015455038673177588 0.006491872672747646 -0.009878750877015247 0.01760576717300137 
-0.0063300097148441155 9.174504933149703e-05 0.03484824980825185 0.0012987174392301562 
0.046993985698345314 -0.01902046425719456 -0.0025260607679721287 0.0013735237262361257 
0.00481682773693624 -0.0066370408464735174 -0.0033897513463056776 0.0014495126692713836 
0.0007127022162286269 -0.004259896542176631 0.0027331747515753155 0.0016661410199671624 
0.006459691942986856 -0.009137515079943426 -0.005314287439462149 -0.02041545398535561 
-0.0027028680265649037 0.0023429304296371796 0.0019525751717840087 -0.0010393161313433821 
0.008056645244846403 -0.002783428336040764 0.012569889034231296 0.005051138605907746 
-6.014646317046469e-05 0.00025732537070790565 0.0007632545923587654 0.0018827005778641309 
-0.003103536230617833 0.002874897079670186 0.028683874519518933 0.0294124452589004 
-0.005544254343195756 0.03827043511791832 -0.016804869572655763 0.006842374418673853 