6 64 4 

0.4176619002938074 -1.0696138919818354 -1.2422054450705964 1.9891029334012182 -3.219779640535585 0.25311866546067363 -0.4722599447189196 0.23102826861329653 3.716124135271556 -3.726270016505287 0.12349351256545381 -0.12145726775934304 2.785694415018975 -0.09816060567073871 0.9974076349006729 0.8093229445382324 -0.0227025714850534 0.8756297657042406 0.30430873575994133 1.8298846371662065 0.46000701013076006 -0.7827731816076189 -0.7697842890293568 -3.759791497390803 -2.21044722371203 -0.09537555319505023 -0.2776890804751178 -0.07520540715651089 -0.30246790526590905 0.07767833850521959 1.6014095023995796 1.4475744501738714 2.441978788312196 1.6768384541147168 -0.06525606599701747 0.02462560364536059 1.1016390702845624 0.046656508365785436 0.01206788028954179 0.34795906713050323 -0.26080190209272636 0.24453488621964914 -0.3382141135734042 1.06683909055974 2.823146656554937 0.5092020151200234 0.0008720988292166516 1.404882780115545 0.1985030865978197 0.28770346860061075 0.03460681196751987 0.12536832859469188 -1.5409787808633995 -0.1900138365271651 2.6710402504758766 0.5944137303703695 -0.3772163583930566 -1.7129298744431196 0.3422827103634265 0.1342025779958992 0.6127108363586199 0.2553689591603172 0.21553587255020693 -0.10860825449750695 

-0.02589571240738996 0.024872095647020386 -0.38077249814939784 0.12160693488229095 -0.5675267524671107 -1.1304354999664574 1.095791002941998 -0.48103310755660356 0.34886336398671264 0.477152683392006 4.060500358325367 0.2958738616260994 2.9676693645008805 -0.6088560148312081 0.1269708227071527 1.1234848552101382 0.2470609736420663 -1.3633717339379445 1.0400140349722908 0.46466323113278485 0.14396524123274568 -6.82797354671041 -0.23196170018861534 0.012297511978724338 -0.3721041193586435 -0.2952117315130115 -0.3372191262325615 -0.16876054466270002 -0.1862596104442434 0.5439298092997358 -0.5224832482761421 -0.671861482104452 0.05060645525663748 -0.2743985755407256 0.22916847628073914 0.25287322620906383 0.1897791548989785 0.10521275856131071 3.2618191815471786 -0.3710275645773824 -0.31655927244815874 0.19874829817261447 -0.32690843628950234 -0.14611528688366343 0.3772270182763385 -0.2530136195631633 -0.6384271583453053 -0.001566321165253242 -0.9626566747064026 -0.24815422459797723 0.1172661750274617 -0.3306529062519511 0.2460572505756391 0.07645749759623793 2.5468983699832863 0.3027118624846211 0.6306907678186662 -0.37444149849925046 -1.2838378966248571 -0.6316671465161587 0.2650605221452902 -0.9036581691515827 -0.030478884083045034 -1.0718931783456616 