6 64 4 

0.17998706370836987 0.2731405117418066 0.32495174708444347 -0.3274995126731734 -1.0673099525188672 0.5552420850289529 1.0598648190353226 -0.561534588829388 0.11367401460559594 4.502623606018032 -0.8126479254783396 0.5332208491968774 -0.3276865700560343 0.8860833899437663 1.5451569031240613 0.041564632517370484 4.388875356622857 -0.7386485679067833 -0.4427383015785277 -0.42096308687935186 0.573580195710091 -0.28873931280709536 -0.5284784848449899 1.9087008295084713 0.6488633685807293 -0.25378669851828894 -0.040618349323698344 -0.10187556254140256 0.874235067914851 0.7039417781482089 -4.7518256342577345 -0.17415829511494071 -0.3795063531227664 -1.538942934612347 -0.5589108628817583 0.23714988510734542 0.5682249295580534 2.0187020814308108 -1.9537844532359334 -0.24337138776309938 0.33329255952868986 -1.1248575531716647 -0.12729217852133065 0.260575475798795 -0.342546545397858 0.04282320360058801 0.4670328339947285 -0.2562809217485298 0.17930355757044938 -0.8194857272343891 0.2682737203657317 -0.6073904028129974 -0.5352022779538887 0.1980649317961407 0.08586213040963135 0.07824359921152937 -0.46965922904514046 -0.035535779872002404 0.5935944450771663 1.7631612564629102 0.5899634918669381 -0.7622646696381801 0.6085649181814335 1.4495979650586728 
0.8081047367394164 0.32130458769033254 -2.032707161232709 1.274000815213323 0.48000684677719 -0.018442795434892228 2.431417025375847 -1.1484917036920033 -3.0545027594028453 0.1445114667333469 0.6907997167932122 -0.41935137482602747 0.12611961215159562 -0.33706515131450304 0.7817044735906115 -0.009461109975825818 -1.2585023679869676 -0.1423037957038757 -0.10420788496429416 -0.13441875620010407 0.014591766679075724 -0.9244218365103755 0.9442629699036584 -1.7503884031718056 0.9125421832574687 -0.1770055810215615 -0.6854017379216274 0.38784985061776267 -0.7327563126131906 -0.30949380776424856 -0.24769949049934156 -0.26710057189613035 -0.12832938034044034 0.12129076220046325 -0.5606779853322683 0.27788782260488576 -0.976336760755792 0.4389396706133214 -0.2326617835826274 0.20481555181431305 -2.971226641896186 1.292738485945901 -0.5858968873570406 0.6400694167252499 0.059555490747205994 -0.2168281198982515 0.04049149394074758 0.44407515342705517 0.9512864740151691 0.6015566189957139 -1.0140675160002055 -0.43887639439548143 0.5004259791648129 0.0376274636954095 -2.050798308303186 -0.6738335495003971 0.28947325359603837 -1.1606499061903095 -0.8102099875759919 -0.07070633981302982 -0.12844116968124372 0.6925251252626715 0.29020688818639145 -1.088870472942152 
0.18598464652334543 -0.8012343455168964 -0.09093245298029747 0.6872122977483824 0.43732375842428994 0.8470452715215551 -0.08863344540719652 -0.8898657019004359 0.21876298102971656 0.026806277105001514 0.0498916876785342 -1.0120526651083646 -1.7804413326210997 0.26296304576595353 0.9732445419838258 0.29779249921973205 0.8561844201341471 -0.4178326943253361 0.8174392898118503 0.303079967325531 1.016196826769321 -1.9487479014205296 -2.3740798864660033 0.5364911783763893 0.2623586193858704 0.003341515980489541 -0.30450865666813576 0.7386506446884384 0.2830809246127084 0.3838889070084194 0.3117568353240086 -0.5410025417608033 0.17958022450586178 -0.773887556361327 -0.7400248523019298 -0.24245293293549094 -0.7951415397605491 -2.2149732536200877 -0.023093975793556598 -1.619492578835977 -0.10794623425916937 -0.41587226635731817 0.14426776754986423 0.3661364256329789 -0.023616988594184724 -0.8750634341035164 -1.3479701470646965 -0.6404580551923713 0.9468577371393476 0.16082078429877383 5.102769793577411 1.2389072789474578 0.3909207061551324 0.4527891725233353 0.15633523798559895 -0.27224997588011013 -1.3353568318750797 6.4717949581687675 -0.746315946898081 0.9210840222405101 0.12581463155171566 -1.5218475530658588 0.30466048096699305 0.04965625241113914 
0.49062768411184376 0.22340209002945405 -0.08825694557806414 0.6787279697903578 0.13401978761003958 0.23646628171776207 0.33133603473814843 0.5633903068341283 0.12472161931637278 2.7644822778788654 2.685259485919287 -1.0034265047826731 -0.07723626499890092 -0.16752137522559513 -5.9893150001289905 -0.3571463451365324 0.1008771069776824 -0.6055181551023386 -0.29079131264414315 -1.5217397287777512 1.3159277079035154 3.967682378011046 -0.5511395364343427 -0.26694659352188255 -0.2877321957354478 -0.918130932057708 -0.3510566013769433 -0.7852198060855055 0.16681635520228422 -0.19685033833922155 -0.20309552634901554 0.9261596889088339 -1.023167057198458 0.5787896262968572 -1.3417348771225839 -0.6440619775890412 0.702192578127699 -0.14062449345328532 -0.09100964097499908 -2.254261486877172 1.7088277383507546 -1.3697544021903734 6.972077393866163 -2.7570359687866777 0.6375981953746366 0.42225875031926097 0.2507100182468934 0.2162597431973519 -0.2712559944847363 1.4202365053192714 0.6678120489727621 0.39414055666213094 1.5415316995626853 0.4868653005796399 -3.3668961672574365 1.1006622767527385 -4.8027699550098415 -1.3023100844655358 -0.20836440080353977 -0.9375178447322599 -1.2202635920696812 2.963567540793662 0.26503555583643085 0.42625265357875325 
0.5559077756270041 0.947526542869203 -0.3195837644324206 -0.2077339426568618 1.9472966703764039 -1.1465657413241943 -2.842563467898455 -0.29119141829320994 0.3621025946431707 0.4366825584429877 -2.1139321795231707 -0.36614570122495055 -0.09069225587565456 -1.7283723210181243 0.34093524648367496 0.554635390664856 1.7466633643619658 -0.2641769986908029 -1.4100142748475006 -4.341931144605221 0.02033854490192589 0.7801023113706722 -0.4447455670246018 0.048570172279667666 -0.006928799874742055 0.7804322796899847 0.31257119687452173 -7.429117872054209 -1.2614184116244505 0.36445430194641754 -0.003016025820234499 1.5561393859689854 -0.3936914745985588 0.4736932978841883 2.22069204631855 0.5697251533964335 -0.7049744241689436 -0.9120654586429704 -0.9325422148744723 2.365202027982728 -0.2119399859598637 -0.3021337266457974 -2.069353418874509 -1.4541253645420922 -3.4461355390031017 -0.18087769163229142 -1.3946670573230002 1.0453660592553875 0.19576225013160614 -1.8160999137873222 -0.5108596726020624 0.005592032882852508 2.8895094287124508 -1.3425682335702125 0.7771928989050596 0.17950055975072088 -0.41318858882025067 -2.6926841108107635 -1.4983137189438436 0.4159604501573889 0.04173555766285397 0.19830572554869388 -0.054791919396854113 0.16926780461525337 
-0.9357162047930176 0.009764520221892878 -0.06377328430892043 -0.9973584267509138 -0.21248032241572212 0.6628885800296714 0.7778701816009633 -3.7835962217633345 0.09350245246678184 -0.7900614229090802 0.6820771865870626 0.20342672097552064 -0.3347494027861852 -1.523068838319175 -0.8808303548726162 0.23367039185638847 2.0460621383672524 0.37089224995630743 0.9262673582816678 0.02580731818758726 -0.09183302416275639 0.36011973635858086 -2.1979375232637013 -0.012116686495405052 -0.09056225519713984 0.7768054492084899 -0.11132299323425193 1.2550382411836158 -0.34156731959459974 0.04697678394466825 0.4714981112345311 1.0522727344899925 0.46453768023066266 -0.0032399980581798668 -0.82618034812359 -2.358023898831055 0.6964191917054589 0.11651415256471573 0.469153016320675 1.8297505106383685 -1.6730427992136592 -0.42929661254551627 -0.19551785307445796 -1.0312601914232344 0.23127634745794634 -2.290419043704394 -1.0116952312498966 0.6673614667505031 -0.46721269848957747 3.0415982173326297 -0.846105840632352 -0.8425082832004133 -0.07707011879045036 0.43813411102781985 -0.12980049870772048 -1.284198550820613 -0.2288616077587857 0.5649747267503062 -0.04156456766986576 -0.3433807535729794 -1.4895950909362952 -0.8001340064050285 0.27881414197789756 1.946008252524394 

-0.039668095357498406 -0.059128658352290836 -0.5326841434607505 -0.720591800171385 -1.3213266491526539 0.5700001032788418 0.272878993658877 0.1415651361647828 0.30940184567188594 0.3389871002740087 1.3263798760779923 -0.7067818603605467 -0.34002610534673156 0.00044026036347398956 -2.2338605066872055 -0.20129012129320278 0.21797272961594774 1.9857832406447686 -0.8527838390186087 0.6538901952370442 0.38496128851319916 0.2028323156682828 -0.479326310542231 -2.6274283279642066 0.2731262839996319 -0.05424265568952902 -0.02751353673633341 -0.7676833985048561 0.8153840186978515 -0.11933121731302541 0.09088139272015491 -0.5618455629338943 0.2812367073676662 -2.4732042024532683 -0.6735473619884144 0.07359771961310466 0.37826545268079426 -1.2958682817577147 -1.6621776459822786 -0.36158476210965695 -1.5733566023947991 -2.272442757409371 1.2512149376492545 -0.6647561259904017 -0.7165766699904675 0.1466462346402993 1.0942013897574197 0.0020045543180852434 -0.28112586668662026 0.9181446718162917 -0.7668490931514976 0.0900297812300898 0.9430881399385755 -0.014095268372664197 2.548403708053177 0.01131445690265123 2.4771948766939698 -0.9249742451749664 -1.983815834818721 -0.5450946994257913 -1.2958718171046082 0.07095698270847897 0.36216227944603085 1.2257040220222994 
-0.25040589437187255 0.5325047629961973 0.051317154269950455 -0.34597781295018754 -0.7255055532219741 -0.42035963802036486 0.1952275803528248 1.5755565768393636 -1.1575737539010036 0.6553276477553855 0.6176947758355782 2.472780576353909 1.5889963603515995 -0.942628258309081 -0.7231645777206434 2.4368827509511637 -0.10369535453617856 -2.6126581269447393 0.23509924603845953 0.5566105315927737 -1.227002383081529 -1.1320451541462397 1.9742583122139747 -0.6889119395769326 0.2754554194488624 -0.304385277940241 -0.4494768171140414 1.6489198590429952 -0.17767148769927638 0.11981995882662393 0.5663771835232702 3.445947109063833 0.1579160292349922 -0.7560681807556091 0.11805322831357463 -0.08829075306206711 -0.21301849337813086 -0.695682111810858 -0.8330375744330851 2.030748327343086 1.2085719834675375 0.036754078104399505 -1.1144201537161211 0.06418881696710708 -0.9811171428629114 -0.8057106414199915 1.2875076650081534 1.1312908797578207 -0.21573115747916757 0.5514496170244644 0.519884496680968 0.45883978334418984 0.675685273373049 2.3094138375177726 0.20629488203423949 0.9632449822064509 -1.3413205565662312 -2.372886548552406 0.5061809828334 1.6490137234953877 0.38985601492702454 -0.591417390239133 -0.07771585140659094 -0.13570452232655136 
-3.0320715098801068 -0.23777351937241706 -0.4960641879498339 -1.9636544795579076 0.055229122819583774 0.21308873164097394 -1.4635406896257086 -0.29945462318204186 0.8772224609475617 1.4754180321186439 1.083724994325212 -1.220895216490706 -0.33393912940277176 0.02132744385106968 1.2237222907199703 -0.1100394955207243 -0.0035715587819831304 0.07392608519769399 -0.5603976018319896 1.7605657427477932 -1.1448592183631365 -1.8233716863273253 0.6749226626386621 -0.16876131112139808 -0.49807190819165886 0.6488579971794127 -2.0650893652186255 -0.921468228663344 -0.436526194897159 0.32044057101546936 -0.7075183186210904 -0.043573252681886374 -0.8813312219322563 -0.23803177154610963 -0.181873962826071 -0.32052959567433326 0.5373086758214647 -0.08176083059574904 -0.6733417020001616 0.7591837442382664 -1.4333024815287043 -0.029577135735771386 1.324656216767398 -0.7214905947237317 -1.0923710430377092 -0.14952895388200024 -1.9664956331097165 0.08258281653439783 1.2561108789992126 0.02546414003831101 3.6012283925312913 1.1166183915898567 0.07285606027246617 -3.618517530688297 -1.6034242755153998 0.43534098759863954 -1.2043534264703117 3.481373491761492 -0.49377665255187786 -0.15766600832908848 0.4241430173874191 0.3967599025317043 0.4655633045444616 0.10481853768879033 
-0.6718142940698411 -1.6097555681384084 -0.27407233766947053 0.78388305394501 -0.9431331527187513 2.5796068488192967 -2.9574772695746896 -0.7815608300103593 -0.1946743251719012 0.6033247270728403 -0.4753703853885346 -1.0849053149522072 -2.474553079924195 0.41993114444060636 -0.8038961236316318 0.7710402680913035 1.7588858720277378 0.22376179998330858 0.18077267341101902 -0.26250805722059517 1.0111906646867097 -0.6400393318015624 -0.31372141924509606 0.46999973374034165 -0.10358000232003642 0.05409464661746083 0.5363488415964607 -2.563719768682605 0.1731508724962681 0.05264757890546237 0.0059097543837689686 0.5378424000089695 -0.18963901906902178 -2.104215438998598 -0.8472131121570303 0.000733417556129344 0.36506241177304816 -0.4746829701675921 -0.5137780362440771 -1.3821062778832813 0.36140347765463765 -0.3225847783426344 0.18177655422419464 0.1173550170102244 1.4691375069655226 0.9664116547261337 -0.061799730812889975 3.169211495329417 -1.569681978304142 -1.5372978928402337 -0.35827902212065277 -0.36378584135878983 -0.04826061676627274 -0.3653794299262114 0.23468104625045086 0.19479604551785862 1.4213354750914908 -1.2125611403971832 0.03499946317876209 -1.058874423489867 -0.35759790280966697 -0.31623612443817084 -0.055804219005928996 0.13580448744976328 
0.15548318660463062 0.22462990402355215 -1.8846911193507225 -0.3316043062990149 -0.5610782390843386 -1.7102417916365351 0.010872110700187357 -0.1039973769251643 -0.4820878798060435 0.35667394504489214 -0.18846883782413706 -0.3360525904336831 -0.4626300048902352 -1.3343486041051327 -0.0894412069687186 0.7001861397278305 -0.6457663472567691 -0.1742738029003758 -4.932580290161789 -0.17174913573440134 -1.9546563096583112 0.774158895113658 -0.6690668506427322 -0.193941188929449 0.837773848689964 -0.921851815726147 0.26404417349229187 -0.3977048140353243 0.28947178853812366 -0.0499948047922102 -0.43699339307964175 -0.4652766495643698 0.07044708117921285 0.17269524880618478 -0.37889743665941267 0.26167339465832046 0.3309405617598258 -0.1023818163201181 -0.1058073139790409 -0.46353681033093835 -0.34898221523821726 1.1777185434503383 0.25790832821736165 -0.5825997702385096 0.8269274741596904 0.46533907167893396 0.6638688861133877 0.9403272907583206 1.1879892322049426 -2.796815571257594 -0.29128071933348704 -0.27693721668149485 6.1454746857940155 -0.9555256803647938 0.1756165812456219 0.5065079118823935 -0.35061222145973797 0.1414790732368356 -0.7465904709594859 -0.5690273729526414 -0.048734641842210207 0.3789842822662003 0.8107271377764163 -0.03348927219316228 
-2.023515848940986 0.8938702354732099 0.11947781968192418 0.27973635124212365 -0.8071415484257869 -0.7994998903979382 -0.5460123905542551 -0.6698471121446687 -0.47808753570506385 1.190568535844894 -2.2994031782976365 -0.5925232786987755 1.11416650231186 -0.3284699719263665 1.1848140405958296 0.9295407378189414 1.4494298624314856 -0.9208811892794323 0.48487841764205514 -0.5098290641530544 -0.6217378500016714 1.165896545700922 0.43090043719266313 -0.2943669865274395 -0.46938946086823613 -0.6068143502792744 -0.9371703874120559 -2.3966345906309683 0.6402976796503608 -0.3205627541480126 -0.41643082758524075 0.2990729378639611 0.8249750115662192 -0.9916399905098234 -2.28026784735452 -1.6735513913349533 0.31541432618918286 -0.2941944315592961 -1.1785978736213392 -1.0144728101035343 -0.15312168900198442 -0.8855382175512874 -0.08501363527473618 -3.252182059397253 0.021294067886251496 -0.05764646960220117 0.45972585076960126 -0.18865730365657424 -1.198307686087426 0.5387391049296462 2.0224557548917077 -0.2508126537317405 -0.0980430702668294 0.42607262004302676 -0.3307270209281044 -1.1047378241040327 -0.4528282298521437 -0.013012626610270488 -0.6804104884701209 -0.37040124877198966 -0.036633674801990146 -0.6194819482241972 -0.5249667385512526 -0.708807390250647 
0.4826947942365179 -0.9885040791119256 0.617150412581935 0.7409594979617771 -0.09834096438557997 1.471686682419654 -0.05722450871478782 -0.4306389888700846 0.4182571487893976 -0.5945461666968824 -1.0001472975105514 -0.31264497767426835 -0.07178968780958611 1.5853175285315166 -0.16399595774114237 1.6125500792416465 3.0480045729893233 -0.29648215149603535 0.2784835567364374 0.2731252913450763 0.0975974386851278 -0.9335698557568484 0.2395615053820544 1.3163168475407112 0.4358230431441733 0.1332579552250857 0.4679880079250005 -1.0349179012814285 -2.020086833976437 -0.9010216092253202 0.1657437832394304 0.372216642724138 0.33264647843827777 -0.07440537830255314 0.6818198154970622 0.6451653368986714 1.0879611063803525 -0.19500746607571603 -0.022991606009974887 0.44233427653470836 1.5070094977483541 -0.5402869511695665 -0.5187204270187189 -0.8277889758287614 0.42161030570687663 -0.14020151210474033 -0.03263144481910086 0.5422038746132091 0.0316487783973016 0.29519348708039184 1.550433456723354 0.19523758870354077 -0.3871080516060387 -2.9979382159375767 0.08287064054433586 -3.371563037307348 -3.1496640866730123 0.05862706491038145 0.5531818406875612 4.23684613295353 1.8056284484695213 -1.2029182559228238 0.3518384430059322 0.5517584187777491 
-1.1391146086865829 -0.5029185408468769 -0.0997713442125517 -0.240668166695334 -0.6675014430974624 -0.0963921083553512 -0.09456195912481237 0.3945746696302863 0.049628295856731175 -0.10456652877098242 -0.07710946594699741 0.19786031395488007 -0.0128751718088599 -0.05538199942379137 -0.14732905727722026 -0.5791167377977262 0.3385201070125071 -0.16813827937321277 -2.0458856734527777 -0.26974093269496985 -0.33935013446604245 0.031938354198966186 -0.003943970646000115 -1.0668230226150914 -0.3928734715849054 -0.5148929546571145 -0.229841658393923 -0.08715974140775413 -1.0562313745545096 -0.024569239896535686 0.224616400890633 0.4868105334697943 -0.6403203685006609 0.6439263417739812 0.8981305062665005 0.7980341969073989 2.3034834931732 -2.8786713529568657 -0.4171671580165297 -0.036962229926991726 -0.030115175281536004 0.7098066984047727 -0.2784745562563461 0.5923691805945277 -0.1608333764920147 -1.8206471160980104 -0.5017837521753726 2.6387651026385095 -1.0024523919167465 0.41126281950581467 1.0883057565946466 -0.08936921369693923 -1.74585723872187 0.12936875863883 -0.15663371633382994 0.393893093487372 -6.1457975825338576 0.9416810790281768 0.7471257566899324 -0.024129534718612056 1.0108861543260923 -0.369686893671644 0.42433256518178436 -0.1317165505657422 
0.12887600633438884 0.23526199199204137 -8.025634590396944 0.06987998636765325 -0.04344850351272036 -1.3532783635948333 -0.49844740576248514 -1.2063962798679275 -2.3282175463986103 0.7355591182644226 1.1075403245034576 0.6774236144489082 0.2635595553926518 -0.8228082719383695 -0.44379937055152935 0.5883894902851986 -0.6513253605751715 0.24165485530231182 0.07547566822579588 -2.0264645298987056 2.8020435689270937 -1.2567967973577696 -0.20329227592463478 -1.6258252799268773 0.604054619862658 0.5915027259471933 0.09381122826226863 0.8179251915158113 0.03671365827814122 -0.5350477716793798 -1.9913519122364343 0.37482902319737166 0.020011748764994675 -0.38982022745919676 2.2393229331852096 -0.30474583813657596 -2.2242625594784498 0.3471229451883529 -0.014235610819153406 0.7992310865413652 0.040225061568445894 -0.7388694362723357 -0.9085576253530868 -0.7482767950742081 2.6546623767745428 0.39297066927397273 0.4942426652850283 -0.3085076857341979 0.26234169746692176 0.0520355804850214 -0.5475247680821151 -0.2444181233281097 0.07695322601867409 -0.6598961546023158 -3.106349874144282 0.317239171415345 1.2062525041401304 0.15576335715871895 0.2842387742999092 -2.832733359692015 0.2992479614696684 -0.06202463487470722 -0.9435080110637785 0.49089440984923605 
0.05769513100859492 1.0065041826127075 0.46771034980824716 -0.5507336634850424 0.44139716021813735 -1.7323126918669234 -0.9764440257103626 1.052600332405533 0.6619874720973848 0.17024067767667111 0.4887677530380443 -0.5098516647582876 1.0213843522524726 -1.866842405800411 -1.281523079612382 -0.14879002719508336 -0.49520731404438667 -1.0524171831177545 -0.4347793561470453 -0.07472033096812682 -0.6544520309988858 0.3689504898743301 0.14016885319603986 -0.5902392188377608 2.0528123771311306 1.6042411283570106 0.3006004269324221 -1.5587463893320213 -1.372878450699742 0.7780859383087627 -0.633932321347459 -0.03155288613745155 0.8829050335308813 -0.5997083660667771 0.47182200758953224 0.6317346088731167 -0.09378306028129334 -1.0469456419379546 -0.06651293217033812 -1.9042382407730798 -0.34825107609099665 2.4819777096652573 -0.10923464077998014 0.023128775673037803 -0.3132524565092582 3.494313711729896 -0.9962973869516513 0.06312089229427933 -0.3095052874294911 1.0620589673596317 0.5780001119070675 -0.533819919294514 -1.4190521420002746 -2.326162613918524 -0.05835610814653845 0.12888261696610456 -0.09042923181260043 -0.7187086367157816 -0.4504720225376869 -1.6056299908848086 0.18224690011866498 0.2844054093446648 0.17193037884929793 -0.3044896944568199 
0.29054852484541194 0.6499001657365371 -0.03134076409208076 2.0378115404796 2.0554529787421925 0.900943234683693 2.72569858699758 -0.2601709588909293 -0.5646470258908134 -1.2836357079603682 1.5058787637417206 0.17179258609977702 -0.3401612932978416 -0.3671670061361354 1.0841631487294836 0.07049679765506725 -0.24399676651104218 -2.8226221544930623 0.6408069860046084 -1.1565891559860522 0.7735353833069879 -3.414568487851142 0.7882304705114475 0.775277018153378 -0.0038573967305608357 0.06790636251368648 -0.3010610783133533 -1.9529613599143345 -0.7951008124524055 -0.5117929231134297 0.6269820050522933 0.24428140215687938 -2.28692648808039 0.12520676331590172 -0.4433698239752299 -2.0764301300608916 1.7056544915021454 0.03904991827743555 0.9592366116139671 0.2053856667986266 4.794166687727161 -0.0821671764316127 -0.9383800989641251 0.7151754072359814 0.8675956707684876 -1.2410297363096243 -0.9820804599807657 -0.44456240596207375 0.5135438069468502 -0.14562342332801795 0.7290721815080969 -1.2123431036701289 -0.12284813989814782 1.5937029320471077 0.6017485804346377 -0.07932129568455376 -0.31269836748999236 -1.1990699167248438 -1.2521077849879738 -0.6745285936234685 -0.13557326391641922 0.015416680464101853 -0.07928099426995378 -0.0916430931697443 
0.29435930040462616 0.4347038706189358 -0.28786798508529443 0.30777147639412855 0.4663133649976455 -0.18085882540587095 0.2739736028164412 3.1031320435219447 3.2925301788219508 0.36439883881746704 0.16794435297522411 -0.6364087199684689 0.34190100669672496 2.434606729285857 -0.23322566462785352 -0.31200096656031545 -0.7419841445977643 0.6347451950128632 -1.117480632607432 -0.1669072730736218 -0.6363576411899311 -0.6232409587015123 0.3822678263421544 0.5652249021438549 -4.579359169103353 1.7264397478447997 0.3942700818898476 -0.5639457455718899 0.7396675628803878 -1.8349770561072627 0.2556919201385975 0.16246679616693388 -0.7975763796607457 -0.2885344604786692 -0.24114307000346072 1.543852469870204 0.10030085017774282 0.609344215009934 1.5488011647581457 1.8269728985104592 -0.03248519940999848 -0.11148748050630948 0.6310435270858975 0.21226247080625546 0.10625004670502529 -2.0280811389312126 -0.8833638677995531 0.10435195532122955 -0.08617550939314246 -0.38430617054242655 -0.5304497717509978 0.17602528983287735 -2.1657945317453566 -1.013988663149827 0.4008253031947665 -0.18718302171230508 0.20485340160811144 1.4832973666022145 -0.2187959857809247 -0.4308420857384334 0.06405242062101212 -0.5418328120559194 -1.6671383415091372 0.18514639089245358 
-0.2613923937361713 -0.2944770121435488 -0.29432904731622533 -0.8371312098774567 -0.9179205007908032 -0.3321942799028219 0.6263394088854698 0.5900587749065894 1.8305165348924262 -0.5446172665035769 -1.0589060562266974 2.152161744095982 -0.023527129332878073 -5.81915781566996 -0.18228337011787774 -0.358986263563867 -0.1349913251542422 0.1816752179669363 1.3454494414295943 1.0117154462376328 0.3048625746260291 0.1885885421334163 0.24697240713014235 0.24034756887435033 -0.2321381098226857 1.038137501808073 -0.5888496144505917 0.07894988665710306 1.6671844312818498 -0.2852543566648097 -0.19318833331483867 0.9006816955540368 3.7724951192674814 -0.02454990464153103 0.3435528469247319 -2.2182001578164794 1.2643173748029757 -2.1902816883002507 -1.5509651941933538 -1.757304711480021 -0.12938669806971317 -0.44661478792931747 -1.5591152113850322 -0.9463399597862152 0.3098313147447064 -0.021754087468586914 0.8040968320203385 0.015277424628655872 -0.39227529592827576 0.9616695816866274 -4.0400547696172735 0.07022318327289576 0.3118530878270302 0.4656669993727322 0.6034321050232858 3.265938125145571 -0.08989729059863277 0.2789695329998178 0.5773970445770956 -1.173904454088859 0.13744670973190815 -2.862120023344684 1.4075647610660817 0.25705333348266823 
-1.4038593220189612 -0.37862617851508346 0.11936901516534708 0.5324284024492418 0.015581321757964915 -0.21380758983965217 0.17154514916354274 -0.45165802444423464 0.18096392709583162 0.5222268998237894 -0.9644037437613079 0.14436221394838267 0.4052852796065232 0.12068612341739408 -0.5088597489506547 0.12867714896875257 -0.09158116741442135 -0.7485806794473369 0.9874444942913775 -0.041066737244770155 1.0268330756760127 -0.1675989937811515 -2.322182989890416 0.13167835847033257 0.4049771201226333 -4.664099148863563 -0.032705968501776796 0.2597438721444368 -0.646665385693652 -0.09137901874029947 0.405121444904367 -0.25088698088627837 -0.8641203047726095 0.7140442779874164 0.6343255754346276 -0.2549810002701888 1.1975656312984275 1.2596054140553592 -0.5030638793517849 -0.70016299649232 -2.863312680512995 2.367435595351579 -0.28805123726593534 -0.636125157926095 0.2844820389039727 -0.5968590894180171 -1.2036867715398132 0.19388247457664334 1.3185371697845996 -0.2463550906562521 1.2688040025537763 -0.8702646407179936 -0.5126543213771338 -0.3489942334433493 0.5497651375084451 -0.5467643589061952 -0.3171210674443252 0.5100377863756453 1.411510675449963 0.986923776018994 3.6732608921405685 0.5290334576120765 -0.5542602275131727 0.20715935038642266 
-0.5040125745881197 0.08077643921554212 -1.03411354752112 -0.91543594316128 1.5118230650589621 0.9870819675181697 0.6157006889290509 0.17869136247403425 -0.19076154698885023 0.4979555720545017 -0.3092910382581365 -2.3654282813150136 -0.10038895657150541 -1.5248272070960929 0.860098763160155 0.06513781480652202 -2.475775303171756 0.20885661338305855 0.008017074210582531 -2.819131330770835 -0.8711918575685642 2.5852383467018254 1.6185695029784941 1.662793784212315 -1.0295591179563295 1.712903507409806 0.2579670202487143 -1.6636903633381872 0.33957043561548844 0.14776875864447658 -0.23228221940922433 -0.11270968507895544 -0.4580170349808591 1.0321171821837882 0.13376884518331358 -1.037010565470797 -0.8147412486606934 0.09403811537572061 1.1956893646629074 -0.9875280343337767 -6.394759582640891 0.5116188140261602 -0.9120279678914986 -1.5359651406901824 -0.280927257687857 -0.2570235806254465 -1.873576224139964 1.4375672507374362 1.1796027263135351 0.23952389333219745 -0.9980229533663617 -2.5836471785458657 -2.9292787840070518 0.01104312956412646 0.18002699710521786 0.13397151361662996 0.06775671505118752 -11.242780962026314 0.6205511770484384 0.5436285837956952 -0.4846950867167824 0.008001164019590992 -1.2893051752535132 0.3215979538529459 
0.08355444149405623 0.5299059631632315 0.5919515029086627 -0.07333785411475746 -0.08901378236145281 0.018976962319561568 0.3884570642617468 -0.2548017501100286 1.5568081206993603 -0.5213182141225614 -1.2753004859535457 0.12445519193391975 0.8834162494376764 0.12247516878320944 0.42478814240800883 2.4160909969822493 1.4442394426550402 0.4581204451128687 0.5463077675070981 -0.08098603645037969 -0.18691519942243015 -7.661810839536159 0.7898097178862467 0.4958687701114092 0.9285248584695164 -0.24354706446868715 -0.06977203453386391 -1.3045321415670417 1.1263859689001168 -0.015308962560222959 0.10976027081820296 -0.2715724203186772 -0.4385497390254081 0.4252454893372521 -1.0208165478017304 -0.46716066547179824 0.784133613783722 -0.18075284238307576 -0.14679303782091993 -0.16935444612193445 0.03176484290783954 -0.8023043867339914 1.1113339608006938 -1.697231176761946 -0.27059239655538786 0.19530312764832267 0.12459883304866551 -0.13455369261605146 -4.036306750400596 1.214653938700446 -0.212127166696771 1.2905674419529618 -1.0980481907860138 1.9600992393338725 -0.4093314275363681 -0.2689776496982397 -0.6016963284852084 0.5117324304885071 -0.36343087452767364 -0.474197292001686 0.06036596553039906 -0.13638605444847215 -0.05188305169694801 2.2289735408439437 
0.10951659722895861 0.8303168489580061 -0.20952593238733858 -1.1879777394579287 0.9795072201050442 0.21001573197986492 -0.2500696055725409 1.0668603329308395 -0.15096069234096882 0.5412279741983307 1.4378532029528706 -0.3121619448290392 -0.20639222670099702 -0.1034495372119832 0.29218690652672924 -0.5018663491348226 -0.11352766803177274 0.6340802015910681 0.4683215966602524 -0.23220214763882072 -0.34459667322697707 -0.06707260062258166 0.028072011577374573 2.686078369029648 1.2687112333727544 0.6130789832630776 -0.09676038395449636 -2.4316899801249887 -1.5942132728451623 -0.019246209064731915 -0.05393005347453079 0.6976837051789601 0.05656723604756176 -0.08949416369075895 1.3971559686076682 -0.08505640653928903 -0.0691794848322493 -0.1613908173911042 -0.39974294896689255 0.4217107575066276 -0.14991610762731705 0.2713619036041279 2.2630124382928627 -0.7006024309720995 0.2899760988984971 -0.27055619459067093 -0.7109593576436678 1.7110111795112293 -2.3323465784100508 -0.5952623131260655 -0.027229121306799598 0.14293569023799804 -0.2378395700578834 0.6637123373540181 -0.6884007606685729 1.861182366480194 -0.8718891705164664 -1.3139539958465272 0.9923108437640675 0.6086664631375157 0.05148562717454244 0.9850658658318351 0.4451255520090942 0.7671124702434216 
-0.04530402905315119 0.3553713728358471 3.3282723030962975 -0.2704576343076537 0.334563313803271 0.4588011719782541 -0.9015610838764762 -0.30509495351816085 -0.36935764576307695 0.3245020780683977 -1.0694581522504738 1.1827817704181771 -1.2474536209145255 0.23479527143313153 -0.671942380967161 0.7443033431850653 0.04652311102183082 -2.440587691209574 -0.2730819756685187 -0.15812526675795385 -1.020756739918538 -2.3803384286973124 0.5127569134276923 -1.702428522967793 -0.17438867943938163 0.050019071442658256 0.4030365544528942 0.8967079004178599 2.3810533107121703 0.33832965333726056 -0.3255136300074608 -0.8054837966382628 -1.1585251503486702 -0.3178623349284547 1.2060332069132358 -0.18586805908900225 -0.36557920559525015 1.2682244948247834 0.7247091109333386 0.6376066122957277 -0.10796531355853434 -0.0567362132553087 -0.08494512839996446 -1.5822486984239312 0.2295525622773431 0.9373270577407747 2.372701566060918 0.018769408543790653 -0.17354052269070044 0.3109833227039816 0.5595347830521311 0.12327683525429815 -2.0237257753574136 -3.3421397841818608 1.568796656968226 -5.182772039388769 -1.2419221486770469 -0.3900220479751515 -1.6214524741122742 0.7448482443075164 -0.4463747408531337 -0.8841858190749056 2.939679227254178 0.13433086478548284 
0.3928295457131402 0.08660457056109015 -0.29990877498935115 -0.049419319356106835 -0.29001469647919786 -1.249613189656479 0.3132606445043795 0.05418096427619332 -0.07320768625991342 -1.0670736017489768 1.2150027811526223 -0.9551967951012001 0.013318800342756502 -0.6136976964683069 0.11592142637169764 -0.8896207969239708 -0.836965281869877 0.2917740286975568 0.35162707602017107 2.1146945717109547 -1.3276226580557262 -0.0057729120215338405 0.20959434064753288 -1.4986008399784174 -0.6368500165511626 -0.361523691726455 0.7411109568753094 -1.1712515425838497 -0.5136255573526678 -0.7230675181243966 0.5363102256134605 0.22331981857260855 -0.34973273284986217 -1.4942708047408555 -1.1166683187975919 0.02280917234099609 0.938653450942156 0.8999391431140166 0.5890036237925574 -0.20761675593566012 -0.7075613876620578 0.10863904433568981 0.07230272213614215 1.0797553634543604 -0.01329808743822056 -0.5160299589239871 1.036708252756911 -0.4343080695170952 0.08141141215266792 -0.1211923437829313 0.3849759909360655 0.5659516857332592 1.6021301130900847 0.7433066706980632 0.04713947302488486 4.316489786196919 0.6241019604097306 1.4590924695460683 -0.37670012125231456 -0.497964258869117 -0.5939114698472976 1.484451166561338 0.22435182845976148 1.232025310328372 
-0.7489316295600416 -2.4717725630090417 0.5930295189472642 -0.1356609657840072 -0.36152330175576175 -0.05359581981157151 -0.36667768663080597 -0.4710954968941464 4.472882049812039 -1.7445997241401312 0.40134477019171955 -0.026289110795640287 -0.5201136626026328 -0.3823483628151468 0.32579641430439904 0.5711433067421202 0.9803488621437544 -0.3979610515476128 -0.8320107385479311 -0.8155473470279025 -0.0171260682826727 0.10435001260757434 2.0640580889698716 -0.007536413365618252 0.31977723366394034 1.8205396261354645 0.010438235175417436 -1.9893827783380669 0.2357206503381659 -0.39748646122867254 2.1404721964196125 0.13025142343432003 0.6382693474156738 -0.10361599777684947 -0.05828377416391736 2.240319285383082 2.431374483211519 1.0418593276952175 0.42981574005425754 -0.5491530452160877 0.20456380993506704 0.6155294806839425 0.09406643533687828 1.613409306229738 -1.47260971813624 0.03924418938388091 0.024558027038812463 -0.489104383102661 0.19354645045740584 -0.19214300411395882 -0.6310527009914452 1.6802334294663557 -0.7803229659379899 0.7291711438098579 -1.8522749513991694 0.27408139193827136 -0.19075106724755725 0.40260706782841194 -1.5817629151635693 -0.16378944657510777 -0.22043243461561526 0.0013680810923278898 0.13071028987446331 0.27621444525075023 
-0.0075724068470120415 0.16808303444476505 -0.6319860172673366 0.36338495172982727 1.2925833211556563 0.1802906999312861 0.07282684583848312 0.28904036156442303 -0.1376841625602801 0.9683143660036088 -0.3250111403083544 0.06167020144007681 -0.252471974591591 0.05666548598361601 1.0275220527762887 -2.487252306213774 0.10109919645548564 -0.12140724772290883 0.6429708418752914 1.049075271715058 0.0419723477296436 -0.2071673415035801 -1.0029488752205764 -0.9469185049174058 0.03448566615804322 -0.46815104501335 -0.8306892259227036 -1.6476973768383292 -0.778189729775284 -0.13097555481448014 -0.17460978180559025 0.07939692440762744 -0.0057489374645170645 0.18091465573320645 -1.1480084749698267 0.3415325789072503 0.23742951173976057 0.5882123082992211 -0.039418542851884994 -0.882399240031937 -0.13206193089210214 -0.03804869238539178 1.1576939086472355 0.07007206868647206 0.11451702501427734 0.11463031307007635 0.18664255876566865 -0.6036183323368167 -1.159126699910576 -0.1256976547541086 0.050799891484224056 -0.1179081030081805 1.3148423980662243 0.4833417959135929 -0.025318529304999688 -0.9822729262303606 -0.5461356418554411 0.6427231242395849 -0.34503238652385193 0.538913660611496 -1.2082969441323328 -0.4779992473778285 -0.40331324929294365 0.025067819034630658 
0.5859695398632193 -0.26557922146910984 -0.12500408820262182 2.1228907295667656 -0.18093609271350822 -1.1197420191579548 -0.06921898351604397 -0.05937404479909712 0.4259322142354551 -0.3768103028202582 2.470747916478294 -1.116514284093474 0.15527501397804283 -0.02622315308889398 0.11581029962300196 0.11911195739084193 -0.7573303825648071 -1.3951051514646098 -1.1399237142853405 -0.6261301812088823 -0.5853538726649756 -0.18876485910180388 0.44613045269258494 0.05815043148542351 1.293728661836151 0.2573993553060239 -0.41199949202635494 -0.15807477331634107 0.44226374971235083 0.15604522666944826 0.6936038789549767 -0.16497333100137215 0.21759634361021024 -2.7458490242124447 1.712156699261872 -0.39525640918264965 -0.005144826120986304 0.5822959614059224 1.0934757949736693 0.36620667310192023 1.0735563122722818 -0.08763161483138675 -5.801469475968216 3.944972227848457 0.1388368149260049 -0.41076467021917695 0.45932884549500014 -0.22481398812566575 2.3227468852418185 -0.19440126107022 0.3113474890103544 -0.9159167637216721 -0.46374643415518396 -0.2296709832754896 3.7012648001118684 -0.2906326479275562 -0.5103425468312783 -0.60764258200595 0.4156583084731971 0.015363815642421981 -0.7708735297809742 -0.5394678764780821 -0.6605145664175013 1.064362197978939 
-3.1905959438707994 0.48634771470408633 -0.23487840937028895 -0.22661711932046275 0.037199633965928305 0.5247384020522425 4.244256490680685 -1.178739138047238 0.045932329603252345 -0.9447863764015926 -2.824414328177955 -0.4878784811833134 2.3716209119382237 -0.30226494694951866 0.22867853065540622 0.7979274666695839 -0.06264490213896669 3.292244878159123 0.3334867070311704 -1.2950587301341707 -0.23813479379068359 0.05022061002308507 0.7498022925076511 -1.0000119010036954 -0.23963783076074938 2.797614499594104 1.8126254852901884 -0.2231715428859753 0.10633748715689384 -0.7558918203965295 -0.9746297728241338 0.5328183442791437 1.1293015761768705 0.5103841013118495 0.06752354359344692 -0.5607704374304493 0.13943487338844804 0.910033889486063 -0.34759837228507123 -0.2570735967661247 -0.3175702047353742 1.5218394212350024 -0.0007652577413830309 -1.0953764985905878 0.7802615345064823 -0.8845664586994111 -0.8110501095119044 -0.8451457133950645 1.5500716160825212 0.7481280404340512 -0.212966542408209 0.5058309016444581 -0.6967297143587526 -2.591422749475577 0.563652023993011 2.264645922163183 0.3100301376426298 -0.8829512071864689 0.05428784810201239 0.8070596386820081 -0.26524016896457814 0.34127102163545214 0.6475101410024445 -2.975038537453421 
0.6125545174511385 -0.10566075267825183 -0.08355552187140558 0.14408797613302243 0.4887998148934383 0.12254952647554 -0.7452520920061012 -5.777903309743102 -1.2735196089392933 -0.15794954825346957 -0.07388723432543497 -0.488987351346437 0.43965692651563176 -1.2307927837639832 0.11798393297608605 -1.4222130561548836 1.0991025205955827 -1.21000005523106 -0.29245629998134715 0.34715855266208506 0.10726960553369538 -0.29108315823345154 -0.2730973374757434 0.9781066357964314 0.1047377973058627 1.068904473869266 -1.4807543571624142 -0.16606777203643308 0.2543074588959336 -0.10233367586210955 0.7935276434348506 1.9938769816246953 0.4797190917338832 -0.32755389687772996 0.30929675119701117 -0.28410103657633673 -1.1496654240401616 -0.4215977729524029 0.5022516898760755 -0.2955782838202718 -0.07770896805421393 3.325601278807276 -1.0851769226354135 0.19692312001776346 -0.3990669429810487 0.7988202188191782 0.6916372445397473 1.8472522585814843 1.0739275742652754 0.20029970204441275 0.16482162367431416 1.4624515894873793 1.8702300575555038 -0.3481735113320155 1.721180534858765 0.11996398085961274 1.2276104202756648 0.02923318843762305 -0.42239240174902437 0.4115261098282084 0.5340399454728993 0.8939556512401796 0.14941930417756039 -0.021313972658373967 
-0.05261255211946797 -0.9356564703781312 -0.6874787257024055 -0.21801792646335766 0.21401411646895882 2.712258224315606 1.592871765505103 -0.6312987559539636 4.629382057234607 0.03677883325929322 0.3739900025066042 -0.6340119495833678 -1.0319085235213337 0.03548023590997266 0.23177876462048058 -0.17655549692911673 -0.9445734218105822 -0.5515921538689763 0.647914040964169 0.4900247757922278 0.6311020637235025 0.4167275198774966 4.238701520708756 0.37296988621931376 -0.04621716744140816 -0.5225841708960053 0.15704368860617351 -0.23634219479485938 -0.5617116690317 0.4523244973673625 0.8955467866691035 1.7779409398718022 -0.22406161867911362 -0.9765659049410816 0.6574718673297654 -0.04585646189563673 -0.07744889009289194 -1.8089763008955393 0.3428057951480537 -0.14417311283831857 0.1502893208557752 -0.1500272444165972 -0.2747980686456012 2.6421874516456407 0.22363900266047126 -0.09441022103574458 0.6959821838108463 -1.7827338168213935 -1.5352197449493612 -0.7440367934310558 -0.24711063378412637 -0.8888943828999454 -1.1562433559997753 0.5187403703649932 -0.9036536972068763 0.21331800579425717 0.15019636541222364 -0.14628127750046163 -1.2664662028890648 0.45545934523728304 2.816283081778835 -0.10323808944366132 -1.186614974424883 -1.0761634291403628 
0.37220802103162 -0.27458685936079785 -0.16081665957342475 -0.9305694493728421 -0.45972714642539836 0.125449571696649 0.13802177904011295 -1.5135940680780862 0.6416386658037319 0.2557618349225289 1.7502251633653854 0.13862233932400064 0.30004221145522103 1.5905455260695331 0.029123123635552868 0.9254812435056063 -0.29621687252793416 0.25376804451539425 -0.8956814742162597 5.5251723706941185 5.990208400049228 0.09107855600178014 0.2622731102710225 -0.013928117061157604 1.339620471417703 0.6568063195086248 1.0135960934445007 -2.066987657643205 2.0311398722851712 5.772921928662239 0.5139908260673572 -0.9441766868049433 0.7401928938167357 -0.25954001604277777 0.2150300008677468 0.24489370015719475 1.0188515398388616 0.014402205025168011 -1.8115563233452585 -0.037265955768024966 -0.8900493390591684 -0.23567654343734626 0.1979981360276558 0.9474058529233085 -0.3739938214934159 0.5859454595793483 -0.032045171559882485 0.28819355402354374 1.6392710436680256 -0.1818505113419402 0.945737468234527 0.8216100510326856 0.8845276939549569 -1.3681594759454196 -0.3691076474222995 -0.07550835494483574 -0.9315394078435664 -0.7850524245999001 -0.0896444906118359 0.9755899826940307 0.8390931876932013 0.5710758824048865 0.30322192017060823 -0.24146743307053334 
-1.0591847231661902 -0.6736117478672687 -0.4584697901716675 0.46950711969155956 0.6944934111835835 2.245174030020489 0.04480533277017264 0.31580056829629716 -0.13025433869665695 0.8158968219541903 0.6649645649863577 0.8977434810453839 0.5682240799059306 -1.1042737143591397 -0.3418536038428064 1.396178665685791 -0.6794123527502027 -0.10573775278823853 -0.5510571723944289 -2.908594763610339 0.2688177683740116 -0.2947108253637224 -0.011085765770178386 0.10184337219326921 -0.2784321998104635 -0.6858727313941114 0.35993489822075064 1.180633083064384 0.40865346576227635 0.38624513535054517 7.677860789998692 -0.9954579696781106 -0.05231971796734536 -0.7119194388009793 0.19685122382764617 -2.5245121995211477 -0.45696403882527026 4.254452024178271 2.876048850043425 0.4051793732612551 0.1182278809416457 1.1326174715530004 -0.476601634743996 4.441216862748857 -1.0335087186017333 0.12925254455118534 0.010350714105752723 1.0556064331345325 -0.4662574540510182 -5.352334940005346 -0.42635317656979815 -0.16713537510544346 -0.2105558384836895 3.4630070583366233 -0.9755726346003244 -0.1964064656067918 -0.13813161132766205 -0.03385696834245244 -0.5473925329276965 0.46946217604037155 -1.2376989686689026 0.2515927788439094 -0.02420775504828418 -0.41907464605134237 
1.2967197734909 -0.4617139668182988 -0.3512659065809594 -0.8716788863589625 -1.9871791419818683 0.4389870556671504 -0.30828786180318796 0.12660577199976852 -0.983603068774432 1.0564554140806839 0.9634963407230734 3.803636472133795 1.1263406962035836 -0.31004035921735357 -0.16265963068670578 0.15206552086869696 0.23905371190140298 -0.10286219479531902 -0.2643740614667362 -3.9808648973049605 1.3328622530256018 -0.11067505308943754 0.7851908490126289 0.9976166917960444 -1.385222774705165 -0.9669327982775072 -0.26278432227090964 -0.2593131286827856 -1.372804033841983 -1.3951873779387438 0.27594975540019745 0.08001109362325155 0.8524157165917408 -2.7263485824162976 0.3530412037469706 -0.9511591573854365 0.5713899224118918 0.35603009419086745 0.3162760332910587 -0.7271344853372621 -0.09665832513425138 1.7651336916975977 1.6974308919909096 1.7067453966583912 -0.25003160204289354 0.6604843105341753 -0.05008663770335957 0.22838513929022536 0.17872921261401198 1.0681545264563215 -0.4092449666861342 -0.7816177480314445 0.233635505458274 -0.23368138741709113 0.3043651227338793 -0.7588778222887608 -1.8619066314181116 -0.016679110927389853 0.9186944533968167 0.25622138177182785 -0.3477231781987743 -1.7896382853587212 3.3135026632869446 -0.44090979340265063 
-0.2006508479804804 -0.9174832193851988 -0.18689945772450528 -0.15438038633645942 -0.8061894795261729 -0.032775630074184624 -0.40834516520168523 0.2951621867000239 1.485034011921207 -0.15675871020248772 -0.1882025389645098 4.104942081387562 0.12731863711647873 -0.1365826496752201 0.6391327099900935 -0.7319118715164658 -0.6214231021414126 0.0735972502779889 0.16295269975664844 -1.0918663641226167 0.4280651938449492 -1.5411439260944484 -0.4682386214329915 1.951964147982824 0.7144237102831736 0.7137555665729605 0.020466605210963818 -0.41583511365124415 -0.0759924053591185 -4.330483302287192 0.2221999853353408 -0.09101818688394371 -1.1892321222816573 -0.5755957446108405 -0.9215491538606907 -1.1164562098852497 -0.45955832563063115 1.0861649714275416 -0.10719456886543348 -0.6953237878137345 -0.5668560865110606 -0.305961061624037 1.6456573788560784 1.1742591367697581 -1.0811470961306173 2.2599587543080855 1.383745765177113 -0.06774933512118864 0.10775654993682846 -0.22579438026655715 0.3503403977697982 -0.6301966418452976 0.15784518613850146 0.4739759084749965 -0.5863854705988272 -0.85102120976994 -0.19856596815727096 -0.3814280517062896 0.2842006284910278 0.4233767639647524 0.41693315798057345 1.037831363824801 -0.46967521589646194 -0.8008009299845007 
-0.3528843988873572 0.3309866011031724 0.12457759855439976 -0.5796477861400162 -0.44961182989904985 0.10664319092819127 -0.2511086922653927 -2.875353465189581 -5.583899386873653 -1.055001934936153 0.04981147315413228 0.09990951031821727 -0.1169655774304992 -0.41567778651632104 0.11193360586168354 -0.665614009494981 -0.17649470699858397 -0.30530109931634697 0.14889943197444822 -0.20115030465992215 0.48665239087906703 1.3002496093608604 0.4394579094043089 0.9182781267277291 -0.33768393715020895 0.046765514090826014 -0.02062247719499218 -1.8175012394991181 -0.08242415239525797 0.9334825390042042 -0.6770192764846935 -0.44949656967061924 -0.23008009414112673 -2.86818822437384 -0.4141152134853005 -1.3849715457564544 -0.2394462093161258 -0.6352376399303311 0.17791886488497308 -0.6345985448686605 -1.0811279147549533 -0.20807719325625884 4.109136350139852 -0.1645299770633135 -0.1885675546589839 1.0607724924208501 -0.44339248562064937 -0.029519838420564982 -1.3142473467294324 0.7935416785154281 0.4585339667095498 -0.27693258615794986 0.10412967922111367 0.8185380991145751 3.5277475880340528 0.4669252075154756 -0.7577196054572257 -1.3229691038839038 0.0553623698672661 0.7098677767414363 0.2594693010637107 0.08160740374730979 -1.063182868592163 0.3409111258488535 
1.982902104489706 -1.0532409824060154 -0.1814964298099429 0.009765810171777748 0.4055196907490832 -0.0775386414320286 -0.49707836922573906 1.9737920238202344 -0.23185172068694226 0.16124530297964165 -0.2873156376732828 -0.08239270999814453 -0.4075600507467329 -0.33212211872815367 0.294168534173585 -1.5513397680394754 0.020204814427806687 -0.9130156227970946 1.145290070609363 0.18142070280317174 0.5328534203927213 -0.8382116421977536 -0.7349802200887036 -0.9582587535870637 0.07493129346422948 0.07058594413287216 0.6132775594361631 0.057753217710470074 -0.7337111797981366 -0.5793899845614615 -0.5420933760409229 -1.0401789730928235 4.209379605146795 0.8952078533610955 0.5753367420090328 -0.1709206471799905 -0.05079754766312068 4.591141167514942 0.08243500525663679 -0.5326608158726119 -0.5716239836217697 0.3329688970990782 -0.07991152552393284 -0.6178540642230957 0.7764805703838144 0.5269819884864418 -0.4772113370312278 0.1285042537023925 -0.1775855561145867 -0.2625440506941157 -0.5124129710948218 1.3515706150930609 -0.134090774711893 0.07739027736001554 -0.13562092619333332 -0.02285862317528807 -0.19082857028010244 0.39220841822399405 5.349139907238499 -0.14153995585598117 0.034713487196313175 0.6613117117187741 2.0027449028359268 -0.06667762634790445 
0.46170142112771334 1.150348126818357 -2.1248980818301053 -0.1999695148965589 -0.6951646933427713 -0.8437998736595312 0.068489059582332 0.20766969756218334 -0.3346421968827988 11.660591524304857 0.19613794934857776 -7.7601016142536325 -2.211375499849896 -0.8531834563509522 1.6872124764457264 -0.7407567773740462 1.352411611754852 1.0220527209659043 1.3030056460357184 -1.9987674194763752 0.01572799587307407 -0.4156588639050001 0.8583333829909299 -0.6921311878342505 1.2029740322194993 0.6203605079964639 -0.5167808159237911 0.03371240350110781 -0.7311491692887591 -0.6627465755544819 0.8452482696070313 0.206641942025997 0.5617223912307311 -0.25523750846102183 -1.3766687827504918 0.08785710027314987 1.0613202076882102 0.47376495161143356 -0.542643796451921 0.07072297039380704 0.2733945888069307 0.1805846390929664 0.13100815035353502 0.5202545138136991 -0.5872292513949123 0.3370375307227812 -2.3152406716239664 0.5431968179909332 1.6956542062271336 0.6106294920728261 -0.01009659810787053 0.24893121336256077 1.1891241403195494 0.22985293772970727 -0.052995876354969045 0.5590320686900752 -0.1302213643823084 0.023566750441370833 -0.24294682325694858 0.4115562755296219 0.4883925866749672 0.12683324728034007 -0.1970833765700147 -0.0122798978933566 
0.0230398822371209 -0.2469774058337393 0.09827075261599232 -0.4301490336238963 0.6927137443852669 0.5621502876244979 0.15266440773484538 -1.1571016490127495 0.20027494907737647 1.8967796675086408 -0.1210170020175726 0.33786669028124605 -1.0356811763590037 0.013630336844149932 -0.8484657615150442 0.04478967887031402 0.050309921256914227 -0.26310973484645117 1.188367539010493 -0.3657837720981572 0.7881873801385832 -0.41380445920900105 1.794671835890559 -0.37663060512354574 -1.8827438330185278 -0.9770944123313962 0.07864856979920815 -0.21024336610211647 2.7794254997681365 -0.4294115598969577 -1.601075046745281 -0.13658315314762498 1.6563708710813263 -0.2166506153483761 -1.8276893969225878 -1.610052219582463 -0.44214649450529925 -0.059558966144676595 -0.49516556171143034 -0.2798094913878602 -0.21056837398972225 -3.1108583331258517 0.027099058315591108 -0.05134326131589411 -0.08827306162966109 -0.9150489218692919 0.06061689160953354 -0.17087098432392986 -0.4159506013853391 -2.286460091717057 0.048831822118262 0.23466923777526108 -3.5092354687783227 0.6956182234944804 1.117423299495958 1.9704939652113218 0.32147217773853 0.6291104015394551 0.7334200315040579 -0.2150168951842391 -0.4030281344793909 -0.8890088553390136 -0.12547477459989437 0.08134145712466662 
-0.11169380032173562 -0.020402402358868976 0.08202525505907135 -0.1242470096924029 0.19494814384324977 -0.5861981844299186 -0.5546207564422411 -0.4836708179043402 1.4619143636149738 -1.145720365192608 0.4053976105393893 -2.1201287819639063 -0.07518149016561576 1.1941139678339918 0.35838523843567055 0.3585930598723292 2.4775056559142308 -1.3142888168052727 -3.1118698641477507 0.7258200693377728 0.9606986177478177 0.9769538993753842 -0.09714644203239575 -0.565255407859234 -1.4039569085196997 0.6410624517687668 -0.18176618774951148 -0.5523949890527232 0.4544079008722229 -0.549955605878493 0.44636884186887993 0.24773929130626768 -4.1085800533484536 -1.639277496817295 -0.1914595555131974 0.7535500895140449 -8.934744121486453 -1.0337525911157341 0.610799291617811 -0.13290232182619097 1.1633318223242184 1.3816880943135628 -0.17271744191719143 0.15724807250034264 0.8181383737314569 -0.1309457164195757 0.260068783716482 0.09570407879336246 -0.5891653455117762 0.47068072901007363 -0.42666023379156176 -1.156834170967888 -0.2841155702327162 0.6221831337192261 -1.6435212983150311 1.6158553585288529 0.5066459301011025 -10.61636325892609 0.18163571115789512 -0.7022651198305097 -1.7461217669623403 0.0590276904866726 0.5793938865464006 0.8412624509624456 
-0.2010997492440268 -2.412313655243346 0.9017406028539281 0.13345170493854833 -0.38519298440296185 -0.16062034178328735 0.2561272192243876 -0.30702675716603955 -1.5721335457475323 0.09840237000070132 -2.426400988902834 0.059940303752932765 0.7757197510557002 -0.3562894976111712 0.4687316866366805 1.6732275509331307 0.08107750564549963 -1.2270093116519696 0.170711928819065 -1.4296851187412587 10.216954269258634 0.4448760227705401 1.2588517844675053 -1.9680990844214845 0.9360053333850279 -2.269800924165792 -0.3690310543546296 -0.1720699170525191 0.6144955529778603 -0.05698925623080211 -0.08651450885843878 -0.02921684535058911 0.23869695027977492 1.001440181537358 0.45024410868139403 -0.2090558272333688 0.25327001705590396 0.04862460694478837 0.1849555745058279 0.5403665072165297 0.137089851106178 0.32187324973111187 -6.696411103926859 -0.3901384212667685 0.727350098693286 -0.014775932082749974 0.9965797809672151 -0.36612462071621027 0.0902521773667901 -0.6047245105957378 -0.6347908871473108 0.3378331083102444 0.2159407390656434 -1.554961172145303 0.3454843358023172 2.911630249435881 -0.123597362592903 -0.4467498043201524 0.147891799048393 -0.2864768491138239 0.426769039532472 2.108314440990233 0.08876826393277093 -1.00175107246505 
1.6561634050541931 0.5100737392066931 0.8312293613918659 0.14671623513229817 1.403678351364288 -2.7922191219753216 0.5223835946898494 -0.7155492532084149 -1.5665437060697243 3.592968050943817 0.23194119037532931 -0.13568441136445847 0.43653698089270865 0.6546025264673369 0.45198029594568256 0.04032036925552047 -0.3999769696228303 0.06600952604448657 0.7571001393440088 -1.3949392626413497 0.15741688678769475 0.2288735403413797 -0.2784318298999042 0.9175590256679098 -1.4929116900393826 0.6807476737784363 0.8021943003202362 -1.731275338474325 5.897923689389039 1.252930503034386 0.5067621638839533 0.36965056863096396 0.3326978251486451 0.35432851858170966 5.900173390099814 1.3742505964536043 0.5903405673666318 -0.3701727295167802 -0.3627711796474464 0.5284384359997099 -0.5914523037342025 2.8019965515583563 -0.5416239382354157 0.32096370833515236 0.3373466079415573 -1.5283966415551091 0.5509656338775183 0.6681370132611099 0.08451977201188142 -0.2265773795457532 -0.5463800827013197 0.44524896064417613 -0.5499560988639719 -7.07017840355103 0.05137681133738817 -1.8881209847375005 -0.2563221491234555 3.3472147845040663 1.6545162351599596 0.1317835125570013 0.03255812713433176 0.583102352915167 -0.12435163775317727 -0.5362170947859032 
-1.1755536678338538 0.4295592524692809 0.3435833851685665 0.5362009508927503 0.4427204286987198 0.32932436274658494 2.3396220816644537 -0.12900315852877367 -0.8936670530976915 -0.12436860453135326 0.3136451193398368 0.6453588492457445 -0.4216103344721881 -0.6276829869436799 0.4437110466913112 0.6411696326858767 -2.1348577570361837 0.6592661003288574 0.03674804407937607 -1.1370704588020222 0.9855421475896475 0.6020135359237988 0.38694828984963575 0.17624377705879923 -1.3754659741136415 -0.3043135366927414 0.6089125042978911 -0.12688307312050473 -0.035447705218036994 -0.888138302195584 1.0915891527851045 0.32828936802117525 -0.3226231891235141 -0.12562347404573557 0.15280533501405938 -1.9735637979985414 -0.38549435690407075 1.0269212449423901 -2.200303788800155 -0.11544106442831872 0.7102023652617693 1.0099598048915464 0.11628304928126199 1.1539078190293046 0.9385900604818189 -0.6572551225460932 1.0042913506443982 -0.7426522578363877 1.2877522397849772 -0.9446857500620902 1.0327632863995224 0.49908964362181635 0.17586390556149234 0.45795999336383963 -1.6688777544872395 0.1100433449387387 1.3604222273315434 -0.13419131606712542 -1.466928750122888 -0.5104774809244866 -0.9997234872287077 -0.3257083791367745 0.03328036414729729 0.9917234780699585 
0.14603583536984388 0.8197378736215835 -0.20386211041930266 0.30850035336823534 1.9013375143043088 0.1124298402410014 2.0291467485573937 1.3926041609924518 0.3796836397123507 0.1719878942707165 -6.518309458100619 0.5826625543549785 -0.675184262285328 0.2570207874045458 0.8575317196038723 -0.32217893454585544 1.8323145709618653 0.000972014167760925 0.4801334954491108 0.11528655354695633 0.05569368510194159 -2.9852951519066866 0.30212181290576523 -0.30258299330799 0.2573150457715466 0.8599259927749561 0.6560402453046772 0.27425189308079817 -0.15568447063916366 -0.012115933937318588 0.6380089085255554 1.8439401849595876 -0.5116866798888988 -0.07508707238344536 3.2291462720399524 0.42934167920056016 1.1384615991304854 0.3043053213410276 3.1122334513200087 -0.29667000604096844 -0.25565009479744955 -0.08554530011521666 0.01756746843749718 -0.08613095322178427 -0.21987859151278394 -0.10126101355680356 -1.1547366686707607 -0.7443729623657471 -0.12143048854285618 11.886952935093186 0.13782227666695163 0.35146880807980024 0.4536192745721021 -0.6198161218871899 -0.35690266368392987 -0.17721566945353007 0.21860656920797394 -0.1407159022501923 -0.0854348514294077 -0.6670750929088718 0.21392216843996462 -0.1582585090901385 0.15854770017345993 -0.09182981805458452 
-1.4664796867701582 0.5603950022532306 -0.6221313948684606 -6.474765581566738 0.17952907482713712 -0.6703310390586554 -1.438360547339761 -2.167671493385438 0.1810733674826451 1.5326438665991124 1.86829315951978 -0.7744702068179086 0.4068600514716929 -0.18157754366570542 -0.4235955843878428 0.051966671468801746 -0.0129288061845204 -0.208045657268357 -0.2240816918718674 -0.025505050758173286 6.048716081653062 -0.09228454657068479 -0.8104047563723249 -0.4298144588117678 0.7389375869566888 -0.3217162891391461 -1.357592510958121 0.08472640087888564 1.442226082678314 -0.0029558596239890765 1.0350792454746738 -0.30421276399396274 -0.27126026645962903 -0.22960026931521757 0.8819850325458312 0.11152847853501592 0.1965686598548813 -1.0380874437423067 -0.18194047777759806 -0.1121278313603546 -0.28436572875053173 0.17852839618093516 -0.15730175788593956 -0.33865931335932636 2.023822524334107 0.25661766318028384 1.7640277291633029 -0.7441344728244055 -0.1590856349390978 -0.19673986924146866 0.1297621977926938 3.4083906582716264 -0.5821804870444369 0.7812758458080412 -0.58348381706853 -0.5175125042980395 -1.5727286864534624 0.7204736940576155 -0.03490994177975594 -1.3203476292422223 -0.7030563049284888 -0.06780182711736595 -0.31393423299925777 0.2741029147778289 
0.21063710600182714 -0.05633530230844017 -0.31115699860223417 -0.4226329259354471 -0.30497849847738545 6.056591958656426 -0.4186364949519947 0.021574561940274784 -0.4940618139603415 1.133322965037333 0.3003797415153526 0.24080486810457274 -0.049069015792089346 -0.004714976305972375 -1.03571929348642 -0.06668586295535726 0.4759315125872509 0.30725267618623914 -0.38331809391819294 0.2086168415460628 -0.1934260942098821 -0.7442103898044343 1.6461882993083468 0.9180814290672311 -2.937131066857366 -0.0022091098792180477 -0.42538499080089126 -0.19685653149647578 -0.9983302317264281 -1.1133181780818233 0.8452025079809734 10.55444602760481 -2.666123072808452 0.46235389722553544 0.030090933946985313 1.8512238514462613 -0.21014441420120167 1.5073195339117744 0.23824670818413515 -0.3803439206818317 0.1513976446128644 0.6319733323596005 -1.1313528010211547 -0.027231078659289504 -0.22020256039037708 0.1553141733339024 -0.12091697186075587 -0.06189937751353691 -0.28450714411986894 -0.2660782295618994 -0.5601010591053047 -0.8957890606196288 0.5621707278134442 -0.2333231900836066 -0.3061677143774615 -1.4056980123263723 0.588190190192722 -0.18076644957058915 -0.103753853120087 -0.937707786838502 -1.166340101332681 0.026991759307546232 2.643236844768731 -0.0861357227050224 
0.14333046347870584 -0.26359729458716186 -0.5000633353710907 0.029256202610941032 1.6261111836782425 -2.360323752298189 -0.21364794170878879 -0.8464796342661682 1.0955225198590055 0.5011822567689725 0.18159181076927522 0.5582404481137808 0.039507291164702814 -0.40807762109249995 0.1235840061521957 -0.44225838116060595 1.8762335354274637 -1.1855131566595851 -0.8964072180307098 0.8337673303595979 -0.144220529219324 1.1673999965033244 -0.8235196457287879 -3.072216323681038 -0.31406468355908546 0.8131863633262717 0.7769621182570459 0.1376442163304715 1.2262506383474283 -0.05520410223823066 0.08580517586372098 -0.4843699124908586 -0.2739155443821368 1.1552566333943353 0.12108742938708268 0.0603064335018278 -0.7256527155619783 -0.5302859261940385 0.3622767593834429 0.35690926505210924 0.8391553264344648 -0.16050710383652092 -0.584435113839164 0.3354483012177143 -0.24593432920826197 -0.02085804930636362 -0.14717566095951756 -0.926689102164303 0.28350045861922835 0.09714373138356816 -1.0849675163952004 -3.3170580015845066 -1.1549393744562588 -2.7366924998690365 1.8473501695458792 0.3129456661808837 -0.26742583355134575 -1.009297830094035 1.9008194580693087 -0.5750496801785071 0.4554296343440026 -0.7236060815775406 0.09917795627775322 0.09720532858229455 
-0.5826909213366447 0.4919884650228479 -1.9146910328510764 -0.1903852333776558 0.2758690138272773 -0.6126999811798013 -1.920094328108225 0.3818544848213395 -0.9169951047082443 -4.062883850233282 0.07223842447566774 0.08710237997418142 -0.5225733924505441 0.5651658968631799 0.4046716484086474 0.6424821061313882 0.4526102539171506 0.42522801444285957 -0.267412700518163 0.35333047294918474 0.38317853849668587 1.0381057226186574 0.006773502594016571 0.08842602409176796 0.1430744883725769 0.2965994521343219 -0.04848234377187074 -1.5824341806120232 3.9503219183075435 -0.009474275710775283 -3.1904335484917095 -1.666904189966614 0.14816106753171066 3.7263234866963217 -0.625635408789375 -1.6990469335775973 -0.21006016333705696 -0.004388796754998306 -0.8895411463861054 -0.34663527553289314 0.07302540228102145 -0.29380801702585524 0.09441148419779738 0.06940064707659453 -1.1702943008130229 0.5110255600718889 0.9673146250554673 -0.6881575453889509 -0.18324299004615285 0.10294085671591523 -0.38397970791546493 0.08940243161452918 0.04233800579606 0.5133822058478237 -0.25438454859692794 0.7542362051813365 -0.2920799884044522 1.2571047352069886 -0.17707333803741085 0.34093631923003787 0.1274123110830707 -0.608050992582017 0.562281127616325 0.039621184668480657 
0.9903166655495662 0.0796859004447689 1.183343950386517 -1.1367012273957857 -0.0696390843302286 -0.05635557122681078 -0.6929050591007957 -1.2250460826731109 0.6949322498303805 -0.9465092339989193 -0.6383528590166476 -0.09930512471163008 -0.031878006605275594 -0.7596016934302778 -0.008538785674091135 0.9735281446219073 -2.419098631510626 0.43535528275167623 1.2057829395776272 -0.21407377481411596 -3.8014140490651873 -1.217683337934689 0.07498090354527685 0.14727889246552353 1.3876614229925304 0.5967584655194763 -0.10258869742344072 1.0951844704410825 -0.15791005020032034 0.04382760849170018 -0.4535823044185032 0.47827353230515485 -0.7213204132203324 -0.2391298501024456 1.3038191276009772 -0.4386339088974313 0.8197895660483974 0.2640316877474211 0.8327551076323922 -0.33327707963805814 0.5672494445453176 0.27272274326890517 0.31117155362655374 -0.3589478118402619 -0.6121156680046574 -0.08536045659285 1.7299857385177682 0.12682399178795356 0.2903968121098623 -0.26779504204556576 0.7897533125421194 0.8235768681223258 -1.0604021985016212 -0.5275099980715291 2.280581846192563 -0.14123023269375312 0.018353719358413872 0.047115727627534576 1.4315784216550551 1.144282250022693 -0.1500210738696737 -0.2619187283137189 0.10273623224257113 -0.16505085642950926 
-0.9705829486475896 0.4713165279366891 1.7701292370745276 -0.012807094261732994 -0.020375084409677047 -0.26671824965675833 0.9084502704591938 -0.18739175423726204 -0.07840739175231545 0.14717353657141058 0.05147099498023608 -0.054000959496638794 1.794614689119646 0.07757459453614399 -0.052423363819647704 -0.15210159061574005 0.6927035000942606 0.15787862744298672 0.12320461287731484 -1.1518486857906092 -1.8384081213716772 1.1498315371088599 2.5151018866420687 -1.516334974960381 0.8593097428040631 0.5942890389715042 -0.4033919231788198 0.5111616908348006 0.24820458221510847 -0.8364803575378873 -0.18550091784724795 0.4370396633664477 0.06367221082269932 0.5337285917662097 2.240092820135564 -1.1784651392320682 -1.2370936049645798 -0.7926827487488638 -1.0987871437773138 0.1468291686803041 0.29092031902238225 -0.31119251400674647 0.7895590875827135 0.1129904108052596 2.1918177689487175 -0.02526463064252924 -0.327551668889383 0.5231115726279164 -1.473369127575894 -0.8353989537459708 1.0318545465631226 0.9087146981409797 0.01902326344866556 0.07403204336110018 0.1636391547174274 -0.021976517743339117 -0.0281122249853329 0.10143307797543868 0.3942777282320543 4.014032842124269 1.723338178031738 0.021265941404815438 1.8895489037866557 2.644500196557813 
0.670262070126702 0.4658672956595126 -0.005173133271453045 -1.1001048380688396 0.42438421687315553 0.9796003895064327 -0.4186766765004149 -0.7024040812145182 -0.21936704811360086 -0.24094774131397656 -0.08569504496948946 -0.27790162071859265 0.21792940739414463 -0.8229730673672521 -1.5425609605649333 0.8416076186126552 -0.02908324648541267 4.054137377436317 0.7166016181803494 -0.30856495432909775 -1.2156591764469735 1.7045837238618708 0.05890161827931148 -1.0515888255990897 0.658857038840323 0.08377042144029521 1.0817790965180645 0.19051347556590725 -0.08281824742502802 -1.5087279250047545 0.05532523008007856 0.12284459727716437 -0.04008959260766575 0.27955544917764585 0.14845591015828313 -0.3802188644672259 -0.8388671567427401 -0.1569241908785186 0.33636921486013677 -0.3620882762915897 -0.18960779988168874 -0.6353585754096386 -1.7916915172005758 -1.4789453614130272 -0.4046926972185598 -0.03533267529391333 -4.067607379408836 0.29743881098487 1.077005410497974 -0.013853290463095278 -0.8282536974299533 -4.624512597767615 1.2068494880329612 0.4746825408471284 -0.004885881764156073 0.11360648045451081 0.024007150813968575 -0.9326565175856649 -2.538587901274944 -0.47586576632775984 0.02426815451752095 -0.45969366193019273 1.7094438181778469 0.4927092692265467 
-1.2463982788942183 -3.356199013352997 0.13796613879328343 0.08795725154357183 -0.049153624185009015 -0.6934234944673281 0.5070700040896365 -0.39623260771488783 -2.2543842549125843 -0.9323652638732061 0.49777198514437326 -1.4473110322631713 -0.1944315057295389 0.15865740225961875 0.2467872065502399 0.33829100392297384 0.43067149682168643 -0.09281218230464011 0.11642944455367218 0.13348105757004278 -0.2887830099669075 -0.9091472684749237 -0.24027643880854652 -1.6102182321879994 -0.8276183926674987 0.5915405543370219 -0.49646529947576273 -0.7118940483704704 -0.21236090348965958 0.3807254931687326 -1.1667747081816982 1.5679463370864746 -0.2439896462509161 2.3594955415162437 -0.18665936697539318 1.0799709495133134 -0.3840952921255596 0.5964466558509978 -0.3941348141736872 -0.20011349551598895 0.6163730241911667 -0.04482237267278951 0.4698537997270311 -0.046884694127421515 0.14716231082388834 0.648677298501405 0.4351914411118876 -0.5802451851345012 -0.6722879014633191 -1.3618071417282405 -0.05793020671180161 0.7770404396352133 -0.39514771260975445 -0.2331112418527038 0.2759966533208753 -0.08790806218650485 2.047792878705844 0.6821634881755391 0.2045106134104017 0.28275639191859603 2.190477449589873 -0.6670483571319152 0.9692379837376262 1.5107598194639171 
-0.19340637164189772 0.44051490218748274 -0.6315730835292681 0.7137400880389595 -0.19392069460610964 0.4592999117264978 0.5333591814848216 -0.7382219367067188 -0.23513309649700534 -0.2203503516765029 0.2607432893531824 0.35131222532985906 0.2000567596317961 1.2031497726136926 1.5647337453192205 0.34754107117230953 -0.45179760771480404 0.6752209693079583 0.24867072061965176 0.3770833673035964 0.16442318371120476 -1.154167469530591 1.7658164625745196 -0.055784774061017894 -0.22666536557927902 0.5512978858376637 -0.8881947270561347 -0.8646885963389729 -0.46903454332404404 0.9913110137764822 -0.7436708712457168 0.7387458196190362 0.6768880622636817 0.26656933831659474 -3.224596038813818 -0.005324876772923061 0.1239294303925483 0.3462824135190576 0.3108461428950431 -0.08521423094259073 -1.1843654284549572 0.251390961890677 -0.5724442947971983 -0.154133239569231 -0.03679946293022889 0.27667519159282555 0.9244184312478851 -0.22216234779528063 0.032693341248260885 -0.12696944994082857 -2.5685730423905593 0.36371526350461775 -0.25964560619562965 0.24233505080523543 -0.599012563354887 0.2100105102300244 0.2686662144434546 0.2315926462220906 -0.04891174373906224 0.3405055338486922 -3.409797230636554 -0.013814917484190175 2.8150144317934562 0.0016344058240419879 
-0.42085745468584673 0.7326448476958446 -1.358469862789413 0.4352764219311014 -0.5139915118101352 -0.2104986567644442 -2.587247888024435 0.6223635435497077 0.6485495557262441 -1.5282152451573372 1.3496105869833952 0.17393856064550262 0.9300907127474967 0.30293797590690064 -0.5113696074914572 -0.7755122094073176 3.431280523671883 -2.016775494862763 -0.15640822180751998 -0.44146317440840505 0.3254768373761606 0.1877060569196847 1.371120580770638 0.3521720856077683 0.4405129755450145 -2.5654740828212774 0.27785099759240617 0.2255708330998813 -1.6321221716393581 0.0660726913300782 -1.6348259076699705 0.19050992553322751 1.022865513270779 -0.146656911724835 -0.3284820383024696 -0.3319535075495459 0.3030179059011256 0.3796204335960763 -0.32222959925664074 -0.758356133208349 0.3552627143500092 -0.5517860567599202 -0.5037451877460165 -1.455221279649096 2.2573594642534656 -0.4650035579147336 -1.0851999791540912 -0.5754297694579293 0.5200834630028586 2.304519558743181 0.060355057585682916 -0.9388231138964832 -1.2385956997328116 0.5300947444921014 1.237665289556393 -1.5105651094463421 -0.22480114082320354 0.6576191705313873 0.2163433533704258 1.111814782584749 -0.5286638053078716 -0.1659031248096032 0.2073956898598988 -1.3846672466633925 
0.41021294492273125 0.3557367952160909 0.2805365150164744 -0.03157150440438494 -0.2241830745933172 -0.8080137853537835 0.7417289833461193 -3.6690782218082116 -0.11548227090781601 -0.5174863733632092 -1.1227284069096017 -0.6978394510154545 0.1159637307870965 -1.7162758584085447 -0.26432908779558534 -0.4841592275037315 0.6528694914075687 0.23602744319605293 -0.5382292084443536 -0.3986036713646302 -0.37950650666435226 -1.4703649281866553 0.5921155480199626 -0.23993201381970397 -0.09400815813894861 0.1188631343210867 -0.9132008300850482 0.1572046610951406 0.5873988950766743 0.6143879629744067 -0.29344169102901324 0.5082743194446322 0.6322546542446424 1.216793453468345 -0.1500014028141218 1.6545509220794394 -0.20290705965575692 0.736138635657754 -2.6795835807955584 -3.0231368451115594 0.37285021505720284 0.28774695673971473 -0.1761455799908826 -0.25151851596904895 0.8257438186123042 1.4942277462229165 -0.10970287414488929 0.0627452609813688 -0.08155010001486027 -0.3244117193575013 0.3338505935106649 0.020407066523617495 0.5022965466088268 0.6705478669113251 0.32248830868872447 -0.23061997398143624 -0.03113586431141063 -0.354648506708289 0.2892199345987861 -1.4271908117840908 0.7010859634390397 -0.05851630442362935 -0.02957592391792346 -0.1672836188100631 
0.6707026727722672 1.2494583171920568 0.04655720798911005 -0.3886684987815709 -0.641832244790513 -6.035374551481326 0.1890197423655532 -1.4737440848162562 -0.34935817176452866 0.6579404853991653 -2.0811562199997704 0.12380102277927636 2.078867722725744 -0.44372303730203455 -0.199662969115926 0.4046527779706639 -2.696333015682155 -0.1887984514594666 0.42675467460662914 0.6175208113919284 0.3051441358202035 0.6986476448793136 0.36221947620389006 -0.11061521056004547 0.8387914792575097 -0.8194928032645623 -0.7092994255745431 0.37888299205376097 -0.6665067047133858 -0.8883165001866046 -0.0032349859857181786 1.9495458933330303 0.062214390641737186 0.4451032216909069 -1.5043088372567506 0.01104922638524344 0.05340264845895577 0.8368644443473248 0.18334543654345734 0.5516232530019642 -0.03864984001694097 -0.04783889475795071 -0.2862146352539937 -0.26815385499435307 -1.0656602227167893 0.7010571056755448 0.053023936572410085 -1.1181554686049233 0.2687787067066295 0.7294392603750814 0.3175893889708982 2.0677355963015045 -0.27356965814526824 3.815342854319735 -0.09718997156160691 1.451523572793578 -0.315046720794213 1.4205146912525926 -0.20568875039124698 0.34676191003712903 -1.366906526865735 0.1869704730369811 1.5239534873032372 -0.49375033580300903 
-4.656866519561389 3.5277305101816983 0.5085301089767975 0.5669917944866935 0.2503892509055932 -0.4617163612087982 1.1864952636329598 0.5362244858228076 -0.14679102564958493 0.31011298542962185 0.2592368126934548 0.11296283670638828 0.9583498991097775 -1.2783977587683923 2.2953870743608356 -35.5516809489938 0.3008950317443818 -0.5100610817744866 0.3075803412277718 0.15635067341782843 0.6091032654904639 -1.563339598567663 -0.6266833037169848 0.28918498609725424 0.20620378391531133 1.1719591760372894 0.8871975749744351 0.3258742503305419 -1.2664750256123003 -0.6489068859311117 2.657551766635111 -4.705804979551056 0.6135978172898482 -2.7786418749348245 -0.07525417884394212 0.4376268078187177 0.5918819831905863 0.33880814584514607 -0.05045665913714339 -0.9027982544940728 1.4097195573601278 0.5925208382611815 -0.09811237891943611 1.2419554557067518 -0.33510022025974373 1.4708768732945445 0.36121708771597555 -0.3226368568782393 1.3107750772131561 0.13549987141364028 0.3084326787525592 -0.9812935328048329 0.5406441722442058 0.1839419684267738 0.7697278140727907 -1.2971091839090474 0.08462691281315779 1.0934991076187615 1.9729025953974355 0.17964860072104805 1.1260626663303361 0.28328438830324176 1.4684810591345039 -0.2139917772508067 
0.08161758139969558 -3.687655442298703 1.0624025249888653 0.7244349333015533 0.729104930795634 0.6649496827207703 -0.6058994162895727 1.342874684235215 -1.4909392921893145 -0.6331321552062439 1.281493799386613 0.473574583222495 0.8203459280643641 -0.2779543495623219 0.002239059311095709 0.008206716378330373 0.31376315933152804 1.4322273018543517 1.1615627658574326 -0.2178109111132369 0.45040351047616456 -0.15658108910859314 -0.26550586785469943 0.8193664612863092 0.19099818448217123 -2.696407480427586 0.9050594544667341 2.7713938323916474 -0.8355272579654967 -2.163362624095754 0.136372468013916 1.1179672784321912 -0.26665335651001576 0.3344896842112736 1.8274375856651257 0.46733527302251054 0.7133382825391723 0.03615165772958672 -1.1880167042745444 0.4096021334376137 2.1333240352752565 0.45444138677676454 0.06921995468245008 -0.9840709899245647 -0.34036418593794376 -0.6323293532822882 1.0102641124666174 -1.3586593388653758 0.24371993122923735 -0.02290179986124247 -0.11588720920446645 -0.09312225724605137 1.5049440963292413 0.1900240078018112 -3.707791645958077 -1.6373944413056167 0.3087772074964889 -0.811422523195718 8.330055479085232 0.973887418610394 -0.08901906668391524 0.3440510537184827 -0.20986551627979952 0.653758905238359 
-0.25247317358397836 3.3176102565224896 -0.3552795274691162 -0.767990725498884 0.43474291570959517 2.466728489464288 -0.06017412806246546 -0.3956038780413577 -0.617194745120936 0.38679819798974746 -0.0934556177073601 -0.2490240737213979 -0.5335540436286836 -0.2246226589662586 -3.176350920317768 -0.1975505671518079 0.6207220618159803 -0.3533469562485034 -0.629516379911186 1.5790346886211901 0.06949393422757517 0.13132815752082386 -0.11026792870709118 0.780369666725662 0.31242988520735204 0.27663953882011943 -1.5394693853011425 0.16430118537480018 0.1463016928956528 -0.07527157169105088 -0.03351621066500819 -0.2589494848765048 0.20203699772745892 0.44709439901173065 -0.589604621130262 -0.479969461071393 -1.1789150561464288 -0.04261315170094417 0.7483386894541945 -2.180310866474158 0.0969561044997581 -0.019476999898623244 -0.29392915051139684 -0.829714122471677 -0.7890728585127744 -0.09928261629714977 -0.4075113809211336 -0.6748663029323352 -0.10562632124900662 -1.2199286509376366 -0.4863063826217418 1.9053105319585206 1.4371859583229125 0.9467003395004171 0.6355017525505785 0.7369170402086395 1.0652139988484504 0.17235894036154875 0.39391688766626687 0.15355923210992908 -1.3065337476171675 -0.5037490087849011 -0.40568425293572935 -1.7365338861913677 
0.18470986568513592 0.300324161292296 -0.3569524341839519 -0.7941258807936035 0.7041869918242524 0.8864520811343015 -0.5495166230520472 0.6291580139701792 -1.7944659614801686 -0.13474340765403348 -0.3072547518275647 0.02988535354681992 0.23878617094902294 0.30679994397758104 0.4305117470279169 0.314253174916632 -0.6684526612236035 0.24009517210448988 -0.3867657154020772 0.11455689510591294 -1.2416883195770447 -1.8169485613236573 -0.5823932114593331 0.14420237555393445 0.20148538173733554 1.4425345554257978 0.7513806343698607 -0.32275201337995774 -0.07175830622922047 -1.0291731611652768 -0.21092324519850802 -0.08767770249877811 0.1888061891324548 4.30328974947106 0.10370794256415136 -1.5812719605191268 -0.22361803793985424 0.20929689710597846 1.804274855382594 2.9813398646899003 -1.0901286405336692 -2.6622516790660424 -0.062449658119006844 0.42111384676314917 0.4681076018798517 0.19218292164418752 -0.13926205241865836 0.360651623605479 -0.29942356835829825 0.7981230862034115 -0.6095052524413681 0.4626626192077597 -0.8689782865337503 -0.33472668554486124 -3.133514100721377 -0.5563787672400957 -1.3053647799163772 -0.5802349655090911 -0.6454847586510141 -0.3030204507606906 -3.164996889269456 0.04441619501528519 -0.1865288516276593 0.2948767278125567 
-0.19693593464644873 0.5354168284911991 -1.1352780742618176 0.3376835620703003 -0.5208804506063343 1.0767313267786167 0.7065128516547005 -2.358677306833158 -0.5170251938495528 -0.16475495879133834 -0.22461564821738159 -1.2954155812891262 0.2573672452077474 -0.32275777292400804 0.24756757678726696 1.6647515956706316 -0.006414070555595678 -0.3842529104266349 -0.40247141092646865 1.5501207960037298 0.8090013428559376 -0.8042260999421247 2.057503886870913 -1.2476687851158557 -0.49197338964921283 0.3391331182583813 0.5152650461146613 0.40292798615642367 -0.01876681426301588 0.10313253633442092 3.9020781500441024 -2.3050848175752785 -5.722996914392951 -0.18970837131514665 0.7156026438729065 0.17622061432429065 -0.19532786789133358 0.5940757005504768 -0.05740073393661704 0.32252924180564907 0.11649590820937077 2.8290416604907547 -0.14464592654174424 -0.11020397191327544 -0.12829869867531718 -0.16161014625038375 0.059377492665866075 1.5710281865746145 -0.032251292953735904 0.39091807583176885 0.6320884072216897 -0.14111534086360353 0.2608259610260185 1.3466578258636484 -1.0746070305734503 2.5328727250271594 1.260773833249095 0.4702014256598865 0.3104756567521681 -0.19702995354742822 -0.12987952222358323 -0.8956236134827998 -0.010438052381818266 -0.09189517707436659 
-0.259190255289442 -0.09763630434342493 -0.38126716813464206 2.472808932130166 -0.168210470730436 0.11199630295909979 3.8003244854262612 1.4358758867112418 0.4442768935621614 -0.3023780571972528 -0.29065713071227356 -0.20268796545360965 0.07187797931244044 -1.7195751848484624 -0.43683799804146606 5.735243756700417 0.32819660566729564 0.6451278458549072 0.0648273011900719 -0.10793370816098243 -0.9396195675548686 -0.026187335521431446 0.22586300039948148 -2.441246868764012 -0.019963913410884236 -0.28878583906278416 0.7514210977999367 -0.7455628187191211 0.18802493134663856 -0.10646436258091521 1.0582086563195419 0.026040370639566136 2.2221495399428948 0.41296286017224765 0.0694476053004055 0.33544861632157313 0.03617866988412526 0.33364527104239544 -0.14988247802108595 -1.4293545922811506 -0.0808293833404579 -0.10160332808692153 -0.35608686645073656 -0.16184194038078784 -0.851173379507224 0.22277775377169087 0.03234313953822939 0.732132249361115 -1.526511719719809 0.4376745680532953 -0.576050682308965 -0.3623450866319735 -6.5330539756960535 -0.11935881687055672 -0.8004415431364652 -0.3275522771041341 4.582423742472502 0.45330126372103985 0.9227783790059625 0.12013797562348622 -2.063910566922096 1.5200861926219242 0.21552947686622922 0.3977141589629008 
-0.3858810313064401 -0.9103241488891612 0.17195513265880072 -1.0924185121508942 -0.20457109134184887 -1.1791763203346317 -0.3454429235557895 0.3303440090997644 -0.9581450231717447 0.18224273008577332 -0.2992113646425208 -0.2569679752851312 -0.017156404990460363 -0.29913202615390977 0.19119953241504473 0.5600269878019984 -0.5845159357105238 -1.225985749021022 -2.190431168520523 -0.3191803218240788 -0.04727048798964402 0.270419191061812 1.1566012057966084 -0.28417371338703534 -0.6089668840906017 -1.8387720157398924 0.2726633666559745 0.1661743875151079 -0.8806329880841557 1.10559112363417 0.025435382751899008 -1.3617189608356057 0.040443818708325044 0.8855909176066683 1.48476190591405 -0.194144076388255 0.0038748082226403046 -0.12527615594830585 0.6190115545774874 2.155646568537591 0.32936243950895727 0.48156495031959873 -0.11652193589675246 -1.474563673818451 0.8199574780677599 0.8671085808747377 0.9680635386572042 0.25496176795860565 -0.8853898279432355 -1.386134236964733 -0.20165359175024514 -0.5022031463977437 1.6404364628012083 7.423568647249221 0.564919751012851 -0.14079418758475737 0.8968535320484471 0.22027440460432465 -0.9543535611766137 1.6121554061358303 0.13803279012423045 -0.4099142288118412 1.076762753890797 0.6009392371545134 
0.404361854291526 2.6327825491992973 0.1739242568615579 0.7538656463544461 -0.02453683690183677 -0.051522738919148665 -1.0246358957964732 -0.17200162391249457 0.16298550421987623 -0.6490618557375689 -0.34988746727566555 0.07959325771349417 -0.027303153252726642 -0.05180301635969933 -0.0781211716075475 0.5170123673773884 -0.05630876982174551 -1.1001134420237881 1.8791184038270738 0.03152839178683291 0.552241970950596 -1.3767625283498777 -0.927168031707853 1.7985579235280462 -1.0370568031989398 0.477986725391109 0.0033403585377946915 -0.3585516232559189 -0.7827859351382404 -0.22026452643411018 1.1321391543316839 -0.7070196819780489 -0.576602487897713 1.2215141020615903 0.8546562014417276 1.1632632725442436 0.8685665170907182 -0.1374074297954014 -0.15743158628021012 -0.1960284863165839 0.2863584222052868 2.9117547573529694 0.6801382556542934 -0.26744210786482076 -1.500180886181345 0.36713339394433453 -0.4997788701538896 -0.9800500854678417 -0.8520130602520292 0.060632237097356004 0.1366308008734985 -0.22854059186908868 0.20375044118257493 0.9079687785407025 -0.9900764266185631 -0.047101741060696437 0.17116484304947405 0.11913894679929302 -0.32007538968805777 0.946938301713219 0.13910096518823456 0.07960689444717406 0.21674931607685474 -1.2438281865990548 
-0.30547390199476765 0.05924701899438201 0.0004589417913018858 -0.27947196260945095 -0.6975330582190791 0.3023995321305988 -0.25205929311824216 4.715932894098144 0.14622837687492263 -0.507055986730898 -0.7669159474888857 -1.6617173577546291 0.2220395406338867 -1.3918952979866566 0.3592411029581689 -0.022920891762211695 -0.2946126360466344 0.7029459419774355 2.671413677609728 -0.26541554960855035 0.11963636394077722 0.9374976441120091 -0.42834371516301134 -0.8560026235841763 -2.518446973220504 -1.1189104437627664 -0.7895550066032022 -1.0515962439630762 0.056956260521732666 -1.4514792781734982 0.5164190396703899 0.06076403091802928 0.04233483077405267 -0.6022988214429091 -8.11624251858309 0.8198781654778418 -0.09605881541353876 -4.670824638848492 0.297220795206702 1.3606227030146874 -0.25742234621159055 -0.8433488144027987 0.03661277934022685 -0.4805845958046687 -0.3378285808234984 0.6337797753317951 -1.1853460229941613 -1.4139989433425635 -0.48964236417957513 -0.0881187414871964 -0.9294535278315942 -0.35261956566111236 0.5993951834006189 -1.1929083465711234 0.9218895609380431 -0.7193085941251448 -0.6885264436491981 -2.6174942737183 -0.8847089835176096 0.46365596507255746 -0.5438874605741277 -3.023676082703831 -0.16097108323962014 -2.0279121707447367 
0.08082522478431678 1.0236462125567751 -0.41186068270664195 -0.5262887599316612 -1.5824258998021623 2.9691398897557835 0.7317094003735943 -3.1530918408869226 1.0404105011364848 5.376825634241861 -0.2637888784459584 -0.8763491296470488 -1.318377455160352 -0.5579758134410178 -1.2423936108026425 -0.3051968983040351 -1.013507901384757 -1.2528188826414968 -2.06067576987151 0.6303517043737094 -0.5485285592297725 0.4765676646433309 -0.40497854553780815 -3.807287524411634 0.10825798572537064 0.020002245301785952 0.7810911135436779 -2.6103148456249783 -0.720606179637681 0.13469652253082015 0.4692945767618724 0.03066901522582461 -1.2265535498403506 1.4329832473080812 3.2154011105235725 0.030402746399775176 0.5606946397540858 0.1612537217847866 -0.2986577058665885 -0.0961547320938372 0.28016277449728255 -0.9459248474423032 -0.814966880484134 0.7852361112197793 -0.5232291884045418 0.619108193536447 -0.44637763531089486 1.4593252417132851 0.18966370027887677 -1.1457591702176277 0.5608264866846139 -0.47822682085639406 0.28384758308468255 -0.29123158697261076 0.5504846312488396 0.6330177288328132 -0.01302535210256807 -0.8339698017884385 -0.17318325974550589 4.053071322887175 -0.69940230396721 0.3248621830388442 -0.5463894628496834 -0.6127673758143809 
-0.6374271951591461 0.4315460141443615 -0.7617062051639255 0.7460326951478196 0.9599880225949642 -0.5790041373785569 0.8120525337724454 -1.5104475079895583 -0.5737424010800358 -0.0629089322122478 -0.5358613922052949 -0.48562646719747626 0.3167085500355332 1.3769337898885146 0.5872392636347015 -1.1475591010453094 0.8304504984250649 1.0253275181237191 -0.39598008923143363 -1.6966894117596 0.2096268399581282 1.8900123623807754 -0.03641029066926198 -0.6385981789229178 -0.47726613713842736 0.5212385377884787 0.31149710207236747 -0.5613259825235003 0.4522345423597352 -2.03027449610409 0.13073602718098626 1.4846421002764072 0.27087709520920533 -0.7033562717246106 0.07003079404634624 1.5494539815050667 0.08736505030699156 1.6189796691775793 -0.17497573522809956 -0.21876786470557177 0.13032570510125155 -0.9390589618745572 -0.04789703253721066 1.1087276310210286 -0.023683534073651567 1.01238447990585 -0.2537542524737922 -0.40044346310269374 -2.477834486807122 1.7831761324577788 0.835381840269542 2.0006392908011694 2.4534967635718714 -0.6093370787150517 -0.003013895879367652 -0.005491430422034699 0.04916613673801931 -0.831121613158148 -7.5289153639807305 -0.5325200222446249 0.02963813627265202 -0.07977313515142426 -0.3364264660483848 0.042667793708414316 
-0.3514144281567665 -0.9942971107156526 0.17225961633022824 0.4429203000401241 -0.23294532270265628 -0.4034999842874073 -0.2159775752110242 -3.4824294361032657 0.1539495459116184 -0.11117585770721714 -1.9178589860651312 -4.236592951976418 -0.13427031381563734 0.035791482714695455 -1.2322142851646778 -0.11164107240510024 -0.5114563112466038 0.49928363622309696 -0.39744492813668675 -0.9102893670576337 0.16920416386311857 0.22297452522693784 0.21109378812243274 0.1632366586842017 1.1292949769548581 -1.4879369322221023 -0.16549779046211144 -1.2315656544574907 0.34224977122450284 -0.3799574627331968 -0.3600451707480663 -0.14029764771847097 -1.1152427121568407 -0.4087210268874015 -0.19406171775812675 -0.049201961942922284 -1.0962777437130464 -0.14869056555727095 -1.4377743133315806 -0.084782988695175 0.21103867065049903 1.22926867036967 -0.42102562802650273 -0.018028228517275383 0.4366696885340345 0.5199018805918727 -1.2083049604078997 -1.2884249542807042 2.9104801261273257 -0.38844294458455325 -1.550924062116632 0.07363088594304142 0.06163501247635845 -0.09424899220481318 0.9788094816109776 -1.5322289260244941 -0.4252684579874703 0.6866433180270639 4.6724003949538835 0.027130868249667504 0.5813975523436068 -0.011118184100802559 0.22092309553742534 0.020275115140240295 
-0.3606658971722265 0.35547088256739634 0.2168896486012218 -0.4809396321577077 0.13876517695062052 -0.037278107894813776 -1.3455357978367704 -0.1913256276862397 0.5501938750004902 -0.4833442540175042 0.883854872685653 -0.11925987757539058 0.2093393188966797 1.22129669616707 -0.5292325214819951 0.47737234239014575 1.9736541625815347 0.15625972694453294 -0.08050696796461387 1.9052757080358615 0.20083377226811513 -0.16436163464876669 0.28959536351912907 -0.01998934530981389 0.33539632555499377 -3.195412503224353 -0.14200629569861542 -0.25378483600599994 0.3487907986467382 -2.26091588775211 -0.6172050663966461 -0.4399437159643766 -0.2719192598376868 0.42211066554778487 -0.666330215530288 -0.02988398720137334 -0.7373037307561985 -0.9581364638594293 -0.01619479689046007 -0.545389809327169 -0.13850233780241852 0.17553290495569968 0.411296807370683 -0.10334056326879736 -0.012237138948224618 4.084113512350725 0.10722700813951731 1.3500476149558946 0.29871424630688104 -1.1794138571159758 -0.425437997823774 -1.2317586065300454 -0.7219290684808521 0.5011796678469348 -0.338026844180428 -0.005086401676018445 -0.057424892825242706 0.03356186789689907 -0.027274012863419437 1.8110868571504006 -0.02663083983845596 0.21721591125801584 1.0039783026386049 -0.640373840256312 
-0.8713354361323824 -0.9399211320158714 0.48810226321736644 -0.6401092094839773 2.6631398358571334 0.20720419883627283 -0.36285915169843197 0.19144269293300128 1.8264738163955772 1.3478087135048809 0.8240308690965084 -0.19927047358174915 0.21043585951839905 -0.12548768064376656 -1.1375064359454736 -2.0573872996688083 0.8189947744803283 -0.7753193030689531 -0.6878329717334993 0.583991646820646 -0.36247481579762975 -0.28857751452233016 -0.10730558471350224 -0.446012379808958 0.53567706614193 0.35088798655353703 0.35787387496613365 0.41222938285312294 -0.17933618679769434 -0.09778798872976065 0.1235233636379925 0.11492754889233138 1.0246719895718712 0.07826622443874305 0.5646631069151167 -0.7097772984394748 -0.05571570328822186 0.675856888184993 -0.1217742122229959 -1.7747874472907967 -1.0864933725701604 2.228563557659234 -0.24272754874192612 -0.19057417664586365 -0.16352698538652943 -0.006949445873212018 0.14973868827808642 0.8761241562215899 -2.476886915204058 0.10117902877334634 -0.43873321604267573 0.5036242213291727 -0.12841734885632192 -0.09084097081010037 0.40377345865510705 0.7262955343878084 0.7053246946884959 -0.24417886337680308 0.17877723777685972 1.8337671538910252 -1.1086071677240368 -0.645673961973488 -0.41441562615696587 0.641286771237117 

0.010210976651434929 0.01205015105920008 -0.003994170529501454 0.007246678567201775 
-0.0025518687443874554 0.003501353217148494 0.0022389740445752774 -0.02353960444903693 
-0.0003620737102300241 0.0008265806943065692 -0.04225459398830742 0.010682008866946677 
0.0048433239009089005 -0.0024196169910197423 -0.0079798236627606 0.00538465062447639 
-0.000530815872731996 0.01842800047110798 -0.0012502151531017718 0.005532480099548812 
-0.006531158367178859 0.007736051149348662 -0.0071312857384253775 -0.0010494252090377271 
-0.0004168189636762863 -0.0011649832576687926 -0.005282370765479736 0.000707449672414038 
-0.0009549076102704418 -0.005572930973223314 0.039722789526187685 -0.024370304061171896 
-0.01910380726279328 0.001831831012747256 -0.0069124622001492785 0.00011192107452299285 
0.025556130004712154 0.001238758516569909 0.018792407918464264 -0.00025226657560959467 
0.0018139817296776127 -0.005446304929099419 0.014058033202077764 -0.0011499564600665774 
0.0018765970937121368 0.00562233432551473 3.702778710169443e-05 0.0076455857137728775 
-0.0016936860783588823 -0.0025000379974904003 0.003130516432332466 -0.0009307095361163029 
-0.0018617791442579678 0.0074289197205598114 -0.004728757081719728 -0.0021569940884459565 
-0.01096184620061611 -0.0031352434443300344 -0.004496940106153144 0.000373350806520375 
-0.008184163742660963 0.03762376712874285 -0.0002503559206436481 0.00939482511462007 
-0.0038195609854987404 0.002482147630814482 0.007301972856165704 -0.03889964027148235 
-0.0007637740433595219 -0.0012455953340912323 0.010961757897690853 -0.010903260495318515 
-0.005287554510072739 0.026565965545653956 0.0011611592573555968 -0.011100505368279626 
-0.007427379296086679 -0.010998306141200936 0.018378451575517055 -0.0012292187400339007 
-0.001613927696296033 0.0018691747188778584 0.037745367396045885 -0.010117575505044598 
-0.005109717497308824 0.010171746534258796 -0.003222965239940034 -0.009494725751827143 
-0.0071718865229837645 0.001014904680546632 4.3082344074017066e-05 0.045074264315765666 
0.0004852389710521455 -0.01067191639204694 -0.001133380234582863 -2.752818090637054e-06 
-0.00749974285694562 -0.0037636371347548932 -0.0006945403186297742 0.008188605895887815 
0.00038845755665537613 -0.01295083041815445 -0.02758683004216831 -0.001590703428174597 
-0.013824082835028026 0.011955007737718874 -0.029699216000394112 -0.008258931594804944 
-0.0031835884023027564 0.007540860632554071 0.03414206370209342 -0.01029305909112621 
-0.0022583256557277723 -0.008733727031827992 0.00988227134967311 0.004369111080902016 
-0.000666509296902085 -0.003433841183625342 0.008374583005165652 0.00966793060034451 
0.0014647853482138845 -0.000592211219137743 -0.0007736827920480258 -0.003911796043597948 
-0.01211406712917281 -0.007933576081130178 0.004774933029145871 0.043224677296781776 
0.002941648669153152 -0.0025335576297949294 -0.017252061520956426 0.001990423523875545 
0.004508796781886403 -0.0039353654820535 -0.008032389023946849 -0.0032923007617158043 
-0.0007150540417588029 0.008318188590377895 -0.003186662619032379 0.002663437992639666 
0.006065557605083728 -0.0009436981192360693 0.010458641745729988 0.0037396236192352825 
-0.015470585499822798 -0.030416606186107604 0.011652023631772956 -0.004159575560073828 
-0.022042860446070758 0.011356869815180314 -0.007260925008457779 0.006658818796330344 
-0.0051729718111929055 0.010769022558277108 0.006909405570448036 -0.02083581925954107 
0.0034697784676163846 -0.001998227862643471 0.0001548675229463838 0.0051094348192273955 
0.0005516192872257916 0.015434111166450841 -0.00353256162259755 -0.016287137262484826 
0.04109309331079855 -0.0014574136204035188 -0.007621217750609709 0.008036300709806092 
0.0029589506907605843 -0.03184800129550754 0.004758704980435983 0.0028755149007454015 
-0.03371038150234494 -0.017214755903448245 -0.0067920996504961615 -0.017217031661661424 
-0.019886094154645897 -0.008686370184900672 0.0001413667286246449 0.006726952726209477 
0.004382168840576413 0.003030483371501691 -0.0847186067126758 -0.005369690484778981 
0.004342383529513361 0.017546766273839873 0.0033929280761495774 0.0599432530987688 
-0.0016775080417740073 0.009776290234421524 -0.0068167359136688315 0.002141661684129994 
-8.274054168213319e-05 0.0319542579043747 -0.0006211897288192688 0.014509004110661505 
-0.02013844964436601 -0.013267000239287962 0.014164863462893975 -0.014243035678578757 
0.0031529535389248783 -0.07750881216802169 0.012575336027662996 0.002664813173972152 
-0.0026253260030325684 -0.002607125509834222 -0.005602493342305455 -0.0051544457124583715 
-0.0059558014286504625 -0.006355324567595358 0.05089801967085502 -0.010023631834203354 
-0.003949197291707164 -4.8378426100698565e-05 -0.012464732777590828 0.005849457824569873 
-0.010293885657383532 0.020956229387704816 -0.01231190994284638 0.005905036674337601 
0.0037665311230731524 0.0022366616588356896 -0.002469425211577863 0.010088840383608272 
0.0036427330072741765 0.000542706344046151 0.0034819761807316106 0.003223272822329791 
-0.022085220850587263 -0.0016596287748710543 -0.010481150652921089 -0.009598303828713389 
-0.016492509760073486 0.004001522781325406 0.00482038277501421 -0.0010750912261633663 
-0.0008640460696316606 -0.002501934533177354 -0.05433746037643979 0.0035379648046594348 
0.016491610921450368 0.004350196427164179 -0.0007693987978889733 0.008529622039307315 
-0.010879710547408024 0.0007459946011107108 -0.0021832724644904543 0.007203391903906178 
0.0033403398063887057 -0.0050805744243055 0.014162317531303467 0.00029935594413991703 
0.0002197719133417176 0.003949229677463724 -0.0021273221313693443 0.0007866672704108284 