6 64 4 

1.8779484869034082 0.5855189486064694 -0.3542942013322583 0.7434265582106997 -0.019665155021402744 -1.3735198118745806 -0.0466508989870334 0.6206912277421421 0.7523572300669235 1.6283153251457354 0.45475561280405014 -0.015361699455802886 1.4003638120349582 0.7510731046347285 1.2865966240869762 1.5059528553304813 -0.299189210062165 -0.31295231244173033 0.014953432371829398 2.060509461827596 -0.7654059798881762 -1.5187300883637922 0.11671179864798112 0.6501977769636813 2.3871172963768315 1.2378277185167021 0.18366123850834948 0.2782713910065982 -0.6253092212493486 1.4862310322284253 -0.1364579804213191 -1.9210316985013398 0.6919053062848186 -0.8030076233909992 -0.010879177823835039 -1.4683758026333098 -0.461293630901314 -0.41659303129203595 0.1916386861036039 -0.1391574688302714 0.6225530247114862 0.023889154831502408 0.24058676963806674 -0.05379992845172579 0.1556459085891057 0.02012970846970769 -0.12236613570841633 -0.5597159759543393 2.7686373345501702 -2.931721829981594 0.057419471533637294 0.37133708761341155 -0.012245327005319766 -0.5383743103619808 1.107769886482304 -0.7606615356814388 1.479609334765163 -0.38064281940063577 -0.3189340740030281 1.2344267106946245 0.44980996977227367 3.6232329934946312 0.14324894660508997 -0.08760040040108254 

1.5693422997614463 -0.012931805521726193 0.0751374072043796 -2.7471588766467705 -0.4943005149025227 -1.002763470177238 -0.0628276562859201 -1.6665928661219582 -0.8913115100455457 0.9281413164232165 0.5230967799420772 -0.614434024981885 0.16694554584049642 -1.2585885875298681 0.05140591085237247 -0.9019964752906469 -0.7253387460379381 -0.7572997294734598 -0.6350290865361549 0.1418772950633229 0.1473435325211498 -0.5306177224552777 -0.6615154379168446 0.23062630576681514 1.565508225319214 0.08238114079693326 -0.03997665603878909 0.5656582869568483 0.04845486797055073 0.08731959599216992 0.285932468639898 -0.21588330385399318 -0.760750653690189 -0.2201841824980571 -0.23381811900018276 -0.7716306598855475 0.0948973526545404 -0.9540964270879502 -0.36779289044736296 1.3712403486472458 -0.09797572488732259 -1.66997676425093 -0.7571255279789469 -0.26544678627124835 0.11876572634593133 -0.41020985899429574 -1.676304156342488 -0.3953558554079928 -0.03093275060144547 1.1399787595939646 -0.4470937161650227 2.62876008266666 0.2743473454074886 -1.2198776004245175 -0.17801783501353494 0.1551953824888438 -0.616998204515525 -0.40899795730147365 0.26587002896629525 0.18524047901247723 0.2703290182474603 -0.3029219604623427 1.8291070659547586 1.4132329636649026 